FANN_FLO_2.1
num_layers=4
learning_rate=0.010000
connection_rate=1.000000
network_type=0
learning_momentum=0.400000
training_algorithm=0
train_error_function=1
train_stop_function=0
cascade_output_change_fraction=0.010000
quickprop_decay=-0.000100
quickprop_mu=1.750000
rprop_increase_factor=1.200000
rprop_decrease_factor=0.500000
rprop_delta_min=0.000000
rprop_delta_max=50.000000
rprop_delta_zero=0.100000
cascade_output_stagnation_epochs=12
cascade_candidate_change_fraction=0.010000
cascade_candidate_stagnation_epochs=12
cascade_max_out_epochs=150
cascade_min_out_epochs=50
cascade_max_cand_epochs=150
cascade_min_cand_epochs=50
cascade_num_candidate_groups=2
bit_fail_limit=3.49999994039535522461e-01
cascade_candidate_limit=1.00000000000000000000e+03
cascade_weight_multiplier=4.00000005960464477539e-01
cascade_activation_functions_count=10
cascade_activation_functions=3 5 7 8 10 11 14 15 16 17 
cascade_activation_steepnesses_count=4
cascade_activation_steepnesses=2.50000000000000000000e-01 5.00000000000000000000e-01 7.50000000000000000000e-01 1.00000000000000000000e+00 
layer_sizes=785 20 16 11 
scale_included=0
neurons (num_inputs, activation_function, activation_steepness)=(0, 0, 0.00000000000000000000e+00) (0, 0, 0.00000000000000000000e+00) (0, 0, 0.00000000000000000000e+00) (0, 0, 0.00000000000000000000e+00) (0, 0, 0.00000000000000000000e+00) (0, 0, 0.00000000000000000000e+00) (0, 0, 0.00000000000000000000e+00) (0, 0, 0.00000000000000000000e+00) (0, 0, 0.00000000000000000000e+00) (0, 0, 0.00000000000000000000e+00) (0, 0, 0.00000000000000000000e+00) (0, 0, 0.00000000000000000000e+00) (0, 0, 0.00000000000000000000e+00) (0, 0, 0.00000000000000000000e+00) (0, 0, 0.00000000000000000000e+00) (0, 0, 0.00000000000000000000e+00) (0, 0, 0.00000000000000000000e+00) (0, 0, 0.00000000000000000000e+00) (0, 0, 0.00000000000000000000e+00) (0, 0, 0.00000000000000000000e+00) (0, 0, 0.00000000000000000000e+00) (0, 0, 0.00000000000000000000e+00) (0, 0, 0.00000000000000000000e+00) (0, 0, 0.00000000000000000000e+00) (0, 0, 0.00000000000000000000e+00) (0, 0, 0.00000000000000000000e+00) (0, 0, 0.00000000000000000000e+00) (0, 0, 0.00000000000000000000e+00) (0, 0, 0.00000000000000000000e+00) (0, 0, 0.00000000000000000000e+00) (0, 0, 0.00000000000000000000e+00) (0, 0, 0.00000000000000000000e+00) (0, 0, 0.00000000000000000000e+00) (0, 0, 0.00000000000000000000e+00) (0, 0, 0.00000000000000000000e+00) (0, 0, 0.00000000000000000000e+00) (0, 0, 0.00000000000000000000e+00) (0, 0, 0.00000000000000000000e+00) (0, 0, 0.00000000000000000000e+00) (0, 0, 0.00000000000000000000e+00) (0, 0, 0.00000000000000000000e+00) (0, 0, 0.00000000000000000000e+00) (0, 0, 0.00000000000000000000e+00) (0, 0, 0.00000000000000000000e+00) (0, 0, 0.00000000000000000000e+00) (0, 0, 0.00000000000000000000e+00) (0, 0, 0.00000000000000000000e+00) (0, 0, 0.00000000000000000000e+00) (0, 0, 0.00000000000000000000e+00) (0, 0, 0.00000000000000000000e+00) (0, 0, 0.00000000000000000000e+00) (0, 0, 0.00000000000000000000e+00) (0, 0, 0.00000000000000000000e+00) (0, 0, 0.00000000000000000000e+00) (0, 0, 0.00000000000000000000e+00) (0, 0, 0.00000000000000000000e+00) (0, 0, 0.00000000000000000000e+00) (0, 0, 0.00000000000000000000e+00) (0, 0, 0.00000000000000000000e+00) (0, 0, 0.00000000000000000000e+00) (0, 0, 0.00000000000000000000e+00) (0, 0, 0.00000000000000000000e+00) (0, 0, 0.00000000000000000000e+00) (0, 0, 0.00000000000000000000e+00) (0, 0, 0.00000000000000000000e+00) (0, 0, 0.00000000000000000000e+00) (0, 0, 0.00000000000000000000e+00) (0, 0, 0.00000000000000000000e+00) (0, 0, 0.00000000000000000000e+00) (0, 0, 0.00000000000000000000e+00) (0, 0, 0.00000000000000000000e+00) (0, 0, 0.00000000000000000000e+00) (0, 0, 0.00000000000000000000e+00) (0, 0, 0.00000000000000000000e+00) (0, 0, 0.00000000000000000000e+00) (0, 0, 0.00000000000000000000e+00) (0, 0, 0.00000000000000000000e+00) (0, 0, 0.00000000000000000000e+00) (0, 0, 0.00000000000000000000e+00) (0, 0, 0.00000000000000000000e+00) (0, 0, 0.00000000000000000000e+00) (0, 0, 0.00000000000000000000e+00) (0, 0, 0.00000000000000000000e+00) (0, 0, 0.00000000000000000000e+00) (0, 0, 0.00000000000000000000e+00) (0, 0, 0.00000000000000000000e+00) (0, 0, 0.00000000000000000000e+00) (0, 0, 0.00000000000000000000e+00) (0, 0, 0.00000000000000000000e+00) (0, 0, 0.00000000000000000000e+00) (0, 0, 0.00000000000000000000e+00) (0, 0, 0.00000000000000000000e+00) (0, 0, 0.00000000000000000000e+00) (0, 0, 0.00000000000000000000e+00) (0, 0, 0.00000000000000000000e+00) (0, 0, 0.00000000000000000000e+00) (0, 0, 0.00000000000000000000e+00) (0, 0, 0.00000000000000000000e+00) (0, 0, 0.00000000000000000000e+00) (0, 0, 0.00000000000000000000e+00) (0, 0, 0.00000000000000000000e+00) (0, 0, 0.00000000000000000000e+00) (0, 0, 0.00000000000000000000e+00) (0, 0, 0.00000000000000000000e+00) (0, 0, 0.00000000000000000000e+00) (0, 0, 0.00000000000000000000e+00) (0, 0, 0.00000000000000000000e+00) (0, 0, 0.00000000000000000000e+00) (0, 0, 0.00000000000000000000e+00) (0, 0, 0.00000000000000000000e+00) (0, 0, 0.00000000000000000000e+00) (0, 0, 0.00000000000000000000e+00) (0, 0, 0.00000000000000000000e+00) (0, 0, 0.00000000000000000000e+00) (0, 0, 0.00000000000000000000e+00) (0, 0, 0.00000000000000000000e+00) (0, 0, 0.00000000000000000000e+00) (0, 0, 0.00000000000000000000e+00) (0, 0, 0.00000000000000000000e+00) (0, 0, 0.00000000000000000000e+00) (0, 0, 0.00000000000000000000e+00) (0, 0, 0.00000000000000000000e+00) (0, 0, 0.00000000000000000000e+00) (0, 0, 0.00000000000000000000e+00) (0, 0, 0.00000000000000000000e+00) (0, 0, 0.00000000000000000000e+00) (0, 0, 0.00000000000000000000e+00) (0, 0, 0.00000000000000000000e+00) (0, 0, 0.00000000000000000000e+00) (0, 0, 0.00000000000000000000e+00) (0, 0, 0.00000000000000000000e+00) (0, 0, 0.00000000000000000000e+00) (0, 0, 0.00000000000000000000e+00) (0, 0, 0.00000000000000000000e+00) (0, 0, 0.00000000000000000000e+00) (0, 0, 0.00000000000000000000e+00) (0, 0, 0.00000000000000000000e+00) (0, 0, 0.00000000000000000000e+00) (0, 0, 0.00000000000000000000e+00) (0, 0, 0.00000000000000000000e+00) (0, 0, 0.00000000000000000000e+00) (0, 0, 0.00000000000000000000e+00) (0, 0, 0.00000000000000000000e+00) (0, 0, 0.00000000000000000000e+00) (0, 0, 0.00000000000000000000e+00) (0, 0, 0.00000000000000000000e+00) (0, 0, 0.00000000000000000000e+00) (0, 0, 0.00000000000000000000e+00) (0, 0, 0.00000000000000000000e+00) (0, 0, 0.00000000000000000000e+00) (0, 0, 0.00000000000000000000e+00) (0, 0, 0.00000000000000000000e+00) (0, 0, 0.00000000000000000000e+00) (0, 0, 0.00000000000000000000e+00) (0, 0, 0.00000000000000000000e+00) (0, 0, 0.00000000000000000000e+00) (0, 0, 0.00000000000000000000e+00) (0, 0, 0.00000000000000000000e+00) (0, 0, 0.00000000000000000000e+00) (0, 0, 0.00000000000000000000e+00) (0, 0, 0.00000000000000000000e+00) (0, 0, 0.00000000000000000000e+00) (0, 0, 0.00000000000000000000e+00) (0, 0, 0.00000000000000000000e+00) (0, 0, 0.00000000000000000000e+00) (0, 0, 0.00000000000000000000e+00) (0, 0, 0.00000000000000000000e+00) (0, 0, 0.00000000000000000000e+00) (0, 0, 0.00000000000000000000e+00) (0, 0, 0.00000000000000000000e+00) (0, 0, 0.00000000000000000000e+00) (0, 0, 0.00000000000000000000e+00) (0, 0, 0.00000000000000000000e+00) (0, 0, 0.00000000000000000000e+00) (0, 0, 0.00000000000000000000e+00) (0, 0, 0.00000000000000000000e+00) (0, 0, 0.00000000000000000000e+00) (0, 0, 0.00000000000000000000e+00) (0, 0, 0.00000000000000000000e+00) (0, 0, 0.00000000000000000000e+00) (0, 0, 0.00000000000000000000e+00) (0, 0, 0.00000000000000000000e+00) (0, 0, 0.00000000000000000000e+00) (0, 0, 0.00000000000000000000e+00) (0, 0, 0.00000000000000000000e+00) (0, 0, 0.00000000000000000000e+00) (0, 0, 0.00000000000000000000e+00) (0, 0, 0.00000000000000000000e+00) (0, 0, 0.00000000000000000000e+00) (0, 0, 0.00000000000000000000e+00) (0, 0, 0.00000000000000000000e+00) (0, 0, 0.00000000000000000000e+00) (0, 0, 0.00000000000000000000e+00) (0, 0, 0.00000000000000000000e+00) (0, 0, 0.00000000000000000000e+00) (0, 0, 0.00000000000000000000e+00) (0, 0, 0.00000000000000000000e+00) (0, 0, 0.00000000000000000000e+00) (0, 0, 0.00000000000000000000e+00) (0, 0, 0.00000000000000000000e+00) (0, 0, 0.00000000000000000000e+00) (0, 0, 0.00000000000000000000e+00) (0, 0, 0.00000000000000000000e+00) (0, 0, 0.00000000000000000000e+00) (0, 0, 0.00000000000000000000e+00) (0, 0, 0.00000000000000000000e+00) (0, 0, 0.00000000000000000000e+00) (0, 0, 0.00000000000000000000e+00) (0, 0, 0.00000000000000000000e+00) (0, 0, 0.00000000000000000000e+00) (0, 0, 0.00000000000000000000e+00) (0, 0, 0.00000000000000000000e+00) (0, 0, 0.00000000000000000000e+00) (0, 0, 0.00000000000000000000e+00) (0, 0, 0.00000000000000000000e+00) (0, 0, 0.00000000000000000000e+00) (0, 0, 0.00000000000000000000e+00) (0, 0, 0.00000000000000000000e+00) (0, 0, 0.00000000000000000000e+00) (0, 0, 0.00000000000000000000e+00) (0, 0, 0.00000000000000000000e+00) (0, 0, 0.00000000000000000000e+00) (0, 0, 0.00000000000000000000e+00) (0, 0, 0.00000000000000000000e+00) (0, 0, 0.00000000000000000000e+00) (0, 0, 0.00000000000000000000e+00) (0, 0, 0.00000000000000000000e+00) (0, 0, 0.00000000000000000000e+00) (0, 0, 0.00000000000000000000e+00) (0, 0, 0.00000000000000000000e+00) (0, 0, 0.00000000000000000000e+00) (0, 0, 0.00000000000000000000e+00) (0, 0, 0.00000000000000000000e+00) (0, 0, 0.00000000000000000000e+00) (0, 0, 0.00000000000000000000e+00) (0, 0, 0.00000000000000000000e+00) (0, 0, 0.00000000000000000000e+00) (0, 0, 0.00000000000000000000e+00) (0, 0, 0.00000000000000000000e+00) (0, 0, 0.00000000000000000000e+00) (0, 0, 0.00000000000000000000e+00) (0, 0, 0.00000000000000000000e+00) (0, 0, 0.00000000000000000000e+00) (0, 0, 0.00000000000000000000e+00) (0, 0, 0.00000000000000000000e+00) (0, 0, 0.00000000000000000000e+00) (0, 0, 0.00000000000000000000e+00) (0, 0, 0.00000000000000000000e+00) (0, 0, 0.00000000000000000000e+00) (0, 0, 0.00000000000000000000e+00) (0, 0, 0.00000000000000000000e+00) (0, 0, 0.00000000000000000000e+00) (0, 0, 0.00000000000000000000e+00) (0, 0, 0.00000000000000000000e+00) (0, 0, 0.00000000000000000000e+00) (0, 0, 0.00000000000000000000e+00) (0, 0, 0.00000000000000000000e+00) (0, 0, 0.00000000000000000000e+00) (0, 0, 0.00000000000000000000e+00) (0, 0, 0.00000000000000000000e+00) (0, 0, 0.00000000000000000000e+00) (0, 0, 0.00000000000000000000e+00) (0, 0, 0.00000000000000000000e+00) (0, 0, 0.00000000000000000000e+00) (0, 0, 0.00000000000000000000e+00) (0, 0, 0.00000000000000000000e+00) (0, 0, 0.00000000000000000000e+00) (0, 0, 0.00000000000000000000e+00) (0, 0, 0.00000000000000000000e+00) (0, 0, 0.00000000000000000000e+00) (0, 0, 0.00000000000000000000e+00) (0, 0, 0.00000000000000000000e+00) (0, 0, 0.00000000000000000000e+00) (0, 0, 0.00000000000000000000e+00) (0, 0, 0.00000000000000000000e+00) (0, 0, 0.00000000000000000000e+00) (0, 0, 0.00000000000000000000e+00) (0, 0, 0.00000000000000000000e+00) (0, 0, 0.00000000000000000000e+00) (0, 0, 0.00000000000000000000e+00) (0, 0, 0.00000000000000000000e+00) (0, 0, 0.00000000000000000000e+00) (0, 0, 0.00000000000000000000e+00) (0, 0, 0.00000000000000000000e+00) (0, 0, 0.00000000000000000000e+00) (0, 0, 0.00000000000000000000e+00) (0, 0, 0.00000000000000000000e+00) (0, 0, 0.00000000000000000000e+00) (0, 0, 0.00000000000000000000e+00) (0, 0, 0.00000000000000000000e+00) (0, 0, 0.00000000000000000000e+00) (0, 0, 0.00000000000000000000e+00) (0, 0, 0.00000000000000000000e+00) (0, 0, 0.00000000000000000000e+00) (0, 0, 0.00000000000000000000e+00) (0, 0, 0.00000000000000000000e+00) (0, 0, 0.00000000000000000000e+00) (0, 0, 0.00000000000000000000e+00) (0, 0, 0.00000000000000000000e+00) (0, 0, 0.00000000000000000000e+00) (0, 0, 0.00000000000000000000e+00) (0, 0, 0.00000000000000000000e+00) (0, 0, 0.00000000000000000000e+00) (0, 0, 0.00000000000000000000e+00) (0, 0, 0.00000000000000000000e+00) (0, 0, 0.00000000000000000000e+00) (0, 0, 0.00000000000000000000e+00) (0, 0, 0.00000000000000000000e+00) (0, 0, 0.00000000000000000000e+00) (0, 0, 0.00000000000000000000e+00) (0, 0, 0.00000000000000000000e+00) (0, 0, 0.00000000000000000000e+00) (0, 0, 0.00000000000000000000e+00) (0, 0, 0.00000000000000000000e+00) (0, 0, 0.00000000000000000000e+00) (0, 0, 0.00000000000000000000e+00) (0, 0, 0.00000000000000000000e+00) (0, 0, 0.00000000000000000000e+00) (0, 0, 0.00000000000000000000e+00) (0, 0, 0.00000000000000000000e+00) (0, 0, 0.00000000000000000000e+00) (0, 0, 0.00000000000000000000e+00) (0, 0, 0.00000000000000000000e+00) (0, 0, 0.00000000000000000000e+00) (0, 0, 0.00000000000000000000e+00) (0, 0, 0.00000000000000000000e+00) (0, 0, 0.00000000000000000000e+00) (0, 0, 0.00000000000000000000e+00) (0, 0, 0.00000000000000000000e+00) (0, 0, 0.00000000000000000000e+00) (0, 0, 0.00000000000000000000e+00) (0, 0, 0.00000000000000000000e+00) (0, 0, 0.00000000000000000000e+00) (0, 0, 0.00000000000000000000e+00) (0, 0, 0.00000000000000000000e+00) (0, 0, 0.00000000000000000000e+00) (0, 0, 0.00000000000000000000e+00) (0, 0, 0.00000000000000000000e+00) (0, 0, 0.00000000000000000000e+00) (0, 0, 0.00000000000000000000e+00) (0, 0, 0.00000000000000000000e+00) (0, 0, 0.00000000000000000000e+00) (0, 0, 0.00000000000000000000e+00) (0, 0, 0.00000000000000000000e+00) (0, 0, 0.00000000000000000000e+00) (0, 0, 0.00000000000000000000e+00) (0, 0, 0.00000000000000000000e+00) (0, 0, 0.00000000000000000000e+00) (0, 0, 0.00000000000000000000e+00) (0, 0, 0.00000000000000000000e+00) (0, 0, 0.00000000000000000000e+00) (0, 0, 0.00000000000000000000e+00) (0, 0, 0.00000000000000000000e+00) (0, 0, 0.00000000000000000000e+00) (0, 0, 0.00000000000000000000e+00) (0, 0, 0.00000000000000000000e+00) (0, 0, 0.00000000000000000000e+00) (0, 0, 0.00000000000000000000e+00) (0, 0, 0.00000000000000000000e+00) (0, 0, 0.00000000000000000000e+00) (0, 0, 0.00000000000000000000e+00) (0, 0, 0.00000000000000000000e+00) (0, 0, 0.00000000000000000000e+00) (0, 0, 0.00000000000000000000e+00) (0, 0, 0.00000000000000000000e+00) (0, 0, 0.00000000000000000000e+00) (0, 0, 0.00000000000000000000e+00) (0, 0, 0.00000000000000000000e+00) (0, 0, 0.00000000000000000000e+00) (0, 0, 0.00000000000000000000e+00) (0, 0, 0.00000000000000000000e+00) (0, 0, 0.00000000000000000000e+00) (0, 0, 0.00000000000000000000e+00) (0, 0, 0.00000000000000000000e+00) (0, 0, 0.00000000000000000000e+00) (0, 0, 0.00000000000000000000e+00) (0, 0, 0.00000000000000000000e+00) (0, 0, 0.00000000000000000000e+00) (0, 0, 0.00000000000000000000e+00) (0, 0, 0.00000000000000000000e+00) (0, 0, 0.00000000000000000000e+00) (0, 0, 0.00000000000000000000e+00) (0, 0, 0.00000000000000000000e+00) (0, 0, 0.00000000000000000000e+00) (0, 0, 0.00000000000000000000e+00) (0, 0, 0.00000000000000000000e+00) (0, 0, 0.00000000000000000000e+00) (0, 0, 0.00000000000000000000e+00) (0, 0, 0.00000000000000000000e+00) (0, 0, 0.00000000000000000000e+00) (0, 0, 0.00000000000000000000e+00) (0, 0, 0.00000000000000000000e+00) (0, 0, 0.00000000000000000000e+00) (0, 0, 0.00000000000000000000e+00) (0, 0, 0.00000000000000000000e+00) (0, 0, 0.00000000000000000000e+00) (0, 0, 0.00000000000000000000e+00) (0, 0, 0.00000000000000000000e+00) (0, 0, 0.00000000000000000000e+00) (0, 0, 0.00000000000000000000e+00) (0, 0, 0.00000000000000000000e+00) (0, 0, 0.00000000000000000000e+00) (0, 0, 0.00000000000000000000e+00) (0, 0, 0.00000000000000000000e+00) (0, 0, 0.00000000000000000000e+00) (0, 0, 0.00000000000000000000e+00) (0, 0, 0.00000000000000000000e+00) (0, 0, 0.00000000000000000000e+00) (0, 0, 0.00000000000000000000e+00) (0, 0, 0.00000000000000000000e+00) (0, 0, 0.00000000000000000000e+00) (0, 0, 0.00000000000000000000e+00) (0, 0, 0.00000000000000000000e+00) (0, 0, 0.00000000000000000000e+00) (0, 0, 0.00000000000000000000e+00) (0, 0, 0.00000000000000000000e+00) (0, 0, 0.00000000000000000000e+00) (0, 0, 0.00000000000000000000e+00) (0, 0, 0.00000000000000000000e+00) (0, 0, 0.00000000000000000000e+00) (0, 0, 0.00000000000000000000e+00) (0, 0, 0.00000000000000000000e+00) (0, 0, 0.00000000000000000000e+00) (0, 0, 0.00000000000000000000e+00) (0, 0, 0.00000000000000000000e+00) (0, 0, 0.00000000000000000000e+00) (0, 0, 0.00000000000000000000e+00) (0, 0, 0.00000000000000000000e+00) (0, 0, 0.00000000000000000000e+00) (0, 0, 0.00000000000000000000e+00) (0, 0, 0.00000000000000000000e+00) (0, 0, 0.00000000000000000000e+00) (0, 0, 0.00000000000000000000e+00) (0, 0, 0.00000000000000000000e+00) (0, 0, 0.00000000000000000000e+00) (0, 0, 0.00000000000000000000e+00) (0, 0, 0.00000000000000000000e+00) (0, 0, 0.00000000000000000000e+00) (0, 0, 0.00000000000000000000e+00) (0, 0, 0.00000000000000000000e+00) (0, 0, 0.00000000000000000000e+00) (0, 0, 0.00000000000000000000e+00) (0, 0, 0.00000000000000000000e+00) (0, 0, 0.00000000000000000000e+00) (0, 0, 0.00000000000000000000e+00) (0, 0, 0.00000000000000000000e+00) (0, 0, 0.00000000000000000000e+00) (0, 0, 0.00000000000000000000e+00) (0, 0, 0.00000000000000000000e+00) (0, 0, 0.00000000000000000000e+00) (0, 0, 0.00000000000000000000e+00) (0, 0, 0.00000000000000000000e+00) (0, 0, 0.00000000000000000000e+00) (0, 0, 0.00000000000000000000e+00) (0, 0, 0.00000000000000000000e+00) (0, 0, 0.00000000000000000000e+00) (0, 0, 0.00000000000000000000e+00) (0, 0, 0.00000000000000000000e+00) (0, 0, 0.00000000000000000000e+00) (0, 0, 0.00000000000000000000e+00) (0, 0, 0.00000000000000000000e+00) (0, 0, 0.00000000000000000000e+00) (0, 0, 0.00000000000000000000e+00) (0, 0, 0.00000000000000000000e+00) (0, 0, 0.00000000000000000000e+00) (0, 0, 0.00000000000000000000e+00) (0, 0, 0.00000000000000000000e+00) (0, 0, 0.00000000000000000000e+00) (0, 0, 0.00000000000000000000e+00) (0, 0, 0.00000000000000000000e+00) (0, 0, 0.00000000000000000000e+00) (0, 0, 0.00000000000000000000e+00) (0, 0, 0.00000000000000000000e+00) (0, 0, 0.00000000000000000000e+00) (0, 0, 0.00000000000000000000e+00) (0, 0, 0.00000000000000000000e+00) (0, 0, 0.00000000000000000000e+00) (0, 0, 0.00000000000000000000e+00) (0, 0, 0.00000000000000000000e+00) (0, 0, 0.00000000000000000000e+00) (0, 0, 0.00000000000000000000e+00) (0, 0, 0.00000000000000000000e+00) (0, 0, 0.00000000000000000000e+00) (0, 0, 0.00000000000000000000e+00) (0, 0, 0.00000000000000000000e+00) (0, 0, 0.00000000000000000000e+00) (0, 0, 0.00000000000000000000e+00) (0, 0, 0.00000000000000000000e+00) (0, 0, 0.00000000000000000000e+00) (0, 0, 0.00000000000000000000e+00) (0, 0, 0.00000000000000000000e+00) (0, 0, 0.00000000000000000000e+00) (0, 0, 0.00000000000000000000e+00) (0, 0, 0.00000000000000000000e+00) (0, 0, 0.00000000000000000000e+00) (0, 0, 0.00000000000000000000e+00) (0, 0, 0.00000000000000000000e+00) (0, 0, 0.00000000000000000000e+00) (0, 0, 0.00000000000000000000e+00) (0, 0, 0.00000000000000000000e+00) (0, 0, 0.00000000000000000000e+00) (0, 0, 0.00000000000000000000e+00) (0, 0, 0.00000000000000000000e+00) (0, 0, 0.00000000000000000000e+00) (0, 0, 0.00000000000000000000e+00) (0, 0, 0.00000000000000000000e+00) (0, 0, 0.00000000000000000000e+00) (0, 0, 0.00000000000000000000e+00) (0, 0, 0.00000000000000000000e+00) (0, 0, 0.00000000000000000000e+00) (0, 0, 0.00000000000000000000e+00) (0, 0, 0.00000000000000000000e+00) (0, 0, 0.00000000000000000000e+00) (0, 0, 0.00000000000000000000e+00) (0, 0, 0.00000000000000000000e+00) (0, 0, 0.00000000000000000000e+00) (0, 0, 0.00000000000000000000e+00) (0, 0, 0.00000000000000000000e+00) (0, 0, 0.00000000000000000000e+00) (0, 0, 0.00000000000000000000e+00) (0, 0, 0.00000000000000000000e+00) (0, 0, 0.00000000000000000000e+00) (0, 0, 0.00000000000000000000e+00) (0, 0, 0.00000000000000000000e+00) (0, 0, 0.00000000000000000000e+00) (0, 0, 0.00000000000000000000e+00) (0, 0, 0.00000000000000000000e+00) (0, 0, 0.00000000000000000000e+00) (0, 0, 0.00000000000000000000e+00) (0, 0, 0.00000000000000000000e+00) (0, 0, 0.00000000000000000000e+00) (0, 0, 0.00000000000000000000e+00) (0, 0, 0.00000000000000000000e+00) (0, 0, 0.00000000000000000000e+00) (0, 0, 0.00000000000000000000e+00) (0, 0, 0.00000000000000000000e+00) (0, 0, 0.00000000000000000000e+00) (0, 0, 0.00000000000000000000e+00) (0, 0, 0.00000000000000000000e+00) (0, 0, 0.00000000000000000000e+00) (0, 0, 0.00000000000000000000e+00) (0, 0, 0.00000000000000000000e+00) (0, 0, 0.00000000000000000000e+00) (0, 0, 0.00000000000000000000e+00) (0, 0, 0.00000000000000000000e+00) (0, 0, 0.00000000000000000000e+00) (0, 0, 0.00000000000000000000e+00) (0, 0, 0.00000000000000000000e+00) (0, 0, 0.00000000000000000000e+00) (0, 0, 0.00000000000000000000e+00) (0, 0, 0.00000000000000000000e+00) (0, 0, 0.00000000000000000000e+00) (0, 0, 0.00000000000000000000e+00) (0, 0, 0.00000000000000000000e+00) (0, 0, 0.00000000000000000000e+00) (0, 0, 0.00000000000000000000e+00) (0, 0, 0.00000000000000000000e+00) (0, 0, 0.00000000000000000000e+00) (0, 0, 0.00000000000000000000e+00) (0, 0, 0.00000000000000000000e+00) (0, 0, 0.00000000000000000000e+00) (0, 0, 0.00000000000000000000e+00) (0, 0, 0.00000000000000000000e+00) (0, 0, 0.00000000000000000000e+00) (0, 0, 0.00000000000000000000e+00) (0, 0, 0.00000000000000000000e+00) (0, 0, 0.00000000000000000000e+00) (0, 0, 0.00000000000000000000e+00) (0, 0, 0.00000000000000000000e+00) (0, 0, 0.00000000000000000000e+00) (0, 0, 0.00000000000000000000e+00) (0, 0, 0.00000000000000000000e+00) (0, 0, 0.00000000000000000000e+00) (0, 0, 0.00000000000000000000e+00) (0, 0, 0.00000000000000000000e+00) (0, 0, 0.00000000000000000000e+00) (0, 0, 0.00000000000000000000e+00) (0, 0, 0.00000000000000000000e+00) (0, 0, 0.00000000000000000000e+00) (0, 0, 0.00000000000000000000e+00) (0, 0, 0.00000000000000000000e+00) (0, 0, 0.00000000000000000000e+00) (0, 0, 0.00000000000000000000e+00) (0, 0, 0.00000000000000000000e+00) (0, 0, 0.00000000000000000000e+00) (0, 0, 0.00000000000000000000e+00) (0, 0, 0.00000000000000000000e+00) (0, 0, 0.00000000000000000000e+00) (0, 0, 0.00000000000000000000e+00) (0, 0, 0.00000000000000000000e+00) (0, 0, 0.00000000000000000000e+00) (0, 0, 0.00000000000000000000e+00) (0, 0, 0.00000000000000000000e+00) (0, 0, 0.00000000000000000000e+00) (0, 0, 0.00000000000000000000e+00) (0, 0, 0.00000000000000000000e+00) (0, 0, 0.00000000000000000000e+00) (0, 0, 0.00000000000000000000e+00) (0, 0, 0.00000000000000000000e+00) (0, 0, 0.00000000000000000000e+00) (0, 0, 0.00000000000000000000e+00) (0, 0, 0.00000000000000000000e+00) (0, 0, 0.00000000000000000000e+00) (0, 0, 0.00000000000000000000e+00) (0, 0, 0.00000000000000000000e+00) (0, 0, 0.00000000000000000000e+00) (0, 0, 0.00000000000000000000e+00) (0, 0, 0.00000000000000000000e+00) (0, 0, 0.00000000000000000000e+00) (0, 0, 0.00000000000000000000e+00) (0, 0, 0.00000000000000000000e+00) (0, 0, 0.00000000000000000000e+00) (0, 0, 0.00000000000000000000e+00) (0, 0, 0.00000000000000000000e+00) (0, 0, 0.00000000000000000000e+00) (0, 0, 0.00000000000000000000e+00) (0, 0, 0.00000000000000000000e+00) (0, 0, 0.00000000000000000000e+00) (0, 0, 0.00000000000000000000e+00) (0, 0, 0.00000000000000000000e+00) (0, 0, 0.00000000000000000000e+00) (0, 0, 0.00000000000000000000e+00) (0, 0, 0.00000000000000000000e+00) (0, 0, 0.00000000000000000000e+00) (0, 0, 0.00000000000000000000e+00) (0, 0, 0.00000000000000000000e+00) (0, 0, 0.00000000000000000000e+00) (0, 0, 0.00000000000000000000e+00) (0, 0, 0.00000000000000000000e+00) (0, 0, 0.00000000000000000000e+00) (0, 0, 0.00000000000000000000e+00) (0, 0, 0.00000000000000000000e+00) (0, 0, 0.00000000000000000000e+00) (0, 0, 0.00000000000000000000e+00) (0, 0, 0.00000000000000000000e+00) (0, 0, 0.00000000000000000000e+00) (0, 0, 0.00000000000000000000e+00) (0, 0, 0.00000000000000000000e+00) (0, 0, 0.00000000000000000000e+00) (0, 0, 0.00000000000000000000e+00) (0, 0, 0.00000000000000000000e+00) (0, 0, 0.00000000000000000000e+00) (0, 0, 0.00000000000000000000e+00) (0, 0, 0.00000000000000000000e+00) (0, 0, 0.00000000000000000000e+00) (0, 0, 0.00000000000000000000e+00) (0, 0, 0.00000000000000000000e+00) (0, 0, 0.00000000000000000000e+00) (0, 0, 0.00000000000000000000e+00) (0, 0, 0.00000000000000000000e+00) (0, 0, 0.00000000000000000000e+00) (0, 0, 0.00000000000000000000e+00) (0, 0, 0.00000000000000000000e+00) (0, 0, 0.00000000000000000000e+00) (0, 0, 0.00000000000000000000e+00) (0, 0, 0.00000000000000000000e+00) (0, 0, 0.00000000000000000000e+00) (0, 0, 0.00000000000000000000e+00) (0, 0, 0.00000000000000000000e+00) (0, 0, 0.00000000000000000000e+00) (0, 0, 0.00000000000000000000e+00) (0, 0, 0.00000000000000000000e+00) (0, 0, 0.00000000000000000000e+00) (0, 0, 0.00000000000000000000e+00) (0, 0, 0.00000000000000000000e+00) (0, 0, 0.00000000000000000000e+00) (0, 0, 0.00000000000000000000e+00) (0, 0, 0.00000000000000000000e+00) (0, 0, 0.00000000000000000000e+00) (0, 0, 0.00000000000000000000e+00) (0, 0, 0.00000000000000000000e+00) (0, 0, 0.00000000000000000000e+00) (0, 0, 0.00000000000000000000e+00) (0, 0, 0.00000000000000000000e+00) (0, 0, 0.00000000000000000000e+00) (0, 0, 0.00000000000000000000e+00) (0, 0, 0.00000000000000000000e+00) (0, 0, 0.00000000000000000000e+00) (0, 0, 0.00000000000000000000e+00) (0, 0, 0.00000000000000000000e+00) (0, 0, 0.00000000000000000000e+00) (0, 0, 0.00000000000000000000e+00) (0, 0, 0.00000000000000000000e+00) (0, 0, 0.00000000000000000000e+00) (0, 0, 0.00000000000000000000e+00) (0, 0, 0.00000000000000000000e+00) (0, 0, 0.00000000000000000000e+00) (0, 0, 0.00000000000000000000e+00) (0, 0, 0.00000000000000000000e+00) (0, 0, 0.00000000000000000000e+00) (0, 0, 0.00000000000000000000e+00) (0, 0, 0.00000000000000000000e+00) (0, 0, 0.00000000000000000000e+00) (0, 0, 0.00000000000000000000e+00) (0, 0, 0.00000000000000000000e+00) (0, 0, 0.00000000000000000000e+00) (0, 0, 0.00000000000000000000e+00) (0, 0, 0.00000000000000000000e+00) (0, 0, 0.00000000000000000000e+00) (0, 0, 0.00000000000000000000e+00) (0, 0, 0.00000000000000000000e+00) (0, 0, 0.00000000000000000000e+00) (0, 0, 0.00000000000000000000e+00) (0, 0, 0.00000000000000000000e+00) (0, 0, 0.00000000000000000000e+00) (0, 0, 0.00000000000000000000e+00) (0, 0, 0.00000000000000000000e+00) (0, 0, 0.00000000000000000000e+00) (0, 0, 0.00000000000000000000e+00) (0, 0, 0.00000000000000000000e+00) (0, 0, 0.00000000000000000000e+00) (0, 0, 0.00000000000000000000e+00) (0, 0, 0.00000000000000000000e+00) (0, 0, 0.00000000000000000000e+00) (0, 0, 0.00000000000000000000e+00) (0, 0, 0.00000000000000000000e+00) (0, 0, 0.00000000000000000000e+00) (0, 0, 0.00000000000000000000e+00) (0, 0, 0.00000000000000000000e+00) (0, 0, 0.00000000000000000000e+00) (0, 0, 0.00000000000000000000e+00) (0, 0, 0.00000000000000000000e+00) (0, 0, 0.00000000000000000000e+00) (0, 0, 0.00000000000000000000e+00) (0, 0, 0.00000000000000000000e+00) (0, 0, 0.00000000000000000000e+00) (0, 0, 0.00000000000000000000e+00) (0, 0, 0.00000000000000000000e+00) (0, 0, 0.00000000000000000000e+00) (0, 0, 0.00000000000000000000e+00) (0, 0, 0.00000000000000000000e+00) (0, 0, 0.00000000000000000000e+00) (0, 0, 0.00000000000000000000e+00) (0, 0, 0.00000000000000000000e+00) (0, 0, 0.00000000000000000000e+00) (0, 0, 0.00000000000000000000e+00) (0, 0, 0.00000000000000000000e+00) (0, 0, 0.00000000000000000000e+00) (0, 0, 0.00000000000000000000e+00) (0, 0, 0.00000000000000000000e+00) (0, 0, 0.00000000000000000000e+00) (0, 0, 0.00000000000000000000e+00) (0, 0, 0.00000000000000000000e+00) (0, 0, 0.00000000000000000000e+00) (0, 0, 0.00000000000000000000e+00) (0, 0, 0.00000000000000000000e+00) (0, 0, 0.00000000000000000000e+00) (0, 0, 0.00000000000000000000e+00) (0, 0, 0.00000000000000000000e+00) (0, 0, 0.00000000000000000000e+00) (0, 0, 0.00000000000000000000e+00) (0, 0, 0.00000000000000000000e+00) (0, 0, 0.00000000000000000000e+00) (0, 0, 0.00000000000000000000e+00) (0, 0, 0.00000000000000000000e+00) (0, 0, 0.00000000000000000000e+00) (0, 0, 0.00000000000000000000e+00) (0, 0, 0.00000000000000000000e+00) (0, 0, 0.00000000000000000000e+00) (0, 0, 0.00000000000000000000e+00) (0, 0, 0.00000000000000000000e+00) (0, 0, 0.00000000000000000000e+00) (0, 0, 0.00000000000000000000e+00) (0, 0, 0.00000000000000000000e+00) (0, 0, 0.00000000000000000000e+00) (0, 0, 0.00000000000000000000e+00) (0, 0, 0.00000000000000000000e+00) (0, 0, 0.00000000000000000000e+00) (0, 0, 0.00000000000000000000e+00) (0, 0, 0.00000000000000000000e+00) (0, 0, 0.00000000000000000000e+00) (0, 0, 0.00000000000000000000e+00) (0, 0, 0.00000000000000000000e+00) (0, 0, 0.00000000000000000000e+00) (0, 0, 0.00000000000000000000e+00) (0, 0, 0.00000000000000000000e+00) (0, 0, 0.00000000000000000000e+00) (0, 0, 0.00000000000000000000e+00) (0, 0, 0.00000000000000000000e+00) (0, 0, 0.00000000000000000000e+00) (0, 0, 0.00000000000000000000e+00) (0, 0, 0.00000000000000000000e+00) (0, 0, 0.00000000000000000000e+00) (0, 0, 0.00000000000000000000e+00) (0, 0, 0.00000000000000000000e+00) (785, 5, 5.00000000000000000000e-01) (785, 5, 5.00000000000000000000e-01) (785, 5, 5.00000000000000000000e-01) (785, 5, 5.00000000000000000000e-01) (785, 5, 5.00000000000000000000e-01) (785, 5, 5.00000000000000000000e-01) (785, 5, 5.00000000000000000000e-01) (785, 5, 5.00000000000000000000e-01) (785, 5, 5.00000000000000000000e-01) (785, 5, 5.00000000000000000000e-01) (785, 5, 5.00000000000000000000e-01) (785, 5, 5.00000000000000000000e-01) (785, 5, 5.00000000000000000000e-01) (785, 5, 5.00000000000000000000e-01) (785, 5, 5.00000000000000000000e-01) (785, 5, 5.00000000000000000000e-01) (785, 5, 5.00000000000000000000e-01) (785, 5, 5.00000000000000000000e-01) (785, 5, 5.00000000000000000000e-01) (0, 5, 5.00000000000000000000e-01) (20, 5, 5.00000000000000000000e-01) (20, 5, 5.00000000000000000000e-01) (20, 5, 5.00000000000000000000e-01) (20, 5, 5.00000000000000000000e-01) (20, 5, 5.00000000000000000000e-01) (20, 5, 5.00000000000000000000e-01) (20, 5, 5.00000000000000000000e-01) (20, 5, 5.00000000000000000000e-01) (20, 5, 5.00000000000000000000e-01) (20, 5, 5.00000000000000000000e-01) (20, 5, 5.00000000000000000000e-01) (20, 5, 5.00000000000000000000e-01) (20, 5, 5.00000000000000000000e-01) (20, 5, 5.00000000000000000000e-01) (20, 5, 5.00000000000000000000e-01) (0, 5, 5.00000000000000000000e-01) (16, 5, 5.00000000000000000000e-01) (16, 5, 5.00000000000000000000e-01) (16, 5, 5.00000000000000000000e-01) (16, 5, 5.00000000000000000000e-01) (16, 5, 5.00000000000000000000e-01) (16, 5, 5.00000000000000000000e-01) (16, 5, 5.00000000000000000000e-01) (16, 5, 5.00000000000000000000e-01) (16, 5, 5.00000000000000000000e-01) (16, 5, 5.00000000000000000000e-01) (0, 5, 5.00000000000000000000e-01) 
connections (connected_to_neuron, weight)=(0, -5.30325695872306823730e-02) (1, -6.11645430326461791992e-02) (2, -4.27952371537685394287e-02) (3, -7.93929025530815124512e-02) (4, 4.74536493420600891113e-02) (5, -6.82365745306015014648e-02) (6, -3.04708555340766906738e-02) (7, -2.60236114263534545898e-02) (8, 4.05750498175621032715e-02) (9, -8.39586704969406127930e-02) (10, -6.66594281792640686035e-02) (11, 5.75137063860893249512e-02) (12, 3.23362275958061218262e-02) (13, 2.71250084042549133301e-02) (14, 8.76906588673591613770e-02) (15, -6.79785311222076416016e-02) (16, -9.03915688395500183105e-02) (17, -5.82516454160213470459e-02) (18, 3.39104160666465759277e-02) (19, -3.99518907070159912109e-02) (20, -6.47196918725967407227e-02) (21, 8.28795209527015686035e-02) (22, 3.80028411746025085449e-02) (23, -5.92488832771778106689e-02) (24, 8.06956961750984191895e-02) (25, -4.50469218194484710693e-02) (26, 3.67155149579048156738e-02) (27, 5.88276758790016174316e-02) (28, 7.66150429844856262207e-02) (29, 7.97912999987602233887e-02) (30, -4.85269017517566680908e-02) (31, -7.64175355434417724609e-02) (32, -8.13732445240020751953e-02) (33, 8.67786258459091186523e-03) (34, -5.58104366064071655273e-02) (35, 6.60803988575935363770e-02) (36, 4.04412820935249328613e-02) (37, 1.37187093496322631836e-02) (38, -6.00460357964038848877e-02) (39, -1.96211487054824829102e-02) (40, 2.88668256253004074097e-02) (41, -2.97135561704635620117e-02) (42, -6.38600811362266540527e-02) (43, -4.21171188354492187500e-02) (44, -1.01747244596481323242e-01) (45, -7.50082433223724365234e-02) (46, -7.19069130718708038330e-03) (47, -8.99735987186431884766e-02) (48, -3.18175666034221649170e-02) (49, -7.17250630259513854980e-02) (50, -2.96666510403156280518e-02) (51, 3.24936956167221069336e-03) (52, -8.90923365950584411621e-02) (53, -9.18182507157325744629e-02) (54, 4.40004840493202209473e-02) (55, 9.16033610701560974121e-02) (56, -3.68651673197746276855e-02) (57, -1.92840024828910827637e-02) (58, 5.04310354590415954590e-02) (59, -6.02501370012760162354e-02) (60, -3.94927076995372772217e-02) (61, -9.80958640575408935547e-02) (62, -3.66676673293113708496e-02) (63, -2.08523683249950408936e-02) (64, 1.02256201207637786865e-02) (65, 6.50011282414197921753e-03) (66, -5.89087307453155517578e-02) (67, -5.48745431005954742432e-02) (68, -8.84166508913040161133e-02) (69, -3.33398692309856414795e-02) (70, 4.14127623662352561951e-03) (71, 2.97159422188997268677e-02) (72, 3.15744429826736450195e-02) (73, 3.84855791926383972168e-02) (74, -1.11426144838333129883e-01) (75, 4.29820641875267028809e-02) (76, 9.57193747162818908691e-02) (77, 8.87373462319374084473e-03) (78, 7.01321288943290710449e-02) (79, -3.59929017722606658936e-02) (80, 3.48989404737949371338e-02) (81, -6.04993253946304321289e-02) (82, 6.80087879300117492676e-02) (83, 4.61504533886909484863e-02) (84, -5.23175783455371856689e-02) (85, 1.20092630386352539062e-02) (86, 3.77538278698921203613e-02) (87, 1.08172520995140075684e-02) (88, 9.27252545952796936035e-02) (89, -1.18055045604705810547e-02) (90, 5.00647909939289093018e-02) (91, -4.83948998153209686279e-02) (92, -1.23497210443019866943e-02) (93, -9.21554118394851684570e-02) (94, 1.66360028088092803955e-02) (95, -1.20013505220413208008e-01) (96, -1.22394133359193801880e-02) (97, 1.64189469069242477417e-02) (98, -1.32093012332916259766e-01) (99, -4.16965782642364501953e-02) (100, -1.10467627644538879395e-01) (101, 1.15693388506770133972e-02) (102, -6.18776865303516387939e-02) (103, -1.13077320158481597900e-01) (104, 4.21850569546222686768e-02) (105, 6.28704437986016273499e-03) (106, 8.11418816447257995605e-02) (107, 5.06785772740840911865e-02) (108, -8.58317762613296508789e-02) (109, 5.00336214900016784668e-02) (110, -8.41466709971427917480e-02) (111, 4.92169335484504699707e-02) (112, 8.95342901349067687988e-02) (113, 8.38621184229850769043e-02) (114, -4.63260710239410400391e-03) (115, -6.28015622496604919434e-02) (116, -4.49768174439668655396e-03) (117, -7.16156736016273498535e-02) (118, 3.97424511611461639404e-02) (119, -2.12118830531835556030e-02) (120, 1.14520033821463584900e-02) (121, -1.74558553844690322876e-02) (122, 1.40512213110923767090e-02) (123, -1.25363975763320922852e-01) (124, -6.69118836522102355957e-02) (125, -1.29429414868354797363e-01) (126, -1.90245002508163452148e-01) (127, -1.78264588117599487305e-01) (128, -1.55456110835075378418e-01) (129, -1.36547029018402099609e-01) (130, -8.86060390621423721313e-03) (131, -4.23997528851032257080e-02) (132, -6.31506666541099548340e-02) (133, -3.45308333635330200195e-02) (134, 3.49308364093303680420e-02) (135, -9.79026779532432556152e-02) (136, 7.07228183746337890625e-02) (137, 1.47399520501494407654e-02) (138, 5.28916791081428527832e-02) (139, 9.09800752997398376465e-02) (140, -3.31045836210250854492e-02) (141, 6.87450245022773742676e-02) (142, 3.93523648381233215332e-02) (143, -4.48414385318756103516e-02) (144, 4.82684932649135589600e-02) (145, -8.08423683047294616699e-02) (146, -3.11463400721549987793e-02) (147, -9.03135985136032104492e-02) (148, -8.41302871704101562500e-02) (149, -1.26703783869743347168e-01) (150, -5.50777725875377655029e-02) (151, -1.51658812537789344788e-02) (152, -8.88154506683349609375e-02) (153, -1.68038025498390197754e-01) (154, -2.67445355653762817383e-01) (155, -2.66879975795745849609e-01) (156, -1.60262897610664367676e-01) (157, -2.31828495860099792480e-01) (158, -1.29675954580307006836e-01) (159, -1.57706767320632934570e-01) (160, -5.92670328915119171143e-02) (161, -8.37307348847389221191e-02) (162, 3.26165521983057260513e-04) (163, 4.64071193709969520569e-03) (164, 1.36466193944215774536e-02) (165, -4.99186292290687561035e-02) (166, 2.63320859521627426147e-02) (167, 1.04585262015461921692e-02) (168, 7.25176706910133361816e-02) (169, -2.06032544374465942383e-02) (170, 8.69323266670107841492e-04) (171, -6.22667744755744934082e-02) (172, -5.24619780480861663818e-02) (173, -7.16322734951972961426e-02) (174, -3.09060979634523391724e-02) (175, -1.31009504199028015137e-01) (176, -9.58593338727951049805e-02) (177, -2.17017568647861480713e-02) (178, -1.32261857390403747559e-01) (179, -4.14251610636711120605e-02) (180, -1.70398354530334472656e-01) (181, 1.65184605866670608521e-02) (182, 2.07327026873826980591e-02) (183, 4.10199426114559173584e-02) (184, -5.20348623394966125488e-02) (185, 3.46697047352790832520e-02) (186, -8.71083959937095642090e-02) (187, -1.17404632270336151123e-01) (188, -2.85660848021507263184e-02) (189, -1.00887551903724670410e-01) (190, -1.54980838298797607422e-01) (191, -1.27862617373466491699e-01) (192, 3.16803492605686187744e-02) (193, 1.04976529255509376526e-02) (194, 5.04813231527805328369e-02) (195, 6.44765794277191162109e-03) (196, 9.83007028698921203613e-02) (197, -2.14531794190406799316e-02) (198, -8.04378837347030639648e-02) (199, 7.05782249569892883301e-02) (200, 6.36063367128372192383e-02) (201, 4.35249367728829383850e-03) (202, -8.59980359673500061035e-02) (203, -6.76895156502723693848e-02) (204, 2.69879382103681564331e-02) (205, -5.39703965187072753906e-02) (206, -6.14829584956169128418e-02) (207, -1.59875862300395965576e-02) (208, 2.86119692027568817139e-02) (209, 9.34592112898826599121e-02) (210, 2.49102920293807983398e-01) (211, 2.02918112277984619141e-01) (212, 1.04171529412269592285e-01) (213, 7.57963731884956359863e-02) (214, -2.25210767239332199097e-02) (215, -2.84180510789155960083e-02) (216, -1.11424975097179412842e-01) (217, -8.38757604360580444336e-02) (218, -1.17674879729747772217e-01) (219, -1.93906828761100769043e-01) (220, -1.40000477433204650879e-01) (221, -1.83939386624842882156e-03) (222, -7.40605518221855163574e-02) (223, -9.30033251643180847168e-02) (224, -7.75401154533028602600e-03) (225, 8.93951579928398132324e-02) (226, 1.82041022926568984985e-02) (227, -2.84683052450418472290e-03) (228, -2.82688513398170471191e-02) (229, 3.11673302203416824341e-02) (230, 8.68427287787199020386e-03) (231, -1.39031419530510902405e-02) (232, -4.75269109010696411133e-02) (233, -1.92111101932823657990e-03) (234, -1.92479533143341541290e-03) (235, -5.13167232275009155273e-02) (236, 1.64594560861587524414e-01) (237, 6.91160336136817932129e-02) (238, 4.91610504686832427979e-02) (239, 6.66576772928237915039e-02) (240, 7.78088271617889404297e-02) (241, -2.06539500504732131958e-02) (242, -1.37287348508834838867e-01) (243, -1.52845252305269241333e-02) (244, -2.12300661951303482056e-03) (245, -9.05638635158538818359e-02) (246, -1.47524073719978332520e-01) (247, -1.84012368321418762207e-01) (248, -1.74566164612770080566e-01) (249, 1.57041531056165695190e-02) (250, -8.58693569898605346680e-02) (251, -4.54715266823768615723e-02) (252, 2.60280538350343704224e-02) (253, -3.50163467228412628174e-02) (254, -2.89076324552297592163e-02) (255, -6.16372376680374145508e-02) (256, -2.25130300968885421753e-02) (257, 1.13691575825214385986e-01) (258, 7.20344856381416320801e-02) (259, 7.19245597720146179199e-02) (260, 3.72165744192898273468e-03) (261, 1.09881803393363952637e-01) (262, 1.37047559022903442383e-01) (263, 1.40040740370750427246e-01) (264, 5.50882592797279357910e-02) (265, 1.50811865925788879395e-01) (266, 1.35186463594436645508e-01) (267, 5.23765059188008308411e-03) (268, -3.87434242293238639832e-03) (269, -4.82248282060027122498e-03) (270, -9.91020444780588150024e-03) (271, -3.55783365666866302490e-02) (272, -5.01263327896595001221e-02) (273, -4.45889309048652648926e-02) (274, -8.26097950339317321777e-02) (275, -1.40778511762619018555e-01) (276, 3.74668347649276256561e-03) (277, -3.67278270423412322998e-02) (278, -6.44298046827316284180e-02) (279, -8.66135880351066589355e-02) (280, -8.77755880355834960938e-03) (281, -2.11029984056949615479e-02) (282, -2.00053881853818893433e-02) (283, -6.37915953993797302246e-02) (284, 6.97615072131156921387e-02) (285, 8.21837261319160461426e-02) (286, 1.77724082022905349731e-02) (287, 1.26135304570198059082e-01) (288, 2.76470836251974105835e-02) (289, 7.20724910497665405273e-02) (290, 9.81770157814025878906e-02) (291, 1.82301104068756103516e-02) (292, 4.96795028448104858398e-02) (293, -1.81284639984369277954e-02) (294, 4.73299436271190643311e-03) (295, 1.46160852164030075073e-02) (296, 1.10717648640275001526e-02) (297, 1.19792275130748748779e-01) (298, 1.22019506990909576416e-01) (299, 1.80448032915592193604e-02) (300, 1.31507724523544311523e-01) (301, 4.08626943826675415039e-02) (302, 1.02075852453708648682e-01) (303, -7.35396817326545715332e-02) (304, 9.63469129055738449097e-03) (305, -6.92500174045562744141e-02) (306, -2.77677993290126323700e-03) (307, 6.24952539801597595215e-02) (308, 7.47247561812400817871e-02) (309, 5.22217340767383575439e-02) (310, 8.23683813214302062988e-02) (311, -2.66845654696226119995e-02) (312, -5.93879893422126770020e-02) (313, 6.55618682503700256348e-03) (314, 4.40232381224632263184e-02) (315, 1.20547726750373840332e-01) (316, 1.28176808357238769531e-01) (317, 8.59448164701461791992e-02) (318, 1.10895484685897827148e-01) (319, 1.14284665323793888092e-03) (320, -3.72913405299186706543e-02) (321, -5.95595650374889373779e-02) (322, -1.20711356401443481445e-01) (323, 2.77922078967094421387e-02) (324, 9.63937193155288696289e-02) (325, 1.20677679777145385742e-01) (326, 8.87407958507537841797e-02) (327, 1.35252609848976135254e-01) (328, 1.22302070260047912598e-01) (329, 1.47009000182151794434e-01) (330, -4.13472615182399749756e-02) (331, -6.55345693230628967285e-02) (332, 5.59229515492916107178e-02) (333, -6.93946257233619689941e-02) (334, 1.95811428129673004150e-02) (335, 6.07804059982299804688e-02) (336, 4.00397926568984985352e-03) (337, -7.38168507814407348633e-02) (338, 2.80511993914842605591e-02) (339, -2.12920531630516052246e-02) (340, 9.23571065068244934082e-02) (341, 6.20757378637790679932e-02) (342, 9.84835401177406311035e-02) (343, -5.54793961346149444580e-02) (344, 1.40614554286003112793e-01) (345, -6.44032806158065795898e-02) (346, 6.48265704512596130371e-02) (347, -3.49362306296825408936e-02) (348, -4.62832115590572357178e-02) (349, -6.36478811502456665039e-02) (350, -1.81166276335716247559e-01) (351, -3.07346191257238388062e-02) (352, 1.99441060423851013184e-01) (353, 1.13241598010063171387e-01) (354, 1.16517744958400726318e-01) (355, 1.74377173185348510742e-01) (356, 6.57046139240264892578e-02) (357, 1.01061418652534484863e-01) (358, -1.44446594640612602234e-02) (359, -7.17075243592262268066e-02) (360, -9.37472209334373474121e-02) (361, 3.32997106015682220459e-02) (362, 1.10058933496475219727e-02) (363, -6.15241266787052154541e-02) (364, 9.95644405484199523926e-02) (365, -5.65778873860836029053e-02) (366, -9.50962305068969726562e-02) (367, 1.03786019608378410339e-02) (368, -2.06808354705572128296e-02) (369, 5.05914911627769470215e-02) (370, 9.17348414659500122070e-02) (371, -3.53336222469806671143e-02) (372, -1.75229664891958236694e-02) (373, 2.66699809581041336060e-02) (374, -1.34088739752769470215e-01) (375, -1.05790555477142333984e-01) (376, -1.02804951369762420654e-01) (377, -1.52669385075569152832e-01) (378, 3.35510866716504096985e-03) (379, 1.14831566810607910156e-01) (380, 1.18659630417823791504e-01) (381, 6.24813176691532135010e-02) (382, 7.96562805771827697754e-02) (383, 1.79400950670242309570e-01) (384, -1.31842168048024177551e-02) (385, 3.02330851554870605469e-02) (386, -5.77706955373287200928e-02) (387, -1.41571521759033203125e-01) (388, -1.37548714876174926758e-01) (389, 5.11080324649810791016e-02) (390, -2.07105837762355804443e-03) (391, -1.91818028688430786133e-02) (392, 2.37955003976821899414e-02) (393, -8.14662575721740722656e-02) (394, 2.30290479958057403564e-02) (395, 2.96522546559572219849e-02) (396, -2.15189754962921142578e-02) (397, 9.73689835518598556519e-03) (398, -1.15731909871101379395e-01) (399, 1.21434830361977219582e-04) (400, -6.53629004955291748047e-02) (401, -1.68890938162803649902e-01) (402, -5.67498244345188140869e-02) (403, -1.70128062367439270020e-01) (404, -6.62072449922561645508e-02) (405, -1.02690964937210083008e-01) (406, -3.71887832880020141602e-02) (407, 1.56513359397649765015e-02) (408, 5.15986271202564239502e-02) (409, 1.38872742652893066406e-01) (410, 1.62800282239913940430e-01) (411, 1.46323233842849731445e-01) (412, -3.12523096799850463867e-02) (413, 1.62490103393793106079e-02) (414, -1.80939733982086181641e-02) (415, -9.12700816988945007324e-02) (416, -1.50800108909606933594e-01) (417, 6.46904185414314270020e-02) (418, 1.53901996091008186340e-02) (419, -5.78683353960514068604e-02) (420, 3.94829437136650085449e-02) (421, -8.46979022026062011719e-02) (422, 2.42370963096618652344e-02) (423, -3.02420053631067276001e-02) (424, -4.03172522783279418945e-02) (425, -7.31395483016967773438e-02) (426, 1.97728779166936874390e-02) (427, -1.17461025714874267578e-01) (428, -4.86961267888545989990e-02) (429, -2.40113675594329833984e-01) (430, -1.46729558706283569336e-01) (431, -1.44065141677856445312e-01) (432, -1.34535118937492370605e-01) (433, -1.07951387763023376465e-02) (434, -1.21572218835353851318e-01) (435, -3.88568360358476638794e-03) (436, 6.75270184874534606934e-02) (437, 1.83156862854957580566e-01) (438, -2.76649440638720989227e-03) (439, -3.80456894636154174805e-02) (440, -4.31479662656784057617e-02) (441, -8.21213424205780029297e-02) (442, -1.17093585431575775146e-01) (443, -4.38396185636520385742e-02) (444, 1.64543429855257272720e-03) (445, 1.73192992806434631348e-02) (446, -9.21829715371131896973e-02) (447, 5.73955774307250976562e-02) (448, -5.68576157093048095703e-03) (449, 2.50933244824409484863e-02) (450, 9.96504351496696472168e-02) (451, -6.84876665472984313965e-02) (452, 5.46140037477016448975e-02) (453, -1.93136706948280334473e-02) (454, -8.62314105033874511719e-02) (455, -5.24716041982173919678e-02) (456, -4.66004498302936553955e-02) (457, -6.02682158350944519043e-02) (458, -3.48215252161026000977e-02) (459, 1.43593149259686470032e-02) (460, -7.13158845901489257812e-02) (461, -1.07494197785854339600e-01) (462, -9.09083709120750427246e-02) (463, 1.10997278243303298950e-02) (464, 1.23038247227668762207e-01) (465, 2.45774053037166595459e-02) (466, 6.18389283772557973862e-04) (467, -6.18906207382678985596e-02) (468, -5.27645945549011230469e-02) (469, -8.12451317906379699707e-02) (470, -5.88931329548358917236e-02) (471, -1.24101765453815460205e-01) (472, 1.07674282044172286987e-02) (473, 2.67797987908124923706e-02) (474, 6.49833530187606811523e-02) (475, 2.02628616243600845337e-02) (476, -3.79877090454101562500e-02) (477, 7.99738541245460510254e-02) (478, -2.12832223623991012573e-02) (479, 4.87023219466209411621e-02) (480, -9.74459666758775711060e-03) (481, -8.11158567667007446289e-02) (482, -4.57620546221733093262e-02) (483, -2.02763617038726806641e-01) (484, -1.73604294657707214355e-01) (485, -7.06620421260595321655e-03) (486, -7.48640745878219604492e-02) (487, 2.27709710597991943359e-02) (488, 1.43129583448171615601e-02) (489, -4.26387088373303413391e-03) (490, 6.58383667469024658203e-02) (491, 5.28235249221324920654e-02) (492, 9.94765758514404296875e-02) (493, -4.92129735648632049561e-02) (494, 7.77628272771835327148e-02) (495, -1.47917523980140686035e-01) (496, -1.80605545639991760254e-01) (497, -2.17027947306632995605e-01) (498, -1.10053740441799163818e-01) (499, -1.48779734969139099121e-01) (500, 3.55966240167617797852e-02) (501, -6.84779137372970581055e-02) (502, -2.66396682709455490112e-02) (503, 6.65746331214904785156e-02) (504, 8.95981863141059875488e-02) (505, -4.85160239040851593018e-02) (506, -9.42206475883722305298e-03) (507, -6.00816681981086730957e-02) (508, -1.08987875282764434814e-01) (509, -3.83312217891216278076e-02) (510, -2.46658056974411010742e-01) (511, -1.22875273227691650391e-01) (512, -1.61939680576324462891e-01) (513, 4.12577241659164428711e-02) (514, 4.23521846532821655273e-02) (515, -1.02762617170810699463e-01) (516, -3.54545637965202331543e-02) (517, -1.06650732457637786865e-01) (518, -2.42915283888578414917e-02) (519, -5.59035539627075195312e-02) (520, -1.09453365206718444824e-01) (521, -9.44885611534118652344e-02) (522, -1.08980774879455566406e-01) (523, -1.78349822759628295898e-01) (524, -8.82791802287101745605e-02) (525, -1.34562417864799499512e-01) (526, -1.13335303962230682373e-01) (527, -1.41642034053802490234e-01) (528, 4.39101196825504302979e-02) (529, -8.28643292188644409180e-02) (530, -3.05952280759811401367e-02) (531, 7.39036649465560913086e-02) (532, -2.42282152175903320312e-02) (533, 5.32413348555564880371e-02) (534, 4.19724211096763610840e-02) (535, -4.40585538744926452637e-02) (536, -1.61997720599174499512e-01) (537, -2.01252847909927368164e-01) (538, -1.55203774571418762207e-01) (539, -2.31733813881874084473e-01) (540, -2.44763523340225219727e-01) (541, -1.41242742538452148438e-01) (542, -1.19882464408874511719e-01) (543, -1.93177536129951477051e-01) (544, -7.79801160097122192383e-02) (545, -3.69558930397033691406e-02) (546, -4.97186519205570220947e-02) (547, -1.88945785164833068848e-01) (548, -1.03999584913253784180e-01) (549, -1.57781332731246948242e-01) (550, -2.46529176831245422363e-01) (551, -1.91389426589012145996e-01) (552, -2.27673545479774475098e-01) (553, -2.02178750187158584595e-02) (554, -8.07387679815292358398e-02) (555, 2.41846591234207153320e-02) (556, -1.55651457607746124268e-02) (557, 8.93477350473403930664e-02) (558, 9.95996147394180297852e-02) (559, -1.95076148957014083862e-02) (560, -8.23343992233276367188e-02) (561, -2.83460095524787902832e-02) (562, -4.66343127191066741943e-02) (563, -1.78882647305727005005e-02) (564, -1.39169096946716308594e-01) (565, -2.20566749572753906250e-01) (566, -8.57711955904960632324e-02) (567, -2.13957726955413818359e-01) (568, -2.25860744714736938477e-01) (569, -1.85266718268394470215e-01) (570, -1.89182847738265991211e-01) (571, -1.94256097078323364258e-01) (572, -2.13390767574310302734e-01) (573, -1.63518488407135009766e-01) (574, -8.40944051742553710938e-02) (575, -1.12951435148715972900e-01) (576, -1.14671126008033752441e-01) (577, -1.58129945397377014160e-01) (578, -1.67808920145034790039e-01) (579, -5.19292317330837249756e-02) (580, -1.41010820865631103516e-01) (581, 6.19139196351170539856e-03) (582, 4.18313369154930114746e-02) (583, -4.13914546370506286621e-02) (584, 8.08779597282409667969e-02) (585, -1.95591673254966735840e-02) (586, -4.39047515392303466797e-02) (587, -1.34737193584442138672e-02) (588, -2.38777995109558105469e-02) (589, -4.40155640244483947754e-02) (590, 6.57903999090194702148e-02) (591, -1.80106852203607559204e-02) (592, -2.46603842824697494507e-02) (593, -1.77229747176170349121e-01) (594, -5.93694336712360382080e-02) (595, -1.08122974634170532227e-01) (596, -2.17322081327438354492e-01) (597, -6.35716319084167480469e-02) (598, -1.36567112058401107788e-02) (599, -1.36124968528747558594e-01) (600, -1.27330809831619262695e-01) (601, -1.12919561564922332764e-01) (602, -4.99048344790935516357e-02) (603, -2.01891362667083740234e-01) (604, -2.41747543215751647949e-01) (605, -1.49440303444862365723e-01) (606, -1.24123513698577880859e-01) (607, -8.69670882821083068848e-02) (608, -1.78822148591279983521e-02) (609, -8.97787585854530334473e-02) (610, -8.96130278706550598145e-02) (611, -6.08525983989238739014e-02) (612, -1.90497003495693206787e-02) (613, -9.06449034810066223145e-02) (614, 2.20764409750699996948e-02) (615, -4.04230244457721710205e-02) (616, 3.63230705261230468750e-04) (617, 8.00240114331245422363e-02) (618, 4.61869016289710998535e-02) (619, 6.98194652795791625977e-02) (620, -1.02536402642726898193e-01) (621, -4.57814633846282958984e-02) (622, -1.28352016210556030273e-01) (623, -5.62881529331207275391e-02) (624, -3.98881435394287109375e-02) (625, -1.18383623659610748291e-01) (626, -4.31987307965755462646e-02) (627, 1.12558975815773010254e-02) (628, -1.29453450441360473633e-01) (629, -6.58697560429573059082e-02) (630, -1.46773576736450195312e-01) (631, -2.03214555978775024414e-01) (632, -9.74165946245193481445e-02) (633, -1.25470176339149475098e-01) (634, -1.83641225099563598633e-01) (635, -1.06754586100578308105e-01) (636, 9.64393187314271926880e-03) (637, 7.23573863506317138672e-02) (638, 1.24851157888770103455e-02) (639, -6.35225372388958930969e-03) (640, -2.09619812667369842529e-02) (641, 3.67189683020114898682e-02) (642, 1.49949882179498672485e-02) (643, 4.66813221573829650879e-02) (644, 5.74873909354209899902e-02) (645, -6.00865855813026428223e-02) (646, -9.37113985419273376465e-02) (647, -4.70547117292881011963e-02) (648, -1.08128771185874938965e-01) (649, 2.64209862798452377319e-02) (650, -1.03808179497718811035e-01) (651, -5.25253675878047943115e-02) (652, -1.60202365368604660034e-02) (653, -1.90870165824890136719e-02) (654, -1.08545854687690734863e-01) (655, -1.13744266331195831299e-01) (656, -4.58571277558803558350e-02) (657, -9.88389328122138977051e-02) (658, -7.54511728882789611816e-02) (659, -9.01285856962203979492e-02) (660, -1.44473671913146972656e-01) (661, -1.84876695275306701660e-01) (662, 2.53458991646766662598e-02) (663, 6.88272193074226379395e-02) (664, 7.07132145762443542480e-02) (665, -3.48113253712654113770e-02) (666, -5.61817847192287445068e-02) (667, -2.37124487757682800293e-02) (668, -6.30338490009307861328e-02) (669, 2.48671025037765502930e-02) (670, 4.34408448636531829834e-02) (671, 5.17014414072036743164e-03) (672, -3.39144319295883178711e-02) (673, -3.74052524566650390625e-02) (674, -4.81485314667224884033e-02) (675, -8.89362096786499023438e-02) (676, -2.88082417100667953491e-02) (677, -5.15283606946468353271e-02) (678, 2.50194524414837360382e-03) (679, 8.05480629205703735352e-02) (680, -2.39627938717603683472e-02) (681, 4.86523956060409545898e-02) (682, 9.91107076406478881836e-02) (683, -4.88675124943256378174e-02) (684, -1.62023067474365234375e-01) (685, -3.78677546977996826172e-02) (686, -1.41303077340126037598e-01) (687, 1.62079427391290664673e-02) (688, 7.01155290007591247559e-02) (689, -4.41772639751434326172e-02) (690, 5.32264374196529388428e-02) (691, 9.10422578454017639160e-02) (692, 2.21739918924868106842e-03) (693, 9.09686610102653503418e-02) (694, 9.14279893040657043457e-02) (695, -7.27135762572288513184e-02) (696, 8.10423493385314941406e-02) (697, 6.14321306347846984863e-02) (698, -2.67915353178977966309e-02) (699, -8.90742838382720947266e-02) (700, -1.30040496587753295898e-02) (701, -8.05082023143768310547e-02) (702, 1.60958617925643920898e-02) (703, 5.15148192644119262695e-02) (704, -2.71978415548801422119e-02) (705, 9.38089266419410705566e-02) (706, 1.24137848615646362305e-01) (707, 1.55111566185951232910e-01) (708, 3.94770130515098571777e-03) (709, 2.41811666637659072876e-02) (710, 1.27234056591987609863e-01) (711, 7.95710459351539611816e-02) (712, 1.73561751842498779297e-01) (713, 5.45609928667545318604e-02) (714, 8.71522724628448486328e-02) (715, 1.59524172544479370117e-01) (716, 8.44179540872573852539e-02) (717, 1.96541860699653625488e-01) (718, 1.77146151661872863770e-01) (719, -3.07921934872865676880e-02) (720, 9.78013314306735992432e-03) (721, 6.65243342518806457520e-02) (722, 1.04602769017219543457e-01) (723, 2.87209060043096542358e-02) (724, -3.25153656303882598877e-02) (725, 3.33065465092658996582e-02) (726, 2.62278541922569274902e-02) (727, -5.81231601536273956299e-02) (728, -5.26134669780731201172e-03) (729, 9.94363203644752502441e-02) (730, -4.71974425017833709717e-02) (731, 8.32207873463630676270e-02) (732, -6.88593685626983642578e-02) (733, 8.82981643080711364746e-02) (734, 6.22869618237018585205e-02) (735, 3.86508516967296600342e-02) (736, 8.95827040076255798340e-02) (737, 5.85461407899856567383e-02) (738, 1.45924661774188280106e-03) (739, 9.37850177288055419922e-02) (740, 1.08935609459877014160e-01) (741, 1.51176199316978454590e-01) (742, 2.11061492562294006348e-01) (743, 1.15968279540538787842e-01) (744, 2.63982005417346954346e-02) (745, 4.43802960216999053955e-02) (746, 6.40977099537849426270e-02) (747, 7.32754617929458618164e-02) (748, 2.26044636219739913940e-02) (749, 2.53374408930540084839e-02) (750, 8.80864635109901428223e-02) (751, 6.28106519579887390137e-02) (752, -6.09248243272304534912e-02) (753, 6.37098029255867004395e-02) (754, -1.92810595035552978516e-02) (755, 2.97945737838745117188e-03) (756, -2.98365950584411621094e-03) (757, -9.30532068014144897461e-02) (758, 4.48563024401664733887e-02) (759, 9.17549952864646911621e-02) (760, -9.36168953776359558105e-02) (761, 9.70216765999794006348e-02) (762, 7.17717111110687255859e-02) (763, -7.76013061404228210449e-02) (764, 6.56507164239883422852e-02) (765, 8.86516924947500228882e-03) (766, 2.41541881114244461060e-02) (767, 5.46623393893241882324e-03) (768, -6.88510239124298095703e-02) (769, -7.12053626775741577148e-02) (770, -1.37849822640419006348e-02) (771, 1.08278758823871612549e-01) (772, -9.18511375784873962402e-02) (773, -3.38915437459945678711e-02) (774, 4.37846891582012176514e-02) (775, -1.14216841757297515869e-02) (776, 7.91466608643531799316e-02) (777, -3.07061895728111267090e-02) (778, -5.67784346640110015869e-02) (779, -1.23626440763473510742e-02) (780, 8.45807865262031555176e-02) (781, -7.71657973527908325195e-02) (782, -4.97897230088710784912e-02) (783, -7.63440430164337158203e-02) (784, -2.99036316573619842529e-02) (0, 3.09292152523994445801e-02) (1, 2.66354158520698547363e-02) (2, -1.64396539330482482910e-02) (3, 3.78760173916816711426e-02) (4, -2.85082757472991943359e-02) (5, -2.46846601366996765137e-02) (6, 4.42591235041618347168e-02) (7, -3.08494120836257934570e-02) (8, -5.11950589716434478760e-02) (9, 6.95703551173210144043e-02) (10, -6.42921477556228637695e-02) (11, 5.71106746792793273926e-02) (12, -4.10376489162445068359e-03) (13, 3.91108766198158264160e-02) (14, 7.68870189785957336426e-02) (15, 7.83149898052215576172e-03) (16, -9.45832729339599609375e-02) (17, 6.62120059132575988770e-02) (18, 1.24164447188377380371e-02) (19, -2.88461744785308837891e-02) (20, -1.07662379741668701172e-03) (21, 9.50827673077583312988e-02) (22, -5.03081679344177246094e-02) (23, 6.92277625203132629395e-02) (24, -6.07536435127258300781e-02) (25, 3.73291894793510437012e-02) (26, 5.38085624575614929199e-02) (27, -3.79194393754005432129e-02) (28, 8.75394716858863830566e-02) (29, 7.74645134806632995605e-02) (30, -5.13754300773143768311e-02) (31, 1.84686928987503051758e-02) (32, 4.09992784261703491211e-03) (33, 3.21849063038825988770e-02) (34, -4.36552949249744415283e-02) (35, 7.55916610360145568848e-02) (36, -9.24997478723526000977e-02) (37, -9.93961691856384277344e-02) (38, -5.47403655946254730225e-02) (39, -4.04868833720684051514e-02) (40, 7.20543488860130310059e-02) (41, -1.14790750667452812195e-02) (42, -8.21617841720581054688e-02) (43, -2.91887391358613967896e-02) (44, -7.53213986754417419434e-02) (45, 9.29316356778144836426e-02) (46, 7.61122554540634155273e-02) (47, -7.36013576388359069824e-02) (48, 5.82567229866981506348e-02) (49, -1.24188084155321121216e-02) (50, -3.12756211496889591217e-03) (51, -4.45617213845252990723e-02) (52, -1.85988694429397583008e-02) (53, 4.58233579993247985840e-02) (54, -7.53339529037475585938e-02) (55, 2.06474885344505310059e-02) (56, -1.68474614620208740234e-02) (57, 7.84746035933494567871e-02) (58, 8.27280506491661071777e-02) (59, -2.93079912662506103516e-02) (60, 5.59391155838966369629e-02) (61, -6.86473846435546875000e-02) (62, 8.91607031226158142090e-02) (63, -3.98953557014465332031e-02) (64, 6.49754405021667480469e-02) (65, -5.11638522148132324219e-02) (66, -4.71796691417694091797e-02) (67, 9.52813550829887390137e-02) (68, -2.01868414878845214844e-02) (69, 5.06700649857521057129e-02) (70, 2.81854905188083648682e-02) (71, -2.47833095490932464600e-02) (72, 1.29653215408325195312e-01) (73, 1.16794258356094360352e-02) (74, 4.12483848631381988525e-02) (75, 1.21683157980442047119e-01) (76, -4.97252345085144042969e-02) (77, -3.34836393594741821289e-02) (78, -9.05458405613899230957e-02) (79, 8.92162844538688659668e-02) (80, 4.32943291962146759033e-02) (81, 1.49321556091308593750e-03) (82, -5.69850914180278778076e-02) (83, -7.60247558355331420898e-02) (84, -5.26834279298782348633e-02) (85, -3.23190391063690185547e-02) (86, 4.46227267384529113770e-02) (87, 3.04691120982170104980e-02) (88, -5.38444370031356811523e-02) (89, 2.67543420195579528809e-02) (90, -1.01813860237598419189e-01) (91, -1.01124316453933715820e-01) (92, 6.29326924681663513184e-02) (93, 1.14007756114006042480e-01) (94, 3.82842458784580230713e-02) (95, 1.06700532138347625732e-01) (96, 3.14376652240753173828e-02) (97, 1.38551115989685058594e-01) (98, 1.78705111145973205566e-01) (99, 1.65149793028831481934e-01) (100, 2.84916251897811889648e-01) (101, 2.55765378475189208984e-01) (102, 2.10891008377075195312e-01) (103, 2.04133331775665283203e-01) (104, 1.52864590287208557129e-01) (105, 1.07337757945060729980e-01) (106, 1.52801806107163429260e-02) (107, 8.26146602630615234375e-02) (108, -7.28930011391639709473e-02) (109, 2.47060880064964294434e-02) (110, 8.00189152359962463379e-02) (111, 7.94035866856575012207e-02) (112, -7.38006904721260070801e-02) (113, -7.69661739468574523926e-02) (114, -9.66211706399917602539e-02) (115, -2.74024941027164459229e-02) (116, -1.68772861361503601074e-02) (117, 5.00579848885536193848e-02) (118, -9.15262550115585327148e-02) (119, 2.43329238146543502808e-02) (120, -4.96572889387607574463e-02) (121, -6.62004202604293823242e-02) (122, 8.49310755729675292969e-02) (123, -5.66556677222251892090e-02) (124, 1.47130697965621948242e-01) (125, 3.97219285368919372559e-02) (126, 1.81674540042877197266e-01) (127, 5.66711314022541046143e-02) (128, 1.23187914490699768066e-01) (129, 7.43086636066436767578e-02) (130, 7.09156692028045654297e-02) (131, 4.03962954878807067871e-02) (132, 1.38174295425415039062e-01) (133, -6.75670057535171508789e-02) (134, -1.09515026211738586426e-01) (135, 1.91786997020244598389e-02) (136, 7.25130960345268249512e-02) (137, 3.33058908581733703613e-02) (138, 2.40199342370033264160e-02) (139, -7.11453035473823547363e-02) (140, -3.99885959923267364502e-02) (141, 4.03884798288345336914e-03) (142, -9.16786342859268188477e-02) (143, -1.55969653278589248657e-02) (144, 2.23839655518531799316e-02) (145, -6.10298626124858856201e-02) (146, 7.18966946005821228027e-02) (147, -9.64830219745635986328e-02) (148, 7.32522085309028625488e-02) (149, 6.71675205230712890625e-02) (150, 3.11937425285577774048e-02) (151, -9.44081842899322509766e-02) (152, 1.27039834856986999512e-01) (153, 1.50683745741844177246e-01) (154, 9.65507328510284423828e-02) (155, 1.66089564561843872070e-01) (156, 8.59033241868019104004e-02) (157, 3.62541116774082183838e-02) (158, 1.58264473080635070801e-01) (159, 8.76158177852630615234e-02) (160, -2.84235482104122638702e-03) (161, -1.20755815878510475159e-02) (162, -8.51690918207168579102e-02) (163, -1.05982989072799682617e-01) (164, -5.34349353983998298645e-03) (165, -1.62122100591659545898e-02) (166, 7.84947425127029418945e-02) (167, 1.23328911140561103821e-02) (168, -7.81485065817832946777e-02) (169, 7.13564455509185791016e-04) (170, 4.15379330515861511230e-02) (171, -2.06962339580059051514e-02) (172, -1.01586036384105682373e-01) (173, 5.98891526460647583008e-02) (174, 5.59247173368930816650e-02) (175, 3.48751582205295562744e-02) (176, 3.76595370471477508545e-02) (177, -1.82902608066797256470e-02) (178, -1.91168673336505889893e-02) (179, 1.89663004130125045776e-03) (180, 5.33163174986839294434e-02) (181, 9.35810506343841552734e-02) (182, 1.24986797571182250977e-01) (183, -1.53539022430777549744e-02) (184, 1.42751246690750122070e-01) (185, -5.79642504453659057617e-02) (186, -8.15780013799667358398e-02) (187, -3.85771431028842926025e-02) (188, -6.16501122713088989258e-02) (189, -9.74309742450714111328e-02) (190, -1.01158365607261657715e-01) (191, -7.44653716683387756348e-02) (192, -3.33752669394016265869e-02) (193, 2.51487568020820617676e-02) (194, 7.43503943085670471191e-02) (195, -4.77274917066097259521e-02) (196, -5.65079487860202789307e-02) (197, 4.65843826532363891602e-02) (198, 6.32882118225097656250e-02) (199, -3.95604632794857025146e-02) (200, -6.04204051196575164795e-02) (201, -1.61170508363284170628e-04) (202, 4.58202473819255828857e-02) (203, -6.51042684912681579590e-02) (204, -1.05707697570323944092e-01) (205, -3.19055169820785522461e-02) (206, 3.09174433350563049316e-02) (207, -6.99708685278892517090e-02) (208, -1.49470428004860877991e-02) (209, 2.46594063937664031982e-02) (210, 2.47439835220575332642e-02) (211, 3.81507165729999542236e-02) (212, -4.31517697870731353760e-02) (213, -6.34152116253972053528e-03) (214, 1.45078608766198158264e-02) (215, -1.51948571205139160156e-01) (216, -1.57023034989833831787e-02) (217, -1.18840761482715606689e-01) (218, -5.11157251894474029541e-02) (219, -6.20410852134227752686e-02) (220, -1.44190654158592224121e-01) (221, -1.37464061379432678223e-01) (222, -1.35406544432044029236e-02) (223, 7.20217823982238769531e-02) (224, 7.21486285328865051270e-02) (225, -3.86359989643096923828e-02) (226, -7.97318443655967712402e-02) (227, -8.60403701663017272949e-02) (228, -1.00852012634277343750e-01) (229, 1.02414935827255249023e-01) (230, -2.91818808764219284058e-02) (231, -1.04746967554092407227e-01) (232, -7.18255341053009033203e-02) (233, -1.09184704720973968506e-01) (234, 1.15790683776140213013e-02) (235, -6.96154730394482612610e-03) (236, -1.58668924123048782349e-02) (237, -3.85705605149269104004e-02) (238, 5.93479126691818237305e-02) (239, 1.10515885055065155029e-01) (240, -9.40270125865936279297e-02) (241, -1.56837850809097290039e-02) (242, -7.74656236171722412109e-02) (243, -1.27689823508262634277e-01) (244, -1.04964002966880798340e-02) (245, -5.59070967137813568115e-02) (246, -7.31997862458229064941e-02) (247, -1.56958445906639099121e-01) (248, -1.11076481640338897705e-01) (249, -1.51986584067344665527e-01) (250, -6.90919160842895507812e-02) (251, 6.49361312389373779297e-02) (252, -5.83248399198055267334e-02) (253, 4.49867583811283111572e-02) (254, 4.14239466190338134766e-02) (255, -8.86426270008087158203e-02) (256, -1.23750969767570495605e-01) (257, 4.45529744029045104980e-02) (258, -1.06781817972660064697e-01) (259, -1.50044798851013183594e-01) (260, -2.03598327934741973877e-02) (261, -2.68916953355073928833e-02) (262, -1.01445637643337249756e-01) (263, -1.71156018972396850586e-01) (264, -1.03071210905909538269e-02) (265, 7.48204290866851806641e-02) (266, 1.09084784984588623047e-01) (267, 4.20074164867401123047e-02) (268, -3.87385860085487365723e-02) (269, -3.26403528451919555664e-02) (270, -3.29285226762294769287e-02) (271, -4.82192896306514739990e-02) (272, -3.20332199335098266602e-02) (273, -5.70533126592636108398e-02) (274, -3.68550419807434082031e-02) (275, -6.97169825434684753418e-02) (276, -1.27662479877471923828e-01) (277, -1.29060342907905578613e-01) (278, -6.37831985950469970703e-02) (279, -7.29489997029304504395e-02) (280, -2.69155353307723999023e-02) (281, 8.43874271959066390991e-03) (282, -9.56782922148704528809e-02) (283, 1.50137525051832199097e-02) (284, -9.50552374124526977539e-02) (285, -6.35058805346488952637e-03) (286, -8.94034504890441894531e-02) (287, -1.56186074018478393555e-01) (288, -6.19427785277366638184e-02) (289, 3.22472886182367801666e-03) (290, -2.06905186176300048828e-01) (291, -1.28379493951797485352e-01) (292, -1.34367659687995910645e-01) (293, -4.46542911231517791748e-02) (294, -5.48478849232196807861e-02) (295, 4.39933799207210540771e-02) (296, -1.25823035836219787598e-01) (297, -9.28224176168441772461e-02) (298, -3.78714478574693202972e-03) (299, -7.11022503674030303955e-03) (300, -4.29176092147827148438e-02) (301, -3.69868353009223937988e-02) (302, -8.45147669315338134766e-02) (303, 4.71148733049631118774e-03) (304, -2.28722430765628814697e-02) (305, 4.84238937497138977051e-02) (306, -1.82606989983469247818e-03) (307, -8.44410881400108337402e-02) (308, -6.41603469848632812500e-02) (309, 5.57923130691051483154e-02) (310, -5.26089407503604888916e-02) (311, 6.75536040216684341431e-03) (312, -8.97445827722549438477e-02) (313, -1.49126648902893066406e-01) (314, -1.96844115853309631348e-01) (315, -1.34310483932495117188e-01) (316, -1.22210690751671791077e-02) (317, -6.23508505523204803467e-02) (318, -9.15164649486541748047e-02) (319, -1.29672557115554809570e-01) (320, -1.54931783676147460938e-01) (321, -2.50465363264083862305e-01) (322, -1.86095520853996276855e-01) (323, -1.46087959408760070801e-01) (324, -1.22835144400596618652e-01) (325, -1.78958877921104431152e-01) (326, -9.05723869800567626953e-03) (327, -1.09923757612705230713e-01) (328, -7.30545595288276672363e-02) (329, -4.47631999850273132324e-02) (330, -5.38739636540412902832e-02) (331, 1.62524580955505371094e-01) (332, 8.96114930510520935059e-02) (333, -6.48852810263633728027e-02) (334, 3.32138724625110626221e-02) (335, 1.33203552104532718658e-03) (336, -6.59355074167251586914e-02) (337, -6.44552707672119140625e-02) (338, 1.72570291906595230103e-02) (339, -3.64701263606548309326e-02) (340, 3.05458679795265197754e-02) (341, -2.21473071724176406860e-02) (342, -1.87508203089237213135e-02) (343, -1.67811244726181030273e-01) (344, -1.40930816531181335449e-01) (345, -1.92216634750366210938e-01) (346, -5.67756965756416320801e-02) (347, -1.94037303328514099121e-01) (348, -1.98598229326307773590e-03) (349, -1.87221422791481018066e-01) (350, -3.49148422479629516602e-01) (351, -3.15608590841293334961e-01) (352, -1.25612869858741760254e-01) (353, -1.77342906594276428223e-01) (354, -1.77900224924087524414e-01) (355, -5.98301030695438385010e-02) (356, 1.56264845281839370728e-03) (357, 1.49485453963279724121e-01) (358, 1.57599821686744689941e-01) (359, 1.54387891292572021484e-01) (360, 1.01447617635130882263e-02) (361, 7.46293514966964721680e-02) (362, 4.04979325830936431885e-02) (363, -7.47923925518989562988e-02) (364, -9.75652560591697692871e-02) (365, -2.66616251319646835327e-02) (366, 2.94847991317510604858e-02) (367, -7.01693445444107055664e-02) (368, -4.92298640310764312744e-02) (369, -8.22726935148239135742e-02) (370, -5.73935508728027343750e-02) (371, -8.94674137234687805176e-02) (372, -1.30498185753822326660e-01) (373, -6.40313476324081420898e-02) (374, 8.11921134591102600098e-02) (375, -4.39925082027912139893e-02) (376, -2.01615355908870697021e-02) (377, -1.68070122599601745605e-01) (378, -3.11375647783279418945e-01) (379, -2.24067598581314086914e-01) (380, -1.67986184358596801758e-01) (381, -1.05241253972053527832e-01) (382, -1.32674843072891235352e-01) (383, -1.34741827845573425293e-01) (384, 1.16028264164924621582e-01) (385, 1.00768342614173889160e-01) (386, 1.20757311582565307617e-01) (387, 1.44865527749061584473e-01) (388, 1.30610033869743347168e-01) (389, -5.62410196289420127869e-03) (390, -8.01010355353355407715e-02) (391, 7.69980177283287048340e-02) (392, -6.09841123223304748535e-02) (393, 5.74996098875999450684e-02) (394, -9.79268699884414672852e-02) (395, -6.80283010005950927734e-02) (396, -1.16124272346496582031e-01) (397, 4.10118512809276580811e-02) (398, -2.66315005719661712646e-02) (399, 3.69382277131080627441e-02) (400, 6.34333565831184387207e-02) (401, 8.51509198546409606934e-02) (402, 3.55681441724300384521e-02) (403, 1.80964455008506774902e-01) (404, -8.26300960034132003784e-03) (405, -1.85662731528282165527e-01) (406, -1.80314168334007263184e-01) (407, -7.73956347256898880005e-03) (408, -1.11074954271316528320e-01) (409, -2.33571082353591918945e-01) (410, -1.14605888724327087402e-01) (411, -6.01738132536411285400e-02) (412, 6.28094151616096496582e-02) (413, 5.91376349329948425293e-02) (414, -2.00619618408381938934e-03) (415, 1.88444763422012329102e-01) (416, 1.57622676342725753784e-02) (417, 5.16722202301025390625e-02) (418, -6.05778843164443969727e-02) (419, 6.61764964461326599121e-02) (420, -8.09416919946670532227e-02) (421, -4.30499948561191558838e-02) (422, 4.18867170810699462891e-02) (423, -4.83291186392307281494e-02) (424, -1.28961637616157531738e-01) (425, 5.84068521857261657715e-02) (426, 5.24126626551151275635e-02) (427, 3.98573055863380432129e-02) (428, 7.96396881341934204102e-02) (429, 1.16047516465187072754e-01) (430, 1.69326350092887878418e-01) (431, 6.84922114014625549316e-02) (432, 7.05218985676765441895e-02) (433, -1.51648759841918945312e-01) (434, -1.51052623987197875977e-01) (435, -6.08864650130271911621e-02) (436, -1.44956082105636596680e-01) (437, -2.46884062886238098145e-01) (438, -6.78538456559181213379e-02) (439, -7.09943622350692749023e-02) (440, -1.64876197231933474541e-04) (441, 1.47892162203788757324e-01) (442, 1.83671295642852783203e-01) (443, 7.64267519116401672363e-02) (444, 5.19528277218341827393e-02) (445, 1.12400904297828674316e-01) (446, -9.20721143484115600586e-02) (447, 2.10914574563503265381e-02) (448, 3.54237034916877746582e-02) (449, -5.95628246665000915527e-02) (450, -1.81801412254571914673e-02) (451, 4.82452958822250366211e-02) (452, -4.20784577727317810059e-02) (453, -4.70879040658473968506e-02) (454, 2.64497883617877960205e-02) (455, 1.28005981445312500000e-01) (456, 1.85161367058753967285e-01) (457, 5.27270808815956115723e-02) (458, 8.77380892634391784668e-02) (459, 6.37985542416572570801e-02) (460, 3.21571081876754760742e-02) (461, -7.79511108994483947754e-02) (462, -8.64340513944625854492e-02) (463, -1.02111853659152984619e-01) (464, -7.35635459423065185547e-02) (465, -1.57829359173774719238e-01) (466, -1.02318793535232543945e-01) (467, -9.04419422149658203125e-02) (468, 1.61632895469665527344e-01) (469, 8.29373598098754882812e-02) (470, 7.05602094531059265137e-02) (471, 9.33926403522491455078e-02) (472, 3.03297713398933410645e-02) (473, -4.57938760519027709961e-02) (474, 1.83584094047546386719e-02) (475, 4.62891831994056701660e-02) (476, -7.46418237686157226562e-02) (477, 1.25642865896224975586e-02) (478, -4.34160977602005004883e-02) (479, 4.83876578509807586670e-02) (480, 3.82179729640483856201e-02) (481, 9.42070335149765014648e-02) (482, 1.34743258357048034668e-01) (483, 4.89022023975849151611e-02) (484, 1.59795209765434265137e-01) (485, 6.98325484991073608398e-02) (486, 9.80560109019279479980e-02) (487, 2.06509098410606384277e-01) (488, -1.02047864347696304321e-02) (489, -1.20940908789634704590e-01) (490, -2.29660093784332275391e-01) (491, -9.46091115474700927734e-02) (492, -1.37931734323501586914e-01) (493, -7.94625878334045410156e-02) (494, 9.14829298853874206543e-02) (495, 7.12370201945304870605e-02) (496, 1.48612976074218750000e-01) (497, 1.25750675797462463379e-01) (498, 1.88058465719223022461e-01) (499, 1.21130466461181640625e-01) (500, 1.15714162588119506836e-01) (501, 1.10427699983119964600e-01) (502, 5.82640729844570159912e-02) (503, 9.69791486859321594238e-02) (504, -9.56354588270187377930e-02) (505, -4.76186461746692657471e-02) (506, 2.92189847677946090698e-02) (507, -7.82842785120010375977e-02) (508, 7.14870020747184753418e-02) (509, -3.72985750436782836914e-02) (510, 1.33817687630653381348e-01) (511, 1.66360408067703247070e-01) (512, 2.26124137639999389648e-01) (513, 1.17309391498565673828e-01) (514, 2.29007124900817871094e-01) (515, 3.18073391914367675781e-01) (516, 1.15842297673225402832e-01) (517, -1.27611141651868820190e-02) (518, -1.95826720446348190308e-02) (519, -3.97142544388771057129e-02) (520, -7.73688480257987976074e-02) (521, 9.37961786985397338867e-02) (522, 9.05826967209577560425e-03) (523, 1.47047519683837890625e-01) (524, 6.84367641806602478027e-02) (525, 1.94299951195716857910e-01) (526, 4.31982390582561492920e-02) (527, 1.52220264077186584473e-01) (528, 1.69407241046428680420e-02) (529, 7.07968324422836303711e-02) (530, -9.36974361538887023926e-02) (531, 8.25671106576919555664e-02) (532, 2.74105146527290344238e-02) (533, 4.54511865973472595215e-02) (534, 6.76738470792770385742e-02) (535, 1.96478087455034255981e-02) (536, 1.10170312225818634033e-01) (537, 6.41856864094734191895e-02) (538, 8.91721248626708984375e-02) (539, 1.77110299468040466309e-01) (540, 1.74891009926795959473e-01) (541, 2.29971155524253845215e-01) (542, 2.02779427170753479004e-01) (543, 3.40989857912063598633e-01) (544, 3.02969604730606079102e-01) (545, 1.11945956945419311523e-01) (546, 6.01790249347686767578e-02) (547, 4.14929948747158050537e-02) (548, 1.48923709988594055176e-01) (549, 1.54914453625679016113e-01) (550, 1.55414342880249023438e-01) (551, -2.31815055012702941895e-02) (552, -5.25531359016895294189e-04) (553, 1.29346609115600585938e-01) (554, 1.38442069292068481445e-01) (555, 9.18583422899246215820e-02) (556, 9.48181450366973876953e-02) (557, 1.04048833250999450684e-01) (558, -4.42042760550975799561e-02) (559, 9.80994477868080139160e-02) (560, 4.25172522664070129395e-02) (561, -4.05693352222442626953e-02) (562, 7.37851783633232116699e-02) (563, -4.20156978070735931396e-02) (564, -6.77601993083953857422e-02) (565, 9.04512777924537658691e-02) (566, -7.15005472302436828613e-02) (567, -9.52577441930770874023e-02) (568, 1.39871230348944664001e-02) (569, 1.12251028418540954590e-01) (570, 1.84735149145126342773e-01) (571, 2.74661332368850708008e-01) (572, 2.67363011837005615234e-01) (573, 1.75386175513267517090e-01) (574, 1.07187688350677490234e-01) (575, 1.78960651159286499023e-01) (576, 8.91501232981681823730e-02) (577, 1.09271369874477386475e-01) (578, 4.50740456581115722656e-02) (579, 3.64008136093616485596e-02) (580, 5.09385652840137481689e-02) (581, -3.62929678522050380707e-03) (582, 5.61331138014793395996e-02) (583, 7.30992555618286132812e-02) (584, 1.25340789556503295898e-01) (585, -7.01342010870575904846e-03) (586, -4.71360273659229278564e-02) (587, 4.85609099268913269043e-02) (588, -2.13700383901596069336e-02) (589, 7.41468369960784912109e-03) (590, 4.59233596920967102051e-02) (591, -7.57030397653579711914e-02) (592, 9.79956611990928649902e-02) (593, 9.92023125290870666504e-02) (594, 4.75970543920993804932e-02) (595, 1.31399482488632202148e-01) (596, 3.51784820668399333954e-03) (597, 2.60137114673852920532e-02) (598, 9.06145796179771423340e-02) (599, 9.04789492487907409668e-02) (600, 7.03825503587722778320e-02) (601, 1.03100813925266265869e-01) (602, 3.38515229523181915283e-02) (603, 7.89522081613540649414e-02) (604, 1.22430488467216491699e-01) (605, -5.02453781664371490479e-02) (606, 9.81408059597015380859e-02) (607, 6.77364021539688110352e-02) (608, 1.26891642808914184570e-01) (609, -4.06127795577049255371e-02) (610, 6.81691765785217285156e-02) (611, -8.51446166634559631348e-02) (612, -5.40328435599803924561e-02) (613, -2.59470269083976745605e-02) (614, 4.49882522225379943848e-02) (615, -6.53512254357337951660e-02) (616, 5.76505884528160095215e-02) (617, 9.64686200022697448730e-02) (618, 8.28062295913696289062e-02) (619, -5.85506930947303771973e-02) (620, 2.67870910465717315674e-02) (621, 8.70429649949073791504e-02) (622, 4.80252243578433990479e-02) (623, 8.95584300160408020020e-02) (624, 9.84469056129455566406e-03) (625, 4.92692030966281890869e-02) (626, -8.51956531405448913574e-02) (627, -1.68090481311082839966e-02) (628, -5.69580309092998504639e-02) (629, -1.31437867879867553711e-01) (630, -5.77042289078235626221e-02) (631, 2.56721563637256622314e-02) (632, 5.28736338019371032715e-02) (633, -4.15641628205776214600e-02) (634, -3.98494526743888854980e-02) (635, 5.96316065639257431030e-03) (636, -2.32468056492507457733e-03) (637, -7.32004642486572265625e-02) (638, -1.01336956024169921875e-01) (639, -7.21049532294273376465e-02) (640, -8.70674997568130493164e-02) (641, 8.15448462963104248047e-02) (642, -1.88540238887071609497e-02) (643, -4.12453003227710723877e-02) (644, -4.75409217178821563721e-02) (645, -7.43257552385330200195e-02) (646, -6.72628171741962432861e-03) (647, -8.84307324886322021484e-02) (648, -6.20364770293235778809e-02) (649, 4.09745564684271812439e-03) (650, 1.02492561563849449158e-02) (651, 7.39710181951522827148e-02) (652, -1.06190890073776245117e-01) (653, -1.02574817836284637451e-01) (654, 5.85693633183836936951e-03) (655, -9.59633886814117431641e-02) (656, -7.38537237048149108887e-02) (657, -8.40309709310531616211e-02) (658, -1.48317277431488037109e-01) (659, -7.02405050396919250488e-02) (660, -1.41441285610198974609e-01) (661, -8.85595753788948059082e-02) (662, 2.36271489411592483521e-02) (663, -1.76414161920547485352e-01) (664, 1.16582121700048446655e-02) (665, -8.85818153619766235352e-02) (666, 2.91239768266677856445e-02) (667, -3.40750180184841156006e-02) (668, -3.44008505344390869141e-02) (669, 8.05864334106445312500e-02) (670, 5.84940873086452484131e-02) (671, -7.02022016048431396484e-03) (672, 6.23092725872993469238e-02) (673, -6.10637217760086059570e-02) (674, 5.17344698309898376465e-02) (675, -8.24138596653938293457e-02) (676, -2.02011559158563613892e-02) (677, -3.46388332545757293701e-02) (678, -5.27870096266269683838e-02) (679, 1.80132184177637100220e-02) (680, 1.27651635557413101196e-02) (681, -3.40527296066284179688e-02) (682, -7.03132525086402893066e-02) (683, 7.54199326038360595703e-02) (684, 1.28198608756065368652e-01) (685, -7.90053009986877441406e-02) (686, 8.76643508672714233398e-02) (687, -4.74723428487777709961e-02) (688, -9.17775034904479980469e-02) (689, -1.64080068469047546387e-01) (690, -4.86923009157180786133e-02) (691, -6.57820552587509155273e-02) (692, -2.17729080468416213989e-02) (693, -1.89504437148571014404e-02) (694, -9.87152289599180221558e-03) (695, -8.20591300725936889648e-03) (696, 6.65562823414802551270e-02) (697, -2.62838378548622131348e-02) (698, -8.87980312108993530273e-02) (699, -5.69355785846710205078e-02) (700, -4.59039099514484405518e-02) (701, 6.90987482666969299316e-02) (702, 3.60441878437995910645e-02) (703, -8.35235491394996643066e-02) (704, -8.96633416414260864258e-02) (705, -1.96593105792999267578e-02) (706, -8.15509334206581115723e-02) (707, -4.78785559535026550293e-02) (708, 8.82679689675569534302e-03) (709, -4.03081551194190979004e-02) (710, 6.42203986644744873047e-02) (711, -4.50571402907371520996e-02) (712, 8.05459916591644287109e-03) (713, 3.97406965494155883789e-02) (714, 1.65356695652008056641e-02) (715, -1.69539432972669601440e-02) (716, 4.79734130203723907471e-02) (717, 3.70503701269626617432e-02) (718, -9.64441243559122085571e-03) (719, -1.11412085592746734619e-01) (720, 4.63308691978454589844e-02) (721, -7.81424865126609802246e-02) (722, 1.54438959434628486633e-02) (723, 1.17652546614408493042e-02) (724, 5.98342977464199066162e-02) (725, -4.68962602317333221436e-02) (726, -6.04049153625965118408e-02) (727, 3.38579937815666198730e-02) (728, 2.68198922276496887207e-02) (729, -4.92029488086700439453e-02) (730, 7.69224241375923156738e-02) (731, 8.11123028397560119629e-02) (732, -7.78805017471313476562e-02) (733, 1.14392843097448348999e-02) (734, 9.44879204034805297852e-02) (735, -7.26099982857704162598e-02) (736, -9.21560153365135192871e-02) (737, -5.80943822860717773438e-02) (738, 1.75672266632318496704e-02) (739, 4.81349751353263854980e-02) (740, -8.52110981941223144531e-03) (741, -4.05525155365467071533e-02) (742, 9.20299813151359558105e-02) (743, -7.16682150959968566895e-02) (744, -5.01501746475696563721e-02) (745, 7.87780210375785827637e-02) (746, 7.62577680870890617371e-03) (747, -9.44992527365684509277e-02) (748, 4.20156642794609069824e-02) (749, -6.42808154225349426270e-02) (750, -6.28149732947349548340e-02) (751, 4.07774224877357482910e-02) (752, -5.09268790483474731445e-03) (753, 7.96354040503501892090e-02) (754, -3.55036109685897827148e-02) (755, -4.24032621085643768311e-02) (756, -6.72608613967895507812e-02) (757, 4.09146398305892944336e-03) (758, 9.14547219872474670410e-02) (759, 5.95590546727180480957e-02) (760, 5.48885241150856018066e-02) (761, 6.88600540161132812500e-02) (762, 4.16897572576999664307e-02) (763, 7.66368061304092407227e-02) (764, -1.76038388162851333618e-02) (765, 3.92743311822414398193e-02) (766, -9.37590748071670532227e-02) (767, -1.55857000499963760376e-02) (768, 6.56181424856185913086e-02) (769, 3.66067746654152870178e-03) (770, -8.24018493294715881348e-02) (771, -4.64723929762840270996e-02) (772, 6.68993517756462097168e-02) (773, -9.51229408383369445801e-02) (774, -3.87393310666084289551e-02) (775, 9.42931920289993286133e-02) (776, 7.60060399770736694336e-02) (777, 7.73653984069824218750e-02) (778, -9.06132683157920837402e-02) (779, 2.85508111119270324707e-02) (780, -7.89358317852020263672e-02) (781, -4.63883168995380401611e-02) (782, -2.87003442645072937012e-02) (783, 1.59714818000793457031e-02) (784, -2.69475221633911132812e-01) (0, 3.57960388064384460449e-02) (1, 7.35682174563407897949e-02) (2, -3.40137630701065063477e-02) (3, -6.01124949753284454346e-02) (4, 6.50229528546333312988e-02) (5, -7.44547173380851745605e-02) (6, 9.47760269045829772949e-02) (7, 3.34000810980796813965e-02) (8, 6.60203173756599426270e-02) (9, 6.95603564381599426270e-02) (10, -8.52561742067337036133e-02) (11, 3.81672382354736328125e-03) (12, 7.22754821181297302246e-02) (13, -3.16714495420455932617e-03) (14, -2.98917964100837707520e-02) (15, -2.44330242276191711426e-02) (16, 1.25837773084640502930e-02) (17, 2.09464877843856811523e-02) (18, -6.11662231385707855225e-02) (19, 1.66643410921096801758e-02) (20, 8.36515650153160095215e-02) (21, -6.57456368207931518555e-02) (22, -7.11545348167419433594e-03) (23, 6.06296434998512268066e-02) (24, -5.64584247767925262451e-02) (25, -7.85646364092826843262e-02) (26, 8.16938057541847229004e-02) (27, -2.84674018621444702148e-03) (28, -7.26498663425445556641e-03) (29, -2.33471393585205078125e-03) (30, 3.04003432393074035645e-02) (31, -7.14689493179321289062e-02) (32, -2.87664979696273803711e-02) (33, 9.63865891098976135254e-02) (34, -3.15814465284347534180e-02) (35, -6.37435615062713623047e-02) (36, -7.80681371688842773438e-02) (37, -3.68054136633872985840e-02) (38, 6.88090845942497253418e-02) (39, 8.26980024576187133789e-02) (40, -6.84936046600341796875e-02) (41, 7.95031264424324035645e-02) (42, -1.38998338952660560608e-02) (43, -1.04090467095375061035e-01) (44, -1.81553009897470474243e-02) (45, 5.86025752127170562744e-02) (46, -2.20562480390071868896e-02) (47, 9.20347645878791809082e-02) (48, -1.93881671875715255737e-02) (49, 1.82286743074655532837e-02) (50, 9.85398236662149429321e-03) (51, -3.35248187184333801270e-02) (52, 5.36855384707450866699e-02) (53, -9.66341421008110046387e-02) (54, -7.28951767086982727051e-02) (55, 9.72271040081977844238e-02) (56, -7.51987695693969726562e-02) (57, -9.12013649940490722656e-02) (58, -5.61963766813278198242e-03) (59, 1.75362452864646911621e-02) (60, 6.46392256021499633789e-03) (61, -7.52192884683609008789e-02) (62, 4.60673049092292785645e-02) (63, 7.88333415985107421875e-02) (64, -7.69670605659484863281e-02) (65, -9.37055349349975585938e-02) (66, -9.73995625972747802734e-02) (67, -7.63296782970428466797e-02) (68, -4.86450456082820892334e-02) (69, 2.11127586662769317627e-02) (70, -1.72203525900840759277e-01) (71, -9.04078111052513122559e-02) (72, -3.28540354967117309570e-02) (73, -6.65431097149848937988e-02) (74, -5.16907647252082824707e-02) (75, -9.74718481302261352539e-02) (76, -4.81255613267421722412e-02) (77, 7.54414349794387817383e-02) (78, -6.39173239469528198242e-02) (79, 7.23803639411926269531e-02) (80, 1.76483467221260070801e-02) (81, 5.35422191023826599121e-02) (82, -6.60038143396377563477e-02) (83, -3.08201238512992858887e-02) (84, 5.69080784916877746582e-02) (85, -3.88989821076393127441e-02) (86, -3.35930213332176208496e-02) (87, 8.17093178629875183105e-02) (88, -3.01003456115722656250e-02) (89, 6.10201880335807800293e-02) (90, 1.35435815900564193726e-03) (91, 7.90522396564483642578e-02) (92, 9.53060984611511230469e-02) (93, -4.64749597012996673584e-02) (94, 4.76126596331596374512e-02) (95, -1.02401845157146453857e-01) (96, -6.59626200795173645020e-02) (97, 6.67324895039200782776e-03) (98, -1.66421324014663696289e-01) (99, -8.14105048775672912598e-02) (100, -4.48309667408466339111e-02) (101, -9.21112820506095886230e-02) (102, -1.26891970634460449219e-01) (103, -4.81045097112655639648e-02) (104, -1.23997494578361511230e-01) (105, 4.70078885555267333984e-02) (106, 6.73371851444244384766e-02) (107, -7.13655026629567146301e-03) (108, 6.18580915033817291260e-02) (109, -8.80592092871665954590e-02) (110, -4.40754592418670654297e-02) (111, -2.50621587038040161133e-02) (112, 6.54830113053321838379e-02) (113, -1.00792646408081054688e-02) (114, 4.41177114844322204590e-02) (115, 2.24889256060123443604e-02) (116, 5.58937154710292816162e-02) (117, -8.29593464732170104980e-02) (118, 2.03375592827796936035e-02) (119, -5.21820113062858581543e-02) (120, 9.00285691022872924805e-02) (121, -9.24306958913803100586e-02) (122, 1.26779973506927490234e-01) (123, 1.06528669595718383789e-01) (124, 3.93177270889282226562e-02) (125, 9.95872616767883300781e-02) (126, 8.51520225405693054199e-02) (127, 8.83032232522964477539e-02) (128, 7.17163905501365661621e-02) (129, -1.24368891119956970215e-02) (130, -5.96255855634808540344e-03) (131, -2.16738004237413406372e-02) (132, -3.34576182067394256592e-02) (133, -5.70329390466213226318e-02) (134, 6.00611492991447448730e-02) (135, -1.46370865404605865479e-02) (136, -4.24226820468902587891e-02) (137, 5.88580593466758728027e-02) (138, 8.64454731345176696777e-02) (139, -8.33249539136886596680e-02) (140, 7.14427307248115539551e-02) (141, -5.76299838721752166748e-02) (142, -8.83077550679445266724e-03) (143, 4.31349687278270721436e-02) (144, 5.93180879950523376465e-02) (145, -8.56678001582622528076e-03) (146, 4.91295196115970611572e-02) (147, 9.29690152406692504883e-02) (148, 5.73812313377857208252e-02) (149, 1.86528801918029785156e-01) (150, 1.51982188224792480469e-01) (151, 3.14545296132564544678e-02) (152, 1.49801164865493774414e-01) (153, 3.26188467442989349365e-02) (154, 7.27124884724617004395e-02) (155, -2.16703824698925018311e-02) (156, 2.93900780379772186279e-02) (157, 2.71840523928403854370e-02) (158, -1.10318290535360574722e-03) (159, 6.25323550775647163391e-03) (160, -5.69775030016899108887e-02) (161, -1.16647034883499145508e-02) (162, -5.51374740898609161377e-02) (163, -4.33143042027950286865e-02) (164, -3.78381013870239257812e-02) (165, -6.38365074992179870605e-02) (166, 4.17481698095798492432e-02) (167, 2.08972226828336715698e-02) (168, 9.33357551693916320801e-02) (169, 3.03359702229499816895e-02) (170, 3.72204035520553588867e-02) (171, 7.45379477739334106445e-02) (172, 1.17828428745269775391e-01) (173, 6.83246506378054618835e-03) (174, 1.17345146834850311279e-01) (175, 1.13056473433971405029e-01) (176, 6.69509470462799072266e-02) (177, 1.27546817064285278320e-01) (178, 1.51611551642417907715e-01) (179, 7.44629874825477600098e-02) (180, 2.22201477736234664917e-02) (181, -1.80526729673147201538e-02) (182, -5.39152920246124267578e-02) (183, -6.95300102233886718750e-03) (184, 1.84071332216262817383e-01) (185, 1.11947888508439064026e-02) (186, 4.03941646218299865723e-02) (187, 3.98829616606235504150e-02) (188, 6.67829345911741256714e-03) (189, -8.72339159250259399414e-02) (190, -5.81865832209587097168e-02) (191, 5.15798255801200866699e-02) (192, -1.76213726401329040527e-01) (193, -6.04961700737476348877e-02) (194, -6.48876801133155822754e-02) (195, -4.03100326657295227051e-02) (196, -4.29649604484438896179e-03) (197, 8.21815654635429382324e-02) (198, 8.63971114158630371094e-02) (199, 1.89749002456665039062e-02) (200, 6.58185705542564392090e-02) (201, 7.42018446326255798340e-02) (202, 4.43251337856054306030e-03) (203, -1.94789730012416839600e-02) (204, 8.19637533277273178101e-03) (205, 1.05806696228682994843e-03) (206, 3.93151678144931793213e-02) (207, -1.15018740296363830566e-01) (208, 1.87251083552837371826e-02) (209, 6.59950822591781616211e-02) (210, 6.52205497026443481445e-02) (211, -2.66018323600292205811e-02) (212, -2.62000169605016708374e-02) (213, 3.37198749184608459473e-02) (214, 1.79505035281181335449e-01) (215, 1.25238910317420959473e-01) (216, 1.33371859788894653320e-01) (217, -7.60044306516647338867e-02) (218, 1.76549479365348815918e-02) (219, -2.25576102733612060547e-01) (220, -1.74862191081047058105e-01) (221, -2.47531309723854064941e-02) (222, 8.87898728251457214355e-02) (223, -3.26502770185470581055e-02) (224, 9.18889194726943969727e-02) (225, -7.27469250559806823730e-02) (226, 2.76567153632640838623e-02) (227, 2.33808476477861404419e-02) (228, -2.85829268395900726318e-02) (229, 4.42327260971069335938e-02) (230, 5.31359314918518066406e-02) (231, 3.90989370644092559814e-02) (232, -1.26681685447692871094e-01) (233, -1.51664838194847106934e-01) (234, -1.15619145333766937256e-01) (235, 1.64344545919448137283e-03) (236, 1.71571094542741775513e-02) (237, -1.20203375816345214844e-01) (238, -3.57833765447139739990e-02) (239, 9.04403626918792724609e-03) (240, 1.21024712920188903809e-01) (241, 7.48268216848373413086e-02) (242, 6.31599798798561096191e-02) (243, 2.73222867399454116821e-02) (244, 7.69428834319114685059e-02) (245, -6.64061233401298522949e-02) (246, -7.85357579588890075684e-02) (247, -9.54458639025688171387e-02) (248, -1.84056088328361511230e-01) (249, -1.56716704368591308594e-01) (250, 4.95587959885597229004e-02) (251, 8.88427272439002990723e-02) (252, 6.30047693848609924316e-02) (253, 4.45309244096279144287e-02) (254, -4.82453629374504089355e-02) (255, 7.91950747370719909668e-02) (256, 1.00859902799129486084e-01) (257, 5.85416071116924285889e-02) (258, -8.65596085786819458008e-02) (259, 9.36090499162673950195e-02) (260, -2.25340407341718673706e-02) (261, -1.83695539832115173340e-01) (262, -1.23279869556427001953e-01) (263, -1.79847523570060729980e-01) (264, -2.08478733897209167480e-01) (265, -1.00866265594959259033e-01) (266, -1.77719276398420333862e-02) (267, 1.52581306174397468567e-02) (268, 1.05643227696418762207e-01) (269, 6.29061609506607055664e-02) (270, 5.69708943367004394531e-02) (271, -1.98586080223321914673e-02) (272, -1.18462732061743736267e-02) (273, -9.14081111550331115723e-02) (274, -6.91240802407264709473e-02) (275, -2.12839767336845397949e-01) (276, -6.92179724574089050293e-02) (277, -5.90671002864837646484e-02) (278, -6.48659467697143554688e-02) (279, 7.75880832225084304810e-03) (280, 2.74720266461372375488e-02) (281, 9.37818139791488647461e-02) (282, -8.18341504782438278198e-03) (283, -5.43567119166254997253e-03) (284, 5.20267933607101440430e-02) (285, -2.78144162148237228394e-02) (286, -1.77934467792510986328e-01) (287, -9.79981273412704467773e-02) (288, -8.28610360622406005859e-02) (289, -2.34971806406974792480e-01) (290, -2.91641950607299804688e-01) (291, -3.44440817832946777344e-01) (292, -2.54258334636688232422e-01) (293, -2.64126688241958618164e-01) (294, -6.98491558432579040527e-02) (295, 3.07483822107315063477e-01) (296, 1.71398445963859558105e-01) (297, 1.21195055544376373291e-01) (298, -5.64277581870555877686e-02) (299, -5.14161810278892517090e-02) (300, -2.68013067543506622314e-02) (301, 7.99284223467111587524e-03) (302, -1.71469047665596008301e-01) (303, -1.93032190203666687012e-01) (304, -5.38396500051021575928e-02) (305, -9.72767546772956848145e-02) (306, 7.63540016487240791321e-03) (307, -1.42212584614753723145e-02) (308, 1.36315077543258666992e-02) (309, 5.41724078357219696045e-02) (310, 9.05082076787948608398e-02) (311, -6.43178522586822509766e-02) (312, 4.13046143949031829834e-02) (313, -1.20498053729534149170e-01) (314, -1.83900237083435058594e-01) (315, -2.12467089295387268066e-01) (316, -3.00154149532318115234e-01) (317, -1.86354741454124450684e-01) (318, -3.64375948905944824219e-01) (319, -3.77488523721694946289e-01) (320, -2.84212112426757812500e-01) (321, -1.82912379503250122070e-01) (322, 7.58896395564079284668e-02) (323, 2.59779185056686401367e-01) (324, 1.49939775466918945312e-01) (325, 8.90964493155479431152e-02) (326, 9.38560068607330322266e-02) (327, 6.91128894686698913574e-02) (328, -6.99694827198982238770e-02) (329, -1.91643223166465759277e-01) (330, -1.42757475376129150391e-01) (331, -1.71196926385164260864e-02) (332, -1.42420142889022827148e-01) (333, 3.28206457197666168213e-02) (334, -9.13713127374649047852e-02) (335, 5.09291514754295349121e-03) (336, 4.46529015898704528809e-02) (337, 2.19915788620710372925e-02) (338, 8.96790698170661926270e-02) (339, -4.73154112696647644043e-02) (340, -4.68329563736915588379e-02) (341, -7.67108798027038574219e-02) (342, -2.63545781373977661133e-01) (343, -2.85842746496200561523e-01) (344, -2.44815677404403686523e-01) (345, -2.47131317853927612305e-01) (346, -1.46273940801620483398e-01) (347, -1.18819884955883026123e-01) (348, -2.54080712795257568359e-01) (349, -2.11620517075061798096e-02) (350, 8.30148532986640930176e-02) (351, 2.51640565693378448486e-02) (352, 4.34554927051067352295e-02) (353, -4.09769378602504730225e-02) (354, -1.86525750905275344849e-02) (355, -1.05871342122554779053e-01) (356, -1.18370257318019866943e-01) (357, -1.51726320385932922363e-01) (358, -2.01759979128837585449e-01) (359, -6.49093613028526306152e-02) (360, -5.32517470419406890869e-02) (361, 3.78312952816486358643e-02) (362, 4.48275357484817504883e-02) (363, -1.34631767868995666504e-02) (364, -5.00402376055717468262e-02) (365, 4.99138124287128448486e-02) (366, 8.24245065450668334961e-02) (367, 9.47776585817337036133e-02) (368, -3.15093025565147399902e-02) (369, -7.79511332511901855469e-02) (370, -2.20194369554519653320e-01) (371, -8.75098779797554016113e-02) (372, -1.34323135018348693848e-01) (373, -7.67225325107574462891e-02) (374, 2.01028361916542053223e-02) (375, -1.39422699809074401855e-01) (376, -1.16094937548041343689e-02) (377, 6.39524729922413825989e-03) (378, 3.41311767697334289551e-02) (379, 4.38124984502792358398e-02) (380, 2.31727305799722671509e-02) (381, 4.54564951360225677490e-02) (382, -7.83563032746315002441e-02) (383, -7.78384804725646972656e-02) (384, -1.67001020163297653198e-02) (385, -3.12977470457553863525e-02) (386, -1.86689436435699462891e-01) (387, 9.05045960098505020142e-03) (388, -9.57909524440765380859e-02) (389, -5.57863377034664154053e-02) (390, 5.07532022893428802490e-02) (391, 1.04683265089988708496e-02) (392, 6.53439834713935852051e-02) (393, -1.08749121427536010742e-02) (394, 9.32744219899177551270e-02) (395, -8.52805748581886291504e-02) (396, -5.20157441496849060059e-02) (397, 3.86759522370994091034e-03) (398, -1.56938105821609497070e-01) (399, -1.04020133614540100098e-01) (400, -5.53217232227325439453e-02) (401, -5.73620870709419250488e-02) (402, -3.72363664209842681885e-02) (403, 2.83573977649211883545e-02) (404, -9.51183435972779989243e-04) (405, 9.57869216799736022949e-02) (406, 4.55257408320903778076e-02) (407, 4.71108146011829376221e-02) (408, 8.81526991724967956543e-03) (409, 5.76565042138099670410e-02) (410, 7.88440331816673278809e-02) (411, 9.65368896722793579102e-02) (412, -6.88921008259057998657e-03) (413, -5.48798032104969024658e-02) (414, -6.44625946879386901855e-02) (415, -2.69998982548713684082e-02) (416, -1.23571366071701049805e-01) (417, 1.59284509718418121338e-02) (418, 5.71992695331573486328e-02) (419, -2.91228145360946655273e-02) (420, 6.73755630850791931152e-02) (421, 4.03196411207318305969e-03) (422, 7.92596563696861267090e-02) (423, 3.02427560091018676758e-02) (424, 9.71924215555191040039e-02) (425, 5.03938421607017517090e-02) (426, 3.47375422716140747070e-02) (427, -1.00823730230331420898e-01) (428, -1.72981973737478256226e-02) (429, 3.62169630825519561768e-02) (430, -5.54575324058532714844e-02) (431, 5.19248992204666137695e-02) (432, 9.26914662122726440430e-02) (433, 9.15519967675209045410e-02) (434, 6.49189250543713569641e-03) (435, -7.74812102317810058594e-02) (436, -9.15739908814430236816e-02) (437, -3.91164273023605346680e-02) (438, -3.83128449320793151855e-02) (439, -1.67731679975986480713e-02) (440, -3.95386815071105957031e-02) (441, -7.10917338728904724121e-02) (442, -1.59251213073730468750e-01) (443, -1.19935162365436553955e-01) (444, -6.02097213268280029297e-02) (445, 2.86931227892637252808e-02) (446, -4.58265952765941619873e-02) (447, 4.33177687227725982666e-02) (448, -4.78118024766445159912e-02) (449, 9.34168770909309387207e-02) (450, -7.81407207250595092773e-02) (451, -7.47643187642097473145e-02) (452, 6.44707353785634040833e-03) (453, 