FANN_FLO_2.1
num_layers=4
learning_rate=0.010000
connection_rate=1.000000
network_type=0
learning_momentum=0.400000
training_algorithm=0
train_error_function=1
train_stop_function=0
cascade_output_change_fraction=0.010000
quickprop_decay=-0.000100
quickprop_mu=1.750000
rprop_increase_factor=1.200000
rprop_decrease_factor=0.500000
rprop_delta_min=0.000000
rprop_delta_max=50.000000
rprop_delta_zero=0.100000
cascade_output_stagnation_epochs=12
cascade_candidate_change_fraction=0.010000
cascade_candidate_stagnation_epochs=12
cascade_max_out_epochs=150
cascade_min_out_epochs=50
cascade_max_cand_epochs=150
cascade_min_cand_epochs=50
cascade_num_candidate_groups=2
bit_fail_limit=3.49999994039535522461e-01
cascade_candidate_limit=1.00000000000000000000e+03
cascade_weight_multiplier=4.00000005960464477539e-01
cascade_activation_functions_count=10
cascade_activation_functions=3 5 7 8 10 11 14 15 16 17 
cascade_activation_steepnesses_count=4
cascade_activation_steepnesses=2.50000000000000000000e-01 5.00000000000000000000e-01 7.50000000000000000000e-01 1.00000000000000000000e+00 
layer_sizes=785 20 16 11 
scale_included=0
neurons (num_inputs, activation_function, activation_steepness)=(0, 0, 0.00000000000000000000e+00) (0, 0, 0.00000000000000000000e+00) (0, 0, 0.00000000000000000000e+00) (0, 0, 0.00000000000000000000e+00) (0, 0, 0.00000000000000000000e+00) (0, 0, 0.00000000000000000000e+00) (0, 0, 0.00000000000000000000e+00) (0, 0, 0.00000000000000000000e+00) (0, 0, 0.00000000000000000000e+00) (0, 0, 0.00000000000000000000e+00) (0, 0, 0.00000000000000000000e+00) (0, 0, 0.00000000000000000000e+00) (0, 0, 0.00000000000000000000e+00) (0, 0, 0.00000000000000000000e+00) (0, 0, 0.00000000000000000000e+00) (0, 0, 0.00000000000000000000e+00) (0, 0, 0.00000000000000000000e+00) (0, 0, 0.00000000000000000000e+00) (0, 0, 0.00000000000000000000e+00) (0, 0, 0.00000000000000000000e+00) (0, 0, 0.00000000000000000000e+00) (0, 0, 0.00000000000000000000e+00) (0, 0, 0.00000000000000000000e+00) (0, 0, 0.00000000000000000000e+00) (0, 0, 0.00000000000000000000e+00) (0, 0, 0.00000000000000000000e+00) (0, 0, 0.00000000000000000000e+00) (0, 0, 0.00000000000000000000e+00) (0, 0, 0.00000000000000000000e+00) (0, 0, 0.00000000000000000000e+00) (0, 0, 0.00000000000000000000e+00) (0, 0, 0.00000000000000000000e+00) (0, 0, 0.00000000000000000000e+00) (0, 0, 0.00000000000000000000e+00) (0, 0, 0.00000000000000000000e+00) (0, 0, 0.00000000000000000000e+00) (0, 0, 0.00000000000000000000e+00) (0, 0, 0.00000000000000000000e+00) (0, 0, 0.00000000000000000000e+00) (0, 0, 0.00000000000000000000e+00) (0, 0, 0.00000000000000000000e+00) (0, 0, 0.00000000000000000000e+00) (0, 0, 0.00000000000000000000e+00) (0, 0, 0.00000000000000000000e+00) (0, 0, 0.00000000000000000000e+00) (0, 0, 0.00000000000000000000e+00) (0, 0, 0.00000000000000000000e+00) (0, 0, 0.00000000000000000000e+00) (0, 0, 0.00000000000000000000e+00) (0, 0, 0.00000000000000000000e+00) (0, 0, 0.00000000000000000000e+00) (0, 0, 0.00000000000000000000e+00) (0, 0, 0.00000000000000000000e+00) (0, 0, 0.00000000000000000000e+00) (0, 0, 0.00000000000000000000e+00) (0, 0, 0.00000000000000000000e+00) (0, 0, 0.00000000000000000000e+00) (0, 0, 0.00000000000000000000e+00) (0, 0, 0.00000000000000000000e+00) (0, 0, 0.00000000000000000000e+00) (0, 0, 0.00000000000000000000e+00) (0, 0, 0.00000000000000000000e+00) (0, 0, 0.00000000000000000000e+00) (0, 0, 0.00000000000000000000e+00) (0, 0, 0.00000000000000000000e+00) (0, 0, 0.00000000000000000000e+00) (0, 0, 0.00000000000000000000e+00) (0, 0, 0.00000000000000000000e+00) (0, 0, 0.00000000000000000000e+00) (0, 0, 0.00000000000000000000e+00) (0, 0, 0.00000000000000000000e+00) (0, 0, 0.00000000000000000000e+00) (0, 0, 0.00000000000000000000e+00) (0, 0, 0.00000000000000000000e+00) (0, 0, 0.00000000000000000000e+00) (0, 0, 0.00000000000000000000e+00) (0, 0, 0.00000000000000000000e+00) (0, 0, 0.00000000000000000000e+00) (0, 0, 0.00000000000000000000e+00) (0, 0, 0.00000000000000000000e+00) (0, 0, 0.00000000000000000000e+00) (0, 0, 0.00000000000000000000e+00) (0, 0, 0.00000000000000000000e+00) (0, 0, 0.00000000000000000000e+00) (0, 0, 0.00000000000000000000e+00) (0, 0, 0.00000000000000000000e+00) (0, 0, 0.00000000000000000000e+00) (0, 0, 0.00000000000000000000e+00) (0, 0, 0.00000000000000000000e+00) (0, 0, 0.00000000000000000000e+00) (0, 0, 0.00000000000000000000e+00) (0, 0, 0.00000000000000000000e+00) (0, 0, 0.00000000000000000000e+00) (0, 0, 0.00000000000000000000e+00) (0, 0, 0.00000000000000000000e+00) (0, 0, 0.00000000000000000000e+00) (0, 0, 0.00000000000000000000e+00) (0, 0, 0.00000000000000000000e+00) (0, 0, 0.00000000000000000000e+00) (0, 0, 0.00000000000000000000e+00) (0, 0, 0.00000000000000000000e+00) (0, 0, 0.00000000000000000000e+00) (0, 0, 0.00000000000000000000e+00) (0, 0, 0.00000000000000000000e+00) (0, 0, 0.00000000000000000000e+00) (0, 0, 0.00000000000000000000e+00) (0, 0, 0.00000000000000000000e+00) (0, 0, 0.00000000000000000000e+00) (0, 0, 0.00000000000000000000e+00) (0, 0, 0.00000000000000000000e+00) (0, 0, 0.00000000000000000000e+00) (0, 0, 0.00000000000000000000e+00) (0, 0, 0.00000000000000000000e+00) (0, 0, 0.00000000000000000000e+00) (0, 0, 0.00000000000000000000e+00) (0, 0, 0.00000000000000000000e+00) (0, 0, 0.00000000000000000000e+00) (0, 0, 0.00000000000000000000e+00) (0, 0, 0.00000000000000000000e+00) (0, 0, 0.00000000000000000000e+00) (0, 0, 0.00000000000000000000e+00) (0, 0, 0.00000000000000000000e+00) (0, 0, 0.00000000000000000000e+00) (0, 0, 0.00000000000000000000e+00) (0, 0, 0.00000000000000000000e+00) (0, 0, 0.00000000000000000000e+00) (0, 0, 0.00000000000000000000e+00) (0, 0, 0.00000000000000000000e+00) (0, 0, 0.00000000000000000000e+00) (0, 0, 0.00000000000000000000e+00) (0, 0, 0.00000000000000000000e+00) (0, 0, 0.00000000000000000000e+00) (0, 0, 0.00000000000000000000e+00) (0, 0, 0.00000000000000000000e+00) (0, 0, 0.00000000000000000000e+00) (0, 0, 0.00000000000000000000e+00) (0, 0, 0.00000000000000000000e+00) (0, 0, 0.00000000000000000000e+00) (0, 0, 0.00000000000000000000e+00) (0, 0, 0.00000000000000000000e+00) (0, 0, 0.00000000000000000000e+00) (0, 0, 0.00000000000000000000e+00) (0, 0, 0.00000000000000000000e+00) (0, 0, 0.00000000000000000000e+00) (0, 0, 0.00000000000000000000e+00) (0, 0, 0.00000000000000000000e+00) (0, 0, 0.00000000000000000000e+00) (0, 0, 0.00000000000000000000e+00) (0, 0, 0.00000000000000000000e+00) (0, 0, 0.00000000000000000000e+00) (0, 0, 0.00000000000000000000e+00) (0, 0, 0.00000000000000000000e+00) (0, 0, 0.00000000000000000000e+00) (0, 0, 0.00000000000000000000e+00) (0, 0, 0.00000000000000000000e+00) (0, 0, 0.00000000000000000000e+00) (0, 0, 0.00000000000000000000e+00) (0, 0, 0.00000000000000000000e+00) (0, 0, 0.00000000000000000000e+00) (0, 0, 0.00000000000000000000e+00) (0, 0, 0.00000000000000000000e+00) (0, 0, 0.00000000000000000000e+00) (0, 0, 0.00000000000000000000e+00) (0, 0, 0.00000000000000000000e+00) (0, 0, 0.00000000000000000000e+00) (0, 0, 0.00000000000000000000e+00) (0, 0, 0.00000000000000000000e+00) (0, 0, 0.00000000000000000000e+00) (0, 0, 0.00000000000000000000e+00) (0, 0, 0.00000000000000000000e+00) (0, 0, 0.00000000000000000000e+00) (0, 0, 0.00000000000000000000e+00) (0, 0, 0.00000000000000000000e+00) (0, 0, 0.00000000000000000000e+00) (0, 0, 0.00000000000000000000e+00) (0, 0, 0.00000000000000000000e+00) (0, 0, 0.00000000000000000000e+00) (0, 0, 0.00000000000000000000e+00) (0, 0, 0.00000000000000000000e+00) (0, 0, 0.00000000000000000000e+00) (0, 0, 0.00000000000000000000e+00) (0, 0, 0.00000000000000000000e+00) (0, 0, 0.00000000000000000000e+00) (0, 0, 0.00000000000000000000e+00) (0, 0, 0.00000000000000000000e+00) (0, 0, 0.00000000000000000000e+00) (0, 0, 0.00000000000000000000e+00) (0, 0, 0.00000000000000000000e+00) (0, 0, 0.00000000000000000000e+00) (0, 0, 0.00000000000000000000e+00) (0, 0, 0.00000000000000000000e+00) (0, 0, 0.00000000000000000000e+00) (0, 0, 0.00000000000000000000e+00) (0, 0, 0.00000000000000000000e+00) (0, 0, 0.00000000000000000000e+00) (0, 0, 0.00000000000000000000e+00) (0, 0, 0.00000000000000000000e+00) (0, 0, 0.00000000000000000000e+00) (0, 0, 0.00000000000000000000e+00) (0, 0, 0.00000000000000000000e+00) (0, 0, 0.00000000000000000000e+00) (0, 0, 0.00000000000000000000e+00) (0, 0, 0.00000000000000000000e+00) (0, 0, 0.00000000000000000000e+00) (0, 0, 0.00000000000000000000e+00) (0, 0, 0.00000000000000000000e+00) (0, 0, 0.00000000000000000000e+00) (0, 0, 0.00000000000000000000e+00) (0, 0, 0.00000000000000000000e+00) (0, 0, 0.00000000000000000000e+00) (0, 0, 0.00000000000000000000e+00) (0, 0, 0.00000000000000000000e+00) (0, 0, 0.00000000000000000000e+00) (0, 0, 0.00000000000000000000e+00) (0, 0, 0.00000000000000000000e+00) (0, 0, 0.00000000000000000000e+00) (0, 0, 0.00000000000000000000e+00) (0, 0, 0.00000000000000000000e+00) (0, 0, 0.00000000000000000000e+00) (0, 0, 0.00000000000000000000e+00) (0, 0, 0.00000000000000000000e+00) (0, 0, 0.00000000000000000000e+00) (0, 0, 0.00000000000000000000e+00) (0, 0, 0.00000000000000000000e+00) (0, 0, 0.00000000000000000000e+00) (0, 0, 0.00000000000000000000e+00) (0, 0, 0.00000000000000000000e+00) (0, 0, 0.00000000000000000000e+00) (0, 0, 0.00000000000000000000e+00) (0, 0, 0.00000000000000000000e+00) (0, 0, 0.00000000000000000000e+00) (0, 0, 0.00000000000000000000e+00) (0, 0, 0.00000000000000000000e+00) (0, 0, 0.00000000000000000000e+00) (0, 0, 0.00000000000000000000e+00) (0, 0, 0.00000000000000000000e+00) (0, 0, 0.00000000000000000000e+00) (0, 0, 0.00000000000000000000e+00) (0, 0, 0.00000000000000000000e+00) (0, 0, 0.00000000000000000000e+00) (0, 0, 0.00000000000000000000e+00) (0, 0, 0.00000000000000000000e+00) (0, 0, 0.00000000000000000000e+00) (0, 0, 0.00000000000000000000e+00) (0, 0, 0.00000000000000000000e+00) (0, 0, 0.00000000000000000000e+00) (0, 0, 0.00000000000000000000e+00) (0, 0, 0.00000000000000000000e+00) (0, 0, 0.00000000000000000000e+00) (0, 0, 0.00000000000000000000e+00) (0, 0, 0.00000000000000000000e+00) (0, 0, 0.00000000000000000000e+00) (0, 0, 0.00000000000000000000e+00) (0, 0, 0.00000000000000000000e+00) (0, 0, 0.00000000000000000000e+00) (0, 0, 0.00000000000000000000e+00) (0, 0, 0.00000000000000000000e+00) (0, 0, 0.00000000000000000000e+00) (0, 0, 0.00000000000000000000e+00) (0, 0, 0.00000000000000000000e+00) (0, 0, 0.00000000000000000000e+00) (0, 0, 0.00000000000000000000e+00) (0, 0, 0.00000000000000000000e+00) (0, 0, 0.00000000000000000000e+00) (0, 0, 0.00000000000000000000e+00) (0, 0, 0.00000000000000000000e+00) (0, 0, 0.00000000000000000000e+00) (0, 0, 0.00000000000000000000e+00) (0, 0, 0.00000000000000000000e+00) (0, 0, 0.00000000000000000000e+00) (0, 0, 0.00000000000000000000e+00) (0, 0, 0.00000000000000000000e+00) (0, 0, 0.00000000000000000000e+00) (0, 0, 0.00000000000000000000e+00) (0, 0, 0.00000000000000000000e+00) (0, 0, 0.00000000000000000000e+00) (0, 0, 0.00000000000000000000e+00) (0, 0, 0.00000000000000000000e+00) (0, 0, 0.00000000000000000000e+00) (0, 0, 0.00000000000000000000e+00) (0, 0, 0.00000000000000000000e+00) (0, 0, 0.00000000000000000000e+00) (0, 0, 0.00000000000000000000e+00) (0, 0, 0.00000000000000000000e+00) (0, 0, 0.00000000000000000000e+00) (0, 0, 0.00000000000000000000e+00) (0, 0, 0.00000000000000000000e+00) (0, 0, 0.00000000000000000000e+00) (0, 0, 0.00000000000000000000e+00) (0, 0, 0.00000000000000000000e+00) (0, 0, 0.00000000000000000000e+00) (0, 0, 0.00000000000000000000e+00) (0, 0, 0.00000000000000000000e+00) (0, 0, 0.00000000000000000000e+00) (0, 0, 0.00000000000000000000e+00) (0, 0, 0.00000000000000000000e+00) (0, 0, 0.00000000000000000000e+00) (0, 0, 0.00000000000000000000e+00) (0, 0, 0.00000000000000000000e+00) (0, 0, 0.00000000000000000000e+00) (0, 0, 0.00000000000000000000e+00) (0, 0, 0.00000000000000000000e+00) (0, 0, 0.00000000000000000000e+00) (0, 0, 0.00000000000000000000e+00) (0, 0, 0.00000000000000000000e+00) (0, 0, 0.00000000000000000000e+00) (0, 0, 0.00000000000000000000e+00) (0, 0, 0.00000000000000000000e+00) (0, 0, 0.00000000000000000000e+00) (0, 0, 0.00000000000000000000e+00) (0, 0, 0.00000000000000000000e+00) (0, 0, 0.00000000000000000000e+00) (0, 0, 0.00000000000000000000e+00) (0, 0, 0.00000000000000000000e+00) (0, 0, 0.00000000000000000000e+00) (0, 0, 0.00000000000000000000e+00) (0, 0, 0.00000000000000000000e+00) (0, 0, 0.00000000000000000000e+00) (0, 0, 0.00000000000000000000e+00) (0, 0, 0.00000000000000000000e+00) (0, 0, 0.00000000000000000000e+00) (0, 0, 0.00000000000000000000e+00) (0, 0, 0.00000000000000000000e+00) (0, 0, 0.00000000000000000000e+00) (0, 0, 0.00000000000000000000e+00) (0, 0, 0.00000000000000000000e+00) (0, 0, 0.00000000000000000000e+00) (0, 0, 0.00000000000000000000e+00) (0, 0, 0.00000000000000000000e+00) (0, 0, 0.00000000000000000000e+00) (0, 0, 0.00000000000000000000e+00) (0, 0, 0.00000000000000000000e+00) (0, 0, 0.00000000000000000000e+00) (0, 0, 0.00000000000000000000e+00) (0, 0, 0.00000000000000000000e+00) (0, 0, 0.00000000000000000000e+00) (0, 0, 0.00000000000000000000e+00) (0, 0, 0.00000000000000000000e+00) (0, 0, 0.00000000000000000000e+00) (0, 0, 0.00000000000000000000e+00) (0, 0, 0.00000000000000000000e+00) (0, 0, 0.00000000000000000000e+00) (0, 0, 0.00000000000000000000e+00) (0, 0, 0.00000000000000000000e+00) (0, 0, 0.00000000000000000000e+00) (0, 0, 0.00000000000000000000e+00) (0, 0, 0.00000000000000000000e+00) (0, 0, 0.00000000000000000000e+00) (0, 0, 0.00000000000000000000e+00) (0, 0, 0.00000000000000000000e+00) (0, 0, 0.00000000000000000000e+00) (0, 0, 0.00000000000000000000e+00) (0, 0, 0.00000000000000000000e+00) (0, 0, 0.00000000000000000000e+00) (0, 0, 0.00000000000000000000e+00) (0, 0, 0.00000000000000000000e+00) (0, 0, 0.00000000000000000000e+00) (0, 0, 0.00000000000000000000e+00) (0, 0, 0.00000000000000000000e+00) (0, 0, 0.00000000000000000000e+00) (0, 0, 0.00000000000000000000e+00) (0, 0, 0.00000000000000000000e+00) (0, 0, 0.00000000000000000000e+00) (0, 0, 0.00000000000000000000e+00) (0, 0, 0.00000000000000000000e+00) (0, 0, 0.00000000000000000000e+00) (0, 0, 0.00000000000000000000e+00) (0, 0, 0.00000000000000000000e+00) (0, 0, 0.00000000000000000000e+00) (0, 0, 0.00000000000000000000e+00) (0, 0, 0.00000000000000000000e+00) (0, 0, 0.00000000000000000000e+00) (0, 0, 0.00000000000000000000e+00) (0, 0, 0.00000000000000000000e+00) (0, 0, 0.00000000000000000000e+00) (0, 0, 0.00000000000000000000e+00) (0, 0, 0.00000000000000000000e+00) (0, 0, 0.00000000000000000000e+00) (0, 0, 0.00000000000000000000e+00) (0, 0, 0.00000000000000000000e+00) (0, 0, 0.00000000000000000000e+00) (0, 0, 0.00000000000000000000e+00) (0, 0, 0.00000000000000000000e+00) (0, 0, 0.00000000000000000000e+00) (0, 0, 0.00000000000000000000e+00) (0, 0, 0.00000000000000000000e+00) (0, 0, 0.00000000000000000000e+00) (0, 0, 0.00000000000000000000e+00) (0, 0, 0.00000000000000000000e+00) (0, 0, 0.00000000000000000000e+00) (0, 0, 0.00000000000000000000e+00) (0, 0, 0.00000000000000000000e+00) (0, 0, 0.00000000000000000000e+00) (0, 0, 0.00000000000000000000e+00) (0, 0, 0.00000000000000000000e+00) (0, 0, 0.00000000000000000000e+00) (0, 0, 0.00000000000000000000e+00) (0, 0, 0.00000000000000000000e+00) (0, 0, 0.00000000000000000000e+00) (0, 0, 0.00000000000000000000e+00) (0, 0, 0.00000000000000000000e+00) (0, 0, 0.00000000000000000000e+00) (0, 0, 0.00000000000000000000e+00) (0, 0, 0.00000000000000000000e+00) (0, 0, 0.00000000000000000000e+00) (0, 0, 0.00000000000000000000e+00) (0, 0, 0.00000000000000000000e+00) (0, 0, 0.00000000000000000000e+00) (0, 0, 0.00000000000000000000e+00) (0, 0, 0.00000000000000000000e+00) (0, 0, 0.00000000000000000000e+00) (0, 0, 0.00000000000000000000e+00) (0, 0, 0.00000000000000000000e+00) (0, 0, 0.00000000000000000000e+00) (0, 0, 0.00000000000000000000e+00) (0, 0, 0.00000000000000000000e+00) (0, 0, 0.00000000000000000000e+00) (0, 0, 0.00000000000000000000e+00) (0, 0, 0.00000000000000000000e+00) (0, 0, 0.00000000000000000000e+00) (0, 0, 0.00000000000000000000e+00) (0, 0, 0.00000000000000000000e+00) (0, 0, 0.00000000000000000000e+00) (0, 0, 0.00000000000000000000e+00) (0, 0, 0.00000000000000000000e+00) (0, 0, 0.00000000000000000000e+00) (0, 0, 0.00000000000000000000e+00) (0, 0, 0.00000000000000000000e+00) (0, 0, 0.00000000000000000000e+00) (0, 0, 0.00000000000000000000e+00) (0, 0, 0.00000000000000000000e+00) (0, 0, 0.00000000000000000000e+00) (0, 0, 0.00000000000000000000e+00) (0, 0, 0.00000000000000000000e+00) (0, 0, 0.00000000000000000000e+00) (0, 0, 0.00000000000000000000e+00) (0, 0, 0.00000000000000000000e+00) (0, 0, 0.00000000000000000000e+00) (0, 0, 0.00000000000000000000e+00) (0, 0, 0.00000000000000000000e+00) (0, 0, 0.00000000000000000000e+00) (0, 0, 0.00000000000000000000e+00) (0, 0, 0.00000000000000000000e+00) (0, 0, 0.00000000000000000000e+00) (0, 0, 0.00000000000000000000e+00) (0, 0, 0.00000000000000000000e+00) (0, 0, 0.00000000000000000000e+00) (0, 0, 0.00000000000000000000e+00) (0, 0, 0.00000000000000000000e+00) (0, 0, 0.00000000000000000000e+00) (0, 0, 0.00000000000000000000e+00) (0, 0, 0.00000000000000000000e+00) (0, 0, 0.00000000000000000000e+00) (0, 0, 0.00000000000000000000e+00) (0, 0, 0.00000000000000000000e+00) (0, 0, 0.00000000000000000000e+00) (0, 0, 0.00000000000000000000e+00) (0, 0, 0.00000000000000000000e+00) (0, 0, 0.00000000000000000000e+00) (0, 0, 0.00000000000000000000e+00) (0, 0, 0.00000000000000000000e+00) (0, 0, 0.00000000000000000000e+00) (0, 0, 0.00000000000000000000e+00) (0, 0, 0.00000000000000000000e+00) (0, 0, 0.00000000000000000000e+00) (0, 0, 0.00000000000000000000e+00) (0, 0, 0.00000000000000000000e+00) (0, 0, 0.00000000000000000000e+00) (0, 0, 0.00000000000000000000e+00) (0, 0, 0.00000000000000000000e+00) (0, 0, 0.00000000000000000000e+00) (0, 0, 0.00000000000000000000e+00) (0, 0, 0.00000000000000000000e+00) (0, 0, 0.00000000000000000000e+00) (0, 0, 0.00000000000000000000e+00) (0, 0, 0.00000000000000000000e+00) (0, 0, 0.00000000000000000000e+00) (0, 0, 0.00000000000000000000e+00) (0, 0, 0.00000000000000000000e+00) (0, 0, 0.00000000000000000000e+00) (0, 0, 0.00000000000000000000e+00) (0, 0, 0.00000000000000000000e+00) (0, 0, 0.00000000000000000000e+00) (0, 0, 0.00000000000000000000e+00) (0, 0, 0.00000000000000000000e+00) (0, 0, 0.00000000000000000000e+00) (0, 0, 0.00000000000000000000e+00) (0, 0, 0.00000000000000000000e+00) (0, 0, 0.00000000000000000000e+00) (0, 0, 0.00000000000000000000e+00) (0, 0, 0.00000000000000000000e+00) (0, 0, 0.00000000000000000000e+00) (0, 0, 0.00000000000000000000e+00) (0, 0, 0.00000000000000000000e+00) (0, 0, 0.00000000000000000000e+00) (0, 0, 0.00000000000000000000e+00) (0, 0, 0.00000000000000000000e+00) (0, 0, 0.00000000000000000000e+00) (0, 0, 0.00000000000000000000e+00) (0, 0, 0.00000000000000000000e+00) (0, 0, 0.00000000000000000000e+00) (0, 0, 0.00000000000000000000e+00) (0, 0, 0.00000000000000000000e+00) (0, 0, 0.00000000000000000000e+00) (0, 0, 0.00000000000000000000e+00) (0, 0, 0.00000000000000000000e+00) (0, 0, 0.00000000000000000000e+00) (0, 0, 0.00000000000000000000e+00) (0, 0, 0.00000000000000000000e+00) (0, 0, 0.00000000000000000000e+00) (0, 0, 0.00000000000000000000e+00) (0, 0, 0.00000000000000000000e+00) (0, 0, 0.00000000000000000000e+00) (0, 0, 0.00000000000000000000e+00) (0, 0, 0.00000000000000000000e+00) (0, 0, 0.00000000000000000000e+00) (0, 0, 0.00000000000000000000e+00) (0, 0, 0.00000000000000000000e+00) (0, 0, 0.00000000000000000000e+00) (0, 0, 0.00000000000000000000e+00) (0, 0, 0.00000000000000000000e+00) (0, 0, 0.00000000000000000000e+00) (0, 0, 0.00000000000000000000e+00) (0, 0, 0.00000000000000000000e+00) (0, 0, 0.00000000000000000000e+00) (0, 0, 0.00000000000000000000e+00) (0, 0, 0.00000000000000000000e+00) (0, 0, 0.00000000000000000000e+00) (0, 0, 0.00000000000000000000e+00) (0, 0, 0.00000000000000000000e+00) (0, 0, 0.00000000000000000000e+00) (0, 0, 0.00000000000000000000e+00) (0, 0, 0.00000000000000000000e+00) (0, 0, 0.00000000000000000000e+00) (0, 0, 0.00000000000000000000e+00) (0, 0, 0.00000000000000000000e+00) (0, 0, 0.00000000000000000000e+00) (0, 0, 0.00000000000000000000e+00) (0, 0, 0.00000000000000000000e+00) (0, 0, 0.00000000000000000000e+00) (0, 0, 0.00000000000000000000e+00) (0, 0, 0.00000000000000000000e+00) (0, 0, 0.00000000000000000000e+00) (0, 0, 0.00000000000000000000e+00) (0, 0, 0.00000000000000000000e+00) (0, 0, 0.00000000000000000000e+00) (0, 0, 0.00000000000000000000e+00) (0, 0, 0.00000000000000000000e+00) (0, 0, 0.00000000000000000000e+00) (0, 0, 0.00000000000000000000e+00) (0, 0, 0.00000000000000000000e+00) (0, 0, 0.00000000000000000000e+00) (0, 0, 0.00000000000000000000e+00) (0, 0, 0.00000000000000000000e+00) (0, 0, 0.00000000000000000000e+00) (0, 0, 0.00000000000000000000e+00) (0, 0, 0.00000000000000000000e+00) (0, 0, 0.00000000000000000000e+00) (0, 0, 0.00000000000000000000e+00) (0, 0, 0.00000000000000000000e+00) (0, 0, 0.00000000000000000000e+00) (0, 0, 0.00000000000000000000e+00) (0, 0, 0.00000000000000000000e+00) (0, 0, 0.00000000000000000000e+00) (0, 0, 0.00000000000000000000e+00) (0, 0, 0.00000000000000000000e+00) (0, 0, 0.00000000000000000000e+00) (0, 0, 0.00000000000000000000e+00) (0, 0, 0.00000000000000000000e+00) (0, 0, 0.00000000000000000000e+00) (0, 0, 0.00000000000000000000e+00) (0, 0, 0.00000000000000000000e+00) (0, 0, 0.00000000000000000000e+00) (0, 0, 0.00000000000000000000e+00) (0, 0, 0.00000000000000000000e+00) (0, 0, 0.00000000000000000000e+00) (0, 0, 0.00000000000000000000e+00) (0, 0, 0.00000000000000000000e+00) (0, 0, 0.00000000000000000000e+00) (0, 0, 0.00000000000000000000e+00) (0, 0, 0.00000000000000000000e+00) (0, 0, 0.00000000000000000000e+00) (0, 0, 0.00000000000000000000e+00) (0, 0, 0.00000000000000000000e+00) (0, 0, 0.00000000000000000000e+00) (0, 0, 0.00000000000000000000e+00) (0, 0, 0.00000000000000000000e+00) (0, 0, 0.00000000000000000000e+00) (0, 0, 0.00000000000000000000e+00) (0, 0, 0.00000000000000000000e+00) (0, 0, 0.00000000000000000000e+00) (0, 0, 0.00000000000000000000e+00) (0, 0, 0.00000000000000000000e+00) (0, 0, 0.00000000000000000000e+00) (0, 0, 0.00000000000000000000e+00) (0, 0, 0.00000000000000000000e+00) (0, 0, 0.00000000000000000000e+00) (0, 0, 0.00000000000000000000e+00) (0, 0, 0.00000000000000000000e+00) (0, 0, 0.00000000000000000000e+00) (0, 0, 0.00000000000000000000e+00) (0, 0, 0.00000000000000000000e+00) (0, 0, 0.00000000000000000000e+00) (0, 0, 0.00000000000000000000e+00) (0, 0, 0.00000000000000000000e+00) (0, 0, 0.00000000000000000000e+00) (0, 0, 0.00000000000000000000e+00) (0, 0, 0.00000000000000000000e+00) (0, 0, 0.00000000000000000000e+00) (0, 0, 0.00000000000000000000e+00) (0, 0, 0.00000000000000000000e+00) (0, 0, 0.00000000000000000000e+00) (0, 0, 0.00000000000000000000e+00) (0, 0, 0.00000000000000000000e+00) (0, 0, 0.00000000000000000000e+00) (0, 0, 0.00000000000000000000e+00) (0, 0, 0.00000000000000000000e+00) (0, 0, 0.00000000000000000000e+00) (0, 0, 0.00000000000000000000e+00) (0, 0, 0.00000000000000000000e+00) (0, 0, 0.00000000000000000000e+00) (0, 0, 0.00000000000000000000e+00) (0, 0, 0.00000000000000000000e+00) (0, 0, 0.00000000000000000000e+00) (0, 0, 0.00000000000000000000e+00) (0, 0, 0.00000000000000000000e+00) (0, 0, 0.00000000000000000000e+00) (0, 0, 0.00000000000000000000e+00) (0, 0, 0.00000000000000000000e+00) (0, 0, 0.00000000000000000000e+00) (0, 0, 0.00000000000000000000e+00) (0, 0, 0.00000000000000000000e+00) (0, 0, 0.00000000000000000000e+00) (0, 0, 0.00000000000000000000e+00) (0, 0, 0.00000000000000000000e+00) (0, 0, 0.00000000000000000000e+00) (0, 0, 0.00000000000000000000e+00) (0, 0, 0.00000000000000000000e+00) (0, 0, 0.00000000000000000000e+00) (0, 0, 0.00000000000000000000e+00) (0, 0, 0.00000000000000000000e+00) (0, 0, 0.00000000000000000000e+00) (0, 0, 0.00000000000000000000e+00) (0, 0, 0.00000000000000000000e+00) (0, 0, 0.00000000000000000000e+00) (0, 0, 0.00000000000000000000e+00) (0, 0, 0.00000000000000000000e+00) (0, 0, 0.00000000000000000000e+00) (0, 0, 0.00000000000000000000e+00) (0, 0, 0.00000000000000000000e+00) (0, 0, 0.00000000000000000000e+00) (0, 0, 0.00000000000000000000e+00) (0, 0, 0.00000000000000000000e+00) (0, 0, 0.00000000000000000000e+00) (0, 0, 0.00000000000000000000e+00) (0, 0, 0.00000000000000000000e+00) (0, 0, 0.00000000000000000000e+00) (0, 0, 0.00000000000000000000e+00) (0, 0, 0.00000000000000000000e+00) (0, 0, 0.00000000000000000000e+00) (0, 0, 0.00000000000000000000e+00) (0, 0, 0.00000000000000000000e+00) (0, 0, 0.00000000000000000000e+00) (0, 0, 0.00000000000000000000e+00) (0, 0, 0.00000000000000000000e+00) (0, 0, 0.00000000000000000000e+00) (0, 0, 0.00000000000000000000e+00) (0, 0, 0.00000000000000000000e+00) (0, 0, 0.00000000000000000000e+00) (0, 0, 0.00000000000000000000e+00) (0, 0, 0.00000000000000000000e+00) (0, 0, 0.00000000000000000000e+00) (0, 0, 0.00000000000000000000e+00) (0, 0, 0.00000000000000000000e+00) (0, 0, 0.00000000000000000000e+00) (0, 0, 0.00000000000000000000e+00) (0, 0, 0.00000000000000000000e+00) (0, 0, 0.00000000000000000000e+00) (0, 0, 0.00000000000000000000e+00) (0, 0, 0.00000000000000000000e+00) (0, 0, 0.00000000000000000000e+00) (0, 0, 0.00000000000000000000e+00) (0, 0, 0.00000000000000000000e+00) (0, 0, 0.00000000000000000000e+00) (0, 0, 0.00000000000000000000e+00) (0, 0, 0.00000000000000000000e+00) (0, 0, 0.00000000000000000000e+00) (0, 0, 0.00000000000000000000e+00) (0, 0, 0.00000000000000000000e+00) (0, 0, 0.00000000000000000000e+00) (0, 0, 0.00000000000000000000e+00) (0, 0, 0.00000000000000000000e+00) (0, 0, 0.00000000000000000000e+00) (0, 0, 0.00000000000000000000e+00) (0, 0, 0.00000000000000000000e+00) (0, 0, 0.00000000000000000000e+00) (0, 0, 0.00000000000000000000e+00) (0, 0, 0.00000000000000000000e+00) (0, 0, 0.00000000000000000000e+00) (0, 0, 0.00000000000000000000e+00) (0, 0, 0.00000000000000000000e+00) (0, 0, 0.00000000000000000000e+00) (0, 0, 0.00000000000000000000e+00) (0, 0, 0.00000000000000000000e+00) (0, 0, 0.00000000000000000000e+00) (0, 0, 0.00000000000000000000e+00) (0, 0, 0.00000000000000000000e+00) (0, 0, 0.00000000000000000000e+00) (0, 0, 0.00000000000000000000e+00) (0, 0, 0.00000000000000000000e+00) (0, 0, 0.00000000000000000000e+00) (0, 0, 0.00000000000000000000e+00) (0, 0, 0.00000000000000000000e+00) (0, 0, 0.00000000000000000000e+00) (0, 0, 0.00000000000000000000e+00) (0, 0, 0.00000000000000000000e+00) (0, 0, 0.00000000000000000000e+00) (0, 0, 0.00000000000000000000e+00) (0, 0, 0.00000000000000000000e+00) (0, 0, 0.00000000000000000000e+00) (0, 0, 0.00000000000000000000e+00) (0, 0, 0.00000000000000000000e+00) (0, 0, 0.00000000000000000000e+00) (0, 0, 0.00000000000000000000e+00) (0, 0, 0.00000000000000000000e+00) (0, 0, 0.00000000000000000000e+00) (0, 0, 0.00000000000000000000e+00) (0, 0, 0.00000000000000000000e+00) (0, 0, 0.00000000000000000000e+00) (0, 0, 0.00000000000000000000e+00) (0, 0, 0.00000000000000000000e+00) (0, 0, 0.00000000000000000000e+00) (0, 0, 0.00000000000000000000e+00) (0, 0, 0.00000000000000000000e+00) (0, 0, 0.00000000000000000000e+00) (0, 0, 0.00000000000000000000e+00) (0, 0, 0.00000000000000000000e+00) (0, 0, 0.00000000000000000000e+00) (0, 0, 0.00000000000000000000e+00) (0, 0, 0.00000000000000000000e+00) (0, 0, 0.00000000000000000000e+00) (0, 0, 0.00000000000000000000e+00) (0, 0, 0.00000000000000000000e+00) (0, 0, 0.00000000000000000000e+00) (0, 0, 0.00000000000000000000e+00) (0, 0, 0.00000000000000000000e+00) (0, 0, 0.00000000000000000000e+00) (0, 0, 0.00000000000000000000e+00) (0, 0, 0.00000000000000000000e+00) (0, 0, 0.00000000000000000000e+00) (0, 0, 0.00000000000000000000e+00) (0, 0, 0.00000000000000000000e+00) (0, 0, 0.00000000000000000000e+00) (0, 0, 0.00000000000000000000e+00) (0, 0, 0.00000000000000000000e+00) (0, 0, 0.00000000000000000000e+00) (0, 0, 0.00000000000000000000e+00) (0, 0, 0.00000000000000000000e+00) (0, 0, 0.00000000000000000000e+00) (0, 0, 0.00000000000000000000e+00) (0, 0, 0.00000000000000000000e+00) (0, 0, 0.00000000000000000000e+00) (0, 0, 0.00000000000000000000e+00) (0, 0, 0.00000000000000000000e+00) (0, 0, 0.00000000000000000000e+00) (0, 0, 0.00000000000000000000e+00) (0, 0, 0.00000000000000000000e+00) (0, 0, 0.00000000000000000000e+00) (0, 0, 0.00000000000000000000e+00) (0, 0, 0.00000000000000000000e+00) (0, 0, 0.00000000000000000000e+00) (0, 0, 0.00000000000000000000e+00) (0, 0, 0.00000000000000000000e+00) (0, 0, 0.00000000000000000000e+00) (0, 0, 0.00000000000000000000e+00) (0, 0, 0.00000000000000000000e+00) (0, 0, 0.00000000000000000000e+00) (0, 0, 0.00000000000000000000e+00) (0, 0, 0.00000000000000000000e+00) (0, 0, 0.00000000000000000000e+00) (0, 0, 0.00000000000000000000e+00) (0, 0, 0.00000000000000000000e+00) (0, 0, 0.00000000000000000000e+00) (0, 0, 0.00000000000000000000e+00) (0, 0, 0.00000000000000000000e+00) (785, 5, 5.00000000000000000000e-01) (785, 5, 5.00000000000000000000e-01) (785, 5, 5.00000000000000000000e-01) (785, 5, 5.00000000000000000000e-01) (785, 5, 5.00000000000000000000e-01) (785, 5, 5.00000000000000000000e-01) (785, 5, 5.00000000000000000000e-01) (785, 5, 5.00000000000000000000e-01) (785, 5, 5.00000000000000000000e-01) (785, 5, 5.00000000000000000000e-01) (785, 5, 5.00000000000000000000e-01) (785, 5, 5.00000000000000000000e-01) (785, 5, 5.00000000000000000000e-01) (785, 5, 5.00000000000000000000e-01) (785, 5, 5.00000000000000000000e-01) (785, 5, 5.00000000000000000000e-01) (785, 5, 5.00000000000000000000e-01) (785, 5, 5.00000000000000000000e-01) (785, 5, 5.00000000000000000000e-01) (0, 5, 5.00000000000000000000e-01) (20, 5, 5.00000000000000000000e-01) (20, 5, 5.00000000000000000000e-01) (20, 5, 5.00000000000000000000e-01) (20, 5, 5.00000000000000000000e-01) (20, 5, 5.00000000000000000000e-01) (20, 5, 5.00000000000000000000e-01) (20, 5, 5.00000000000000000000e-01) (20, 5, 5.00000000000000000000e-01) (20, 5, 5.00000000000000000000e-01) (20, 5, 5.00000000000000000000e-01) (20, 5, 5.00000000000000000000e-01) (20, 5, 5.00000000000000000000e-01) (20, 5, 5.00000000000000000000e-01) (20, 5, 5.00000000000000000000e-01) (20, 5, 5.00000000000000000000e-01) (0, 5, 5.00000000000000000000e-01) (16, 5, 5.00000000000000000000e-01) (16, 5, 5.00000000000000000000e-01) (16, 5, 5.00000000000000000000e-01) (16, 5, 5.00000000000000000000e-01) (16, 5, 5.00000000000000000000e-01) (16, 5, 5.00000000000000000000e-01) (16, 5, 5.00000000000000000000e-01) (16, 5, 5.00000000000000000000e-01) (16, 5, 5.00000000000000000000e-01) (16, 5, 5.00000000000000000000e-01) (0, 5, 5.00000000000000000000e-01) 
connections (connected_to_neuron, weight)=(0, -8.21488499641418457031e-02) (1, -5.64236454665660858154e-02) (2, 4.17442992329597473145e-02) (3, -1.60249248147010803223e-02) (4, -4.82722893357276916504e-02) (5, -3.64899560809135437012e-02) (6, -4.20730002224445343018e-02) (7, 6.82002305984497070312e-03) (8, -1.74463465809822082520e-02) (9, 5.36705926060676574707e-02) (10, 7.46798440814018249512e-02) (11, 7.55395367741584777832e-02) (12, 7.70135223865509033203e-03) (13, -1.12498030066490173340e-02) (14, 2.93525978922843933105e-02) (15, -1.39378234744071960449e-02) (16, -3.91109846532344818115e-02) (17, -6.88795372843742370605e-02) (18, 7.70027562975883483887e-02) (19, -1.74792855978012084961e-03) (20, 7.98495933413505554199e-02) (21, -2.81233713030815124512e-02) (22, 7.06845894455909729004e-02) (23, -8.79511982202529907227e-02) (24, -1.76165252923965454102e-02) (25, 1.97514444589614868164e-02) (26, -1.97875648736953735352e-02) (27, -1.80718302726745605469e-03) (28, -9.91527512669563293457e-02) (29, -7.19768032431602478027e-02) (30, -2.76887640357017517090e-02) (31, -8.13015997409820556641e-02) (32, -2.84004434943199157715e-02) (33, -8.59444588422775268555e-02) (34, 2.67348438501358032227e-03) (35, 2.33272686600685119629e-02) (36, -2.24344208836555480957e-02) (37, 6.06004819273948669434e-02) (38, -7.07946568727493286133e-02) (39, 5.42779825627803802490e-02) (40, 1.41263054683804512024e-02) (41, -9.69285219907760620117e-02) (42, 3.18515598773956298828e-02) (43, -8.44482481479644775391e-02) (44, -1.83085072785615921021e-02) (45, -4.52346205711364746094e-02) (46, 1.79535054485313594341e-05) (47, 4.45261560380458831787e-02) (48, -1.53060453012585639954e-02) (49, -1.91903859376907348633e-02) (50, -4.95073013007640838623e-02) (51, -2.40185707807540893555e-02) (52, 5.69139793515205383301e-02) (53, -7.65969976782798767090e-02) (54, -1.19697675108909606934e-02) (55, -6.07025474309921264648e-02) (56, 4.31544408202171325684e-02) (57, 6.82426765561103820801e-02) (58, 3.74902710318565368652e-02) (59, 4.40016910433769226074e-02) (60, 9.62658599019050598145e-02) (61, -9.01985019445419311523e-02) (62, 6.27001002430915832520e-02) (63, -3.33770439028739929199e-02) (64, -8.05505514144897460938e-02) (65, -4.61879894137382507324e-02) (66, 6.86487406492233276367e-02) (67, -2.52798218280076980591e-02) (68, -8.75400677323341369629e-02) (69, -1.32674425840377807617e-01) (70, -1.20221473276615142822e-01) (71, -3.44702824950218200684e-02) (72, -1.54993921518325805664e-01) (73, -1.40848699957132339478e-02) (74, -2.08295322954654693604e-02) (75, -3.66575755178928375244e-02) (76, -1.11432038247585296631e-01) (77, -8.94635319709777832031e-02) (78, -5.04477433860301971436e-02) (79, 5.74737861752510070801e-02) (80, 5.52869550883769989014e-02) (81, 2.69291624426841735840e-02) (82, -6.56747370958328247070e-02) (83, 1.22034922242164611816e-02) (84, 5.03321662545204162598e-02) (85, 2.23554968833923339844e-02) (86, 5.15009388327598571777e-02) (87, -6.51339441537857055664e-03) (88, -9.40182805061340332031e-03) (89, -1.11071178689599037170e-02) (90, -6.45066499710083007812e-02) (91, -6.18338352069258689880e-03) (92, 1.11487684771418571472e-02) (93, -9.40172374248504638672e-02) (94, 3.53818177245557308197e-03) (95, 1.32260995451360940933e-03) (96, -3.98914106190204620361e-02) (97, 9.00412537157535552979e-03) (98, -8.52613747119903564453e-02) (99, -1.09755724668502807617e-01) (100, -8.62260088324546813965e-02) (101, -1.38482272624969482422e-01) (102, -1.76123008131980895996e-01) (103, -6.28371834754943847656e-02) (104, -1.53211504220962524414e-01) (105, 2.59386319667100906372e-02) (106, 1.13463699817657470703e-02) (107, 7.16821402311325073242e-02) (108, -9.12451837211847305298e-03) (109, 8.73843654990196228027e-02) (110, 3.37071716785430908203e-03) (111, -8.04596021771430969238e-02) (112, 1.43135339021682739258e-02) (113, 3.76959815621376037598e-02) (114, 3.17438915371894836426e-02) (115, -3.52538824081420898438e-02) (116, -3.66578809916973114014e-02) (117, -2.92160343378782272339e-02) (118, 4.72604446113109588623e-02) (119, 6.30491673946380615234e-02) (120, 1.02812349796295166016e-01) (121, 1.19705215096473693848e-01) (122, -4.81069386005401611328e-02) (123, 1.98921989649534225464e-02) (124, 1.17189645767211914062e-01) (125, 1.28322616219520568848e-01) (126, 1.59996390342712402344e-01) (127, 3.81922498345375061035e-02) (128, 3.59838865697383880615e-02) (129, -9.10303220152854919434e-02) (130, 3.30739133059978485107e-02) (131, -3.86637039482593536377e-02) (132, -9.84136909246444702148e-02) (133, 1.20369885116815567017e-02) (134, 1.96491051465272903442e-02) (135, 9.26750004291534423828e-02) (136, 1.25231012701988220215e-01) (137, -7.73956254124641418457e-02) (138, 3.12068387866020202637e-02) (139, -5.70622012019157409668e-02) (140, 9.94145944714546203613e-02) (141, -6.54224529862403869629e-02) (142, -3.69307361543178558350e-02) (143, 1.35424640029668807983e-02) (144, 7.63411521911621093750e-02) (145, 9.11691114306449890137e-02) (146, 8.02601426839828491211e-02) (147, -4.69180680811405181885e-02) (148, 1.23152891173958778381e-02) (149, 1.02850683033466339111e-01) (150, 1.66695609688758850098e-01) (151, -4.04867418110370635986e-02) (152, -3.80110777914524078369e-02) (153, -8.93063470721244812012e-02) (154, 2.58931159973144531250e-01) (155, 2.08162829279899597168e-01) (156, 2.18816772103309631348e-01) (157, 2.55311191082000732422e-01) (158, 1.53611645102500915527e-01) (159, 1.21922582387924194336e-01) (160, 8.05175527930259704590e-02) (161, 9.76904481649398803711e-02) (162, 4.19451445341110229492e-02) (163, -1.49455238133668899536e-02) (164, 4.17959503829479217529e-02) (165, 5.52897453308105468750e-02) (166, -7.80072212219238281250e-02) (167, 5.74415270239114761353e-03) (168, 6.72110095620155334473e-02) (169, 5.29129877686500549316e-02) (170, 4.81080450117588043213e-02) (171, 6.67874366044998168945e-02) (172, 9.69210937619209289551e-02) (173, -7.47151896357536315918e-02) (174, -1.02595128118991851807e-02) (175, 9.07591432332992553711e-02) (176, 7.78152272105216979980e-02) (177, 3.57405245304107666016e-02) (178, 7.33561590313911437988e-02) (179, -6.65556406602263450623e-03) (180, -1.12694278359413146973e-01) (181, 7.87535391282290220261e-04) (182, 2.58234683424234390259e-02) (183, 1.07094287872314453125e-01) (184, 5.12612611055374145508e-02) (185, -1.62260755896568298340e-01) (186, -8.47875177860260009766e-02) (187, 5.71962781250476837158e-02) (188, 2.47489973902702331543e-01) (189, 1.43360570073127746582e-01) (190, 2.28847101330757141113e-01) (191, 1.22949607670307159424e-01) (192, 1.43994972109794616699e-01) (193, -1.09164994210004806519e-02) (194, 4.31136824190616607666e-02) (195, 9.99099574983119964600e-03) (196, 7.01301470398902893066e-02) (197, 5.65369389951229095459e-02) (198, -7.63862580060958862305e-02) (199, 3.20787243545055389404e-02) (200, -1.20028788223862648010e-02) (201, 1.06154248118400573730e-01) (202, 2.62031424790620803833e-02) (203, -1.28257321193814277649e-02) (204, 2.00247541069984436035e-01) (205, 1.55112415552139282227e-01) (206, 1.06598183512687683105e-01) (207, 8.93013700842857360840e-02) (208, -3.33061292767524719238e-02) (209, -4.94952313601970672607e-02) (210, 1.34777203202247619629e-02) (211, -9.63328182697296142578e-02) (212, -2.55862861871719360352e-01) (213, -2.98681277781724929810e-02) (214, 4.23829518258571624756e-02) (215, 3.62876020371913909912e-02) (216, 9.34529677033424377441e-02) (217, 8.73006507754325866699e-02) (218, 1.76530122756958007812e-01) (219, 1.27361416816711425781e-01) (220, 1.29458442330360412598e-01) (221, 2.22198918461799621582e-01) (222, 4.90435287356376647949e-02) (223, -4.89401519298553466797e-02) (224, -9.94834899902343750000e-02) (225, -5.12398928403854370117e-02) (226, 5.57563416659832000732e-02) (227, 3.00400368869304656982e-02) (228, -8.26659798622131347656e-02) (229, 8.20607841014862060547e-02) (230, 4.10399883985519409180e-02) (231, 1.01867467164993286133e-01) (232, 9.88490507006645202637e-02) (233, -7.84913823008537292480e-02) (234, 1.68550815433263778687e-02) (235, 2.08283931016921997070e-01) (236, 3.17930127494037151337e-03) (237, 1.30142554640769958496e-01) (238, 1.89929738640785217285e-01) (239, 7.06938654184341430664e-02) (240, 1.07857756316661834717e-01) (241, 1.92937508225440979004e-01) (242, 2.96603143215179443359e-02) (243, 1.69465646147727966309e-01) (244, 1.31555259227752685547e-01) (245, 1.01025298237800598145e-01) (246, 2.05940768122673034668e-01) (247, 8.70465412735939025879e-02) (248, 1.82868823409080505371e-01) (249, 2.65558034181594848633e-01) (250, -9.19924117624759674072e-03) (251, 3.38496975600719451904e-02) (252, 8.41968357563018798828e-02) (253, 6.58080130815505981445e-02) (254, 6.03150129318237304688e-02) (255, 1.45284775644540786743e-02) (256, -6.23580552637577056885e-02) (257, 8.12846422195434570312e-03) (258, 1.47734537720680236816e-01) (259, 4.71084043383598327637e-02) (260, 1.22015401721000671387e-01) (261, -7.47371464967727661133e-02) (262, 2.90102250874042510986e-02) (263, 5.69061934947967529297e-02) (264, -1.52965828776359558105e-01) (265, 6.70376867055892944336e-02) (266, -9.47558581829071044922e-02) (267, -8.99372547864913940430e-02) (268, 1.33397340774536132812e-01) (269, 2.91722297668457031250e-01) (270, 1.33066847920417785645e-01) (271, 2.87059783935546875000e-01) (272, 1.15318275988101959229e-01) (273, 1.07469409704208374023e-01) (274, 1.13800093531608581543e-01) (275, 2.30075903236865997314e-02) (276, 1.23355887830257415771e-01) (277, 1.30051657557487487793e-01) (278, 7.71677345037460327148e-02) (279, 4.01524901390075683594e-02) (280, -1.94653123617172241211e-03) (281, -1.10224619507789611816e-01) (282, -9.43231880664825439453e-02) (283, -1.66042998433113098145e-01) (284, 1.43406353890895843506e-02) (285, -1.23193286359310150146e-01) (286, -8.63957479596138000488e-02) (287, -6.56450614333152770996e-02) (288, -1.14241667091846466064e-01) (289, -1.80764853954315185547e-01) (290, 3.66228003986179828644e-03) (291, -9.16085615754127502441e-02) (292, -5.98929524421691894531e-02) (293, -3.92068549990653991699e-02) (294, -2.65576969832181930542e-02) (295, 1.96250274777412414551e-01) (296, 2.38388434052467346191e-01) (297, 2.35843524336814880371e-01) (298, 1.03093935176730155945e-02) (299, 2.88841687142848968506e-03) (300, 1.46831974387168884277e-01) (301, 1.04374244809150695801e-01) (302, -1.70079115778207778931e-02) (303, -2.25576981902122497559e-02) (304, -3.45571637153625488281e-02) (305, 1.63722336292266845703e-01) (306, -1.89305911771953105927e-03) (307, -5.14551997184753417969e-03) (308, -4.03518341481685638428e-02) (309, -7.54048377275466918945e-02) (310, -9.99725013971328735352e-02) (311, -6.80489540100097656250e-02) (312, -7.72297158837318420410e-02) (313, -4.03728596866130828857e-02) (314, -1.34526878595352172852e-01) (315, 3.47886420786380767822e-02) (316, -4.59890924394130706787e-02) (317, -1.21149316430091857910e-01) (318, -1.97103425860404968262e-01) (319, -4.95095066726207733154e-02) (320, -4.41830903291702270508e-02) (321, -1.87697723507881164551e-01) (322, 3.37728187441825866699e-02) (323, -2.12181229144334793091e-02) (324, 9.06360223889350891113e-02) (325, 2.12159194052219390869e-02) (326, 7.09308311343193054199e-02) (327, 1.16072006523609161377e-01) (328, -1.93696096539497375488e-02) (329, -3.13293673098087310791e-02) (330, -3.87020222842693328857e-02) (331, -1.65125176310539245605e-01) (332, 2.20170095562934875488e-02) (333, 5.45560978353023529053e-02) (334, 4.84126852825284004211e-03) (335, 5.71428574621677398682e-02) (336, -2.75231376290321350098e-02) (337, 7.94059410691261291504e-02) (338, -4.17377762496471405029e-02) (339, -2.82601136714220046997e-02) (340, 1.06701798737049102783e-01) (341, -4.30026575922966003418e-02) (342, -1.05321541428565979004e-01) (343, -6.30000531673431396484e-02) (344, -1.67021855711936950684e-01) (345, 8.07127282023429870605e-02) (346, -2.48926624655723571777e-01) (347, -9.89316925406455993652e-02) (348, -1.37498199939727783203e-01) (349, -4.53900508582592010498e-02) (350, 2.43862807750701904297e-01) (351, 5.82017675042152404785e-02) (352, -5.73850721120834350586e-02) (353, -1.41926392912864685059e-01) (354, -8.60580429434776306152e-03) (355, -9.01807621121406555176e-02) (356, -9.25416871905326843262e-02) (357, -1.11361548304557800293e-01) (358, -3.12307197600603103638e-03) (359, -1.97262749075889587402e-01) (360, 7.94241651892662048340e-02) (361, -5.08669912815093994141e-02) (362, 2.56636869162321090698e-02) (363, 4.27951337769627571106e-03) (364, 4.34801653027534484863e-02) (365, -6.23113475739955902100e-02) (366, -3.78962755203247070312e-02) (367, -1.68389379978179931641e-01) (368, 1.26428201794624328613e-01) (369, -3.37446667253971099854e-02) (370, 1.14801246672868728638e-02) (371, 4.14871014654636383057e-02) (372, -4.26172539591789245605e-02) (373, -1.43872380256652832031e-01) (374, -7.07125663757324218750e-02) (375, -1.72127053141593933105e-01) (376, 1.20178135111927986145e-02) (377, -3.26492972671985626221e-02) (378, 1.45933374762535095215e-01) (379, -1.16936028003692626953e-01) (380, 1.73803437501192092896e-02) (381, 1.16697242483496665955e-02) (382, 1.16751007735729217529e-01) (383, -1.49991706013679504395e-01) (384, 1.46019533276557922363e-02) (385, -1.95546641945838928223e-01) (386, -1.37331532314419746399e-02) (387, 1.27025265246629714966e-02) (388, 2.23452895879745483398e-02) (389, -4.18919473886489868164e-02) (390, -2.18869913369417190552e-02) (391, -4.99201789498329162598e-02) (392, 1.57961025834083557129e-02) (393, -7.70679116249084472656e-02) (394, 6.26696497201919555664e-02) (395, -9.34973135590553283691e-02) (396, -5.59118352830410003662e-02) (397, -6.82249739766120910645e-02) (398, 7.82125070691108703613e-02) (399, -1.14893838763236999512e-01) (400, -1.55659407377243041992e-01) (401, -8.60300213098526000977e-02) (402, -1.45861282944679260254e-01) (403, -2.82206404954195022583e-02) (404, 4.80595082044601440430e-02) (405, -8.41198787093162536621e-02) (406, -3.68837788701057434082e-02) (407, -4.62488494813442230225e-02) (408, 1.35212913155555725098e-01) (409, 1.14140741527080535889e-01) (410, 9.92855951189994812012e-02) (411, 1.60696029663085937500e-01) (412, -8.52524936199188232422e-02) (413, -1.78486555814743041992e-01) (414, -9.42353606224060058594e-02) (415, 2.13463045656681060791e-03) (416, -5.22448197007179260254e-02) (417, 1.95114519447088241577e-02) (418, 7.02910646796226501465e-02) (419, 1.82768106460571289062e-02) (420, -6.50927424430847167969e-02) (421, -4.38273027539253234863e-02) (422, 7.70404413342475891113e-02) (423, -3.36323794908821582794e-03) (424, -7.72224515676498413086e-02) (425, -3.56923118233680725098e-02) (426, -7.63774812221527099609e-02) (427, 5.52788265049457550049e-02) (428, -1.12479561939835548401e-02) (429, 3.36784422397613525391e-02) (430, -6.52614608407020568848e-02) (431, -8.86597335338592529297e-02) (432, 9.67472493648529052734e-02) (433, 9.97115448117256164551e-02) (434, 1.05259247124195098877e-01) (435, 1.04291625320911407471e-01) (436, -1.55212670564651489258e-01) (437, -1.50803580880165100098e-01) (438, -8.67474544793367385864e-03) (439, -8.21422971785068511963e-03) (440, -7.82734900712966918945e-02) (441, -6.59362077713012695312e-02) (442, -3.39993610978126525879e-02) (443, -9.11663994193077087402e-02) (444, -4.27127331495285034180e-02) (445, -2.90393065661191940308e-02) (446, -1.80752519518136978149e-02) (447, 7.68616609275341033936e-03) (448, -5.35545200109481811523e-02) (449, -3.99843938648700714111e-02) (450, -7.29300901293754577637e-02) (451, -7.14535415172576904297e-02) (452, -1.11197046935558319092e-01) (453, 7.99251273274421691895e-02) (454, -1.82627201080322265625e-01) (455, 1.56278192996978759766e-01) (456, 8.15365016460418701172e-02) (457, -1.90015789121389389038e-02) (458, 3.79600077867507934570e-02) (459, -1.55122250318527221680e-01) (460, 9.34993699193000793457e-02) (461, -5.03195002675056457520e-02) (462, 1.26812562346458435059e-01) (463, 1.88023666851222515106e-03) (464, -1.92275583744049072266e-01) (465, 4.99559491872787475586e-02) (466, 6.69989502057433128357e-04) (467, 1.88638910651206970215e-01) (468, -2.51741539686918258667e-02) (469, -6.61057829856872558594e-02) (470, -1.65095012634992599487e-02) (471, -8.88004899024963378906e-02) (472, 5.75550785288214683533e-03) (473, 2.88410298526287078857e-02) (474, -8.83103162050247192383e-02) (475, 6.46745879203081130981e-03) (476, -3.49238365888595581055e-02) (477, -3.12490016222000122070e-03) (478, -8.56209099292755126953e-02) (479, 1.00009776651859283447e-02) (480, 1.14441197365522384644e-02) (481, -4.32743057608604431152e-02) (482, -1.06706125661730766296e-02) (483, 1.64938636589795351028e-03) (484, -3.28770279884338378906e-02) (485, -7.08537772297859191895e-02) (486, -9.57606732845306396484e-02) (487, -4.53677773475646972656e-02) (488, -1.77039019763469696045e-03) (489, 9.28714424371719360352e-02) (490, 1.59530267119407653809e-01) (491, 9.86623018980026245117e-02) (492, 1.04332312941551208496e-01) (493, 2.56591923534870147705e-02) (494, -6.51414692401885986328e-02) (495, -5.86728900671005249023e-02) (496, -6.29181861877441406250e-02) (497, -1.08239576220512390137e-02) (498, 1.74206569790840148926e-01) (499, 6.77825212478637695312e-02) (500, 4.33083251118659973145e-02) (501, -1.12706227228045463562e-02) (502, -5.45562244951725006104e-03) (503, -9.39032342284917831421e-03) (504, -7.83507898449897766113e-02) (505, -1.33883208036422729492e-02) (506, 6.70454576611518859863e-02) (507, 1.17938667535781860352e-02) (508, 9.72375050187110900879e-02) (509, 1.23880356550216674805e-02) (510, 1.68144062161445617676e-01) (511, 4.33502756059169769287e-02) (512, -9.75810214877128601074e-02) (513, 1.38898134231567382812e-01) (514, -1.14279642701148986816e-01) (515, -1.60496950149536132812e-01) (516, -8.44254195690155029297e-02) (517, 1.15646585822105407715e-01) (518, 3.32189127802848815918e-02) (519, 1.07318811118602752686e-01) (520, -4.53489422798156738281e-02) (521, -1.38905838131904602051e-01) (522, -8.47394242882728576660e-02) (523, -2.54203956574201583862e-02) (524, 5.66408224403858184814e-02) (525, 1.99753809720277786255e-02) (526, 8.18927064538002014160e-02) (527, -1.33318156003952026367e-02) (528, 6.30442574620246887207e-02) (529, -1.95797681808471679688e-02) (530, 2.96842828392982482910e-02) (531, 9.25755649805068969727e-02) (532, 1.27391666173934936523e-02) (533, -9.98994261026382446289e-02) (534, -4.05648872256278991699e-02) (535, 7.99955874681472778320e-02) (536, 1.15883074700832366943e-01) (537, 1.34807497262954711914e-01) (538, 1.32636889815330505371e-01) (539, 1.22362136840820312500e-01) (540, 1.23481385409832000732e-01) (541, 5.16849011182785034180e-02) (542, 7.18952342867851257324e-02) (543, -6.55232369899749755859e-02) (544, -1.15460470318794250488e-01) (545, -2.34657768160104751587e-02) (546, 2.75410562753677368164e-02) (547, 8.60346555709838867188e-02) (548, 2.86923255771398544312e-02) (549, 1.01228564977645874023e-01) (550, 1.32863640785217285156e-01) (551, 1.03814713656902313232e-01) (552, 2.01905548572540283203e-01) (553, 1.39075666666030883789e-01) (554, 1.96714207530021667480e-01) (555, -1.89157780259847640991e-02) (556, 2.01718858443200588226e-03) (557, -1.61112584173679351807e-02) (558, 4.22403775155544281006e-02) (559, -5.92273622751235961914e-02) (560, 3.77685204148292541504e-02) (561, -3.66692692041397094727e-02) (562, -6.32357522845268249512e-02) (563, 1.03064524009823799133e-02) (564, 8.12968835234642028809e-02) (565, 1.20392307639122009277e-01) (566, 2.23500773310661315918e-01) (567, 2.35146507620811462402e-01) (568, 3.68463397026062011719e-01) (569, 1.92594349384307861328e-01) (570, 9.42367464303970336914e-02) (571, 1.86812296509742736816e-01) (572, -4.93645668029785156250e-02) (573, -1.71655446290969848633e-01) (574, -1.20371572673320770264e-01) (575, -4.97614853084087371826e-02) (576, -6.19657943025231361389e-03) (577, -3.94704788923263549805e-02) (578, -6.36215806007385253906e-02) (579, -2.50109024345874786377e-02) (580, -1.94794312119483947754e-02) (581, 1.31661772727966308594e-01) (582, 5.91428130865097045898e-02) (583, -5.44199422001838684082e-02) (584, 7.51993879675865173340e-02) (585, -4.46161115542054176331e-03) (586, 2.97127990052103996277e-03) (587, -4.72659543156623840332e-02) (588, 6.93892315030097961426e-02) (589, -5.72959482669830322266e-02) (590, -7.94782117009162902832e-03) (591, 3.71427722275257110596e-02) (592, 7.90484398603439331055e-02) (593, 8.51658955216407775879e-02) (594, 1.79386049509048461914e-01) (595, 1.61918953061103820801e-01) (596, 2.85261362791061401367e-01) (597, 2.12374240159988403320e-01) (598, 2.22456276416778564453e-01) (599, 1.68060943484306335449e-01) (600, -4.51472913846373558044e-03) (601, 1.74833666533231735229e-02) (602, -7.93623626232147216797e-02) (603, 2.90047768503427505493e-02) (604, 9.93291512131690979004e-02) (605, 1.49239256978034973145e-01) (606, -5.88276945054531097412e-02) (607, -5.99048882722854614258e-02) (608, 4.27382513880729675293e-02) (609, 5.48049733042716979980e-02) (610, 1.74607709050178527832e-01) (611, -1.31790749728679656982e-02) (612, -4.63244207203388214111e-02) (613, -1.21103888377547264099e-02) (614, -3.73698882758617401123e-02) (615, -9.71552208065986633301e-02) (616, 6.22358843684196472168e-02) (617, 6.14589527249336242676e-02) (618, -4.43688072264194488525e-02) (619, 4.74027916789054870605e-02) (620, -3.39574441313743591309e-02) (621, 9.10714268684387207031e-02) (622, 9.72197856754064559937e-03) (623, 1.10178664326667785645e-01) (624, 1.01768097374588251114e-03) (625, 2.01633021235466003418e-01) (626, 6.25435709953308105469e-02) (627, 1.22303187847137451172e-01) (628, 1.36561989784240722656e-01) (629, 1.39686957001686096191e-01) (630, 1.39224201440811157227e-01) (631, 8.07720348238945007324e-02) (632, 1.64575665257871150970e-03) (633, 3.50102409720420837402e-02) (634, 1.62035778164863586426e-01) (635, 1.01677179336547851562e-01) (636, -3.99672761559486389160e-02) (637, -1.59999057650566101074e-02) (638, 1.57061681151390075684e-01) (639, 7.13093280792236328125e-02) (640, 4.75296452641487121582e-02) (641, 2.86459401249885559082e-02) (642, 6.56952187418937683105e-02) (643, 8.76197889447212219238e-02) (644, 8.64738300442695617676e-02) (645, -7.53028765320777893066e-02) (646, 9.04633402824401855469e-02) (647, 5.63968084752559661865e-02) (648, 1.27310037612915039062e-01) (649, -3.77313904464244842529e-02) (650, 1.48382047191262245178e-02) (651, 9.35021340847015380859e-02) (652, 9.08210799098014831543e-02) (653, 7.27191194891929626465e-02) (654, 7.83427134156227111816e-02) (655, 9.93776693940162658691e-02) (656, 3.07322561740875244141e-01) (657, 2.12069541215896606445e-01) (658, 7.67827630043029785156e-02) (659, 1.60871192812919616699e-01) (660, 1.81500017642974853516e-01) (661, 1.03597596287727355957e-01) (662, 1.32919996976852416992e-01) (663, 7.05946907401084899902e-02) (664, 6.38749822974205017090e-02) (665, -4.87036406993865966797e-02) (666, -1.81260108947753906250e-02) (667, -9.44769289344549179077e-03) (668, -2.54158396273851394653e-02) (669, 6.53682276606559753418e-02) (670, 5.60941249132156372070e-02) (671, -8.15033763647079467773e-02) (672, -2.10020169615745544434e-02) (673, 1.75306946039199829102e-02) (674, -9.38835814595222473145e-02) (675, -1.94314569234848022461e-02) (676, 8.18434581160545349121e-02) (677, 1.06618091464042663574e-01) (678, -1.05268366634845733643e-01) (679, -5.52488788962364196777e-02) (680, -1.11134015023708343506e-01) (681, 1.85688156634569168091e-02) (682, 3.78367565572261810303e-02) (683, 7.87211731076240539551e-02) (684, 1.58951953053474426270e-01) (685, 1.14714540541172027588e-01) (686, 1.50894343852996826172e-01) (687, 2.16249041259288787842e-02) (688, 4.19438295066356658936e-02) (689, 8.16732347011566162109e-02) (690, 6.33571296930313110352e-02) (691, 2.69802678376436233521e-02) (692, -1.19554288685321807861e-01) (693, -4.92960512638092041016e-02) (694, -2.96862199902534484863e-02) (695, 9.20890718698501586914e-02) (696, 3.60327102243900299072e-02) (697, 2.63122692704200744629e-02) (698, -6.40436559915542602539e-02) (699, -9.53906998038291931152e-02) (700, -9.27278399467468261719e-03) (701, 8.93530026078224182129e-02) (702, -7.68940746784210205078e-02) (703, 7.11684674024581909180e-02) (704, 1.72467790544033050537e-02) (705, -1.00400067865848541260e-01) (706, -1.49327933788299560547e-01) (707, -1.55738577246665954590e-01) (708, -8.08922275900840759277e-02) (709, -3.81813012063503265381e-03) (710, -5.20325191318988800049e-02) (711, -1.89306691288948059082e-01) (712, -9.02922973036766052246e-02) (713, -1.18771761655807495117e-01) (714, -3.87335233390331268311e-02) (715, 4.01374511420726776123e-02) (716, -9.53341722488403320312e-02) (717, -9.09478813409805297852e-02) (718, -1.95749849081039428711e-01) (719, -4.60564121603965759277e-02) (720, 4.06217714771628379822e-03) (721, -6.43984675407409667969e-02) (722, 2.93203704059123992920e-02) (723, 1.13822698593139648438e-01) (724, 9.59381908178329467773e-02) (725, 9.12088230252265930176e-02) (726, 8.72528031468391418457e-02) (727, 2.60481461882591247559e-02) (728, 1.75210833549499511719e-02) (729, -7.67908468842506408691e-02) (730, 3.06574627757072448730e-02) (731, -9.26389023661613464355e-02) (732, -9.53490659594535827637e-02) (733, 2.49122716486454010010e-02) (734, 2.45683006942272186279e-02) (735, -1.65067389607429504395e-02) (736, 3.94495986402034759521e-02) (737, -1.19282886385917663574e-01) (738, 8.09140577912330627441e-02) (739, -8.65309759974479675293e-02) (740, -1.36892154812812805176e-01) (741, -1.15962058305740356445e-01) (742, -2.97073602676391601562e-01) (743, -1.13569468259811401367e-01) (744, -1.78420804440975189209e-02) (745, -5.13818003237247467041e-02) (746, -7.36205605790019035339e-04) (747, 8.73700901865959167480e-02) (748, 6.78572058677673339844e-02) (749, -7.64595791697502136230e-02) (750, -1.74210611730813980103e-02) (751, 3.73132526874542236328e-02) (752, 2.12052315473556518555e-02) (753, 6.61620721220970153809e-02) (754, 4.02750074863433837891e-03) (755, 1.76414847373962402344e-02) (756, 5.73708936572074890137e-02) (757, -8.71969014406204223633e-03) (758, -5.63103631138801574707e-02) (759, -2.51080319285392761230e-02) (760, 1.44894570112228393555e-02) (761, 7.37965479493141174316e-02) (762, -1.67926717549562454224e-02) (763, 3.51641215384006500244e-02) (764, 3.00515014678239822388e-02) (765, -3.08517590165138244629e-02) (766, -2.20669582486152648926e-02) (767, 4.43939678370952606201e-02) (768, -1.07612498104572296143e-02) (769, -9.26853939890861511230e-02) (770, -1.82272233068943023682e-02) (771, 7.89597444236278533936e-03) (772, 5.68187646567821502686e-02) (773, 7.50610977411270141602e-02) (774, 9.33590531349182128906e-03) (775, -1.18096865713596343994e-01) (776, 6.70046508312225341797e-02) (777, -2.26580649614334106445e-02) (778, 4.51733246445655822754e-02) (779, 3.70125994086265563965e-02) (780, 5.79508617520332336426e-02) (781, -6.64836317300796508789e-02) (782, -5.00459782779216766357e-02) (783, -2.08439081907272338867e-02) (784, 6.11195206642150878906e-01) (0, 5.39815202355384826660e-02) (1, 9.67975780367851257324e-02) (2, 5.70493414998054504395e-02) (3, -5.47381676733493804932e-02) (4, -5.95127828419208526611e-02) (5, -6.80586993694305419922e-02) (6, 5.97512945532798767090e-02) (7, -8.51656943559646606445e-02) (8, 1.50815695524215698242e-02) (9, -1.31970793008804321289e-02) (10, 4.29447963833808898926e-02) (11, 7.61953219771385192871e-02) (12, 3.33003923296928405762e-02) (13, -4.59590032696723937988e-02) (14, -4.95204143226146697998e-02) (15, 4.83552142977714538574e-02) (16, 7.39262774586677551270e-02) (17, 8.73128548264503479004e-02) (18, 9.46277379989624023438e-03) (19, 7.10283592343330383301e-02) (20, 3.05899456143379211426e-02) (21, 1.28214806318283081055e-02) (22, 4.75109890103340148926e-02) (23, -6.21603839099407196045e-02) (24, -2.61504128575325012207e-02) (25, -1.54764130711555480957e-02) (26, 9.57904681563377380371e-02) (27, 7.36595690250396728516e-03) (28, 3.44776138663291931152e-02) (29, -2.50534340739250183105e-02) (30, 7.04441219568252563477e-03) (31, -1.15408673882484436035e-02) (32, -2.82558649778366088867e-02) (33, -3.59062626957893371582e-02) (34, 3.37209776043891906738e-02) (35, 1.22313648462295532227e-02) (36, -3.96496057510375976562e-03) (37, -6.52773678302764892578e-03) (38, 2.79207974672317504883e-02) (39, -8.35813209414482116699e-02) (40, 8.22497010231018066406e-02) (41, -2.44276411831378936768e-02) (42, 9.64577496051788330078e-02) (43, 2.63807810842990875244e-02) (44, -2.19681505113840103149e-02) (45, -6.13412298262119293213e-02) (46, -3.41494046151638031006e-02) (47, 4.93314536288380622864e-03) (48, -6.45057111978530883789e-02) (49, 7.56658762693405151367e-02) (50, -2.90396399796009063721e-02) (51, 5.56943044066429138184e-02) (52, -1.57849639654159545898e-02) (53, -8.34829062223434448242e-02) (54, 9.35339257121086120605e-02) (55, 5.80646321177482604980e-02) (56, 1.04068219661712646484e-03) (57, 8.93243923783302307129e-02) (58, -3.45694124698638916016e-02) (59, -6.44817054271697998047e-02) (60, -3.57290431857109069824e-02) (61, 7.24749937653541564941e-02) (62, 2.39774361252784729004e-02) (63, 3.61701436340808868408e-02) (64, -6.42069503664970397949e-02) (65, -4.85841445624828338623e-02) (66, -5.95815479755401611328e-02) (67, 4.73267063498497009277e-02) (68, 8.73686559498310089111e-03) (69, 4.59278486669063568115e-02) (70, 5.73364906013011932373e-02) (71, 7.29704126715660095215e-02) (72, -3.83775234222412109375e-02) (73, 7.17964544892311096191e-02) (74, 4.60560321807861328125e-02) (75, 1.99308738112449645996e-01) (76, 1.17829091846942901611e-01) (77, 3.14631089568138122559e-02) (78, -2.67646070569753646851e-02) (79, 7.68046528100967407227e-02) (80, -2.92407386004924774170e-02) (81, 3.63578721880912780762e-02) (82, 4.96225133538246154785e-02) (83, 6.25607743859291076660e-02) (84, 5.28749749064445495605e-02) (85, 4.31564524769783020020e-02) (86, 2.06253975629806518555e-02) (87, -4.60843518376350402832e-02) (88, 3.24808433651924133301e-02) (89, 8.66302922368049621582e-02) (90, -9.72909573465585708618e-03) (91, 9.23369750380516052246e-02) (92, 2.20776833593845367432e-02) (93, -1.76219224929809570312e-01) (94, -7.29743540287017822266e-02) (95, -3.57107855379581451416e-02) (96, -1.92567273974418640137e-01) (97, -1.21921882033348083496e-01) (98, -2.73051653057336807251e-02) (99, -8.50485861301422119141e-02) (100, 6.12505488097667694092e-02) (101, 1.81715078651905059814e-02) (102, 2.25643470883369445801e-01) (103, 1.58809691667556762695e-01) (104, -2.41759065538644790649e-02) (105, 1.38201400637626647949e-01) (106, 8.45704674720764160156e-02) (107, 6.21115677058696746826e-02) (108, 5.33673726022243499756e-03) (109, -6.16261437535285949707e-02) (110, 6.52082040905952453613e-02) (111, 8.40455666184425354004e-02) (112, 7.47317299246788024902e-02) (113, 1.48307234048843383789e-02) (114, 4.66063395142555236816e-02) (115, 2.75920722633600234985e-02) (116, -4.46998365223407745361e-02) (117, -5.11452592909336090088e-02) (118, 3.92477028071880340576e-02) (119, 1.54235651716589927673e-02) (120, -1.15672521293163299561e-01) (121, -8.99398326873779296875e-03) (122, 1.58354982733726501465e-01) (123, -1.54238510876893997192e-02) (124, -1.99540123343467712402e-01) (125, -2.14357525110244750977e-01) (126, -2.67605185508728027344e-01) (127, -1.24220423400402069092e-01) (128, -1.00035339593887329102e-01) (129, -3.24202775955200195312e-02) (130, 5.08018359541893005371e-02) (131, 7.08132609724998474121e-02) (132, -6.58061280846595764160e-02) (133, 1.21161505579948425293e-01) (134, 6.92561790347099304199e-02) (135, -5.35943135619163513184e-02) (136, 3.79936769604682922363e-02) (137, -7.51598775386810302734e-02) (138, 7.97818973660469055176e-02) (139, -6.40683472156524658203e-02) (140, -3.16305086016654968262e-02) (141, 4.49900999665260314941e-02) (142, -7.53907635807991027832e-02) (143, -6.00865110754966735840e-02) (144, -6.31699115037918090820e-02) (145, -6.83428645133972167969e-02) (146, -5.07361963391304016113e-02) (147, -8.56279954314231872559e-02) (148, -1.92676737904548645020e-01) (149, -3.44325192272663116455e-02) (150, -3.25724072754383087158e-02) (151, -8.80424529314041137695e-02) (152, -1.89376801252365112305e-01) (153, -4.06630039215087890625e-02) (154, 7.71565958857536315918e-02) (155, -5.15417493879795074463e-02) (156, -2.41891428828239440918e-01) (157, -1.54300689697265625000e-01) (158, -9.26901027560234069824e-02) (159, -1.29744419828057289124e-02) (160, 9.38441231846809387207e-02) (161, 1.23940899968147277832e-01) (162, 1.85620784759521484375e-01) (163, 5.96768520772457122803e-02) (164, 1.21529363095760345459e-01) (165, -8.51609632372856140137e-02) (166, -3.47782671451568603516e-02) (167, 2.47883587144315242767e-03) (168, -3.72228473424911499023e-02) (169, -6.52085244655609130859e-02) (170, 3.89127396047115325928e-02) (171, 2.71844230592250823975e-02) (172, 2.50131636857986450195e-02) (173, -9.11124497652053833008e-02) (174, -4.87357676029205322266e-02) (175, -1.35756328701972961426e-01) (176, -3.56790386140346527100e-02) (177, -8.57130810618400573730e-02) (178, -1.07791483402252197266e-01) (179, 4.29289899766445159912e-02) (180, 2.40948032587766647339e-02) (181, -8.32274034619331359863e-02) (182, -7.71101713180541992188e-02) (183, -1.43255889415740966797e-01) (184, -1.75077408552169799805e-01) (185, 1.09932608902454376221e-01) (186, -8.92531648278236389160e-02) (187, -1.17343269288539886475e-01) (188, -8.38438123464584350586e-02) (189, 2.15885341167449951172e-01) (190, 7.59939029812812805176e-02) (191, 1.54070287942886352539e-01) (192, 2.14006558060646057129e-01) (193, -2.68042180687189102173e-02) (194, 2.05580759793519973755e-02) (195, -4.22942964360117912292e-03) (196, -2.88331830233801156282e-05) (197, 8.94722193479537963867e-02) (198, -1.04154653847217559814e-01) (199, 3.21763083338737487793e-02) (200, -1.07569657266139984131e-01) (201, -1.39124253764748573303e-02) (202, -8.44074934720993041992e-02) (203, -1.17499537765979766846e-01) (204, -6.17504492402076721191e-02) (205, -5.81244565546512603760e-02) (206, -9.88345742225646972656e-02) (207, -8.36512744426727294922e-02) (208, -1.28937125205993652344e-01) (209, -3.88651490211486816406e-02) (210, 1.29200760275125503540e-02) (211, -1.40769153833389282227e-01) (212, -1.30264371633529663086e-01) (213, -1.48108989000320434570e-01) (214, -2.60241776704788208008e-01) (215, -2.52159863710403442383e-01) (216, -2.85938829183578491211e-02) (217, 5.77114708721637725830e-02) (218, -1.20246537029743194580e-01) (219, 1.33562698960304260254e-01) (220, 2.74609863758087158203e-01) (221, 5.16070351004600524902e-02) (222, -3.30785900587216019630e-04) (223, -2.46099978685379028320e-02) (224, 6.88314214348793029785e-02) (225, -4.04201932251453399658e-02) (226, 8.27058106660842895508e-02) (227, -8.43551307916641235352e-02) (228, -1.17083951830863952637e-01) (229, 5.16075827181339263916e-02) (230, -6.49319030344486236572e-03) (231, -4.16465699672698974609e-02) (232, 3.45786921679973602295e-02) (233, 4.34559024870395660400e-02) (234, -1.84125557541847229004e-01) (235, -4.72926534712314605713e-02) (236, 9.81901660561561584473e-02) (237, 1.94554567337036132812e-01) (238, -1.04062862694263458252e-01) (239, -2.95022636651992797852e-01) (240, -6.57391026616096496582e-02) (241, -1.97399526834487915039e-01) (242, 7.98662751913070678711e-02) (243, -2.12222754955291748047e-01) (244, -1.02932289242744445801e-01) (245, 1.33077129721641540527e-01) (246, 1.52191007509827613831e-02) (247, 1.39610990881919860840e-01) (248, 1.59386157989501953125e-01) (249, 5.43787004426121711731e-03) (250, -1.50700965896248817444e-02) (251, 5.00229410827159881592e-02) (252, 4.57162559032440185547e-02) (253, -8.07564184069633483887e-02) (254, -6.22742027044296264648e-02) (255, -4.68026427552103996277e-03) (256, 4.21408284455537796021e-03) (257, -4.41525280475616455078e-02) (258, 1.35348245501518249512e-01) (259, 4.73913326859474182129e-02) (260, -3.55026386678218841553e-02) (261, 1.27538338303565979004e-01) (262, 2.95649796724319458008e-01) (263, 2.67169386148452758789e-01) (264, 3.28759223222732543945e-01) (265, 3.99248510599136352539e-01) (266, 2.52670407295227050781e-01) (267, -1.90846890211105346680e-01) (268, -2.38669872283935546875e-01) (269, -1.61696702241897583008e-01) (270, -5.53762055933475494385e-02) (271, 8.20666775107383728027e-02) (272, -1.89794346690177917480e-01) (273, -8.29146504402160644531e-02) (274, 2.24086388945579528809e-01) (275, 2.83553332090377807617e-01) (276, 2.25533187389373779297e-01) (277, 1.14530153572559356689e-01) (278, -4.00587059557437896729e-02) (279, 9.31787267327308654785e-02) (280, -6.06589578092098236084e-02) (281, 6.77706450223922729492e-02) (282, 5.20565472543239593506e-02) (283, 1.27351313829421997070e-01) (284, 1.49838700890541076660e-01) (285, 1.75832062959671020508e-01) (286, 1.59935459494590759277e-01) (287, 1.26437529921531677246e-01) (288, 4.59697127342224121094e-01) (289, 4.45646792650222778320e-01) (290, 6.24080240726470947266e-01) (291, 4.55886244773864746094e-01) (292, 5.62227785587310791016e-01) (293, 5.98827064037322998047e-01) (294, 3.28735202550888061523e-01) (295, -3.52390319108963012695e-01) (296, -2.99576342105865478516e-01) (297, -2.04297497868537902832e-01) (298, -7.82112926244735717773e-02) (299, -1.38599658384919166565e-02) (300, -1.58904910087585449219e-01) (301, -2.13408209383487701416e-02) (302, 1.38688400387763977051e-01) (303, 1.03082954883575439453e-01) (304, -1.73080731183290481567e-02) (305, 5.06302677094936370850e-02) (306, 9.48331609833985567093e-04) (307, 2.01557055115699768066e-02) (308, 7.64319822192192077637e-02) (309, 7.70970135927200317383e-02) (310, 4.44129481911659240723e-02) (311, -2.65011601150035858154e-02) (312, 1.37380659580230712891e-01) (313, 1.35174721479415893555e-01) (314, 2.46261432766914367676e-01) (315, 4.42793816328048706055e-01) (316, 5.90293407440185546875e-01) (317, 5.50394237041473388672e-01) (318, 5.21334469318389892578e-01) (319, 4.75572407245635986328e-01) (320, 4.47537839412689208984e-01) (321, 4.58235889673233032227e-01) (322, 1.61973267793655395508e-01) (323, -1.02990336716175079346e-01) (324, -1.55880674719810485840e-01) (325, -3.22276562452316284180e-01) (326, -5.23129776120185852051e-02) (327, -2.08375960588455200195e-01) (328, -6.61691576242446899414e-02) (329, 2.26558327674865722656e-01) (330, 2.72344201803207397461e-01) (331, 1.97421103715896606445e-01) (332, 6.09069457277655601501e-03) (333, -7.50572904944419860840e-02) (334, -4.09273132681846618652e-02) (335, -4.04175855219364166260e-02) (336, -6.42071664333343505859e-02) (337, 9.02290940284729003906e-02) (338, 1.18138611316680908203e-01) (339, -4.31278720498085021973e-02) (340, 1.76473885774612426758e-01) (341, 3.94238799810409545898e-01) (342, 4.53119307756423950195e-01) (343, 4.92353528738021850586e-01) (344, 4.93276000022888183594e-01) (345, 2.08697929978370666504e-01) (346, 2.17017248272895812988e-01) (347, 1.57668069005012512207e-01) (348, 1.07543900609016418457e-01) (349, 1.58272299449890851974e-03) (350, 1.08907237648963928223e-01) (351, -2.69153919070959091187e-02) (352, -8.06824564933776855469e-02) (353, 3.01308948546648025513e-02) (354, -1.11227640882134437561e-02) (355, 1.84850841760635375977e-02) (356, 1.28280833363533020020e-01) (357, 1.98270767927169799805e-01) (358, 3.98520410060882568359e-01) (359, 1.35376468300819396973e-01) (360, 2.33778934925794601440e-02) (361, 3.88329811394214630127e-02) (362, -1.00678071379661560059e-01) (363, -5.30738085508346557617e-02) (364, -6.61709606647491455078e-02) (365, 3.22170788422226905823e-03) (366, 4.55058440566062927246e-02) (367, -3.36098968982696533203e-02) (368, 2.30524595826864242554e-03) (369, 4.22529697418212890625e-01) (370, 4.33148950338363647461e-01) (371, 4.07164514064788818359e-01) (372, 2.57498025894165039062e-01) (373, 1.26049384474754333496e-01) (374, -5.33925332129001617432e-02) (375, 1.25907540321350097656e-01) (376, 2.19730168581008911133e-01) (377, -1.15307897329330444336e-01) (378, 2.25158393383026123047e-01) (379, 1.54296785593032836914e-01) (380, -4.16605398058891296387e-02) (381, 2.51538008451461791992e-01) (382, 1.08007676899433135986e-01) (383, 7.41372406482696533203e-02) (384, -1.32407113909721374512e-01) (385, 1.73630505800247192383e-01) (386, 1.30014866590499877930e-01) (387, 1.49214923381805419922e-01) (388, -6.73830434679985046387e-02) (389, -7.97689408063888549805e-02) (390, -9.00550186634063720703e-02) (391, 3.34627106785774230957e-02) (392, -7.54272565245628356934e-02) (393, -6.60342350602149963379e-02) (394, 1.18869788944721221924e-01) (395, -2.36392430961132049561e-02) (396, 1.03788487613201141357e-02) (397, 2.65196710824966430664e-01) (398, 2.80664384365081787109e-01) (399, 1.55100449919700622559e-01) (400, 1.62949383258819580078e-01) (401, -1.97883784770965576172e-01) (402, -1.04821054264903068542e-03) (403, 1.90545618534088134766e-01) (404, 5.28547167778015136719e-03) (405, -4.86801490187644958496e-02) (406, 1.24883487820625305176e-01) (407, 9.49250720441341400146e-03) (408, 1.32358476519584655762e-01) (409, -2.05322969704866409302e-02) (410, 9.61643829941749572754e-02) (411, 4.81357090175151824951e-02) (412, 7.64396637678146362305e-02) (413, 1.10303647816181182861e-02) (414, 1.81921601295471191406e-01) (415, 1.78352624177932739258e-01) (416, 7.68905282020568847656e-02) (417, -6.61986917257308959961e-02) (418, -9.37950834631919860840e-02) (419, -3.87676469981670379639e-02) (420, -2.11893171072006225586e-02) (421, -7.18916878104209899902e-02) (422, 1.23045496642589569092e-01) (423, 1.57261192798614501953e-02) (424, -6.90202564001083374023e-02) (425, 1.40888124704360961914e-01) (426, 1.88136473298072814941e-01) (427, 1.32154271006584167480e-01) (428, -9.04512184206396341324e-04) (429, 8.28551277518272399902e-02) (430, 2.30628907680511474609e-01) (431, -3.75030934810638427734e-02) (432, 1.13188870251178741455e-01) (433, 4.89719398319721221924e-02) (434, 2.94400423765182495117e-01) (435, 1.67063713073730468750e-01) (436, 4.96157892048358917236e-02) (437, 9.00947153568267822266e-02) (438, 1.69775158166885375977e-01) (439, 4.31861579418182373047e-02) (440, 1.81882791221141815186e-02) (441, -1.36907115578651428223e-01) (442, 1.25986248254776000977e-01) (443, 1.78885743021965026855e-01) (444, 7.40087628364562988281e-02) (445, -1.23149968683719635010e-01) (446, -6.86598718166351318359e-02) (447, 4.29883301258087158203e-02) (448, 1.95199996232986450195e-02) (449, 5.06097152829170227051e-02) (450, -9.88207980990409851074e-02) (451, 3.74368838965892791748e-02) (452, -8.13228264451026916504e-02) (453, -4.79863993823528289795e-02) (454, 5.17246238887310028076e-02) (455, -2.24932972341775894165e-02) (456, 1.54845863580703735352e-01) (457, 9.53829810023307800293e-02) (458, 1.35119393467903137207e-01) (459, 2.27570980787277221680e-01) (460, -5.31449802219867706299e-02) (461, 1.54682919383049011230e-01) (462, 1.31320744752883911133e-01) (463, 1.18561089038848876953e-01) (464, 1.10445745289325714111e-01) (465, -1.00438401103019714355e-01) (466, -2.83576175570487976074e-02) (467, -4.93838153779506683350e-02) (468, 8.78261551260948181152e-02) (469, 6.02357788011431694031e-03) (470, 1.24895386397838592529e-02) (471, -1.36800892651081085205e-02) (472, 1.23961437493562698364e-02) (473, -2.06715926527976989746e-01) (474, -5.13326451182365417480e-02) (475, -4.91182841360569000244e-02) (476, 4.90104928612709045410e-02) (477, -6.69102072715759277344e-02) (478, 8.48612263798713684082e-02) (479, -1.20305702090263366699e-01) (480, -1.94243028759956359863e-01) (481, -1.23137332499027252197e-01) (482, -5.44410906732082366943e-02) (483, 1.60399824380874633789e-01) (484, 2.20676988363265991211e-01) (485, 6.87545612454414367676e-02) (486, 3.54729264974594116211e-01) (487, 3.10050517320632934570e-01) (488, -7.52238407731056213379e-02) (489, -1.73513174057006835938e-01) (490, 8.92094001173973083496e-02) (491, -3.19278948009014129639e-02) (492, -1.11899465322494506836e-01) (493, -5.87777420878410339355e-03) (494, -1.30439832806587219238e-01) (495, -9.81320142745971679688e-02) (496, 1.06476269662380218506e-01) (497, -1.36400699615478515625e-01) (498, -8.90132337808609008789e-02) (499, -1.33792564272880554199e-01) (500, -1.05222694575786590576e-01) (501, -9.38223674893379211426e-02) (502, -7.40092843770980834961e-02) (503, -9.79606434702873229980e-02) (504, -9.93908196687698364258e-02) (505, 6.05188831686973571777e-02) (506, -3.91693897545337677002e-02) (507, -6.89254030585289001465e-02) (508, -2.61597961187362670898e-01) (509, -1.03713899850845336914e-01) (510, -1.14080823957920074463e-01) (511, 1.35554641485214233398e-01) (512, -5.69611638784408569336e-02) (513, 1.29173323512077331543e-01) (514, 2.01236099004745483398e-01) (515, 5.83721064031124114990e-02) (516, -2.33051165938377380371e-01) (517, -7.93845504522323608398e-02) (518, 1.42232505604624748230e-02) (519, -1.21063906699419021606e-02) (520, -2.20804169774055480957e-01) (521, -3.30810338258743286133e-01) (522, -1.16974905133247375488e-01) (523, -2.10819137282669544220e-03) (524, 8.69425311684608459473e-02) (525, -8.08530598878860473633e-02) (526, -1.37236371636390686035e-01) (527, -1.16791740059852600098e-01) (528, -1.86556741595268249512e-01) (529, -7.94926937669515609741e-03) (530, -2.94926855713129043579e-02) (531, -2.54563093185424804688e-02) (532, 2.12349668145179748535e-02) (533, 3.89109924435615539551e-02) (534, -1.58683327026665210724e-03) (535, -9.68062132596969604492e-02) (536, -3.37025374174118041992e-01) (537, -2.45047122240066528320e-01) (538, -5.94905093312263488770e-02) (539, -1.86138704419136047363e-01) (540, -2.33130604028701782227e-01) (541, -1.84152796864509582520e-01) (542, -2.63596177101135253906e-01) (543, -1.99542552232742309570e-01) (544, -1.03694438934326171875e-01) (545, -3.51187407970428466797e-01) (546, 2.88688503205776214600e-02) (547, -4.71598133444786071777e-02) (548, -9.54578295350074768066e-02) (549, -6.21299296617507934570e-02) (550, -5.65162971615791320801e-02) (551, 1.02379158139228820801e-01) (552, -7.66584873199462890625e-02) (553, 5.95002844929695129395e-02) (554, -1.51530936360359191895e-01) (555, -4.61168140172958374023e-02) (556, -1.34537741541862487793e-01) (557, -8.27447921037673950195e-02) (558, 1.74042768776416778564e-04) (559, 1.38839846476912498474e-02) (560, -2.93126329779624938965e-02) (561, 8.09418633580207824707e-02) (562, 8.53737369179725646973e-02) (563, -3.16641405224800109863e-02) (564, -1.83710500597953796387e-01) (565, -3.24044376611709594727e-01) (566, -2.22773373126983642578e-01) (567, -1.24317973852157592773e-01) (568, -9.62202921509742736816e-02) (569, -1.62167444825172424316e-01) (570, -2.72488057613372802734e-01) (571, -2.33512207865715026855e-01) (572, -1.20714835822582244873e-01) (573, 7.09009543061256408691e-02) (574, 2.68580988049507141113e-02) (575, -8.61714482307434082031e-02) (576, -1.14429695531725883484e-02) (577, -1.56630069017410278320e-01) (578, -1.28435194492340087891e-01) (579, -2.17859715223312377930e-01) (580, -2.74127334356307983398e-01) (581, -1.69711619615554809570e-01) (582, -1.02065451443195343018e-01) (583, -2.06149071455001831055e-02) (584, -3.94126847386360168457e-02) (585, -1.09909750521183013916e-01) (586, -6.12713135778903961182e-02) (587, -2.91960909962654113770e-02) (588, 5.46668469905853271484e-03) (589, 6.44026175141334533691e-02) (590, 7.27258548140525817871e-02) (591, -2.11461801081895828247e-02) (592, -1.37084230780601501465e-01) (593, -4.75749336183071136475e-02) (594, -7.87628218531608581543e-02) (595, -2.12372899055480957031e-01) (596, -8.25343281030654907227e-03) (597, -2.29191169142723083496e-01) (598, -1.02872133255004882812e-01) (599, -1.90183951053768396378e-03) (600, 3.17709185183048248291e-02) (601, 1.48241400718688964844e-01) (602, 2.48045638203620910645e-01) (603, 1.77533611655235290527e-01) (604, 7.45960325002670288086e-02) (605, -1.28955423831939697266e-01) (606, -9.75370779633522033691e-03) (607, -2.09982544183731079102e-01) (608, -1.03219799697399139404e-01) (609, -2.16532856225967407227e-01) (610, -8.71721282601356506348e-02) (611, -8.77537392079830169678e-03) (612, -6.80811703205108642578e-02) (613, 7.17256590723991394043e-02) (614, 4.44403626024723052979e-02) (615, -6.29041939973831176758e-02) (616, -9.21537801623344421387e-02) (617, -8.83807763457298278809e-02) (618, 6.02970412001013755798e-03) (619, -2.94662956148386001587e-02) (620, -1.26841440796852111816e-01) (621, -3.70802059769630432129e-02) (622, -5.00427186489105224609e-02) (623, -1.72786176204681396484e-01) (624, -3.21333676576614379883e-01) (625, -3.73688966035842895508e-01) (626, -1.84407129883766174316e-01) (627, -1.09398998320102691650e-02) (628, 1.39457806944847106934e-01) (629, 9.89307686686515808105e-02) (630, -4.48564533144235610962e-03) (631, 2.70884782075881958008e-02) (632, 5.33999651670455932617e-02) (633, -1.61150306463241577148e-01) (634, -1.32690951228141784668e-01) (635, 9.14651975035667419434e-02) (636, 1.13224528729915618896e-01) (637, -7.36345052719116210938e-02) (638, -6.88887760043144226074e-02) (639, -1.58586520701646804810e-02) (640, -1.18331201374530792236e-01) (641, 7.03238788992166519165e-03) (642, -1.53105622157454490662e-02) (643, -3.05438265204429626465e-02) (644, 3.90812754631042480469e-04) (645, -5.72146289050579071045e-02) (646, 5.90358581393957138062e-03) (647, -2.17221416532993316650e-02) (648, -2.27666273713111877441e-01) (649, -1.11261986196041107178e-01) (650, -2.41409540176391601562e-01) (651, -4.07096832990646362305e-01) (652, 4.77857589721679687500e-02) (653, 1.79949715733528137207e-01) (654, 1.38280794024467468262e-01) (655, 1.17881126701831817627e-01) (656, 8.94864872097969055176e-02) (657, 1.12658366560935974121e-01) (658, -1.59172713756561279297e-02) (659, 1.82331219315528869629e-01) (660, -2.48071048408746719360e-02) (661, 1.97738617658615112305e-01) (662, 7.45982155203819274902e-02) (663, 9.68323871493339538574e-02) (664, 1.03323510847985744476e-03) (665, 6.21722154319286346436e-02) (666, -3.22276055812835693359e-02) (667, 2.86612194031476974487e-02) (668, -9.61737781763076782227e-02) (669, 3.74509654939174652100e-02) (670, -2.98358071595430374146e-02) (671, -8.86209532618522644043e-02) (672, -4.53971400856971740723e-02) (673, 8.33963826298713684082e-02) (674, -1.91647857427597045898e-02) (675, 3.01416870206594467163e-02) (676, -1.72548130154609680176e-01) (677, 9.18490439653396606445e-02) (678, -1.06044374406337738037e-01) (679, -1.52260392904281616211e-01) (680, -1.40079006552696228027e-01) (681, 2.14404910802841186523e-01) (682, 1.60967364907264709473e-01) (683, -1.26491589471697807312e-02) (684, -6.64073694497346878052e-03) (685, -7.26470574736595153809e-02) (686, 3.57174277305603027344e-02) (687, 1.73315733671188354492e-01) (688, 1.05674050748348236084e-01) (689, 1.08425289392471313477e-01) (690, 1.26557767391204833984e-01) (691, 9.11270678043365478516e-02) (692, 1.10512683168053627014e-02) (693, 1.60912469029426574707e-01) (694, -5.12642711400985717773e-02) (695, -7.13087171316146850586e-02) (696, -4.80839610099792480469e-02) (697, -8.76336321234703063965e-02) (698, -9.77513566613197326660e-02) (699, -4.79609556496143341064e-02) (700, 5.55253997445106506348e-02) (701, -4.53915446996688842773e-03) (702, -3.65819111466407775879e-02) (703, -9.15203019976615905762e-02) (704, -5.51094263792037963867e-02) (705, 3.30224856734275817871e-02) (706, 6.09871745109558105469e-02) (707, 1.91384963691234588623e-02) (708, 8.04692357778549194336e-02) (709, -3.38238626718521118164e-02) (710, 6.90117478370666503906e-02) (711, -3.45395021140575408936e-02) (712, -9.02092233300209045410e-02) (713, 4.94502037763595581055e-02) (714, 1.71531718224287033081e-02) (715, 9.77694615721702575684e-02) (716, 1.73535421490669250488e-01) (717, 9.49683114886283874512e-02) (718, 3.79211530089378356934e-02) (719, 1.39314085245132446289e-01) (720, 1.26053079962730407715e-01) (721, 9.86954048275947570801e-02) (722, 9.34574156999588012695e-02) (723, 5.33597469329833984375e-02) (724, 3.10864970088005065918e-02) (725, -4.10254970192909240723e-02) (726, 8.01206901669502258301e-02) (727, 8.17954614758491516113e-02) (728, -2.86591276526451110840e-02) (729, 8.23693200945854187012e-02) (730, -6.61655068397521972656e-02) (731, -7.31081217527389526367e-02) (732, -2.32422333210706710815e-02) (733, -5.84095623344182968140e-03) (734, -1.66019760072231292725e-02) (735, 1.47487431764602661133e-01) (736, 5.14940954744815826416e-02) (737, 6.97502540424466133118e-03) (738, 3.68881300091743469238e-02) (739, 1.54410660266876220703e-01) (740, 3.47238294780254364014e-02) (741, 6.63691237568855285645e-02) (742, 1.15171402692794799805e-01) (743, 1.28356471657752990723e-01) (744, 9.88229885697364807129e-02) (745, 7.36305788159370422363e-02) (746, -3.91951277852058410645e-02) (747, -1.75564864184707403183e-03) (748, -2.65849996358156204224e-02) (749, 2.60702800005674362183e-02) (750, -3.35477106273174285889e-02) (751, -6.37279525399208068848e-02) (752, -2.85852178931236267090e-02) (753, -6.47934824228286743164e-02) (754, 8.71044024825096130371e-02) (755, -9.62823554873466491699e-02) (756, -5.81897795200347900391e-03) (757, 6.72250911593437194824e-02) (758, 8.55130925774574279785e-02) (759, 6.55219033360481262207e-02) (760, 4.95944097638130187988e-02) (761, -8.08058083057403564453e-02) (762, 9.18451845645904541016e-02) (763, -7.37259015440940856934e-02) (764, 1.55828129500150680542e-02) (765, -7.23251998424530029297e-02) (766, 8.27761963009834289551e-02) (767, 5.76606877148151397705e-02) (768, -7.26003423333168029785e-02) (769, -5.78454881906509399414e-02) (770, 3.03867571055889129639e-02) (771, -3.77017557621002197266e-02) (772, -8.40098783373832702637e-03) (773, -6.29914551973342895508e-02) (774, -9.31524485349655151367e-02) (775, -6.16194717586040496826e-02) (776, 8.79161953926086425781e-02) (777, -4.22495044767856597900e-02) (778, 4.04151268303394317627e-02) (779, -2.88830026984214782715e-02) (780, 8.39259102940559387207e-02) (781, -9.53476354479789733887e-02) (782, 5.29986619949340820312e-03) (783, -4.46593165397644042969e-02) (784, 7.10587918758392333984e-01) (0, -7.59573280811309814453e-03) (1, -4.09416668117046356201e-02) (2, 3.40399071574211120605e-02) (3, -4.03706431388854980469e-02) (4, -5.54285719990730285645e-02) (5, -4.38205897808074951172e-04) (6, -9.07762423157691955566e-02) (7, -3.60809788107872009277e-02) (8, -8.05003941059112548828e-03) (9, -6.33516758680343627930e-02) (10, 8.05192068219184875488e-02) (11, 2.13326662778854370117e-02) (12, -7.92397111654281616211e-02) (13, 3.86252626776695251465e-02) (14, 5.28318509459495544434e-02) (15, -3.34013849496841430664e-02) (16, -3.01222652196884155273e-02) (17, -8.51998478174209594727e-02) (18, 5.97886517643928527832e-02) (19, 7.75599479675292968750e-03) (20, -7.96291232109069824219e-02) (21, 9.69685390591621398926e-02) (22, -4.76851314306259155273e-03) (23, -2.15251296758651733398e-02) (24, 3.75818833708763122559e-02) (25, 6.63484856486320495605e-02) (26, -3.75992245972156524658e-02) (27, 4.22342494130134582520e-02) (28, -2.83516496419906616211e-02) (29, 1.77414640784263610840e-02) (30, 8.20931270718574523926e-02) (31, 6.40526190400123596191e-02) (32, 7.67998024821281433105e-02) (33, 1.61330252885818481445e-02) (34, -7.63180181384086608887e-02) (35, -7.86287784576416015625e-02) (36, -8.43051820993423461914e-02) (37, -6.70942589640617370605e-02) (38, -1.61882080137729644775e-02) (39, -1.52194686233997344971e-03) (40, -3.21250334382057189941e-02) (41, -4.59798164665699005127e-02) (42, -9.88219380378723144531e-02) (43, -4.88470196723937988281e-02) (44, -6.37855529785156250000e-02) (45, 6.93591684103012084961e-02) (46, 4.64561209082603454590e-02) (47, -3.93223315477371215820e-02) (48, 6.72187507152557373047e-02) (49, 7.99638498574495315552e-03) (50, 8.02674889564514160156e-02) (51, -8.30196887254714965820e-02) (52, 1.36701688170433044434e-02) (53, -2.27000638842582702637e-02) (54, -4.54481691122055053711e-03) (55, -4.87479530274868011475e-02) (56, -5.63515834510326385498e-02) (57, 5.78559562563896179199e-02) (58, 9.34862866997718811035e-02) (59, 1.52967721223831176758e-02) (60, -2.44025811553001403809e-02) (61, 7.55794122815132141113e-02) (62, -2.06506103277206420898e-02) (63, -4.75992299616336822510e-02) (64, -5.56624354794621467590e-03) (65, 3.62655557692050933838e-02) (66, -6.26809149980545043945e-02) (67, -7.04391002655029296875e-02) (68, 6.11294247210025787354e-03) (69, -3.28108258545398712158e-02) (70, -2.17617183923721313477e-01) (71, -1.13497026264667510986e-01) (72, 1.04952879250049591064e-01) (73, -1.69565781950950622559e-01) (74, -1.85899883508682250977e-01) (75, -2.03249454498291015625e-01) (76, -1.76770061254501342773e-01) (77, -1.45128548145294189453e-01) (78, -4.26428392529487609863e-02) (79, -7.82802477478981018066e-02) (80, 6.91619589924812316895e-02) (81, -1.43162757158279418945e-02) (82, -6.05714917182922363281e-02) (83, -1.69096812605857849121e-02) (84, 6.29836544394493103027e-02) (85, 3.48836854100227355957e-02) (86, 3.43423560261726379395e-02) (87, -9.33679267764091491699e-02) (88, -7.26035982370376586914e-03) (89, 2.82402560114860534668e-02) (90, 6.68498920276761054993e-03) (91, 5.53819090127944946289e-02) (92, 8.41221287846565246582e-02) (93, 1.50914173573255538940e-02) (94, -1.71523645520210266113e-01) (95, 4.71164397895336151123e-02) (96, -3.17420922219753265381e-02) (97, 3.75508815050125122070e-02) (98, 2.78909765183925628662e-02) (99, -1.47633656859397888184e-01) (100, -2.51562893390655517578e-01) (101, -2.15460017323493957520e-01) (102, -4.57133173942565917969e-01) (103, -6.07834041118621826172e-01) (104, -4.66649472713470458984e-01) (105, -2.35923051834106445312e-01) (106, -1.36629492044448852539e-01) (107, 1.49120315909385681152e-01) (108, 1.99007630348205566406e-01) (109, -8.86523723602294921875e-02) (110, -9.01038050651550292969e-02) (111, 6.36821165680885314941e-02) (112, -2.96863913536071777344e-03) (113, -5.06752952933311462402e-02) (114, -5.32275736331939697266e-02) (115, -3.98898385465145111084e-02) (116, 8.61745327711105346680e-02) (117, 3.64578980952501296997e-03) (118, -1.55649051070213317871e-01) (119, -5.43758831918239593506e-02) (120, 2.44107753038406372070e-01) (121, 2.78090566396713256836e-01) (122, -1.05095826089382171631e-01) (123, 1.06395810842514038086e-01) (124, 3.50064188241958618164e-01) (125, 2.56768643856048583984e-01) (126, 2.18505308032035827637e-01) (127, 2.16092512011528015137e-01) (128, -1.47228509187698364258e-01) (129, -6.28120228648185729980e-02) (130, 4.08985726535320281982e-02) (131, -3.59547853469848632812e-01) (132, -5.41197359561920166016e-01) (133, -1.18216723203659057617e-01) (134, -8.55705216526985168457e-02) (135, 1.68798983097076416016e-01) (136, 2.10665494203567504883e-01) (137, -7.61654973030090332031e-02) (138, 7.66368135809898376465e-02) (139, 1.59538164734840393066e-02) (140, -8.84070396423339843750e-02) (141, 8.65330174565315246582e-02) (142, -2.07156371325254440308e-02) (143, 8.23037698864936828613e-03) (144, -6.08141534030437469482e-02) (145, -8.82557779550552368164e-02) (146, -5.86111210286617279053e-02) (147, 1.69138237833976745605e-02) (148, 2.59397894144058227539e-01) (149, 1.50392860174179077148e-01) (150, 7.38322138786315917969e-02) (151, 4.03424724936485290527e-02) (152, -7.45192691683769226074e-02) (153, 2.03418299555778503418e-01) (154, 3.42069625854492187500e-01) (155, 1.19827456772327423096e-01) (156, 1.22184246778488159180e-01) (157, 1.03487752377986907959e-01) (158, 3.00278309732675552368e-02) (159, 4.33884939411655068398e-04) (160, -5.47866709530353546143e-02) (161, 2.06182934343814849854e-02) (162, 1.91799566149711608887e-01) (163, 2.37240031361579895020e-01) (164, 7.57236639037728309631e-03) (165, -7.44327902793884277344e-03) (166, 5.90870901942253112793e-02) (167, 4.41490113735198974609e-02) (168, -2.43175178766250610352e-02) (169, 3.96950617432594299316e-02) (170, -4.14441563189029693604e-02) (171, -8.93737282603979110718e-03) (172, 5.88392093777656555176e-02) (173, -7.10019655525684356689e-03) (174, -2.99460254609584808350e-02) (175, 2.63833492994308471680e-01) (176, 2.90121912956237792969e-01) (177, 1.36533990502357482910e-01) (178, 2.64179289340972900391e-01) (179, 2.28629678487777709961e-01) (180, 5.44333234429359436035e-02) (181, 4.57329489290714263916e-02) (182, -2.71867457777261734009e-02) (183, 2.39721126854419708252e-02) (184, 1.69411659240722656250e-01) (185, -2.35586874186992645264e-02) (186, -1.81304719299077987671e-02) (187, 1.31843075156211853027e-01) (188, 3.07130426168441772461e-01) (189, 4.44963157176971435547e-01) (190, 2.70540982484817504883e-01) (191, 3.69398258626461029053e-02) (192, 1.95972517132759094238e-01) (193, 1.60628437995910644531e-01) (194, 8.50825607776641845703e-02) (195, -8.91919881105422973633e-02) (196, -4.31398898363113403320e-02) (197, 3.77631597220897674561e-02) (198, 5.36250211298465728760e-02) (199, 5.60166612267494201660e-02) (200, 3.78717258572578430176e-02) (201, -1.38460174202919006348e-01) (202, -6.65321573615074157715e-02) (203, 2.10508435964584350586e-01) (204, 5.19256889820098876953e-01) (205, 2.22084838896989822388e-02) (206, 2.96246290206909179688e-01) (207, 1.26802846789360046387e-01) (208, 6.50273635983467102051e-02) (209, 2.89597243070602416992e-01) (210, 3.07357877492904663086e-01) (211, 1.01190134882926940918e-01) (212, 1.48023232817649841309e-01) (213, 1.26212075352668762207e-01) (214, 2.83139109611511230469e-01) (215, 5.23157119750976562500e-01) (216, 4.83155846595764160156e-01) (217, 4.49960917234420776367e-01) (218, 3.86936902999877929688e-01) (219, 3.12288910150527954102e-01) (220, 3.12997996807098388672e-01) (221, 1.85240074992179870605e-01) (222, 6.60916510969400405884e-03) (223, 7.24855735898017883301e-02) (224, -4.13171313703060150146e-02) (225, -6.64008185267448425293e-02) (226, 8.17410871386528015137e-02) (227, 2.20518670976161956787e-02) (228, 1.46367788314819335938e-01) (229, -3.60939316451549530029e-02) (230, 4.24839518964290618896e-02) (231, 4.24714058637619018555e-01) (232, 3.30855339765548706055e-01) (233, -1.31145911291241645813e-02) (234, 1.85671344399452209473e-01) (235, 2.82543599605560302734e-01) (236, 1.48574605584144592285e-01) (237, 1.93377703428268432617e-01) (238, 2.10613444447517395020e-01) (239, 1.19425170123577117920e-01) (240, 1.53643056750297546387e-01) (241, 2.81689286231994628906e-01) (242, 8.22062134742736816406e-01) (243, 6.36182487010955810547e-01) (244, 6.35798096656799316406e-01) (245, 6.44519150257110595703e-01) (246, 4.37152922153472900391e-01) (247, 4.53447699546813964844e-01) (248, 3.05567741394042968750e-01) (249, 2.31524899601936340332e-01) (250, 1.33889868855476379395e-01) (251, 2.34985910356044769287e-02) (252, -9.54772308468818664551e-02) (253, -7.68477395176887512207e-02) (254, -4.78649847209453582764e-02) (255, -3.24162244796752929688e-02) (256, 4.04830388724803924561e-02) (257, -1.11414164304733276367e-01) (258, 1.65499746799468994141e-01) (259, 1.57555028796195983887e-01) (260, 7.87560176104307174683e-03) (261, -2.36261803656816482544e-02) (262, 9.95650738477706909180e-02) (263, 4.66839075088500976562e-01) (264, 2.56027013063430786133e-01) (265, 2.72612720727920532227e-01) (266, 3.43762278556823730469e-01) (267, 4.14243012666702270508e-01) (268, 3.44348073005676269531e-01) (269, 7.89212763309478759766e-01) (270, 6.61072492599487304688e-01) (271, 4.05403822660446166992e-01) (272, 1.80847942829132080078e-01) (273, 4.49103504419326782227e-01) (274, 4.26921397447586059570e-01) (275, 3.81729394197463989258e-01) (276, 3.05665761232376098633e-01) (277, 1.98036462068557739258e-01) (278, 4.13576364517211914062e-02) (279, -6.74980804324150085449e-02) (280, 7.02586024999618530273e-03) (281, -4.46465462446212768555e-02) (282, 1.04760215617716312408e-03) (283, 1.01941274479031562805e-02) (284, 5.50484359264373779297e-02) (285, 3.19925621151924133301e-02) (286, 1.20274133980274200439e-01) (287, 8.78473445773124694824e-02) (288, -3.14284525811672210693e-02) (289, -1.24598883092403411865e-01) (290, 1.31301358342170715332e-01) (291, 4.82633084058761596680e-01) (292, 1.74275100231170654297e-01) (293, 4.15324233472347259521e-02) (294, 3.35121691226959228516e-01) (295, 5.22746980190277099609e-01) (296, 6.25408649444580078125e-01) (297, 5.43055355548858642578e-01) (298, 3.96552771329879760742e-01) (299, 2.86468327045440673828e-01) (300, 2.25103527307510375977e-01) (301, 6.11249744892120361328e-01) (302, 3.83856922388076782227e-01) (303, 1.57651811838150024414e-01) (304, -1.12240880727767944336e-01) (305, -4.73021864891052246094e-02) (306, 5.58507852256298065186e-02) (307, 4.55168262124061584473e-02) (308, -9.49657857418060302734e-02) (309, -5.75581677258014678955e-02) (310, 7.07838237285614013672e-02) (311, 1.20675927028059959412e-02) (312, 9.82399061322212219238e-02) (313, 1.59085169434547424316e-02) (314, -1.67077034711837768555e-01) (315, 4.68574762344360351562e-02) (316, -8.25476944446563720703e-02) (317, -2.39643156528472900391e-01) (318, -3.53053696453571319580e-02) (319, 8.10377895832061767578e-02) (320, -1.80426817387342453003e-02) (321, -1.24483127146959304810e-02) (322, -2.18241050839424133301e-01) (323, 3.28197062015533447266e-01) (324, 3.15356671810150146484e-01) (325, 1.86202093958854675293e-01) (326, 5.04987202584743499756e-02) (327, 1.24365702271461486816e-01) (328, 2.26394370198249816895e-01) (329, 2.16964688152074813843e-02) (330, 1.78423263132572174072e-02) (331, -2.38586574792861938477e-01) (332, -7.48878493905067443848e-02) (333, 1.84661179780960083008e-01) (334, -8.40700790286064147949e-03) (335, -9.99238789081573486328e-02) (336, -7.93089568614959716797e-02) (337, -5.81801794469356536865e-02) (338, 4.45249266922473907471e-02) (339, -6.64185509085655212402e-02) (340, 7.52294063568115234375e-02) (341, -1.51291698217391967773e-01) (342, -1.88852459192276000977e-01) (343, 2.27436758577823638916e-02) (344, -1.99950054287910461426e-01) (345, -9.53551456332206726074e-02) (346, -1.93221375346183776855e-01) (347, -2.01068371534347534180e-01) (348, -2.00348436832427978516e-01) (349, -2.44507640600204467773e-02) (350, 1.62298575043678283691e-01) (351, 1.98564559221267700195e-01) (352, 4.96597737073898315430e-02) (353, -1.10702060163021087646e-01) (354, -1.77270993590354919434e-01) (355, 1.86045780777931213379e-01) (356, -1.82776734232902526855e-01) (357, -1.29229679703712463379e-01) (358, -6.51173442602157592773e-02) (359, -3.58037710189819335938e-01) (360, -7.65746608376502990723e-02) (361, 1.70570075511932373047e-01) (362, 1.12414263188838958740e-01) (363, 5.55797554552555084229e-02) (364, 5.32958582043647766113e-02) (365, -3.34322005510330200195e-02) (366, 5.15358895063400268555e-02) (367, 8.29176679253578186035e-02) (368, 6.97042867541313171387e-02) (369, -2.68728166818618774414e-01) (370, 4.03370335698127746582e-02) (371, -6.85882568359375000000e-02) (372, -2.72047609090805053711e-01) (373, -1.38253271579742431641e-02) (374, -1.78641736507415771484e-01) (375, -3.77706378698348999023e-01) (376, -3.24973046779632568359e-01) (377, -4.78852577507495880127e-02) (378, 2.06642687320709228516e-01) (379, -1.47047445178031921387e-01) (380, -9.97270271182060241699e-03) (381, 2.25130036473274230957e-01) (382, 1.60320792347192764282e-02) (383, 8.17391946911811828613e-02) (384, -3.12673121690750122070e-01) (385, -2.08638370037078857422e-01) (386, -7.87027627229690551758e-02) (387, -3.09651911258697509766e-01) (388, -2.27072939276695251465e-01) (389, 2.75775580666959285736e-03) (390, 9.10476371645927429199e-02) (391, -3.75751368701457977295e-02) (392, -1.01522356271743774414e-02) (393, 4.72126267850399017334e-02) (394, -8.23146253824234008789e-02) (395, -5.21550662815570831299e-02) (396, -2.47267950326204299927e-02) (397, -1.10499344766139984131e-01) (398, -1.83569476008415222168e-01) (399, -3.12961876392364501953e-01) (400, -1.88057020306587219238e-01) (401, -1.46272510290145874023e-01) (402, -2.66263902187347412109e-01) (403, -1.55803784728050231934e-01) (404, -7.55493789911270141602e-02) (405, 1.40467405319213867188e-01) (406, -2.94496566057205200195e-01) (407, -1.11808843910694122314e-01) (408, 2.10770711302757263184e-01) (409, 8.35449919104576110840e-02) (410, 2.27108150720596313477e-01) (411, 2.66812413930892944336e-01) (412, -3.78374576568603515625e-01) (413, -2.29063898324966430664e-01) (414, -2.13755115866661071777e-01) (415, -2.71707564592361450195e-01) (416, -1.29109725356101989746e-01) (417, -1.49600148200988769531e-01) (418, -5.83992004394531250000e-02) (419, -8.06540921330451965332e-02) (420, 8.24388936161994934082e-02) (421, -9.89321470260620117188e-02) (422, -1.77678503096103668213e-02) (423, -2.08497773855924606323e-02) (424, 1.11443012952804565430e-01) (425, -5.43170934543013572693e-03) (426, -1.33849740028381347656e-01) (427, -8.94148126244544982910e-02) (428, -1.93532645702362060547e-01) (429, -3.10590653680264949799e-03) (430, -1.53686940670013427734e-01) (431, 6.30234330892562866211e-02) (432, 1.15568310022354125977e-01) (433, 1.92215472459793090820e-01) (434, -1.28871858119964599609e-01) (435, -1.27192869782447814941e-01) (436, 5.20364083349704742432e-02) (437, -6.76446929574012756348e-02) (438, -1.50362655520439147949e-01) (439, 1.39788046479225158691e-01) (440, -1.87342107295989990234e-01) (441, -1.58301070332527160645e-01) (442, -2.55200713872909545898e-01) (443, -3.14130097627639770508e-01) (444, 1.18888318538665771484e-01) (445, 3.11008002609014511108e-02) (446, 1.34393244981765747070e-01) (447, -2.61988975107669830322e-02) (448, 1.84439122676849365234e-04) (449, 5.47235682606697082520e-02) (450, -5.07956603541970252991e-03) (451, -1.63429491221904754639e-02) (452, 9.15401652455329895020e-02) (453, 1.25068441033363342285e-01) (454, -1.67908463627099990845e-02) (455, 1.42245024442672729492e-01) (456, 5.69407455623149871826e-02) (457, 