FANN_FLO_2.1
num_layers=4
learning_rate=0.010000
connection_rate=1.000000
network_type=0
learning_momentum=0.400000
training_algorithm=0
train_error_function=1
train_stop_function=0
cascade_output_change_fraction=0.010000
quickprop_decay=-0.000100
quickprop_mu=1.750000
rprop_increase_factor=1.200000
rprop_decrease_factor=0.500000
rprop_delta_min=0.000000
rprop_delta_max=50.000000
rprop_delta_zero=0.100000
cascade_output_stagnation_epochs=12
cascade_candidate_change_fraction=0.010000
cascade_candidate_stagnation_epochs=12
cascade_max_out_epochs=150
cascade_min_out_epochs=50
cascade_max_cand_epochs=150
cascade_min_cand_epochs=50
cascade_num_candidate_groups=2
bit_fail_limit=3.49999994039535522461e-01
cascade_candidate_limit=1.00000000000000000000e+03
cascade_weight_multiplier=4.00000005960464477539e-01
cascade_activation_functions_count=10
cascade_activation_functions=3 5 7 8 10 11 14 15 16 17 
cascade_activation_steepnesses_count=4
cascade_activation_steepnesses=2.50000000000000000000e-01 5.00000000000000000000e-01 7.50000000000000000000e-01 1.00000000000000000000e+00 
layer_sizes=785 20 16 11 
scale_included=0
neurons (num_inputs, activation_function, activation_steepness)=(0, 0, 0.00000000000000000000e+00) (0, 0, 0.00000000000000000000e+00) (0, 0, 0.00000000000000000000e+00) (0, 0, 0.00000000000000000000e+00) (0, 0, 0.00000000000000000000e+00) (0, 0, 0.00000000000000000000e+00) (0, 0, 0.00000000000000000000e+00) (0, 0, 0.00000000000000000000e+00) (0, 0, 0.00000000000000000000e+00) (0, 0, 0.00000000000000000000e+00) (0, 0, 0.00000000000000000000e+00) (0, 0, 0.00000000000000000000e+00) (0, 0, 0.00000000000000000000e+00) (0, 0, 0.00000000000000000000e+00) (0, 0, 0.00000000000000000000e+00) (0, 0, 0.00000000000000000000e+00) (0, 0, 0.00000000000000000000e+00) (0, 0, 0.00000000000000000000e+00) (0, 0, 0.00000000000000000000e+00) (0, 0, 0.00000000000000000000e+00) (0, 0, 0.00000000000000000000e+00) (0, 0, 0.00000000000000000000e+00) (0, 0, 0.00000000000000000000e+00) (0, 0, 0.00000000000000000000e+00) (0, 0, 0.00000000000000000000e+00) (0, 0, 0.00000000000000000000e+00) (0, 0, 0.00000000000000000000e+00) (0, 0, 0.00000000000000000000e+00) (0, 0, 0.00000000000000000000e+00) (0, 0, 0.00000000000000000000e+00) (0, 0, 0.00000000000000000000e+00) (0, 0, 0.00000000000000000000e+00) (0, 0, 0.00000000000000000000e+00) (0, 0, 0.00000000000000000000e+00) (0, 0, 0.00000000000000000000e+00) (0, 0, 0.00000000000000000000e+00) (0, 0, 0.00000000000000000000e+00) (0, 0, 0.00000000000000000000e+00) (0, 0, 0.00000000000000000000e+00) (0, 0, 0.00000000000000000000e+00) (0, 0, 0.00000000000000000000e+00) (0, 0, 0.00000000000000000000e+00) (0, 0, 0.00000000000000000000e+00) (0, 0, 0.00000000000000000000e+00) (0, 0, 0.00000000000000000000e+00) (0, 0, 0.00000000000000000000e+00) (0, 0, 0.00000000000000000000e+00) (0, 0, 0.00000000000000000000e+00) (0, 0, 0.00000000000000000000e+00) (0, 0, 0.00000000000000000000e+00) (0, 0, 0.00000000000000000000e+00) (0, 0, 0.00000000000000000000e+00) (0, 0, 0.00000000000000000000e+00) (0, 0, 0.00000000000000000000e+00) (0, 0, 0.00000000000000000000e+00) (0, 0, 0.00000000000000000000e+00) (0, 0, 0.00000000000000000000e+00) (0, 0, 0.00000000000000000000e+00) (0, 0, 0.00000000000000000000e+00) (0, 0, 0.00000000000000000000e+00) (0, 0, 0.00000000000000000000e+00) (0, 0, 0.00000000000000000000e+00) (0, 0, 0.00000000000000000000e+00) (0, 0, 0.00000000000000000000e+00) (0, 0, 0.00000000000000000000e+00) (0, 0, 0.00000000000000000000e+00) (0, 0, 0.00000000000000000000e+00) (0, 0, 0.00000000000000000000e+00) (0, 0, 0.00000000000000000000e+00) (0, 0, 0.00000000000000000000e+00) (0, 0, 0.00000000000000000000e+00) (0, 0, 0.00000000000000000000e+00) (0, 0, 0.00000000000000000000e+00) (0, 0, 0.00000000000000000000e+00) (0, 0, 0.00000000000000000000e+00) (0, 0, 0.00000000000000000000e+00) (0, 0, 0.00000000000000000000e+00) (0, 0, 0.00000000000000000000e+00) (0, 0, 0.00000000000000000000e+00) (0, 0, 0.00000000000000000000e+00) (0, 0, 0.00000000000000000000e+00) (0, 0, 0.00000000000000000000e+00) (0, 0, 0.00000000000000000000e+00) (0, 0, 0.00000000000000000000e+00) (0, 0, 0.00000000000000000000e+00) (0, 0, 0.00000000000000000000e+00) (0, 0, 0.00000000000000000000e+00) (0, 0, 0.00000000000000000000e+00) (0, 0, 0.00000000000000000000e+00) (0, 0, 0.00000000000000000000e+00) (0, 0, 0.00000000000000000000e+00) (0, 0, 0.00000000000000000000e+00) (0, 0, 0.00000000000000000000e+00) (0, 0, 0.00000000000000000000e+00) (0, 0, 0.00000000000000000000e+00) (0, 0, 0.00000000000000000000e+00) (0, 0, 0.00000000000000000000e+00) (0, 0, 0.00000000000000000000e+00) (0, 0, 0.00000000000000000000e+00) (0, 0, 0.00000000000000000000e+00) (0, 0, 0.00000000000000000000e+00) (0, 0, 0.00000000000000000000e+00) (0, 0, 0.00000000000000000000e+00) (0, 0, 0.00000000000000000000e+00) (0, 0, 0.00000000000000000000e+00) (0, 0, 0.00000000000000000000e+00) (0, 0, 0.00000000000000000000e+00) (0, 0, 0.00000000000000000000e+00) (0, 0, 0.00000000000000000000e+00) (0, 0, 0.00000000000000000000e+00) (0, 0, 0.00000000000000000000e+00) (0, 0, 0.00000000000000000000e+00) (0, 0, 0.00000000000000000000e+00) (0, 0, 0.00000000000000000000e+00) (0, 0, 0.00000000000000000000e+00) (0, 0, 0.00000000000000000000e+00) (0, 0, 0.00000000000000000000e+00) (0, 0, 0.00000000000000000000e+00) (0, 0, 0.00000000000000000000e+00) (0, 0, 0.00000000000000000000e+00) (0, 0, 0.00000000000000000000e+00) (0, 0, 0.00000000000000000000e+00) (0, 0, 0.00000000000000000000e+00) (0, 0, 0.00000000000000000000e+00) (0, 0, 0.00000000000000000000e+00) (0, 0, 0.00000000000000000000e+00) (0, 0, 0.00000000000000000000e+00) (0, 0, 0.00000000000000000000e+00) (0, 0, 0.00000000000000000000e+00) (0, 0, 0.00000000000000000000e+00) (0, 0, 0.00000000000000000000e+00) (0, 0, 0.00000000000000000000e+00) (0, 0, 0.00000000000000000000e+00) (0, 0, 0.00000000000000000000e+00) (0, 0, 0.00000000000000000000e+00) (0, 0, 0.00000000000000000000e+00) (0, 0, 0.00000000000000000000e+00) (0, 0, 0.00000000000000000000e+00) (0, 0, 0.00000000000000000000e+00) (0, 0, 0.00000000000000000000e+00) (0, 0, 0.00000000000000000000e+00) (0, 0, 0.00000000000000000000e+00) (0, 0, 0.00000000000000000000e+00) (0, 0, 0.00000000000000000000e+00) (0, 0, 0.00000000000000000000e+00) (0, 0, 0.00000000000000000000e+00) (0, 0, 0.00000000000000000000e+00) (0, 0, 0.00000000000000000000e+00) (0, 0, 0.00000000000000000000e+00) (0, 0, 0.00000000000000000000e+00) (0, 0, 0.00000000000000000000e+00) (0, 0, 0.00000000000000000000e+00) (0, 0, 0.00000000000000000000e+00) (0, 0, 0.00000000000000000000e+00) (0, 0, 0.00000000000000000000e+00) (0, 0, 0.00000000000000000000e+00) (0, 0, 0.00000000000000000000e+00) (0, 0, 0.00000000000000000000e+00) (0, 0, 0.00000000000000000000e+00) (0, 0, 0.00000000000000000000e+00) (0, 0, 0.00000000000000000000e+00) (0, 0, 0.00000000000000000000e+00) (0, 0, 0.00000000000000000000e+00) (0, 0, 0.00000000000000000000e+00) (0, 0, 0.00000000000000000000e+00) (0, 0, 0.00000000000000000000e+00) (0, 0, 0.00000000000000000000e+00) (0, 0, 0.00000000000000000000e+00) (0, 0, 0.00000000000000000000e+00) (0, 0, 0.00000000000000000000e+00) (0, 0, 0.00000000000000000000e+00) (0, 0, 0.00000000000000000000e+00) (0, 0, 0.00000000000000000000e+00) (0, 0, 0.00000000000000000000e+00) (0, 0, 0.00000000000000000000e+00) (0, 0, 0.00000000000000000000e+00) (0, 0, 0.00000000000000000000e+00) (0, 0, 0.00000000000000000000e+00) (0, 0, 0.00000000000000000000e+00) (0, 0, 0.00000000000000000000e+00) (0, 0, 0.00000000000000000000e+00) (0, 0, 0.00000000000000000000e+00) (0, 0, 0.00000000000000000000e+00) (0, 0, 0.00000000000000000000e+00) (0, 0, 0.00000000000000000000e+00) (0, 0, 0.00000000000000000000e+00) (0, 0, 0.00000000000000000000e+00) (0, 0, 0.00000000000000000000e+00) (0, 0, 0.00000000000000000000e+00) (0, 0, 0.00000000000000000000e+00) (0, 0, 0.00000000000000000000e+00) (0, 0, 0.00000000000000000000e+00) (0, 0, 0.00000000000000000000e+00) (0, 0, 0.00000000000000000000e+00) (0, 0, 0.00000000000000000000e+00) (0, 0, 0.00000000000000000000e+00) (0, 0, 0.00000000000000000000e+00) (0, 0, 0.00000000000000000000e+00) (0, 0, 0.00000000000000000000e+00) (0, 0, 0.00000000000000000000e+00) (0, 0, 0.00000000000000000000e+00) (0, 0, 0.00000000000000000000e+00) (0, 0, 0.00000000000000000000e+00) (0, 0, 0.00000000000000000000e+00) (0, 0, 0.00000000000000000000e+00) (0, 0, 0.00000000000000000000e+00) (0, 0, 0.00000000000000000000e+00) (0, 0, 0.00000000000000000000e+00) (0, 0, 0.00000000000000000000e+00) (0, 0, 0.00000000000000000000e+00) (0, 0, 0.00000000000000000000e+00) (0, 0, 0.00000000000000000000e+00) (0, 0, 0.00000000000000000000e+00) (0, 0, 0.00000000000000000000e+00) (0, 0, 0.00000000000000000000e+00) (0, 0, 0.00000000000000000000e+00) (0, 0, 0.00000000000000000000e+00) (0, 0, 0.00000000000000000000e+00) (0, 0, 0.00000000000000000000e+00) (0, 0, 0.00000000000000000000e+00) (0, 0, 0.00000000000000000000e+00) (0, 0, 0.00000000000000000000e+00) (0, 0, 0.00000000000000000000e+00) (0, 0, 0.00000000000000000000e+00) (0, 0, 0.00000000000000000000e+00) (0, 0, 0.00000000000000000000e+00) (0, 0, 0.00000000000000000000e+00) (0, 0, 0.00000000000000000000e+00) (0, 0, 0.00000000000000000000e+00) (0, 0, 0.00000000000000000000e+00) (0, 0, 0.00000000000000000000e+00) (0, 0, 0.00000000000000000000e+00) (0, 0, 0.00000000000000000000e+00) (0, 0, 0.00000000000000000000e+00) (0, 0, 0.00000000000000000000e+00) (0, 0, 0.00000000000000000000e+00) (0, 0, 0.00000000000000000000e+00) (0, 0, 0.00000000000000000000e+00) (0, 0, 0.00000000000000000000e+00) (0, 0, 0.00000000000000000000e+00) (0, 0, 0.00000000000000000000e+00) (0, 0, 0.00000000000000000000e+00) (0, 0, 0.00000000000000000000e+00) (0, 0, 0.00000000000000000000e+00) (0, 0, 0.00000000000000000000e+00) (0, 0, 0.00000000000000000000e+00) (0, 0, 0.00000000000000000000e+00) (0, 0, 0.00000000000000000000e+00) (0, 0, 0.00000000000000000000e+00) (0, 0, 0.00000000000000000000e+00) (0, 0, 0.00000000000000000000e+00) (0, 0, 0.00000000000000000000e+00) (0, 0, 0.00000000000000000000e+00) (0, 0, 0.00000000000000000000e+00) (0, 0, 0.00000000000000000000e+00) (0, 0, 0.00000000000000000000e+00) (0, 0, 0.00000000000000000000e+00) (0, 0, 0.00000000000000000000e+00) (0, 0, 0.00000000000000000000e+00) (0, 0, 0.00000000000000000000e+00) (0, 0, 0.00000000000000000000e+00) (0, 0, 0.00000000000000000000e+00) (0, 0, 0.00000000000000000000e+00) (0, 0, 0.00000000000000000000e+00) (0, 0, 0.00000000000000000000e+00) (0, 0, 0.00000000000000000000e+00) (0, 0, 0.00000000000000000000e+00) (0, 0, 0.00000000000000000000e+00) (0, 0, 0.00000000000000000000e+00) (0, 0, 0.00000000000000000000e+00) (0, 0, 0.00000000000000000000e+00) (0, 0, 0.00000000000000000000e+00) (0, 0, 0.00000000000000000000e+00) (0, 0, 0.00000000000000000000e+00) (0, 0, 0.00000000000000000000e+00) (0, 0, 0.00000000000000000000e+00) (0, 0, 0.00000000000000000000e+00) (0, 0, 0.00000000000000000000e+00) (0, 0, 0.00000000000000000000e+00) (0, 0, 0.00000000000000000000e+00) (0, 0, 0.00000000000000000000e+00) (0, 0, 0.00000000000000000000e+00) (0, 0, 0.00000000000000000000e+00) (0, 0, 0.00000000000000000000e+00) (0, 0, 0.00000000000000000000e+00) (0, 0, 0.00000000000000000000e+00) (0, 0, 0.00000000000000000000e+00) (0, 0, 0.00000000000000000000e+00) (0, 0, 0.00000000000000000000e+00) (0, 0, 0.00000000000000000000e+00) (0, 0, 0.00000000000000000000e+00) (0, 0, 0.00000000000000000000e+00) (0, 0, 0.00000000000000000000e+00) (0, 0, 0.00000000000000000000e+00) (0, 0, 0.00000000000000000000e+00) (0, 0, 0.00000000000000000000e+00) (0, 0, 0.00000000000000000000e+00) (0, 0, 0.00000000000000000000e+00) (0, 0, 0.00000000000000000000e+00) (0, 0, 0.00000000000000000000e+00) (0, 0, 0.00000000000000000000e+00) (0, 0, 0.00000000000000000000e+00) (0, 0, 0.00000000000000000000e+00) (0, 0, 0.00000000000000000000e+00) (0, 0, 0.00000000000000000000e+00) (0, 0, 0.00000000000000000000e+00) (0, 0, 0.00000000000000000000e+00) (0, 0, 0.00000000000000000000e+00) (0, 0, 0.00000000000000000000e+00) (0, 0, 0.00000000000000000000e+00) (0, 0, 0.00000000000000000000e+00) (0, 0, 0.00000000000000000000e+00) (0, 0, 0.00000000000000000000e+00) (0, 0, 0.00000000000000000000e+00) (0, 0, 0.00000000000000000000e+00) (0, 0, 0.00000000000000000000e+00) (0, 0, 0.00000000000000000000e+00) (0, 0, 0.00000000000000000000e+00) (0, 0, 0.00000000000000000000e+00) (0, 0, 0.00000000000000000000e+00) (0, 0, 0.00000000000000000000e+00) (0, 0, 0.00000000000000000000e+00) (0, 0, 0.00000000000000000000e+00) (0, 0, 0.00000000000000000000e+00) (0, 0, 0.00000000000000000000e+00) (0, 0, 0.00000000000000000000e+00) (0, 0, 0.00000000000000000000e+00) (0, 0, 0.00000000000000000000e+00) (0, 0, 0.00000000000000000000e+00) (0, 0, 0.00000000000000000000e+00) (0, 0, 0.00000000000000000000e+00) (0, 0, 0.00000000000000000000e+00) (0, 0, 0.00000000000000000000e+00) (0, 0, 0.00000000000000000000e+00) (0, 0, 0.00000000000000000000e+00) (0, 0, 0.00000000000000000000e+00) (0, 0, 0.00000000000000000000e+00) (0, 0, 0.00000000000000000000e+00) (0, 0, 0.00000000000000000000e+00) (0, 0, 0.00000000000000000000e+00) (0, 0, 0.00000000000000000000e+00) (0, 0, 0.00000000000000000000e+00) (0, 0, 0.00000000000000000000e+00) (0, 0, 0.00000000000000000000e+00) (0, 0, 0.00000000000000000000e+00) (0, 0, 0.00000000000000000000e+00) (0, 0, 0.00000000000000000000e+00) (0, 0, 0.00000000000000000000e+00) (0, 0, 0.00000000000000000000e+00) (0, 0, 0.00000000000000000000e+00) (0, 0, 0.00000000000000000000e+00) (0, 0, 0.00000000000000000000e+00) (0, 0, 0.00000000000000000000e+00) (0, 0, 0.00000000000000000000e+00) (0, 0, 0.00000000000000000000e+00) (0, 0, 0.00000000000000000000e+00) (0, 0, 0.00000000000000000000e+00) (0, 0, 0.00000000000000000000e+00) (0, 0, 0.00000000000000000000e+00) (0, 0, 0.00000000000000000000e+00) (0, 0, 0.00000000000000000000e+00) (0, 0, 0.00000000000000000000e+00) (0, 0, 0.00000000000000000000e+00) (0, 0, 0.00000000000000000000e+00) (0, 0, 0.00000000000000000000e+00) (0, 0, 0.00000000000000000000e+00) (0, 0, 0.00000000000000000000e+00) (0, 0, 0.00000000000000000000e+00) (0, 0, 0.00000000000000000000e+00) (0, 0, 0.00000000000000000000e+00) (0, 0, 0.00000000000000000000e+00) (0, 0, 0.00000000000000000000e+00) (0, 0, 0.00000000000000000000e+00) (0, 0, 0.00000000000000000000e+00) (0, 0, 0.00000000000000000000e+00) (0, 0, 0.00000000000000000000e+00) (0, 0, 0.00000000000000000000e+00) (0, 0, 0.00000000000000000000e+00) (0, 0, 0.00000000000000000000e+00) (0, 0, 0.00000000000000000000e+00) (0, 0, 0.00000000000000000000e+00) (0, 0, 0.00000000000000000000e+00) (0, 0, 0.00000000000000000000e+00) (0, 0, 0.00000000000000000000e+00) (0, 0, 0.00000000000000000000e+00) (0, 0, 0.00000000000000000000e+00) (0, 0, 0.00000000000000000000e+00) (0, 0, 0.00000000000000000000e+00) (0, 0, 0.00000000000000000000e+00) (0, 0, 0.00000000000000000000e+00) (0, 0, 0.00000000000000000000e+00) (0, 0, 0.00000000000000000000e+00) (0, 0, 0.00000000000000000000e+00) (0, 0, 0.00000000000000000000e+00) (0, 0, 0.00000000000000000000e+00) (0, 0, 0.00000000000000000000e+00) (0, 0, 0.00000000000000000000e+00) (0, 0, 0.00000000000000000000e+00) (0, 0, 0.00000000000000000000e+00) (0, 0, 0.00000000000000000000e+00) (0, 0, 0.00000000000000000000e+00) (0, 0, 0.00000000000000000000e+00) (0, 0, 0.00000000000000000000e+00) (0, 0, 0.00000000000000000000e+00) (0, 0, 0.00000000000000000000e+00) (0, 0, 0.00000000000000000000e+00) (0, 0, 0.00000000000000000000e+00) (0, 0, 0.00000000000000000000e+00) (0, 0, 0.00000000000000000000e+00) (0, 0, 0.00000000000000000000e+00) (0, 0, 0.00000000000000000000e+00) (0, 0, 0.00000000000000000000e+00) (0, 0, 0.00000000000000000000e+00) (0, 0, 0.00000000000000000000e+00) (0, 0, 0.00000000000000000000e+00) (0, 0, 0.00000000000000000000e+00) (0, 0, 0.00000000000000000000e+00) (0, 0, 0.00000000000000000000e+00) (0, 0, 0.00000000000000000000e+00) (0, 0, 0.00000000000000000000e+00) (0, 0, 0.00000000000000000000e+00) (0, 0, 0.00000000000000000000e+00) (0, 0, 0.00000000000000000000e+00) (0, 0, 0.00000000000000000000e+00) (0, 0, 0.00000000000000000000e+00) (0, 0, 0.00000000000000000000e+00) (0, 0, 0.00000000000000000000e+00) (0, 0, 0.00000000000000000000e+00) (0, 0, 0.00000000000000000000e+00) (0, 0, 0.00000000000000000000e+00) (0, 0, 0.00000000000000000000e+00) (0, 0, 0.00000000000000000000e+00) (0, 0, 0.00000000000000000000e+00) (0, 0, 0.00000000000000000000e+00) (0, 0, 0.00000000000000000000e+00) (0, 0, 0.00000000000000000000e+00) (0, 0, 0.00000000000000000000e+00) (0, 0, 0.00000000000000000000e+00) (0, 0, 0.00000000000000000000e+00) (0, 0, 0.00000000000000000000e+00) (0, 0, 0.00000000000000000000e+00) (0, 0, 0.00000000000000000000e+00) (0, 0, 0.00000000000000000000e+00) (0, 0, 0.00000000000000000000e+00) (0, 0, 0.00000000000000000000e+00) (0, 0, 0.00000000000000000000e+00) (0, 0, 0.00000000000000000000e+00) (0, 0, 0.00000000000000000000e+00) (0, 0, 0.00000000000000000000e+00) (0, 0, 0.00000000000000000000e+00) (0, 0, 0.00000000000000000000e+00) (0, 0, 0.00000000000000000000e+00) (0, 0, 0.00000000000000000000e+00) (0, 0, 0.00000000000000000000e+00) (0, 0, 0.00000000000000000000e+00) (0, 0, 0.00000000000000000000e+00) (0, 0, 0.00000000000000000000e+00) (0, 0, 0.00000000000000000000e+00) (0, 0, 0.00000000000000000000e+00) (0, 0, 0.00000000000000000000e+00) (0, 0, 0.00000000000000000000e+00) (0, 0, 0.00000000000000000000e+00) (0, 0, 0.00000000000000000000e+00) (0, 0, 0.00000000000000000000e+00) (0, 0, 0.00000000000000000000e+00) (0, 0, 0.00000000000000000000e+00) (0, 0, 0.00000000000000000000e+00) (0, 0, 0.00000000000000000000e+00) (0, 0, 0.00000000000000000000e+00) (0, 0, 0.00000000000000000000e+00) (0, 0, 0.00000000000000000000e+00) (0, 0, 0.00000000000000000000e+00) (0, 0, 0.00000000000000000000e+00) (0, 0, 0.00000000000000000000e+00) (0, 0, 0.00000000000000000000e+00) (0, 0, 0.00000000000000000000e+00) (0, 0, 0.00000000000000000000e+00) (0, 0, 0.00000000000000000000e+00) (0, 0, 0.00000000000000000000e+00) (0, 0, 0.00000000000000000000e+00) (0, 0, 0.00000000000000000000e+00) (0, 0, 0.00000000000000000000e+00) (0, 0, 0.00000000000000000000e+00) (0, 0, 0.00000000000000000000e+00) (0, 0, 0.00000000000000000000e+00) (0, 0, 0.00000000000000000000e+00) (0, 0, 0.00000000000000000000e+00) (0, 0, 0.00000000000000000000e+00) (0, 0, 0.00000000000000000000e+00) (0, 0, 0.00000000000000000000e+00) (0, 0, 0.00000000000000000000e+00) (0, 0, 0.00000000000000000000e+00) (0, 0, 0.00000000000000000000e+00) (0, 0, 0.00000000000000000000e+00) (0, 0, 0.00000000000000000000e+00) (0, 0, 0.00000000000000000000e+00) (0, 0, 0.00000000000000000000e+00) (0, 0, 0.00000000000000000000e+00) (0, 0, 0.00000000000000000000e+00) (0, 0, 0.00000000000000000000e+00) (0, 0, 0.00000000000000000000e+00) (0, 0, 0.00000000000000000000e+00) (0, 0, 0.00000000000000000000e+00) (0, 0, 0.00000000000000000000e+00) (0, 0, 0.00000000000000000000e+00) (0, 0, 0.00000000000000000000e+00) (0, 0, 0.00000000000000000000e+00) (0, 0, 0.00000000000000000000e+00) (0, 0, 0.00000000000000000000e+00) (0, 0, 0.00000000000000000000e+00) (0, 0, 0.00000000000000000000e+00) (0, 0, 0.00000000000000000000e+00) (0, 0, 0.00000000000000000000e+00) (0, 0, 0.00000000000000000000e+00) (0, 0, 0.00000000000000000000e+00) (0, 0, 0.00000000000000000000e+00) (0, 0, 0.00000000000000000000e+00) (0, 0, 0.00000000000000000000e+00) (0, 0, 0.00000000000000000000e+00) (0, 0, 0.00000000000000000000e+00) (0, 0, 0.00000000000000000000e+00) (0, 0, 0.00000000000000000000e+00) (0, 0, 0.00000000000000000000e+00) (0, 0, 0.00000000000000000000e+00) (0, 0, 0.00000000000000000000e+00) (0, 0, 0.00000000000000000000e+00) (0, 0, 0.00000000000000000000e+00) (0, 0, 0.00000000000000000000e+00) (0, 0, 0.00000000000000000000e+00) (0, 0, 0.00000000000000000000e+00) (0, 0, 0.00000000000000000000e+00) (0, 0, 0.00000000000000000000e+00) (0, 0, 0.00000000000000000000e+00) (0, 0, 0.00000000000000000000e+00) (0, 0, 0.00000000000000000000e+00) (0, 0, 0.00000000000000000000e+00) (0, 0, 0.00000000000000000000e+00) (0, 0, 0.00000000000000000000e+00) (0, 0, 0.00000000000000000000e+00) (0, 0, 0.00000000000000000000e+00) (0, 0, 0.00000000000000000000e+00) (0, 0, 0.00000000000000000000e+00) (0, 0, 0.00000000000000000000e+00) (0, 0, 0.00000000000000000000e+00) (0, 0, 0.00000000000000000000e+00) (0, 0, 0.00000000000000000000e+00) (0, 0, 0.00000000000000000000e+00) (0, 0, 0.00000000000000000000e+00) (0, 0, 0.00000000000000000000e+00) (0, 0, 0.00000000000000000000e+00) (0, 0, 0.00000000000000000000e+00) (0, 0, 0.00000000000000000000e+00) (0, 0, 0.00000000000000000000e+00) (0, 0, 0.00000000000000000000e+00) (0, 0, 0.00000000000000000000e+00) (0, 0, 0.00000000000000000000e+00) (0, 0, 0.00000000000000000000e+00) (0, 0, 0.00000000000000000000e+00) (0, 0, 0.00000000000000000000e+00) (0, 0, 0.00000000000000000000e+00) (0, 0, 0.00000000000000000000e+00) (0, 0, 0.00000000000000000000e+00) (0, 0, 0.00000000000000000000e+00) (0, 0, 0.00000000000000000000e+00) (0, 0, 0.00000000000000000000e+00) (0, 0, 0.00000000000000000000e+00) (0, 0, 0.00000000000000000000e+00) (0, 0, 0.00000000000000000000e+00) (0, 0, 0.00000000000000000000e+00) (0, 0, 0.00000000000000000000e+00) (0, 0, 0.00000000000000000000e+00) (0, 0, 0.00000000000000000000e+00) (0, 0, 0.00000000000000000000e+00) (0, 0, 0.00000000000000000000e+00) (0, 0, 0.00000000000000000000e+00) (0, 0, 0.00000000000000000000e+00) (0, 0, 0.00000000000000000000e+00) (0, 0, 0.00000000000000000000e+00) (0, 0, 0.00000000000000000000e+00) (0, 0, 0.00000000000000000000e+00) (0, 0, 0.00000000000000000000e+00) (0, 0, 0.00000000000000000000e+00) (0, 0, 0.00000000000000000000e+00) (0, 0, 0.00000000000000000000e+00) (0, 0, 0.00000000000000000000e+00) (0, 0, 0.00000000000000000000e+00) (0, 0, 0.00000000000000000000e+00) (0, 0, 0.00000000000000000000e+00) (0, 0, 0.00000000000000000000e+00) (0, 0, 0.00000000000000000000e+00) (0, 0, 0.00000000000000000000e+00) (0, 0, 0.00000000000000000000e+00) (0, 0, 0.00000000000000000000e+00) (0, 0, 0.00000000000000000000e+00) (0, 0, 0.00000000000000000000e+00) (0, 0, 0.00000000000000000000e+00) (0, 0, 0.00000000000000000000e+00) (0, 0, 0.00000000000000000000e+00) (0, 0, 0.00000000000000000000e+00) (0, 0, 0.00000000000000000000e+00) (0, 0, 0.00000000000000000000e+00) (0, 0, 0.00000000000000000000e+00) (0, 0, 0.00000000000000000000e+00) (0, 0, 0.00000000000000000000e+00) (0, 0, 0.00000000000000000000e+00) (0, 0, 0.00000000000000000000e+00) (0, 0, 0.00000000000000000000e+00) (0, 0, 0.00000000000000000000e+00) (0, 0, 0.00000000000000000000e+00) (0, 0, 0.00000000000000000000e+00) (0, 0, 0.00000000000000000000e+00) (0, 0, 0.00000000000000000000e+00) (0, 0, 0.00000000000000000000e+00) (0, 0, 0.00000000000000000000e+00) (0, 0, 0.00000000000000000000e+00) (0, 0, 0.00000000000000000000e+00) (0, 0, 0.00000000000000000000e+00) (0, 0, 0.00000000000000000000e+00) (0, 0, 0.00000000000000000000e+00) (0, 0, 0.00000000000000000000e+00) (0, 0, 0.00000000000000000000e+00) (0, 0, 0.00000000000000000000e+00) (0, 0, 0.00000000000000000000e+00) (0, 0, 0.00000000000000000000e+00) (0, 0, 0.00000000000000000000e+00) (0, 0, 0.00000000000000000000e+00) (0, 0, 0.00000000000000000000e+00) (0, 0, 0.00000000000000000000e+00) (0, 0, 0.00000000000000000000e+00) (0, 0, 0.00000000000000000000e+00) (0, 0, 0.00000000000000000000e+00) (0, 0, 0.00000000000000000000e+00) (0, 0, 0.00000000000000000000e+00) (0, 0, 0.00000000000000000000e+00) (0, 0, 0.00000000000000000000e+00) (0, 0, 0.00000000000000000000e+00) (0, 0, 0.00000000000000000000e+00) (0, 0, 0.00000000000000000000e+00) (0, 0, 0.00000000000000000000e+00) (0, 0, 0.00000000000000000000e+00) (0, 0, 0.00000000000000000000e+00) (0, 0, 0.00000000000000000000e+00) (0, 0, 0.00000000000000000000e+00) (0, 0, 0.00000000000000000000e+00) (0, 0, 0.00000000000000000000e+00) (0, 0, 0.00000000000000000000e+00) (0, 0, 0.00000000000000000000e+00) (0, 0, 0.00000000000000000000e+00) (0, 0, 0.00000000000000000000e+00) (0, 0, 0.00000000000000000000e+00) (0, 0, 0.00000000000000000000e+00) (0, 0, 0.00000000000000000000e+00) (0, 0, 0.00000000000000000000e+00) (0, 0, 0.00000000000000000000e+00) (0, 0, 0.00000000000000000000e+00) (0, 0, 0.00000000000000000000e+00) (0, 0, 0.00000000000000000000e+00) (0, 0, 0.00000000000000000000e+00) (0, 0, 0.00000000000000000000e+00) (0, 0, 0.00000000000000000000e+00) (0, 0, 0.00000000000000000000e+00) (0, 0, 0.00000000000000000000e+00) (0, 0, 0.00000000000000000000e+00) (0, 0, 0.00000000000000000000e+00) (0, 0, 0.00000000000000000000e+00) (0, 0, 0.00000000000000000000e+00) (0, 0, 0.00000000000000000000e+00) (0, 0, 0.00000000000000000000e+00) (0, 0, 0.00000000000000000000e+00) (0, 0, 0.00000000000000000000e+00) (0, 0, 0.00000000000000000000e+00) (0, 0, 0.00000000000000000000e+00) (0, 0, 0.00000000000000000000e+00) (0, 0, 0.00000000000000000000e+00) (0, 0, 0.00000000000000000000e+00) (0, 0, 0.00000000000000000000e+00) (0, 0, 0.00000000000000000000e+00) (0, 0, 0.00000000000000000000e+00) (0, 0, 0.00000000000000000000e+00) (0, 0, 0.00000000000000000000e+00) (0, 0, 0.00000000000000000000e+00) (0, 0, 0.00000000000000000000e+00) (0, 0, 0.00000000000000000000e+00) (0, 0, 0.00000000000000000000e+00) (0, 0, 0.00000000000000000000e+00) (0, 0, 0.00000000000000000000e+00) (0, 0, 0.00000000000000000000e+00) (0, 0, 0.00000000000000000000e+00) (0, 0, 0.00000000000000000000e+00) (0, 0, 0.00000000000000000000e+00) (0, 0, 0.00000000000000000000e+00) (0, 0, 0.00000000000000000000e+00) (0, 0, 0.00000000000000000000e+00) (0, 0, 0.00000000000000000000e+00) (0, 0, 0.00000000000000000000e+00) (0, 0, 0.00000000000000000000e+00) (0, 0, 0.00000000000000000000e+00) (0, 0, 0.00000000000000000000e+00) (0, 0, 0.00000000000000000000e+00) (0, 0, 0.00000000000000000000e+00) (0, 0, 0.00000000000000000000e+00) (0, 0, 0.00000000000000000000e+00) (0, 0, 0.00000000000000000000e+00) (0, 0, 0.00000000000000000000e+00) (0, 0, 0.00000000000000000000e+00) (0, 0, 0.00000000000000000000e+00) (0, 0, 0.00000000000000000000e+00) (0, 0, 0.00000000000000000000e+00) (0, 0, 0.00000000000000000000e+00) (0, 0, 0.00000000000000000000e+00) (0, 0, 0.00000000000000000000e+00) (0, 0, 0.00000000000000000000e+00) (0, 0, 0.00000000000000000000e+00) (0, 0, 0.00000000000000000000e+00) (0, 0, 0.00000000000000000000e+00) (0, 0, 0.00000000000000000000e+00) (0, 0, 0.00000000000000000000e+00) (0, 0, 0.00000000000000000000e+00) (0, 0, 0.00000000000000000000e+00) (0, 0, 0.00000000000000000000e+00) (0, 0, 0.00000000000000000000e+00) (0, 0, 0.00000000000000000000e+00) (0, 0, 0.00000000000000000000e+00) (0, 0, 0.00000000000000000000e+00) (0, 0, 0.00000000000000000000e+00) (0, 0, 0.00000000000000000000e+00) (0, 0, 0.00000000000000000000e+00) (0, 0, 0.00000000000000000000e+00) (0, 0, 0.00000000000000000000e+00) (0, 0, 0.00000000000000000000e+00) (0, 0, 0.00000000000000000000e+00) (0, 0, 0.00000000000000000000e+00) (0, 0, 0.00000000000000000000e+00) (0, 0, 0.00000000000000000000e+00) (0, 0, 0.00000000000000000000e+00) (0, 0, 0.00000000000000000000e+00) (0, 0, 0.00000000000000000000e+00) (0, 0, 0.00000000000000000000e+00) (0, 0, 0.00000000000000000000e+00) (0, 0, 0.00000000000000000000e+00) (0, 0, 0.00000000000000000000e+00) (0, 0, 0.00000000000000000000e+00) (0, 0, 0.00000000000000000000e+00) (0, 0, 0.00000000000000000000e+00) (0, 0, 0.00000000000000000000e+00) (0, 0, 0.00000000000000000000e+00) (0, 0, 0.00000000000000000000e+00) (0, 0, 0.00000000000000000000e+00) (0, 0, 0.00000000000000000000e+00) (0, 0, 0.00000000000000000000e+00) (0, 0, 0.00000000000000000000e+00) (0, 0, 0.00000000000000000000e+00) (0, 0, 0.00000000000000000000e+00) (0, 0, 0.00000000000000000000e+00) (0, 0, 0.00000000000000000000e+00) (0, 0, 0.00000000000000000000e+00) (0, 0, 0.00000000000000000000e+00) (0, 0, 0.00000000000000000000e+00) (0, 0, 0.00000000000000000000e+00) (0, 0, 0.00000000000000000000e+00) (0, 0, 0.00000000000000000000e+00) (0, 0, 0.00000000000000000000e+00) (0, 0, 0.00000000000000000000e+00) (0, 0, 0.00000000000000000000e+00) (0, 0, 0.00000000000000000000e+00) (0, 0, 0.00000000000000000000e+00) (0, 0, 0.00000000000000000000e+00) (0, 0, 0.00000000000000000000e+00) (0, 0, 0.00000000000000000000e+00) (0, 0, 0.00000000000000000000e+00) (0, 0, 0.00000000000000000000e+00) (0, 0, 0.00000000000000000000e+00) (0, 0, 0.00000000000000000000e+00) (0, 0, 0.00000000000000000000e+00) (0, 0, 0.00000000000000000000e+00) (0, 0, 0.00000000000000000000e+00) (0, 0, 0.00000000000000000000e+00) (0, 0, 0.00000000000000000000e+00) (0, 0, 0.00000000000000000000e+00) (0, 0, 0.00000000000000000000e+00) (0, 0, 0.00000000000000000000e+00) (0, 0, 0.00000000000000000000e+00) (0, 0, 0.00000000000000000000e+00) (0, 0, 0.00000000000000000000e+00) (0, 0, 0.00000000000000000000e+00) (785, 5, 5.00000000000000000000e-01) (785, 5, 5.00000000000000000000e-01) (785, 5, 5.00000000000000000000e-01) (785, 5, 5.00000000000000000000e-01) (785, 5, 5.00000000000000000000e-01) (785, 5, 5.00000000000000000000e-01) (785, 5, 5.00000000000000000000e-01) (785, 5, 5.00000000000000000000e-01) (785, 5, 5.00000000000000000000e-01) (785, 5, 5.00000000000000000000e-01) (785, 5, 5.00000000000000000000e-01) (785, 5, 5.00000000000000000000e-01) (785, 5, 5.00000000000000000000e-01) (785, 5, 5.00000000000000000000e-01) (785, 5, 5.00000000000000000000e-01) (785, 5, 5.00000000000000000000e-01) (785, 5, 5.00000000000000000000e-01) (785, 5, 5.00000000000000000000e-01) (785, 5, 5.00000000000000000000e-01) (0, 5, 5.00000000000000000000e-01) (20, 5, 5.00000000000000000000e-01) (20, 5, 5.00000000000000000000e-01) (20, 5, 5.00000000000000000000e-01) (20, 5, 5.00000000000000000000e-01) (20, 5, 5.00000000000000000000e-01) (20, 5, 5.00000000000000000000e-01) (20, 5, 5.00000000000000000000e-01) (20, 5, 5.00000000000000000000e-01) (20, 5, 5.00000000000000000000e-01) (20, 5, 5.00000000000000000000e-01) (20, 5, 5.00000000000000000000e-01) (20, 5, 5.00000000000000000000e-01) (20, 5, 5.00000000000000000000e-01) (20, 5, 5.00000000000000000000e-01) (20, 5, 5.00000000000000000000e-01) (0, 5, 5.00000000000000000000e-01) (16, 5, 5.00000000000000000000e-01) (16, 5, 5.00000000000000000000e-01) (16, 5, 5.00000000000000000000e-01) (16, 5, 5.00000000000000000000e-01) (16, 5, 5.00000000000000000000e-01) (16, 5, 5.00000000000000000000e-01) (16, 5, 5.00000000000000000000e-01) (16, 5, 5.00000000000000000000e-01) (16, 5, 5.00000000000000000000e-01) (16, 5, 5.00000000000000000000e-01) (0, 5, 5.00000000000000000000e-01) 
connections (connected_to_neuron, weight)=(0, 4.22530695796012878418e-02) (1, -4.40486073493957519531e-02) (2, 2.91577056050300598145e-02) (3, 7.43479803204536437988e-02) (4, 6.31112083792686462402e-02) (5, -8.67810845375061035156e-02) (6, 9.70082804560661315918e-02) (7, -9.75965782999992370605e-02) (8, 4.03738841414451599121e-02) (9, 4.10232171416282653809e-02) (10, 5.84678873419761657715e-02) (11, 7.00115039944648742676e-02) (12, 1.33378356695175170898e-02) (13, 3.83312478661537170410e-02) (14, -1.59104764461517333984e-02) (15, -8.67706239223480224609e-02) (16, 6.34410455822944641113e-02) (17, -7.19046369194984436035e-02) (18, 2.90930941700935363770e-02) (19, -9.83780100941658020020e-02) (20, -9.00897085666656494141e-02) (21, 6.17242082953453063965e-02) (22, -9.35742259025573730469e-03) (23, 1.67761072516441345215e-02) (24, 7.05272927880287170410e-02) (25, 1.51729211211204528809e-02) (26, -1.70115455985069274902e-02) (27, 7.63201639056205749512e-02) (28, -8.30455645918846130371e-02) (29, 1.25352889299392700195e-02) (30, -9.64345633983612060547e-02) (31, 5.92075064778327941895e-02) (32, 6.84866979718208312988e-02) (33, 3.27231362462043762207e-02) (34, 3.35554853081703186035e-02) (35, 3.15979048609733581543e-02) (36, 4.59420457482337951660e-02) (37, 3.05637642741203308105e-02) (38, 3.39497476816177368164e-02) (39, -1.40039352700114250183e-02) (40, -2.83247809857130050659e-02) (41, -7.40430690348148345947e-03) (42, -4.45687137544155120850e-02) (43, 8.28372016549110412598e-02) (44, -7.26732164621353149414e-02) (45, 3.93213815987110137939e-02) (46, 9.71276611089706420898e-02) (47, 9.40392017364501953125e-02) (48, 6.85384944081306457520e-02) (49, 2.72526573389768600464e-02) (50, 9.58627238869667053223e-02) (51, 7.84226134419441223145e-02) (52, -1.10284835100173950195e-02) (53, -1.34939327836036682129e-02) (54, -4.80128824710845947266e-03) (55, -4.05012033879756927490e-02) (56, -9.83210131525993347168e-02) (57, 7.81871750950813293457e-02) (58, -6.41810446977615356445e-02) (59, -8.13665762543678283691e-02) (60, -9.27754491567611694336e-03) (61, -6.06156066060066223145e-02) (62, 7.78409317135810852051e-02) (63, -4.07455526292324066162e-02) (64, 7.22342729568481445312e-02) (65, 1.07515584677457809448e-02) (66, 8.91969949007034301758e-02) (67, 1.44444890320301055908e-02) (68, -8.04775133728981018066e-02) (69, 3.23074520565569400787e-03) (70, -1.09590180218219757080e-01) (71, 4.57884883508086204529e-03) (72, -9.68870595097541809082e-02) (73, -5.87160214781761169434e-02) (74, -1.75440944731235504150e-02) (75, -6.13047070801258087158e-02) (76, -1.10423356294631958008e-01) (77, -7.02524930238723754883e-03) (78, -5.88519573211669921875e-02) (79, 6.97701647877693176270e-02) (80, -7.60619938373565673828e-02) (81, -6.18169829249382019043e-02) (82, 4.80448082089424133301e-02) (83, 1.28450021147727966309e-02) (84, 2.46890932321548461914e-02) (85, -5.67564852535724639893e-02) (86, 7.23438039422035217285e-02) (87, 2.63680741190910339355e-02) (88, -7.85693228244781494141e-02) (89, -9.18393135070800781250e-02) (90, 4.43725809454917907715e-02) (91, 7.92608316987752914429e-03) (92, -6.50095716118812561035e-02) (93, -1.02661447599530220032e-02) (94, 1.25873936340212821960e-02) (95, -1.36104300618171691895e-01) (96, -1.26205399632453918457e-01) (97, -3.59842786565423011780e-03) (98, -3.72561179101467132568e-02) (99, -6.79945126175880432129e-02) (100, -3.43358144164085388184e-02) (101, -6.98014395311474800110e-03) (102, -8.36642831563949584961e-03) (103, -8.67613255977630615234e-02) (104, -1.40933051705360412598e-01) (105, -2.98785511404275894165e-02) (106, 4.93068173527717590332e-02) (107, -9.61230918765068054199e-02) (108, 8.49227383732795715332e-02) (109, 9.46528092026710510254e-02) (110, 7.34947845339775085449e-02) (111, -9.12821441888809204102e-02) (112, -6.71641826629638671875e-02) (113, 2.15395838022232055664e-02) (114, 2.15628519654273986816e-02) (115, 5.74957206845283508301e-02) (116, 6.60455599427223205566e-02) (117, -1.28712477162480354309e-02) (118, -2.90087983012199401855e-02) (119, 7.67610743641853332520e-02) (120, -9.56479832530021667480e-03) (121, -1.34020164608955383301e-01) (122, -6.26381486654281616211e-02) (123, -3.72069259174168109894e-03) (124, 3.99330370128154754639e-02) (125, -6.10124506056308746338e-02) (126, 2.37749945372343063354e-02) (127, 1.48248359560966491699e-01) (128, -6.18558004498481750488e-02) (129, -3.02170421928167343140e-02) (130, -5.58359324932098388672e-02) (131, -7.95853696763515472412e-03) (132, -3.58508490025997161865e-02) (133, 2.92020142078399658203e-02) (134, 6.86602992936968803406e-03) (135, -1.98029056191444396973e-02) (136, 4.85230870544910430908e-02) (137, 7.15169161558151245117e-02) (138, -4.43194918334484100342e-02) (139, 2.49834880232810974121e-02) (140, 7.01175108551979064941e-02) (141, -7.08247199654579162598e-02) (142, 3.43301221728324890137e-02) (143, -9.68933030962944030762e-02) (144, 4.78077642619609832764e-02) (145, -6.82015419006347656250e-02) (146, 3.55994477868080139160e-02) (147, -2.14264821261167526245e-03) (148, -7.07253720611333847046e-03) (149, -1.54974967241287231445e-01) (150, -1.35543569922447204590e-01) (151, -1.69467642903327941895e-01) (152, -8.92289429903030395508e-02) (153, -1.30790874361991882324e-01) (154, -1.27366438508033752441e-01) (155, -4.67162542045116424561e-02) (156, -1.76355931907892227173e-02) (157, 4.71418313682079315186e-02) (158, -9.13416594266891479492e-02) (159, 7.33791962265968322754e-02) (160, 7.84422755241394042969e-02) (161, 4.46067079901695251465e-02) (162, -1.25249437987804412842e-02) (163, 5.62397278845310211182e-02) (164, 1.95491556078195571899e-02) (165, -7.46497586369514465332e-02) (166, 7.10236728191375732422e-02) (167, -3.47926616668701171875e-02) (168, -8.08213725686073303223e-02) (169, -6.63627758622169494629e-02) (170, 9.02309417724609375000e-02) (171, 8.89215394854545593262e-02) (172, -4.10995930433273315430e-02) (173, -7.64705333858728408813e-03) (174, 5.28577230870723724365e-02) (175, -1.51597872376441955566e-01) (176, -1.42401102930307388306e-02) (177, -6.60822093486785888672e-02) (178, -1.21234498918056488037e-01) (179, -1.51734679937362670898e-01) (180, -7.88264907896518707275e-03) (181, -1.44368574023246765137e-01) (182, -5.51276654005050659180e-02) (183, -1.65703058242797851562e-01) (184, -2.32711225748062133789e-01) (185, -4.21286560595035552979e-02) (186, -3.49357165396213531494e-02) (187, 1.25842064619064331055e-01) (188, 1.16316772997379302979e-01) (189, 3.89271341264247894287e-02) (190, -1.01431235671043395996e-01) (191, -1.12368687987327575684e-01) (192, 1.41546539962291717529e-02) (193, -1.16084255278110504150e-01) (194, 4.20680642127990722656e-02) (195, -1.81285524740815162659e-03) (196, -3.33877019584178924561e-02) (197, 3.03583983331918716431e-02) (198, 6.90943449735641479492e-02) (199, -1.79005693644285202026e-02) (200, 5.88667728006839752197e-02) (201, 1.58268772065639495850e-02) (202, -1.06971971690654754639e-01) (203, -1.50562092661857604980e-01) (204, -1.29252329468727111816e-01) (205, -1.64674773812294006348e-01) (206, -2.35059037804603576660e-01) (207, -2.60105997323989868164e-01) (208, -2.35471457242965698242e-01) (209, -2.15868595987558364868e-02) (210, -3.88122946023941040039e-02) (211, -1.98695674538612365723e-01) (212, -2.58439689874649047852e-01) (213, -4.58965711295604705811e-02) (214, 2.39761942066252231598e-03) (215, 9.12663154304027557373e-03) (216, 1.29551934078335762024e-02) (217, 3.11641283333301544189e-02) (218, -4.91742901504039764404e-02) (219, -1.11608356237411499023e-01) (220, -1.01101636886596679688e-01) (221, -1.02069778367877006531e-02) (222, 6.85179419815540313721e-03) (223, -3.56539636850357055664e-02) (224, 5.81314750015735626221e-02) (225, -1.68964061886072158813e-02) (226, 7.22947791218757629395e-02) (227, -8.01209956407546997070e-02) (228, -9.70709696412086486816e-02) (229, -4.16416376829147338867e-02) (230, -8.51222351193428039551e-02) (231, -2.20351032912731170654e-02) (232, -1.21979005634784698486e-01) (233, -8.26353654265403747559e-02) (234, -3.14540416002273559570e-01) (235, -1.45432904362678527832e-01) (236, -2.08177357912063598633e-01) (237, -1.36368483304977416992e-01) (238, -5.86007349193096160889e-02) (239, -6.06089681386947631836e-02) (240, -1.95925936102867126465e-01) (241, -1.21983259916305541992e-01) (242, 5.68692870438098907471e-02) (243, -1.32446885108947753906e-01) (244, -2.00050607323646545410e-01) (245, -6.24029301106929779053e-02) (246, -2.04041272401809692383e-01) (247, -7.36273303627967834473e-02) (248, -4.33289632201194763184e-02) (249, 2.55523342639207839966e-02) (250, -4.90336455404758453369e-02) (251, -5.24003095924854278564e-02) (252, 2.33548115938901901245e-02) (253, 9.06077027320861816406e-02) (254, 1.96239091455936431885e-02) (255, -2.13773678988218307495e-02) (256, -2.72514466196298599243e-02) (257, -5.59056811034679412842e-02) (258, -5.00258095562458038330e-02) (259, -6.65045008063316345215e-02) (260, -1.76192015409469604492e-01) (261, -2.22643613815307617188e-01) (262, -2.29104131460189819336e-01) (263, -7.69160613417625427246e-02) (264, -1.45522058010101318359e-01) (265, -6.35267645120620727539e-02) (266, 1.06427930295467376709e-01) (267, 6.15422017872333526611e-02) (268, 9.19601600617170333862e-03) (269, 2.06155236810445785522e-03) (270, 3.92443500459194183350e-02) (271, -8.32900479435920715332e-02) (272, -2.26147487759590148926e-01) (273, -2.42194041609764099121e-01) (274, -6.78221508860588073730e-02) (275, -2.02625781297683715820e-01) (276, -1.25744445249438285828e-02) (277, -1.15712031722068786621e-01) (278, 8.14317837357521057129e-02) (279, 5.71937710046768188477e-02) (280, -7.88659006357192993164e-02) (281, -3.91727089881896972656e-02) (282, -9.40995886921882629395e-02) (283, 3.96827869117259979248e-02) (284, -5.87606541812419891357e-02) (285, 2.02328059822320938110e-03) (286, -1.06079265475273132324e-01) (287, -1.36909084394574165344e-02) (288, -1.43447577953338623047e-01) (289, -1.29486307501792907715e-01) (290, -3.56186598539352416992e-01) (291, -2.90271222591400146484e-01) (292, -4.17620055377483367920e-02) (293, -4.11614514887332916260e-02) (294, 2.36595883965492248535e-01) (295, 2.03654423356056213379e-01) (296, 1.52038142085075378418e-01) (297, -4.48447465896606445312e-02) (298, -1.27737984061241149902e-01) (299, -1.12466424703598022461e-01) (300, -1.64024397730827331543e-01) (301, -8.11280235648155212402e-02) (302, -1.32539600133895874023e-01) (303, -7.72913694381713867188e-02) (304, 6.71984301880002021790e-03) (305, -5.76705597341060638428e-02) (306, 3.32595184445381164551e-02) (307, 5.31816259026527404785e-02) (308, -1.63334608078002929688e-02) (309, 3.08483596891164779663e-02) (310, 5.99944638088345527649e-03) (311, -3.91285819932818412781e-03) (312, 6.81163147091865539551e-02) (313, -3.53088695555925369263e-03) (314, -7.64661058783531188965e-02) (315, -9.01170596480369567871e-02) (316, -1.54578819870948791504e-01) (317, -2.17959165573120117188e-01) (318, -1.95985898375511169434e-01) (319, -2.97145694494247436523e-01) (320, -2.35083460807800292969e-01) (321, -5.09419701993465423584e-02) (322, 2.80092090368270874023e-01) (323, 2.40062326192855834961e-01) (324, 5.92269487679004669189e-02) (325, 1.83969233185052871704e-02) (326, -5.26413787156343460083e-03) (327, -1.20156086981296539307e-01) (328, -2.07537487149238586426e-01) (329, -6.31358698010444641113e-02) (330, -1.68887481093406677246e-01) (331, -3.17129381000995635986e-02) (332, -8.65611881017684936523e-02) (333, -2.39893198013305664062e-02) (334, -7.06255584955215454102e-02) (335, -8.99803861975669860840e-02) (336, 2.76311412453651428223e-02) (337, 6.81126192212104797363e-02) (338, 5.46389184892177581787e-02) (339, -9.67368781566619873047e-02) (340, -3.90812521800398826599e-03) (341, -3.72446067631244659424e-02) (342, 1.04159088805317878723e-02) (343, -2.37606596201658248901e-02) (344, 1.51404216885566711426e-02) (345, -1.08249135315418243408e-01) (346, -2.20239043235778808594e-01) (347, -2.92746424674987792969e-01) (348, -1.78553625941276550293e-01) (349, 2.06156939268112182617e-01) (350, 3.54412853717803955078e-01) (351, 1.62530884146690368652e-01) (352, 9.88412741571664810181e-03) (353, -3.78584153950214385986e-02) (354, -1.19993478059768676758e-01) (355, -2.29102239012718200684e-01) (356, -9.26570296287536621094e-02) (357, -8.50156694650650024414e-02) (358, -7.24460333585739135742e-02) (359, -1.92082719877362251282e-03) (360, -1.17470502853393554688e-01) (361, -2.27769911289215087891e-02) (362, -2.38251108676195144653e-02) (363, -1.39604425057768821716e-02) (364, 8.38169082999229431152e-02) (365, 1.25226993113756179810e-02) (366, -1.52975320816040039062e-02) (367, 8.69981106370687484741e-03) (368, -1.36225493624806404114e-02) (369, -4.73166704177856445312e-02) (370, 1.34592792019248008728e-02) (371, 3.87659296393394470215e-02) (372, -6.59618675708770751953e-02) (373, -2.29744836688041687012e-01) (374, -2.32872232794761657715e-01) (375, -1.94117352366447448730e-01) (376, -1.80493727326393127441e-01) (377, 1.61741927266120910645e-01) (378, 4.02403861284255981445e-01) (379, 7.04882070422172546387e-02) (380, 6.13211514428257942200e-03) (381, -3.89427244663238525391e-02) (382, -9.77526903152465820312e-02) (383, -1.52751639485359191895e-01) (384, -1.21686376631259918213e-01) (385, -1.02649636566638946533e-01) (386, -1.31183177232742309570e-01) (387, -1.48068293929100036621e-01) (388, -1.39468789100646972656e-01) (389, 3.54590713977813720703e-02) (390, 8.25191810727119445801e-02) (391, -5.37469796836376190186e-02) (392, -3.87899354100227355957e-02) (393, -3.12134996056556701660e-02) (394, 2.88840457797050476074e-02) (395, -5.58173842728137969971e-02) (396, 8.48442688584327697754e-02) (397, -7.28017464280128479004e-02) (398, 3.05076427757740020752e-02) (399, -1.03233195841312408447e-01) (400, -1.38563677668571472168e-01) (401, -2.04915970563888549805e-01) (402, -2.59870052337646484375e-01) (403, -2.57824838161468505859e-01) (404, -1.09322927892208099365e-02) (405, 2.87166297435760498047e-01) (406, 2.20525696873664855957e-01) (407, 6.16305582225322723389e-02) (408, -7.27698206901550292969e-02) (409, -1.26506134867668151855e-01) (410, -3.67265269160270690918e-02) (411, -1.33624300360679626465e-01) (412, -1.13336555659770965576e-02) (413, -1.46510243415832519531e-01) (414, -6.62242695689201354980e-02) (415, -8.30232650041580200195e-02) (416, 2.51035168766975402832e-02) (417, 5.66820912063121795654e-02) (418, 2.75339069776237010956e-03) (419, 7.41056427359580993652e-02) (420, 8.94181430339813232422e-03) (421, -1.34273730218410491943e-02) (422, -8.09642001986503601074e-02) (423, 6.76918998360633850098e-02) (424, 5.80127984285354614258e-02) (425, 3.23110558092594146729e-02) (426, -1.34167894721031188965e-01) (427, -7.04498812556266784668e-02) (428, -1.03007443249225616455e-01) (429, -1.38186693191528320312e-01) (430, -3.02827805280685424805e-01) (431, -2.02469766139984130859e-01) (432, 3.48536390811204910278e-03) (433, 1.86060518026351928711e-01) (434, 1.84241548180580139160e-01) (435, 8.86875763535499572754e-02) (436, -6.16610869765281677246e-02) (437, -2.35645696520805358887e-01) (438, -1.79181709885597229004e-01) (439, -1.03752367198467254639e-01) (440, -6.57430887222290039062e-02) (441, -1.48726299405097961426e-01) (442, -1.67063131928443908691e-01) (443, -1.97567492723464965820e-02) (444, -9.16764978319406509399e-03) (445, 2.65325442887842655182e-03) (446, -9.05058905482292175293e-02) (447, -2.06700563430786132812e-02) (448, -3.77465300261974334717e-02) (449, 1.26239284873008728027e-02) (450, -4.75023053586483001709e-02) (451, 6.68413862586021423340e-02) (452, 9.01974141597747802734e-02) (453, -6.65338113903999328613e-02) (454, -2.31733340770006179810e-02) (455, -3.89865227043628692627e-02) (456, -2.17004075646400451660e-01) (457, -1.23166263103485107422e-01) (458, -2.11841672658920288086e-01) (459, -2.04735368490219116211e-01) (460, 3.48021984100341796875e-02) (461, 1.39459088444709777832e-01) (462, 1.30660176277160644531e-01) (463, -1.12270526587963104248e-02) (464, -1.40118524432182312012e-01) (465, -7.71224647760391235352e-02) (466, -1.07335507869720458984e-01) (467, -6.72398433089256286621e-02) (468, -2.11869955062866210938e-01) (469, -1.67904078960418701172e-01) (470, -6.71249553561210632324e-02) (471, 2.59993830695748329163e-03) (472, -3.25229503214359283447e-02) (473, -5.94434374943375587463e-03) (474, -6.78550312295556068420e-03) (475, -8.28386917710304260254e-02) (476, -8.57728794217109680176e-02) (477, 8.31105560064315795898e-03) (478, -4.81466297060251235962e-03) (479, -2.99474336206912994385e-02) (480, -1.02684795856475830078e-01) (481, -1.33199020638130605221e-04) (482, -1.61023527383804321289e-01) (483, -1.92919626832008361816e-01) (484, -1.74534454941749572754e-01) (485, -5.77767863869667053223e-02) (486, -5.36086969077587127686e-02) (487, -1.20194777846336364746e-01) (488, 5.40725141763687133789e-02) (489, 1.95642039179801940918e-01) (490, 1.74089461565017700195e-01) (491, -1.12213037908077239990e-01) (492, -1.58341363072395324707e-01) (493, -1.62556827068328857422e-01) (494, -2.07404777407646179199e-01) (495, -7.91661068797111511230e-02) (496, -1.17952376604080200195e-01) (497, -2.22015306353569030762e-01) (498, -8.52090716361999511719e-02) (499, -6.07480183243751525879e-02) (500, -1.03105112910270690918e-01) (501, -1.09445065259933471680e-01) (502, -4.42411042749881744385e-02) (503, 3.29837910830974578857e-02) (504, 1.55364871025085449219e-02) (505, 6.19840249419212341309e-02) (506, 5.46415597200393676758e-02) (507, 1.90043244510889053345e-02) (508, -6.66353031992912292480e-02) (509, -1.36130422353744506836e-01) (510, -2.46580064296722412109e-01) (511, -1.86581194400787353516e-01) (512, -2.53359436988830566406e-01) (513, -1.85827031731605529785e-01) (514, -4.09824885427951812744e-02) (515, -7.31742307543754577637e-02) (516, 1.86317767947912216187e-02) (517, 2.00353637337684631348e-01) (518, 1.49921491742134094238e-01) (519, -4.23203371465206146240e-02) (520, -1.59073531627655029297e-01) (521, -1.46847710013389587402e-01) (522, -1.83311700820922851562e-01) (523, -6.28376081585884094238e-02) (524, -1.13653667271137237549e-01) (525, -1.04593202471733093262e-01) (526, -1.24177746474742889404e-01) (527, 1.18375094607472419739e-02) (528, -1.24496640637516975403e-02) (529, 7.75720849633216857910e-02) (530, -2.63667870312929153442e-02) (531, 6.85928612947463989258e-02) (532, 9.63348224759101867676e-02) (533, 4.12919893860816955566e-02) (534, -1.06829740107059478760e-02) (535, -6.24049501493573188782e-03) (536, -3.97845394909381866455e-02) (537, -1.37119770050048828125e-01) (538, -2.27607071399688720703e-01) (539, -1.75681263208389282227e-01) (540, -2.20890402793884277344e-01) (541, -1.65689229965209960938e-01) (542, -2.52265352755784988403e-02) (543, 1.94248463958501815796e-02) (544, -3.32869850099086761475e-02) (545, 1.14084452390670776367e-01) (546, 3.66795212030410766602e-02) (547, -3.95360589027404785156e-02) (548, -1.78273096680641174316e-01) (549, -2.89575874805450439453e-01) (550, -9.07998830080032348633e-02) (551, -1.77786454558372497559e-01) (552, -6.84169605374336242676e-02) (553, -4.78143393993377685547e-02) (554, -6.14958554506301879883e-02) (555, 3.41056920588016510010e-02) (556, -2.60928068310022354126e-02) (557, -6.58829957246780395508e-02) (558, 6.75399303436279296875e-02) (559, -6.71962127089500427246e-02) (560, -7.58405104279518127441e-02) (561, -5.72258643805980682373e-02) (562, 7.76231884956359863281e-02) (563, -9.74276438355445861816e-02) (564, 4.20602150261402130127e-02) (565, -1.17214754223823547363e-01) (566, -9.80262458324432373047e-02) (567, -1.53940141201019287109e-01) (568, -1.43140524625778198242e-01) (569, -3.67641076445579528809e-02) (570, -2.69618332386016845703e-02) (571, -6.56211152672767639160e-02) (572, -7.60404318571090698242e-02) (573, -6.86748102307319641113e-02) (574, -6.51855841279029846191e-02) (575, -4.63490672409534454346e-02) (576, -1.07202693819999694824e-01) (577, -1.94472894072532653809e-01) (578, -1.55431896448135375977e-01) (579, -1.28861740231513977051e-01) (580, -2.47160404920578002930e-01) (581, -2.48987257480621337891e-01) (582, -3.46918851137161254883e-02) (583, 4.61702729808166623116e-04) (584, 5.53624778985977172852e-02) (585, 4.31115552783012390137e-02) (586, 8.31691175699234008789e-02) (587, 7.57183134555816650391e-03) (588, 8.11731144785881042480e-02) (589, 5.07760122418403625488e-02) (590, 3.13535667955875396729e-02) (591, -1.03524789214134216309e-01) (592, 5.73825798928737640381e-02) (593, -6.01098574697971343994e-02) (594, -1.13573096692562103271e-01) (595, 6.54980242252349853516e-02) (596, 4.93332110345363616943e-02) (597, -2.31319735758006572723e-03) (598, -2.33162716031074523926e-02) (599, 7.66522763296961784363e-03) (600, -7.23400339484214782715e-02) (601, -1.18770197033882141113e-01) (602, -1.21276110410690307617e-01) (603, 2.47416030615568161011e-02) (604, -8.25485065579414367676e-02) (605, -1.62776261568069458008e-01) (606, -1.74377366900444030762e-01) (607, -1.21627345681190490723e-01) (608, -1.19236454367637634277e-01) (609, -5.10366298258304595947e-02) (610, -4.14501987397670745850e-02) (611, 3.20053026080131530762e-02) (612, 3.75467017292976379395e-02) (613, 7.98425450921058654785e-03) (614, 5.04081808030605316162e-02) (615, 4.49395254254341125488e-02) (616, -4.97485175728797912598e-02) (617, 3.26419994235038757324e-02) (618, -4.78874742984771728516e-02) (619, -7.45202377438545227051e-02) (620, -3.98248024284839630127e-02) (621, 7.29118287563323974609e-02) (622, -2.33632698655128479004e-02) (623, 5.21820113062858581543e-02) (624, 5.21262660622596740723e-02) (625, -1.13106936216354370117e-01) (626, -1.59035250544548034668e-01) (627, -1.70691385865211486816e-01) (628, -2.68398255109786987305e-01) (629, -9.74475666880607604980e-02) (630, -1.29530400037765502930e-01) (631, 5.17772175371646881104e-02) (632, 2.06299778074026107788e-02) (633, 6.35117292404174804688e-02) (634, -4.36290316283702850342e-02) (635, -6.43338114023208618164e-02) (636, -1.31241694092750549316e-01) (637, 6.16743899881839752197e-02) (638, -7.32989385724067687988e-02) (639, 2.54511293023824691772e-02) (640, 3.49693968892097473145e-02) (641, 7.20447599887847900391e-02) (642, -6.11144583672285079956e-03) (643, -2.12054774165153503418e-02) (644, -2.48416587710380554199e-02) (645, -5.66227398812770843506e-02) (646, -7.62763321399688720703e-02) (647, 2.22839377820491790771e-02) (648, 6.41165226697921752930e-02) (649, -4.36004577204585075378e-03) (650, 1.55590668320655822754e-01) (651, 5.11627271771430969238e-02) (652, 2.19224691390991210938e-02) (653, 8.96866321563720703125e-02) (654, -4.80438657104969024658e-02) (655, -1.77174538373947143555e-01) (656, -2.10636690258979797363e-01) (657, 8.57877172529697418213e-03) (658, -1.15704849362373352051e-01) (659, -2.03459337353706359863e-02) (660, 1.51801988482475280762e-01) (661, 6.37013018131256103516e-02) (662, -2.71351952105760574341e-02) (663, 4.44456972181797027588e-02) (664, -1.02508440613746643066e-01) (665, 1.25428251922130584717e-02) (666, -5.04074208438396453857e-02) (667, -7.19200447201728820801e-02) (668, 2.27273032069206237793e-02) (669, 3.41083039529621601105e-03) (670, 5.76423667371273040771e-02) (671, -4.72757108509540557861e-02) (672, -2.73153707385063171387e-02) (673, -4.80671189725399017334e-02) (674, 3.15188243985176086426e-02) (675, 4.61462773382663726807e-02) (676, -1.23330997303128242493e-02) (677, 5.58878332376480102539e-02) (678, -2.06889142282307147980e-03) (679, -8.49262997508049011230e-02) (680, -2.22850874066352844238e-01) (681, -1.71277448534965515137e-01) (682, -7.61171206831932067871e-02) (683, -1.85899779200553894043e-01) (684, -2.00709030032157897949e-01) (685, -1.21480554342269897461e-01) (686, -1.50336951017379760742e-01) (687, -1.59568548202514648438e-01) (688, -7.45019614696502685547e-02) (689, 2.60616559535264968872e-02) (690, 7.40089043974876403809e-02) (691, 5.50773888826370239258e-02) (692, 5.48296496272087097168e-02) (693, 6.85748681426048278809e-02) (694, 2.82956324517726898193e-02) (695, -9.64493378996849060059e-02) (696, 2.43783742189407348633e-02) (697, 7.75885209441184997559e-02) (698, -6.86253011226654052734e-02) (699, -5.45489490032196044922e-02) (700, -1.89574733376502990723e-02) (701, 8.93721953034400939941e-02) (702, -1.82465463876724243164e-03) (703, 5.36256991326808929443e-02) (704, -5.97968846559524536133e-02) (705, -6.52787089347839355469e-02) (706, -7.55959365051239728928e-04) (707, -1.62934064865112304688e-02) (708, 9.77001804858446121216e-03) (709, -6.09262567013502120972e-03) (710, -1.69737309217453002930e-01) (711, -1.55157640576362609863e-01) (712, -1.59551173448562622070e-01) (713, -3.87726724147796630859e-02) (714, -6.33565783500671386719e-02) (715, -1.19793727993965148926e-01) (716, -9.21654552221298217773e-02) (717, 8.96897912025451660156e-02) (718, 1.04191973805427551270e-02) (719, -3.75608392059803009033e-02) (720, -4.83026588335633277893e-03) (721, -2.75464914739131927490e-02) (722, -6.38920366764068603516e-02) (723, -3.10470070689916610718e-02) (724, -4.83235269784927368164e-02) (725, 5.73805496096611022949e-02) (726, -2.68949642777442932129e-02) (727, 7.56723359227180480957e-02) (728, 3.49690690636634826660e-02) (729, 4.47974354028701782227e-03) (730, -7.88766145706176757812e-02) (731, -8.35420414805412292480e-02) (732, -3.46032972447574138641e-03) (733, 1.73719637095928192139e-02) (734, 5.65197244286537170410e-02) (735, 1.51549093425273895264e-02) (736, 1.72852464020252227783e-02) (737, -4.77832779288291931152e-02) (738, -3.63027937710285186768e-02) (739, 6.53564557433128356934e-03) (740, -8.01852270960807800293e-02) (741, -3.38532105088233947754e-02) (742, 3.74482646584510803223e-02) (743, -5.65775148570537567139e-02) (744, -8.59920382499694824219e-02) (745, -4.04472984373569488525e-02) (746, -1.95284746587276458740e-02) (747, -7.46806412935256958008e-02) (748, -6.83858022093772888184e-02) (749, 8.89819189906120300293e-02) (750, -1.22864181175827980042e-02) (751, 1.57491192221641540527e-02) (752, -4.66751269996166229248e-02) (753, 2.10956931114196777344e-02) (754, 8.83904770016670227051e-02) (755, 5.30412048101425170898e-03) (756, -2.15237587690353393555e-02) (757, -3.85044924914836883545e-02) (758, -1.90235376358032226562e-02) (759, -8.65546911954879760742e-02) (760, 6.59752562642097473145e-02) (761, 1.11860584001988172531e-03) (762, -7.32480660080909729004e-02) (763, -4.42743301391601562500e-02) (764, -8.02761912345886230469e-02) (765, 9.80969145894050598145e-02) (766, 9.08250659704208374023e-02) (767, 6.73945918679237365723e-02) (768, -3.14092971384525299072e-02) (769, -3.48127894103527069092e-02) (770, 2.51040072180330753326e-03) (771, 1.86404064297676086426e-02) (772, 4.81230095028877258301e-02) (773, -4.52801212668418884277e-02) (774, 6.80998861789703369141e-02) (775, 6.52007684111595153809e-02) (776, 1.56449023634195327759e-02) (777, -5.26012368500232696533e-02) (778, 8.92659872770309448242e-02) (779, 4.58554849028587341309e-02) (780, -6.46162778139114379883e-02) (781, -2.24309265613555908203e-02) (782, -3.73163595795631408691e-02) (783, -1.12914070487022399902e-02) (784, -1.96626529097557067871e-01) (0, -4.89258877933025360107e-02) (1, 9.40127149224281311035e-02) (2, -2.28589847683906555176e-02) (3, 1.25696212053298950195e-02) (4, -2.50108167529106140137e-02) (5, -9.41367447376251220703e-03) (6, -2.14551314711570739746e-02) (7, 7.70890191197395324707e-02) (8, 2.00432389974594116211e-02) (9, 3.83720472455024719238e-02) (10, 9.84876081347465515137e-02) (11, 1.92389115691184997559e-02) (12, 3.33562418818473815918e-02) (13, 6.88790753483772277832e-02) (14, 8.97434726357460021973e-02) (15, -9.98873412609100341797e-02) (16, -2.67895460128784179688e-02) (17, 6.37984275817871093750e-03) (18, 4.65859249234199523926e-02) (19, 2.79270485043525695801e-02) (20, -2.59418189525604248047e-02) (21, 1.14872828125953674316e-02) (22, -5.64561598002910614014e-02) (23, 2.13674455881118774414e-02) (24, 6.99982047080993652344e-04) (25, 8.93993154168128967285e-02) (26, 5.67511543631553649902e-02) (27, 7.82690569758415222168e-02) (28, -4.79170382022857666016e-02) (29, -5.45402504503726959229e-02) (30, 7.69338235259056091309e-02) (31, 3.15707921981811523438e-03) (32, -6.05275332927703857422e-02) (33, -4.59251664578914642334e-02) (34, -8.42733085155487060547e-02) (35, 1.44616514444351196289e-02) (36, 4.46611717343330383301e-02) (37, -5.72843849658966064453e-03) (38, -8.03064554929733276367e-03) (39, -3.26997339725494384766e-02) (40, -6.66913092136383056641e-02) (41, -8.88601969927549362183e-03) (42, 8.99030044674873352051e-02) (43, 7.72973671555519104004e-02) (44, -4.59631234407424926758e-02) (45, 7.43841826915740966797e-02) (46, 6.73296526074409484863e-02) (47, 3.30707766115665435791e-02) (48, -1.80511306971311569214e-02) (49, 1.44072491675615310669e-02) (50, -3.90651449561119079590e-02) (51, 5.41248098015785217285e-02) (52, -7.58142918348312377930e-02) (53, 3.59869003295898437500e-03) (54, -2.45077461004257202148e-02) (55, 2.48856917023658752441e-02) (56, -7.00198858976364135742e-03) (57, -6.77565857768058776855e-02) (58, 3.15473973751068115234e-03) (59, 4.50809672474861145020e-02) (60, -2.22968310117721557617e-02) (61, -1.99114382266998291016e-02) (62, -5.17619512975215911865e-02) (63, 1.65458284318447113037e-02) (64, 3.31145413219928741455e-02) (65, -2.91416719555854797363e-02) (66, -6.22026659548282623291e-02) (67, -1.31010115146636962891e-02) (68, 6.55627027153968811035e-02) (69, 3.96538004279136657715e-02) (70, 9.09012109041213989258e-02) (71, 1.50686100125312805176e-01) (72, -1.32388612255454063416e-02) (73, 1.19319722056388854980e-01) (74, 1.47603228688240051270e-01) (75, 4.50455248355865478516e-02) (76, 3.75591777265071868896e-02) (77, 3.77414971590042114258e-02) (78, -8.98044183850288391113e-02) (79, 7.87621960043907165527e-02) (80, -6.53806626796722412109e-02) (81, -3.56737449765205383301e-02) (82, 3.53505238890647888184e-02) (83, -4.01236228644847869873e-02) (84, 6.79249539971351623535e-02) (85, -8.91572162508964538574e-02) (86, 8.47620740532875061035e-02) (87, -3.90770435333251953125e-02) (88, -5.69138005375862121582e-02) (89, -1.23069817200303077698e-02) (90, -9.35497879981994628906e-02) (91, 2.11625620722770690918e-02) (92, 6.60477057099342346191e-02) (93, -5.01764230430126190186e-02) (94, -5.69599382579326629639e-02) (95, -3.11568193137645721436e-03) (96, 1.28148859366774559021e-02) (97, -2.59903576225042343140e-02) (98, 1.20991162955760955811e-01) (99, 4.75927330553531646729e-02) (100, 1.81891471147537231445e-01) (101, 1.24341197311878204346e-01) (102, 1.07886165380477905273e-01) (103, 5.01074567437171936035e-02) (104, 2.80281957238912582397e-02) (105, -3.87239381670951843262e-02) (106, -8.83336737751960754395e-03) (107, 5.35617806017398834229e-02) (108, 4.70086783170700073242e-02) (109, -1.75685361027717590332e-02) (110, 3.43794152140617370605e-02) (111, 8.28855708241462707520e-02) (112, 4.67577204108238220215e-02) (113, -3.02700623869895935059e-02) (114, -5.72380498051643371582e-02) (115, 1.50382742285728454590e-02) (116, -1.62579435855150222778e-02) (117, -6.54553472995758056641e-02) (118, 8.67178365588188171387e-02) (119, 2.18792855739593505859e-02) (120, -4.73341206088662147522e-03) (121, 6.14602565765380859375e-02) (122, -6.50957673788070678711e-02) (123, -1.96257252246141433716e-02) (124, -6.40490129590034484863e-02) (125, -3.11697088181972503662e-03) (126, 9.61384475231170654297e-02) (127, 5.10478690266609191895e-02) (128, 9.09974649548530578613e-02) (129, 1.02424591779708862305e-01) (130, -2.96618491411209106445e-02) (131, 1.04596227407455444336e-01) (132, 2.79194843024015426636e-02) (133, 5.03601878881454467773e-03) (134, 4.39361706376075744629e-02) (135, 3.72769683599472045898e-02) (136, 2.56778877228498458862e-02) (137, -6.84049576520919799805e-02) (138, -3.72105091810226440430e-03) (139, -3.07781994342803955078e-02) (140, 1.14138126373291015625e-02) (141, -6.93416446447372436523e-02) (142, -4.73335534334182739258e-02) (143, -3.97465042769908905029e-02) (144, 8.64131748676300048828e-03) (145, 1.22035797685384750366e-02) (146, 8.20334404706954956055e-02) (147, 7.10939243435859680176e-02) (148, -8.88112280517816543579e-03) (149, 4.71685454249382019043e-02) (150, 2.93422415852546691895e-02) (151, -6.78002983331680297852e-02) (152, 3.12762223184108734131e-02) (153, 9.79432091116905212402e-02) (154, 1.27027794718742370605e-01) (155, 2.13894695043563842773e-01) (156, 1.18329152464866638184e-01) (157, 1.47357225418090820312e-01) (158, 1.31100222468376159668e-01) (159, 1.22246533632278442383e-01) (160, -1.34912040084600448608e-02) (161, 7.33185186982154846191e-02) (162, -1.94149464368820190430e-02) (163, 4.45209555327892303467e-02) (164, -5.27207776904106140137e-02) (165, -1.37757128104567527771e-02) (166, 1.13380029797554016113e-02) (167, 7.03745856881141662598e-02) (168, 8.10752809047698974609e-03) (169, -9.59614738821983337402e-02) (170, -5.93498423695564270020e-02) (171, -7.79638439416885375977e-02) (172, -5.80546744167804718018e-02) (173, 4.24387399107217788696e-03) (174, -2.21928465180099010468e-03) (175, 6.24675163999199867249e-03) (176, 7.89068043231964111328e-02) (177, -9.42683871835470199585e-03) (178, 4.97198849916458129883e-02) (179, 4.14479076862335205078e-02) (180, 1.62035584449768066406e-01) (181, 1.44792255014181137085e-03) (182, 1.21760301291942596436e-01) (183, 5.88015392422676086426e-02) (184, 5.33534958958625793457e-02) (185, -1.48327078204602003098e-03) (186, 8.41275602579116821289e-03) (187, -5.15643097460269927979e-02) (188, 1.62452429533004760742e-01) (189, -7.86624476313591003418e-03) (190, 1.38051137328147888184e-01) (191, 3.30986306071281433105e-02) (192, 1.21150359511375427246e-01) (193, 5.57134114205837249756e-02) (194, -7.97966271638870239258e-02) (195, -7.78637826442718505859e-02) (196, 9.20783206820487976074e-02) (197, 2.93323490768671035767e-02) (198, 8.00440087914466857910e-02) (199, 9.61349360295571386814e-05) (200, 2.07930989563465118408e-02) (201, -5.53648397326469421387e-02) (202, 3.20877023041248321533e-02) (203, -5.12017542496323585510e-03) (204, 1.13435089588165283203e-02) (205, 1.35856896638870239258e-01) (206, -2.91291885077953338623e-02) (207, -1.65623668581247329712e-02) (208, -4.15369458496570587158e-02) (209, -8.81920754909515380859e-02) (210, -4.44894433021545410156e-02) (211, -6.87455236911773681641e-02) (212, -1.36236518621444702148e-01) (213, 4.61470037698745727539e-02) (214, 1.13395273685455322266e-01) (215, -3.01988963037729263306e-02) (216, 7.00469389557838439941e-02) (217, 7.77684077620506286621e-02) (218, 6.01116307079792022705e-02) (219, 7.82494619488716125488e-02) (220, 8.53788778185844421387e-02) (221, 1.53767645359039306641e-01) (222, -2.29801405221223831177e-02) (223, -4.32682968676090240479e-02) (224, -2.12117578485049307346e-04) (225, -3.87214012444019317627e-02) (226, -3.99683676660060882568e-02) (227, -1.35844657197594642639e-02) (228, 7.76995718479156494141e-02) (229, -4.44312021136283874512e-02) (230, 4.82692457735538482666e-02) (231, -8.43433290719985961914e-02) (232, -6.07872232794761657715e-02) (233, -4.50101075693964958191e-03) (234, -8.84010270237922668457e-02) (235, 5.97220994532108306885e-02) (236, -6.87109753489494323730e-02) (237, 3.34184132516384124756e-02) (238, 3.31234969198703765869e-02) (239, 8.45087245106697082520e-02) (240, 8.95923227071762084961e-02) (241, 1.69162433594465255737e-02) (242, 2.51880206633359193802e-04) (243, 4.04327772557735443115e-02) (244, 4.57511991262435913086e-02) (245, 1.72280862927436828613e-01) (246, 5.09976223111152648926e-02) (247, 1.69525101780891418457e-01) (248, 1.23448759317398071289e-01) (249, -5.31842559576034545898e-03) (250, 9.03487298637628555298e-03) (251, 3.86689193546772003174e-02) (252, 9.43773314356803894043e-02) (253, 2.89862491190433502197e-02) (254, 7.46831223368644714355e-02) (255, -2.50875968486070632935e-02) (256, 7.64822512865066528320e-02) (257, -9.48838368058204650879e-02) (258, 4.02419269084930419922e-03) (259, -2.84074600785970687866e-02) (260, -2.96906735748052597046e-02) (261, -2.29691304266452789307e-02) (262, -1.01979814469814300537e-01) (263, -3.67115512490272521973e-02) (264, -1.58515557646751403809e-01) (265, -4.18291687965393066406e-02) (266, -4.46220189332962036133e-02) (267, -2.25153133273124694824e-01) (268, -5.50618097186088562012e-02) (269, -8.42238515615463256836e-02) (270, 7.09608569741249084473e-02) (271, 9.76951494812965393066e-02) (272, 7.49100670218467712402e-02) (273, 1.42735779285430908203e-01) (274, 1.01027332246303558350e-01) (275, 7.35710486769676208496e-02) (276, 1.76342338323593139648e-01) (277, 6.97937980294227600098e-02) (278, 1.28490980714559555054e-02) (279, 9.73324924707412719727e-02) (280, 4.20454889535903930664e-03) (281, 7.51240402460098266602e-02) (282, 1.32110463455319404602e-02) (283, -4.03383336961269378662e-02) (284, -2.35208421945571899414e-02) (285, -5.97980804741382598877e-02) (286, 5.72067964822053909302e-03) (287, -5.82322999835014343262e-02) (288, -1.19286812841892242432e-02) (289, -6.04011956602334976196e-03) (290, -1.64988636970520019531e-02) (291, -6.22739680111408233643e-02) (292, 1.76588129252195358276e-02) (293, -1.04882195591926574707e-02) (294, -9.10575166344642639160e-02) (295, -1.25262677669525146484e-01) (296, -2.27931477129459381104e-02) (297, -1.38041064143180847168e-01) (298, -1.51030480861663818359e-01) (299, -1.53035372495651245117e-01) (300, -7.60756656527519226074e-02) (301, -1.28834068775177001953e-01) (302, 5.43258003890514373779e-02) (303, -1.33697511628270149231e-02) (304, 1.35854423046112060547e-01) (305, -4.19044233858585357666e-02) (306, -4.30618934333324432373e-02) (307, 1.70621424913406372070e-02) (308, 2.12941542267799377441e-02) (309, 4.76396903395652770996e-02) (310, 1.86864635907113552094e-03) (311, -1.15669570863246917725e-01) (312, 1.53889565262943506241e-03) (313, -1.29495382308959960938e-01) (314, 1.94170512259006500244e-04) (315, -8.28249230980873107910e-02) (316, 2.76335738599300384521e-02) (317, -1.22768320143222808838e-02) (318, 4.81322035193443298340e-02) (319, 8.88102799654006958008e-02) (320, 3.68745089508593082428e-03) (321, -8.45363065600395202637e-02) (322, -8.09019953012466430664e-02) (323, -1.25694885849952697754e-01) (324, -1.21538795530796051025e-01) (325, -2.02534273266792297363e-01) (326, -1.31056264042854309082e-01) (327, -5.00121973454952239990e-02) (328, -1.17967560887336730957e-01) (329, -7.96988140791654586792e-03) (330, -6.43477961421012878418e-02) (331, 1.13465033471584320068e-01) (332, 1.05253942310810089111e-01) (333, 2.96484306454658508301e-02) (334, -6.44042715430259704590e-02) (335, 3.98872308433055877686e-02) (336, 6.35987296700477600098e-02) (337, -1.46280117332935333252e-02) (338, -4.75011914968490600586e-02) (339, -3.77715416252613067627e-02) (340, -8.49341973662376403809e-02) (341, 4.85859997570514678955e-02) (342, 1.20299216359853744507e-02) (343, 8.23245123028755187988e-02) (344, -1.14933617413043975830e-01) (345, -2.17090491205453872681e-02) (346, -1.47187141701579093933e-02) (347, 1.51178508996963500977e-01) (348, 1.32854431867599487305e-01) (349, 1.36374384164810180664e-01) (350, 6.48854449391365051270e-02) (351, -9.52198877930641174316e-02) (352, -1.64196565747261047363e-01) (353, -9.71670448780059814453e-02) (354, -1.03434383869171142578e-01) (355, -1.33969098329544067383e-01) (356, -1.43650680780410766602e-01) (357, -1.07432574033737182617e-01) (358, -2.01632604002952575684e-02) (359, 1.26810982823371887207e-01) (360, 1.18921957910060882568e-01) (361, -5.89722096920013427734e-02) (362, 6.70638456940650939941e-02) (363, 3.49995605647563934326e-02) (364, 8.05046185851097106934e-02) (365, 1.01170808076858520508e-01) (366, -3.02190389484167098999e-02) (367, 2.26745419204235076904e-02) (368, -3.98778878152370452881e-02) (369, 3.87000478804111480713e-02) (370, -3.23592610657215118408e-02) (371, 7.86820575594902038574e-02) (372, 3.18994894623756408691e-02) (373, 1.07248544692993164062e-01) (374, 5.96968308091163635254e-02) (375, 1.61323755979537963867e-01) (376, 2.05016896128654479980e-01) (377, 1.16192745044827461243e-02) (378, 1.43790263682603836060e-02) (379, -1.85097064822912216187e-02) (380, -6.53065666556358337402e-02) (381, -1.62271052598953247070e-01) (382, -4.76817376911640167236e-02) (383, -1.44448995590209960938e-01) (384, -1.33769541978836059570e-01) (385, -1.25696873292326927185e-02) (386, -1.73368658870458602905e-02) (387, 7.85489454865455627441e-02) (388, 9.95391458272933959961e-02) (389, -1.10788624733686447144e-02) (390, -6.98378160595893859863e-02) (391, -4.39831018447875976562e-02) (392, -5.54513186216354370117e-03) (393, 9.90532189607620239258e-02) (394, 9.03077349066734313965e-02) (395, -3.59888747334480285645e-02) (396, 7.35801830887794494629e-02) (397, -9.12665762007236480713e-03) (398, 2.60852486826479434967e-03) (399, 5.41196130216121673584e-02) (400, 1.21900841593742370605e-01) (401, 3.51677015423774719238e-02) (402, -7.70413363352417945862e-03) (403, 1.93115159869194030762e-01) (404, 1.68845787644386291504e-01) (405, -5.46119734644889831543e-02) (406, -9.76715832948684692383e-02) (407, -8.56989156454801559448e-03) (408, -1.81507796049118041992e-01) (409, -1.47931858897209167480e-01) (410, -1.95177450776100158691e-01) (411, -1.48164927959442138672e-01) (412, 5.96053991466760635376e-03) (413, -2.00363360345363616943e-02) (414, 5.52726686000823974609e-02) (415, 1.62278950214385986328e-01) (416, 1.37194454669952392578e-01) (417, -7.26878037676215171814e-03) (418, -9.32148471474647521973e-02) (419, -7.11555108428001403809e-02) (420, 2.88614705204963684082e-02) (421, -5.63928894698619842529e-02) (422, -1.40156205743551254272e-02) (423, -9.40429940819740295410e-02) (424, -9.20082107186317443848e-02) (425, -1.82672124356031417847e-02) (426, 4.51562292873859405518e-02) (427, 1.51215810328722000122e-02) (428, 1.26071617007255554199e-01) (429, 1.24675363302230834961e-01) (430, 6.56999871134757995605e-02) (431, 7.94305801391601562500e-02) (432, 2.88229584693908691406e-02) (433, 2.54912804812192916870e-02) (434, -3.69805209338665008545e-02) (435, 6.35107457637786865234e-02) (436, -2.03620254993438720703e-01) (437, -2.83928543329238891602e-01) (438, -1.16420485079288482666e-01) (439, -1.60708516836166381836e-01) (440, -1.83699594344943761826e-04) (441, -6.90876618027687072754e-02) (442, 1.03167548775672912598e-01) (443, 6.72541186213493347168e-02) (444, 3.99380549788475036621e-03) (445, -1.07611246407032012939e-01) (446, -8.29842910170555114746e-02) (447, -9.75847691297531127930e-02) (448, -1.99029818177223205566e-02) (449, -4.92387413978576660156e-02) (450, -6.46670088171958923340e-02) (451, -1.06115929782390594482e-01) (452, -5.44292926788330078125e-02) (453, 2.42490898817777633667e-02) (454, -5.92262074351310729980e-02) (455, 7.78033360838890075684e-02) (456, 1.31270006299018859863e-01) (457, 6.61445781588554382324e-02) (458, 1.08871705830097198486e-01) (459, 4.76262122392654418945e-02) (460, -7.54298567771911621094e-02) (461, 3.26089188456535339355e-02) (462, 1.90305132418870925903e-02) (463, -9.10749584436416625977e-02) (464, -2.02746629714965820312e-01) (465, -2.11307704448699951172e-01) (466, -4.33105826377868652344e-02) (467, -6.47318139672279357910e-02) (468, 8.18310379981994628906e-02) (469, 1.00775428116321563721e-01) (470, 6.19044825434684753418e-02) (471, -9.71784442663192749023e-03) (472, -2.77716154232621192932e-03) (473, -9.43458005785942077637e-02) (474, 1.10048605129122734070e-02) (475, 4.40363362431526184082e-02) (476, -6.86188936233520507812e-02) (477, 7.13648870587348937988e-02) (478, 5.29731288552284240723e-02) (479, 1.24062886461615562439e-02) (480, -8.67382884025573730469e-02) (481, 7.96751752495765686035e-02) (482, 5.71768693625926971436e-02) (483, 1.21620163321495056152e-01) (484, 9.66972634196281433105e-02) (485, 4.69684787094593048096e-02) (486, -6.48512924090027809143e-03) (487, 5.99814169108867645264e-02) (488, -6.30338094197213649750e-04) (489, -1.16149492561817169189e-01) (490, -1.82480692863464355469e-01) (491, -8.29403325915336608887e-02) (492, -3.05276121944189071655e-02) (493, -9.82447043061256408691e-02) (494, -1.79568193852901458740e-02) (495, 7.11199343204498291016e-02) (496, 1.60926938056945800781e-01) (497, 1.76456451416015625000e-01) (498, 2.15535804629325866699e-01) (499, -3.01526170223951339722e-02) (500, 7.45956972241401672363e-02) (501, -3.89902479946613311768e-02) (502, -2.13742051273584365845e-02) (503, -2.91451197117567062378e-02) (504, 7.41370767354965209961e-03) (505, -6.58575370907783508301e-02) (506, -8.32423046231269836426e-02) (507, 5.37404008209705352783e-02) (508, -5.88874705135822296143e-02) (509, 1.23441748321056365967e-01) (510, 2.97473147511482238770e-02) (511, 6.53444305062294006348e-02) (512, 1.78300991654396057129e-01) (513, 1.68571427464485168457e-01) (514, 1.10695905983448028564e-01) (515, -1.67119950056076049805e-02) (516, -3.24873626232147216797e-02) (517, 4.56473119556903839111e-02) (518, -9.91788953542709350586e-02) (519, -6.74211084842681884766e-02) (520, -6.01052585989236831665e-03) (521, 3.75378206372261047363e-02) (522, 8.72496217489242553711e-02) (523, 1.12264774739742279053e-01) (524, 1.55350431799888610840e-01) (525, 8.50539878010749816895e-02) (526, 7.87915140390396118164e-02) (527, 3.67109104990959167480e-02) (528, 4.62829060852527618408e-02) (529, -1.50056714192032814026e-02) (530, -1.00779168307781219482e-01) (531, 7.90847465395927429199e-02) (532, 8.57337787747383117676e-02) (533, 3.12056392431259155273e-03) (534, -3.82733903825283050537e-02) (535, 1.30047425627708435059e-02) (536, 1.12520262598991394043e-01) (537, 1.06072388589382171631e-01) (538, 1.01496189832687377930e-01) (539, 2.11200237274169921875e-01) (540, 1.16053543984889984131e-01) (541, 1.36957079172134399414e-01) (542, 2.04193830490112304688e-01) (543, 1.28452479839324951172e-01) (544, -1.21969459578394889832e-02) (545, 5.63929639756679534912e-02) (546, -6.22387975454330444336e-02) (547, 1.45095512270927429199e-01) (548, 7.51319453120231628418e-02) (549, 6.35243728756904602051e-02) (550, 1.46445155143737792969e-01) (551, 8.59866440296173095703e-02) (552, 9.83648281544446945190e-03) (553, 9.53910648822784423828e-02) (554, 5.74973076581954956055e-02) (555, -4.11032848060131072998e-02) (556, -1.31657287478446960449e-01) (557, 7.96784311532974243164e-02) (558, 9.91632118821144104004e-02) (559, 9.44302007555961608887e-02) (560, 8.22007656097412109375e-04) (561, -9.85081717371940612793e-02) (562, 8.72260034084320068359e-02) (563, 1.39832561835646629333e-02) (564, 6.62525966763496398926e-02) (565, 9.78376939892768859863e-02) (566, 2.48278170824050903320e-01) (567, 1.99803054332733154297e-01) (568, 3.18246036767959594727e-01) (569, 1.13211557269096374512e-01) (570, 1.38049960136413574219e-01) (571, 5.10869137942790985107e-02) (572, -6.61184638738632202148e-03) (573, 1.09445795416831970215e-01) (574, 8.62050205469131469727e-02) (575, 1.30747303366661071777e-01) (576, 8.03302824497222900391e-02) (577, 1.33486792445182800293e-01) (578, 9.51322391629219055176e-02) (579, 1.28381669521331787109e-01) (580, 2.35501024872064590454e-02) (581, 5.41081279516220092773e-02) (582, 5.58806285262107849121e-02) (583, -2.01303977519273757935e-03) (584, -1.11703030765056610107e-01) (585, -1.04198530316352844238e-01) (586, 5.70115000009536743164e-02) (587, -6.98408707976341247559e-02) (588, -9.71157848834991455078e-02) (589, 6.00210055708885192871e-02) (590, -7.01550766825675964355e-02) (591, 1.53281567618250846863e-02) (592, 1.01843670010566711426e-01) (593, 1.42808957025408744812e-02) (594, 2.17669203877449035645e-01) (595, 1.42071932554244995117e-01) (596, 1.47381141781806945801e-01) (597, 1.47137448191642761230e-01) (598, 2.96760741621255874634e-02) (599, 6.67130947113037109375e-02) (600, 1.13194309175014495850e-01) (601, 5.81733100116252899170e-02) (602, 6.66202977299690246582e-02) (603, 8.06163027882575988770e-02) (604, 1.14770561456680297852e-01) (605, 1.19211256504058837891e-01) (606, 1.07047647237777709961e-01) (607, 8.94397869706153869629e-02) (608, 6.87415227293968200684e-02) (609, 4.83486726880073547363e-02) (610, -1.52519112452864646912e-03) (611, 5.10666146874427795410e-02) (612, -8.81827175617218017578e-02) (613, -9.60031449794769287109e-02) (614, -5.72870578616857528687e-03) (615, -2.14278027415275573730e-02) (616, -7.68779963254928588867e-02) (617, -4.35439832508563995361e-02) (618, 9.44142229855060577393e-03) (619, -6.21624365448951721191e-02) (620, -3.91689687967300415039e-02) (621, 7.27959498763084411621e-02) (622, 8.57647135853767395020e-02) (623, 1.32010459899902343750e-01) (624, 6.20908774435520172119e-02) (625, 8.39588120579719543457e-02) (626, 6.88891783356666564941e-02) (627, 2.08837911486625671387e-01) (628, 1.06838673353195190430e-01) (629, 1.31933450698852539062e-01) (630, 6.95415213704109191895e-02) (631, 5.89923709630966186523e-02) (632, 2.05417070537805557251e-02) (633, 8.80728438496589660645e-02) (634, 2.16856613755226135254e-01) (635, 7.75321647524833679199e-02) (636, -7.24358037114143371582e-02) (637, 6.08527399599552154541e-02) (638, -6.07955045998096466064e-02) (639, 6.47254213690757751465e-02) (640, -1.24052362516522407532e-02) (641, -1.53352925553917884827e-03) (642, 6.33837878704071044922e-02) (643, 6.62174895405769348145e-02) (644, 2.34086662530899047852e-02) (645, -4.06031422317028045654e-02) (646, -5.52089102566242218018e-02) (647, 5.40896132588386535645e-02) (648, 6.11090362071990966797e-02) (649, 8.38848799467086791992e-02) (650, 1.04368589818477630615e-01) (651, 4.10842597484588623047e-02) (652, -1.46429787855595350266e-03) (653, 1.39571040868759155273e-01) (654, 2.00536414980888366699e-01) (655, 1.60587295889854431152e-01) (656, 1.52589425444602966309e-01) (657, 2.00932309031486511230e-01) (658, 8.57061296701431274414e-02) (659, 1.72972321510314941406e-01) (660, 3.93763221800327301025e-02) (661, 1.47935152053833007812e-01) (662, 1.59666135907173156738e-01) (663, 8.87586772441864013672e-02) (664, 5.07193468511104583740e-02) (665, 6.02824650704860687256e-02) (666, -4.77867946028709411621e-02) (667, -7.90109187364578247070e-02) (668, -5.37130865268409252167e-04) (669, -4.64930534362792968750e-02) (670, 8.09357911348342895508e-02) (671, -8.53150114417076110840e-02) (672, 6.12172856926918029785e-02) (673, 4.28308025002479553223e-02) (674, 8.09024795889854431152e-02) (675, 3.66749800741672515869e-03) (676, -4.89853955805301666260e-02) (677, -5.55427223443984985352e-02) (678, -7.66356810927391052246e-02) (679, 7.59689696133136749268e-03) (680, 9.99433621764183044434e-02) (681, -1.49313947185873985291e-02) (682, 2.17787940055131912231e-02) (683, 1.02158263325691223145e-01) (684, 1.24784991145133972168e-01) (685, 1.54492214322090148926e-01) (686, 1.22622177004814147949e-01) (687, 8.57797414064407348633e-02) (688, -1.25045171007513999939e-02) (689, -3.87770915403962135315e-03) (690, -6.18515685200691223145e-02) (691, -9.65145155787467956543e-02) (692, -5.72424121201038360596e-02) (693, -9.82746779918670654297e-02) (694, 5.37964664399623870850e-02) (695, -8.17058533430099487305e-02) (696, 5.51581494510173797607e-02) (697, -8.32004249095916748047e-02) (698, -7.28402286767959594727e-02) (699, -4.52025532722473144531e-02) (700, -2.97299250960350036621e-02) (701, -9.32002663612365722656e-02) (702, -3.05175632238388061523e-02) (703, -6.68355599045753479004e-02) (704, 6.06855638325214385986e-02) (705, -7.65629187226295471191e-02) (706, -4.48671132326126098633e-02) (707, -3.12456265091896057129e-02) (708, -7.11619257926940917969e-02) (709, 2.11015101522207260132e-02) (710, -1.28456711769104003906e-01) (711, -1.99452161788940429688e-01) (712, -1.07594028115272521973e-01) (713, -9.61994156241416931152e-02) (714, -8.46346020698547363281e-02) (715, -1.04324236512184143066e-01) (716, -1.42877191305160522461e-01) (717, -1.99299737811088562012e-01) (718, -8.24391189962625503540e-03) (719, 6.94538876414299011230e-02) (720, 6.04665314313024282455e-04) (721, -9.25570875406265258789e-02) (722, -8.16928818821907043457e-02) (723, 8.12933892011642456055e-02) (724, -5.33386878669261932373e-02) (725, 9.09884348511695861816e-02) (726, -9.86580401659011840820e-02) (727, -9.57715734839439392090e-02) (728, -9.22119989991188049316e-02) (729, -7.14982673525810241699e-02) (730, -4.09741289913654327393e-02) (731, -2.38938685506582260132e-02) (732, -7.96712189912796020508e-02) (733, 4.26699593663215637207e-03) (734, -2.20383275300264358521e-02) (735, 3.76564152538776397705e-02) (736, 3.24782915413379669189e-02) (737, -1.12741462886333465576e-01) (738, 1.46192852407693862915e-02) (739, -8.49913582205772399902e-02) (740, -1.18007548153400421143e-02) (741, -2.01789498329162597656e-01) (742, -1.35075002908706665039e-01) (743, -6.84021338820457458496e-02) (744, -3.08500565588474273682e-02) (745, -9.91116091609001159668e-02) (746, 5.71630261838436126709e-02) (747, -9.80481207370758056641e-02) (748, -5.08161932229995727539e-02) (749, 4.66379933059215545654e-02) (750, -1.06079027056694030762e-01) (751, 8.36139470338821411133e-02) (752, 9.12742242217063903809e-02) (753, -7.76382610201835632324e-02) (754, 6.05769529938697814941e-02) (755, -5.92783726751804351807e-02) (756, -8.66498351097106933594e-02) (757, 6.19189217686653137207e-02) (758, -5.50499483942985534668e-02) (759, -7.88618251681327819824e-02) (760, 9.04206559062004089355e-02) (761, 4.53332485631108283997e-03) (762, 1.81477633304893970490e-04) (763, -7.40773156285285949707e-02) (764, -7.00637251138687133789e-02) (765, -9.63820219039916992188e-02) (766, -9.40874740481376647949e-02) (767, -9.84239578247070312500e-02) (768, -9.84873473644256591797e-02) (769, 6.23386912047863006592e-03) (770, -8.08148533105850219727e-02) (771, -1.33990123867988586426e-01) (772, 2.87865027785301208496e-02) (773, 6.83977007865905761719e-02) (774, 1.90230980515480041504e-02) (775, -2.43563111871480941772e-02) (776, -9.11449566483497619629e-02) (777, 3.34031996317207813263e-03) (778, -1.58619415014982223511e-02) (779, -3.74726504087448120117e-02) (780, -2.21092253923416137695e-02) (781, -6.18957728147506713867e-03) (782, -5.68548440933227539062e-02) (783, -3.08350026607513427734e-02) (784, 1.40630900859832763672e-01) (0, -9.62778925895690917969e-02) (1, 9.88663733005523681641e-03) (2, 2.95223370194435119629e-02) (3, 6.56410381197929382324e-02) (4, 5.48366829752922058105e-02) (5, 5.06604984402656555176e-02) (6, 5.60616776347160339355e-02) (7, -4.11873869597911834717e-02) (8, -5.01432418823242187500e-02) (9, 8.17837938666343688965e-02) (10, -8.70315730571746826172e-03) (11, -4.14015538990497589111e-02) (12, 9.24379155039787292480e-02) (13, 2.67431885004043579102e-03) (14, -7.00110942125320434570e-03) (15, 3.98822203278541564941e-02) (16, 6.90221264958381652832e-02) (17, 3.28004360198974609375e-04) (18, -5.94456493854522705078e-03) (19, 4.56305816769599914551e-02) (20, -6.84507638216018676758e-02) (21, 7.53067210316658020020e-02) (22, 5.53932860493659973145e-02) (23, 4.35687974095344543457e-02) (24, -3.52845937013626098633e-02) (25, -8.20793658494949340820e-02) (26, -7.85404220223426818848e-02) (27, 5.85258230566978454590e-02) (28, -3.89342121779918670654e-02) (29, -9.37541574239730834961e-03) (30, -2.53020077943801879883e-02) (31, -3.52121070027351379395e-02) (32, -9.94887948036193847656e-02) (33, -9.57796797156333923340e-02) (34, -6.95710778236389160156e-02) (35, 5.53478971123695373535e-02) (36, 5.48808351159095764160e-02) (37, 8.64906087517738342285e-02) (38, -8.50776433944702148438e-02) (39, -9.05384868383407592773e-02) (40, 6.95210918784141540527e-02) (41, 1.17318471893668174744e-02) (42, -2.55546178668737411499e-02) (43, 7.59973227977752685547e-02) (44, -1.01605899631977081299e-01) (45, 6.02970570325851440430e-02) (46, 1.83170731179416179657e-03) (47, 8.16025510430335998535e-02) (48, -3.04073374718427658081e-02) (49, 9.89217683672904968262e-02) (50, 2.37061362713575363159e-02) (51, -1.17878317832946777344e-02) (52, 6.99566826224327087402e-02) (53, -2.18223407864570617676e-02) (54, -6.82190209627151489258e-02) (55, -6.53279125690460205078e-02) (56, -3.90170514583587646484e-03) (57, -4.67594452202320098877e-02) (58, 9.31979194283485412598e-02) (59, 5.71640804409980773926e-02) (60, 4.38651368021965026855e-02) (61, -3.21040898561477661133e-02) (62, -7.80480206012725830078e-02) (63, 4.37502712011337280273e-02) (64, -2.84856576472520828247e-02) (65, -5.52747398614883422852e-02) (66, 1.42532903701066970825e-02) (67, -4.41084578633308410645e-02) (68, -7.77947828173637390137e-02) (69, 2.75706369429826736450e-02) (70, 1.72854494303464889526e-02) (71, -1.62472333759069442749e-02) (72, -3.58621515333652496338e-02) (73, 7.46852084994316101074e-02) (74, 1.91161066293716430664e-01) (75, 4.51984666287899017334e-02) (76, 1.81857701390981674194e-02) (77, 9.18543804436922073364e-03) (78, -7.78064727783203125000e-02) (79, 7.84428324550390243530e-03) (80, -3.70522551238536834717e-02) (81, 2.74119451642036437988e-02) (82, 9.62807163596153259277e-02) (83, -6.69406577944755554199e-02) (84, -9.44103896617889404297e-02) (85, -7.19383060932159423828e-02) (86, -3.22685688734054565430e-02) (87, 1.68790668249130249023e-03) (88, -1.86977535486221313477e-02) (89, -3.92909906804561614990e-02) (90, -3.35687845945358276367e-02) (91, -7.82546699047088623047e-02) (92, -1.11577101051807403564e-02) (93, -7.83607885241508483887e-02) (94, 5.94847910106182098389e-02) (95, -9.62389558553695678711e-02) (96, 2.36094072461128234863e-02) (97, -6.45411014556884765625e-02) (98, 2.23738420754671096802e-02) (99, 2.10755825042724609375e-01) (100, 2.67056405544281005859e-01) (101, 1.86114624142646789551e-01) (102, 4.30862963199615478516e-01) (103, 2.91424095630645751953e-01) (104, 2.95166075229644775391e-01) (105, 1.68211683630943298340e-01) (106, -4.01805434376001358032e-03) (107, -9.23546329140663146973e-02) (108, -1.06989100575447082520e-01) (109, -6.54038488864898681641e-02) (110, 1.42180323600769042969e-02) (111, -2.13841646909713745117e-02) (112, 6.20081052184104919434e-02) (113, 1.04987472295761108398e-02) (114, 1.16751790046691894531e-02) (115, 6.76060542464256286621e-02) (116, 3.89261171221733093262e-02) (117, 1.00799724459648132324e-01) (118, 2.07752641290426254272e-03) (119, -6.99007585644721984863e-02) (120, -1.17739975452423095703e-01) (121, -4.09053079783916473389e-02) (122, -5.40794841945171356201e-02) (123, 2.14733034372329711914e-02) (124, -1.71976238489151000977e-01) (125, -1.64379253983497619629e-01) (126, -2.03709094785153865814e-03) (127, 1.23234670609235763550e-02) (128, 3.36782485246658325195e-02) (129, 1.65214210748672485352e-01) (130, 1.79451555013656616211e-01) (131, 2.37574860453605651855e-01) (132, 2.42864742875099182129e-01) (133, 1.37391507625579833984e-01) (134, 4.96469289064407348633e-02) (135, -6.21791444718837738037e-02) (136, -8.81448164582252502441e-02) (137, -3.14630405046045780182e-03) (138, -8.13922211527824401855e-02) (139, -4.40412722527980804443e-02) (140, 3.40540483593940734863e-02) (141, 3.28258201479911804199e-02) (142, 3.47155667841434478760e-02) (143, -4.01951046660542488098e-03) (144, -5.89593425393104553223e-02) (145, -2.57048588246107101440e-02) (146, 5.67372131627053022385e-04) (147, 6.23750612139701843262e-02) (148, -1.68037369847297668457e-01) (149, -5.89055679738521575928e-02) (150, -1.45094275474548339844e-01) (151, -1.11345626413822174072e-01) (152, -4.40222881734371185303e-02) (153, -1.08943693339824676514e-01) (154, -2.30398550629615783691e-01) (155, -1.35041803121566772461e-01) (156, -1.01666465401649475098e-01) (157, -5.40883317589759826660e-02) (158, 4.51646419242024421692e-03) (159, 1.46659299731254577637e-01) (160, -8.63888114690780639648e-03) (161, 3.36282663047313690186e-02) (162, -9.94303748011589050293e-02) (163, -7.14730098843574523926e-02) (164, -9.35216769576072692871e-02) (165, -1.79008301347494125366e-02) (166, -2.52288151532411575317e-02) (167, -3.98066714406013488770e-02) (168, 8.11351761221885681152e-02) (169, -7.92205333709716796875e-03) (170, 1.71980690211057662964e-02) (171, 1.19475927203893661499e-02) (172, -9.23797339200973510742e-02) (173, -5.12064956128597259521e-02) (174, -6.41973018646240234375e-02) (175, -1.31286978721618652344e-01) (176, -1.58146634697914123535e-01) (177, -1.02676600217819213867e-01) (178, -1.56841352581977844238e-01) (179, -1.62462331354618072510e-02) (180, -7.53691419959068298340e-02) (181, -1.28133460879325866699e-01) (182, 6.07613958418369293213e-02) (183, -1.14744737744331359863e-01) (184, -1.08201690018177032471e-01) (185, -6.08681999146938323975e-02) (186, -1.36610968038439750671e-02) (187, -9.38510671257972717285e-02) (188, -2.53388911485671997070e-01) (189, -1.83093115687370300293e-01) (190, -1.47108212113380432129e-01) (191, -1.54134631156921386719e-01) (192, -7.14381039142608642578e-02) (193, -1.85892060399055480957e-02) (194, -2.00866889208555221558e-02) (195, -8.93065053969621658325e-03) (196, 9.90573987364768981934e-02) (197, 6.69659525156021118164e-02) (198, 5.63863217830657958984e-02) (199, 6.11052252352237701416e-02) (200, -6.17785118520259857178e-02) (201, -2.20027677714824676514e-02) (202, -2.87065263837575912476e-02) (203, -1.74932584166526794434e-01) (204, -2.15171530842781066895e-01) (205, -1.11433804035186767578e-01) (206, -2.58785784244537353516e-02) (207, -1.31729379296302795410e-01) (208, -2.31887493282556533813e-02) (209, -2.53313779830932617188e-01) (210, -7.78765380382537841797e-02) (211, -5.80664500594139099121e-02) (212, -1.58004835247993469238e-01) (213, -6.98888972401618957520e-02) (214, -2.65619367361068725586e-01) (215, -2.94919192790985107422e-01) (216, -2.96934008598327636719e-01) (217, -2.36369192600250244141e-01) (218, -2.29913890361785888672e-01) (219, -7.72293731570243835449e-02) (220, -3.34354527294635772705e-02) (221, -1.50501593947410583496e-01) (222, -1.18678882718086242676e-01) (223, -7.65338987112045288086e-02) (224, 3.51885743439197540283e-02) (225, 1.07830883935093879700e-02) (226, 2.30128727853298187256e-02) (227, 2.57624387741088867188e-02) (228, -4.25032377243041992188e-02) (229, -3.56360264122486114502e-02) (230, -5.01911565661430358887e-02) (231, -1.68597638607025146484e-01) (232, -1.22250154614448547363e-01) (233, -1.53635784983634948730e-01) (234, -1.72250524163246154785e-01) (235, -1.55507236719131469727e-01) (236, -1.81825697422027587891e-01) (237, -1.13693028688430786133e-01) (238, -1.36284127831459045410e-01) (239, -1.13371737301349639893e-01) (240, -6.38272166252136230469e-02) (241, -3.49072873592376708984e-01) (242, -4.42017525434494018555e-01) (243, -4.25977170467376708984e-01) (244, -3.17080050706863403320e-01) (245, -3.23288142681121826172e-01) (246, -1.77105665206909179688e-01) (247, -1.46147713065147399902e-01) (248, -6.97460174560546875000e-02) (249, -6.21972680091857910156e-02) (250, -6.14056224003434181213e-03) (251, -2.14900299906730651855e-02) (252, 1.11651569604873657227e-02) (253, 3.21477800607681274414e-02) (254, 1.40103818848729133606e-02) (255, -6.57745301723480224609e-02) (256, -7.84006416797637939453e-02) (257, -7.97865688800811767578e-02) (258, 3.51513624191284179688e-02) (259, -7.16202631592750549316e-02) (260, -2.90234549902379512787e-03) (261, -3.09706619009375572205e-03) (262, -6.82854056358337402344e-02) (263, -1.93044498562812805176e-01) (264, -1.21785379946231842041e-01) (265, -1.37874200940132141113e-01) (266, -9.87882092595100402832e-02) (267, -2.00703650712966918945e-01) (268, -2.51215606927871704102e-01) (269, -4.75422114133834838867e-01) (270, -3.73438149690628051758e-01) (271, -3.75936985015869140625e-01) (272, -3.08148384094238281250e-01) (273, -4.14683818817138671875e-01) (274, -3.00348192453384399414e-01) (275, -1.83572933077812194824e-01) (276, -4.51564006507396697998e-02) (277, -9.41984280943870544434e-02) (278, -1.11410088837146759033e-01) (279, -5.39069063961505889893e-03) (280, 2.67283096909523010254e-02) (281, 1.10001303255558013916e-02) (282, 8.21031481027603149414e-02) (283, -7.40697309374809265137e-02) (284, -7.17922449111938476562e-02) (285, -5.58523414656519889832e-03) (286, -1.63911748677492141724e-02) (287, -7.45791301596909761429e-04) (288, 1.02743417024612426758e-01) (289, 4.33493480086326599121e-02) (290, -1.10459066927433013916e-01) (291, -1.64286598563194274902e-01) (292, 3.78939881920814514160e-02) (293, -2.38470416516065597534e-02) (294, -9.13364738225936889648e-02) (295, -2.99092501401901245117e-01) (296, -2.94569075107574462891e-01) (297, -3.80311280488967895508e-01) (298, -2.86742180585861206055e-01) (299, -2.91347682476043701172e-01) (300, -1.47823870182037353516e-01) (301, -3.54400604963302612305e-01) (302, -2.83125460147857666016e-01) (303, -1.62052258849143981934e-01) (304, -1.13798812031745910645e-01) (305, -2.89641041308641433716e-02) (306, 6.98597449809312820435e-03) (307, 6.25845119357109069824e-02) (308, 1.28896683454513549805e-02) (309, 3.58658307231962680817e-03) (310, -4.37270924448966979980e-02) (311, -6.78771287202835083008e-02) (312, -1.06994174420833587646e-01) (313, -5.90821132063865661621e-02) (314, 3.93076129257678985596e-02) (315, 1.84310432523488998413e-02) (316, 1.25313282012939453125e-01) (317, 2.00073868036270141602e-01) (318, 1.00098997354507446289e-01) (319, 5.99549338221549987793e-03) (320, 1.12575544044375419617e-02) (321, 1.13148249685764312744e-01) (322, 2.26342473179101943970e-02) (323, -2.19238564372062683105e-01) (324, -3.34724873304367065430e-01) (325, -2.02462643384933471680e-01) (326, -1.69618800282478332520e-01) (327, -1.63694471120834350586e-01) (328, 4.91206999868154525757e-03) (329, 9.47548821568489074707e-03) (330, -1.46518230438232421875e-01) (331, 6.44205659627914428711e-02) (332, 5.56840077042579650879e-02) (333, -1.10638037323951721191e-01) (334, 6.46047890186309814453e-02) (335, 5.06823062896728515625e-02) (336, 2.01689749956130981445e-02) (337, -2.98459921032190322876e-02) (338, 1.23156644403934478760e-02) (339, -7.05340951681137084961e-02) (340, 4.73161414265632629395e-02) (341, 1.44451603293418884277e-01) (342, 9.74483788013458251953e-02) (343, -4.23200894147157669067e-03) (344, 5.80635899677872657776e-03) (345, 6.52827769517898559570e-02) (346, 6.48920461535453796387e-02) (347, 1.71678051352500915527e-01) (348, 1.54804080724716186523e-01) (349, -1.85431409627199172974e-02) (350, -1.75999462604522705078e-01) (351, -1.54873043298721313477e-01) (352, -1.45868957042694091797e-01) (353, -4.42813485860824584961e-02) (354, 5.08895851671695709229e-02) (355, -6.18620626628398895264e-02) (356, 9.62861180305480957031e-02) (357, 1.32653966546058654785e-01) (358, 9.83809214085340499878e-03) (359, 6.64612203836441040039e-02) (360, 8.34116712212562561035e-02) (361, -4.48174998164176940918e-02) (362, -1.08372218906879425049e-01) (363, -4.95244972407817840576e-02) (364, 5.26735857129096984863e-02) (365, 8.02335739135742187500e-02) (366, -9.96619686484336853027e-02) (367, -3.51199917495250701904e-02) (368, -7.91421085596084594727e-02) (369, 1.20612651109695434570e-01) (370, 7.79045596718788146973e-02) (371, 3.98046411573886871338e-02) (372, 4.81009520590305328369e-02) (373, 8.97146016359329223633e-02) (374, 3.31782363355159759521e-02) (375, 1.70866727828979492188e-01) (376, 1.16715289652347564697e-01) (377, -3.07113230228424072266e-02) (378, -8.79245176911354064941e-02) (379, -9.65009909123182296753e-03) (380, -5.93145424500107765198e-03) (381, -3.58299687504768371582e-02) (382, 7.58781954646110534668e-02) (383, 8.86166244745254516602e-02) (384, 1.34632647037506103516e-01) (385, 7.08451643586158752441e-02) (386, 3.81400808691978454590e-03) (387, 8.36936905980110168457e-02) (388, 1.14540740847587585449e-01) (389, 8.73832479119300842285e-02) (390, -1.42229476477950811386e-03) (391, 8.85760709643363952637e-02) (392, -2.25338861346244812012e-02) (393, 2.68129855394363403320e-02) (394, -6.09367601573467254639e-02) (395, -7.94057548046112060547e-02) (396, -3.34111116826534271240e-02) (397, -1.24362716451287269592e-02) (398, 6.89057186245918273926e-02) (399, 1.72395899891853332520e-01) (400, 9.25133153796195983887e-02) (401, -4.87232916057109832764e-02) (402, 1.81393980979919433594e-01) (403, -7.44878966361284255981e-03) (404, 3.91883775591850280762e-02) (405, -1.87450990080833435059e-01) (406, 4.92580346763134002686e-02) (407, 3.28542217612266540527e-02) (408, -7.38605633378028869629e-02) (409, -1.54736816883087158203e-01) (410, -6.79364278912544250488e-02) (411, -1.24621950089931488037e-01) (412, 1.29521533846855163574e-01) (413, 1.70072540640830993652e-01) (414, 1.21359720826148986816e-01) (415, 9.20097157359123229980e-02) (416, 2.30120848864316940308e-02) (417, 8.16439166665077209473e-02) (418, -4.63108271360397338867e-02) (419, 1.73166245222091674805e-02) (420, -8.65396857261657714844e-03) (421, 7.30683058500289916992e-02) (422, 5.93884335830807685852e-03) (423, 5.37789016962051391602e-02) (424, -5.43985106050968170166e-02) (425, -1.47860264405608177185e-02) (426, 1.36304959654808044434e-01) (427, -6.12321980297565460205e-02) (428, 1.00393265485763549805e-01) (429, -3.09985261410474777222e-02) (430, 5.76387345790863037109e-02) (431, -4.22488898038864135742e-02) (432, -7.42725282907485961914e-02) (433, -1.20641753077507019043e-01) (434, -1.89535990357398986816e-02) (435, 5.13503886759281158447e-02) (436, 6.69821724295616149902e-02) (437, 6.97380751371383666992e-02) (438, -4.62171547114849090576e-02) (439, -3.38223800063133239746e-02) (440, 3.67278195917606353760e-02) (441, 1.55268937349319458008e-01) (442, 2.71764397621154785156e-01) (443, 5.42454347014427185059e-02) (444, -1.30832502618432044983e-02) (445, -9.67793166637420654297e-02) (446, -8.26359093189239501953e-02) (447, 4.64052222669124603271e-02) (448, 6.66887387633323669434e-02) (449, 3.61417904496192932129e-02) (450, -3.57836894690990447998e-02) (451, -4.88964654505252838135e-02) (452, -4.76835146546363830566e-02) 