FANN_FLO_2.1
num_layers=4
learning_rate=0.010000
connection_rate=1.000000
network_type=0
learning_momentum=0.400000
training_algorithm=0
train_error_function=1
train_stop_function=0
cascade_output_change_fraction=0.010000
quickprop_decay=-0.000100
quickprop_mu=1.750000
rprop_increase_factor=1.200000
rprop_decrease_factor=0.500000
rprop_delta_min=0.000000
rprop_delta_max=50.000000
rprop_delta_zero=0.100000
cascade_output_stagnation_epochs=12
cascade_candidate_change_fraction=0.010000
cascade_candidate_stagnation_epochs=12
cascade_max_out_epochs=150
cascade_min_out_epochs=50
cascade_max_cand_epochs=150
cascade_min_cand_epochs=50
cascade_num_candidate_groups=2
bit_fail_limit=3.49999994039535522461e-01
cascade_candidate_limit=1.00000000000000000000e+03
cascade_weight_multiplier=4.00000005960464477539e-01
cascade_activation_functions_count=10
cascade_activation_functions=3 5 7 8 10 11 14 15 16 17 
cascade_activation_steepnesses_count=4
cascade_activation_steepnesses=2.50000000000000000000e-01 5.00000000000000000000e-01 7.50000000000000000000e-01 1.00000000000000000000e+00 
layer_sizes=785 20 16 11 
scale_included=0
neurons (num_inputs, activation_function, activation_steepness)=(0, 0, 0.00000000000000000000e+00) (0, 0, 0.00000000000000000000e+00) (0, 0, 0.00000000000000000000e+00) (0, 0, 0.00000000000000000000e+00) (0, 0, 0.00000000000000000000e+00) (0, 0, 0.00000000000000000000e+00) (0, 0, 0.00000000000000000000e+00) (0, 0, 0.00000000000000000000e+00) (0, 0, 0.00000000000000000000e+00) (0, 0, 0.00000000000000000000e+00) (0, 0, 0.00000000000000000000e+00) (0, 0, 0.00000000000000000000e+00) (0, 0, 0.00000000000000000000e+00) (0, 0, 0.00000000000000000000e+00) (0, 0, 0.00000000000000000000e+00) (0, 0, 0.00000000000000000000e+00) (0, 0, 0.00000000000000000000e+00) (0, 0, 0.00000000000000000000e+00) (0, 0, 0.00000000000000000000e+00) (0, 0, 0.00000000000000000000e+00) (0, 0, 0.00000000000000000000e+00) (0, 0, 0.00000000000000000000e+00) (0, 0, 0.00000000000000000000e+00) (0, 0, 0.00000000000000000000e+00) (0, 0, 0.00000000000000000000e+00) (0, 0, 0.00000000000000000000e+00) (0, 0, 0.00000000000000000000e+00) (0, 0, 0.00000000000000000000e+00) (0, 0, 0.00000000000000000000e+00) (0, 0, 0.00000000000000000000e+00) (0, 0, 0.00000000000000000000e+00) (0, 0, 0.00000000000000000000e+00) (0, 0, 0.00000000000000000000e+00) (0, 0, 0.00000000000000000000e+00) (0, 0, 0.00000000000000000000e+00) (0, 0, 0.00000000000000000000e+00) (0, 0, 0.00000000000000000000e+00) (0, 0, 0.00000000000000000000e+00) (0, 0, 0.00000000000000000000e+00) (0, 0, 0.00000000000000000000e+00) (0, 0, 0.00000000000000000000e+00) (0, 0, 0.00000000000000000000e+00) (0, 0, 0.00000000000000000000e+00) (0, 0, 0.00000000000000000000e+00) (0, 0, 0.00000000000000000000e+00) (0, 0, 0.00000000000000000000e+00) (0, 0, 0.00000000000000000000e+00) (0, 0, 0.00000000000000000000e+00) (0, 0, 0.00000000000000000000e+00) (0, 0, 0.00000000000000000000e+00) (0, 0, 0.00000000000000000000e+00) (0, 0, 0.00000000000000000000e+00) (0, 0, 0.00000000000000000000e+00) (0, 0, 0.00000000000000000000e+00) (0, 0, 0.00000000000000000000e+00) (0, 0, 0.00000000000000000000e+00) (0, 0, 0.00000000000000000000e+00) (0, 0, 0.00000000000000000000e+00) (0, 0, 0.00000000000000000000e+00) (0, 0, 0.00000000000000000000e+00) (0, 0, 0.00000000000000000000e+00) (0, 0, 0.00000000000000000000e+00) (0, 0, 0.00000000000000000000e+00) (0, 0, 0.00000000000000000000e+00) (0, 0, 0.00000000000000000000e+00) (0, 0, 0.00000000000000000000e+00) (0, 0, 0.00000000000000000000e+00) (0, 0, 0.00000000000000000000e+00) (0, 0, 0.00000000000000000000e+00) (0, 0, 0.00000000000000000000e+00) (0, 0, 0.00000000000000000000e+00) (0, 0, 0.00000000000000000000e+00) (0, 0, 0.00000000000000000000e+00) (0, 0, 0.00000000000000000000e+00) (0, 0, 0.00000000000000000000e+00) (0, 0, 0.00000000000000000000e+00) (0, 0, 0.00000000000000000000e+00) (0, 0, 0.00000000000000000000e+00) (0, 0, 0.00000000000000000000e+00) (0, 0, 0.00000000000000000000e+00) (0, 0, 0.00000000000000000000e+00) (0, 0, 0.00000000000000000000e+00) (0, 0, 0.00000000000000000000e+00) (0, 0, 0.00000000000000000000e+00) (0, 0, 0.00000000000000000000e+00) (0, 0, 0.00000000000000000000e+00) (0, 0, 0.00000000000000000000e+00) (0, 0, 0.00000000000000000000e+00) (0, 0, 0.00000000000000000000e+00) (0, 0, 0.00000000000000000000e+00) (0, 0, 0.00000000000000000000e+00) (0, 0, 0.00000000000000000000e+00) (0, 0, 0.00000000000000000000e+00) (0, 0, 0.00000000000000000000e+00) (0, 0, 0.00000000000000000000e+00) (0, 0, 0.00000000000000000000e+00) (0, 0, 0.00000000000000000000e+00) (0, 0, 0.00000000000000000000e+00) (0, 0, 0.00000000000000000000e+00) (0, 0, 0.00000000000000000000e+00) (0, 0, 0.00000000000000000000e+00) (0, 0, 0.00000000000000000000e+00) (0, 0, 0.00000000000000000000e+00) (0, 0, 0.00000000000000000000e+00) (0, 0, 0.00000000000000000000e+00) (0, 0, 0.00000000000000000000e+00) (0, 0, 0.00000000000000000000e+00) (0, 0, 0.00000000000000000000e+00) (0, 0, 0.00000000000000000000e+00) (0, 0, 0.00000000000000000000e+00) (0, 0, 0.00000000000000000000e+00) (0, 0, 0.00000000000000000000e+00) (0, 0, 0.00000000000000000000e+00) (0, 0, 0.00000000000000000000e+00) (0, 0, 0.00000000000000000000e+00) (0, 0, 0.00000000000000000000e+00) (0, 0, 0.00000000000000000000e+00) (0, 0, 0.00000000000000000000e+00) (0, 0, 0.00000000000000000000e+00) (0, 0, 0.00000000000000000000e+00) (0, 0, 0.00000000000000000000e+00) (0, 0, 0.00000000000000000000e+00) (0, 0, 0.00000000000000000000e+00) (0, 0, 0.00000000000000000000e+00) (0, 0, 0.00000000000000000000e+00) (0, 0, 0.00000000000000000000e+00) (0, 0, 0.00000000000000000000e+00) (0, 0, 0.00000000000000000000e+00) (0, 0, 0.00000000000000000000e+00) (0, 0, 0.00000000000000000000e+00) (0, 0, 0.00000000000000000000e+00) (0, 0, 0.00000000000000000000e+00) (0, 0, 0.00000000000000000000e+00) (0, 0, 0.00000000000000000000e+00) (0, 0, 0.00000000000000000000e+00) (0, 0, 0.00000000000000000000e+00) (0, 0, 0.00000000000000000000e+00) (0, 0, 0.00000000000000000000e+00) (0, 0, 0.00000000000000000000e+00) (0, 0, 0.00000000000000000000e+00) (0, 0, 0.00000000000000000000e+00) (0, 0, 0.00000000000000000000e+00) (0, 0, 0.00000000000000000000e+00) (0, 0, 0.00000000000000000000e+00) (0, 0, 0.00000000000000000000e+00) (0, 0, 0.00000000000000000000e+00) (0, 0, 0.00000000000000000000e+00) (0, 0, 0.00000000000000000000e+00) (0, 0, 0.00000000000000000000e+00) (0, 0, 0.00000000000000000000e+00) (0, 0, 0.00000000000000000000e+00) (0, 0, 0.00000000000000000000e+00) (0, 0, 0.00000000000000000000e+00) (0, 0, 0.00000000000000000000e+00) (0, 0, 0.00000000000000000000e+00) (0, 0, 0.00000000000000000000e+00) (0, 0, 0.00000000000000000000e+00) (0, 0, 0.00000000000000000000e+00) (0, 0, 0.00000000000000000000e+00) (0, 0, 0.00000000000000000000e+00) (0, 0, 0.00000000000000000000e+00) (0, 0, 0.00000000000000000000e+00) (0, 0, 0.00000000000000000000e+00) (0, 0, 0.00000000000000000000e+00) (0, 0, 0.00000000000000000000e+00) (0, 0, 0.00000000000000000000e+00) (0, 0, 0.00000000000000000000e+00) (0, 0, 0.00000000000000000000e+00) (0, 0, 0.00000000000000000000e+00) (0, 0, 0.00000000000000000000e+00) (0, 0, 0.00000000000000000000e+00) (0, 0, 0.00000000000000000000e+00) (0, 0, 0.00000000000000000000e+00) (0, 0, 0.00000000000000000000e+00) (0, 0, 0.00000000000000000000e+00) (0, 0, 0.00000000000000000000e+00) (0, 0, 0.00000000000000000000e+00) (0, 0, 0.00000000000000000000e+00) (0, 0, 0.00000000000000000000e+00) (0, 0, 0.00000000000000000000e+00) (0, 0, 0.00000000000000000000e+00) (0, 0, 0.00000000000000000000e+00) (0, 0, 0.00000000000000000000e+00) (0, 0, 0.00000000000000000000e+00) (0, 0, 0.00000000000000000000e+00) (0, 0, 0.00000000000000000000e+00) (0, 0, 0.00000000000000000000e+00) (0, 0, 0.00000000000000000000e+00) (0, 0, 0.00000000000000000000e+00) (0, 0, 0.00000000000000000000e+00) (0, 0, 0.00000000000000000000e+00) (0, 0, 0.00000000000000000000e+00) (0, 0, 0.00000000000000000000e+00) (0, 0, 0.00000000000000000000e+00) (0, 0, 0.00000000000000000000e+00) (0, 0, 0.00000000000000000000e+00) (0, 0, 0.00000000000000000000e+00) (0, 0, 0.00000000000000000000e+00) (0, 0, 0.00000000000000000000e+00) (0, 0, 0.00000000000000000000e+00) (0, 0, 0.00000000000000000000e+00) (0, 0, 0.00000000000000000000e+00) (0, 0, 0.00000000000000000000e+00) (0, 0, 0.00000000000000000000e+00) (0, 0, 0.00000000000000000000e+00) (0, 0, 0.00000000000000000000e+00) (0, 0, 0.00000000000000000000e+00) (0, 0, 0.00000000000000000000e+00) (0, 0, 0.00000000000000000000e+00) (0, 0, 0.00000000000000000000e+00) (0, 0, 0.00000000000000000000e+00) (0, 0, 0.00000000000000000000e+00) (0, 0, 0.00000000000000000000e+00) (0, 0, 0.00000000000000000000e+00) (0, 0, 0.00000000000000000000e+00) (0, 0, 0.00000000000000000000e+00) (0, 0, 0.00000000000000000000e+00) (0, 0, 0.00000000000000000000e+00) (0, 0, 0.00000000000000000000e+00) (0, 0, 0.00000000000000000000e+00) (0, 0, 0.00000000000000000000e+00) (0, 0, 0.00000000000000000000e+00) (0, 0, 0.00000000000000000000e+00) (0, 0, 0.00000000000000000000e+00) (0, 0, 0.00000000000000000000e+00) (0, 0, 0.00000000000000000000e+00) (0, 0, 0.00000000000000000000e+00) (0, 0, 0.00000000000000000000e+00) (0, 0, 0.00000000000000000000e+00) (0, 0, 0.00000000000000000000e+00) (0, 0, 0.00000000000000000000e+00) (0, 0, 0.00000000000000000000e+00) (0, 0, 0.00000000000000000000e+00) (0, 0, 0.00000000000000000000e+00) (0, 0, 0.00000000000000000000e+00) (0, 0, 0.00000000000000000000e+00) (0, 0, 0.00000000000000000000e+00) (0, 0, 0.00000000000000000000e+00) (0, 0, 0.00000000000000000000e+00) (0, 0, 0.00000000000000000000e+00) (0, 0, 0.00000000000000000000e+00) (0, 0, 0.00000000000000000000e+00) (0, 0, 0.00000000000000000000e+00) (0, 0, 0.00000000000000000000e+00) (0, 0, 0.00000000000000000000e+00) (0, 0, 0.00000000000000000000e+00) (0, 0, 0.00000000000000000000e+00) (0, 0, 0.00000000000000000000e+00) (0, 0, 0.00000000000000000000e+00) (0, 0, 0.00000000000000000000e+00) (0, 0, 0.00000000000000000000e+00) (0, 0, 0.00000000000000000000e+00) (0, 0, 0.00000000000000000000e+00) (0, 0, 0.00000000000000000000e+00) (0, 0, 0.00000000000000000000e+00) (0, 0, 0.00000000000000000000e+00) (0, 0, 0.00000000000000000000e+00) (0, 0, 0.00000000000000000000e+00) (0, 0, 0.00000000000000000000e+00) (0, 0, 0.00000000000000000000e+00) (0, 0, 0.00000000000000000000e+00) (0, 0, 0.00000000000000000000e+00) (0, 0, 0.00000000000000000000e+00) (0, 0, 0.00000000000000000000e+00) (0, 0, 0.00000000000000000000e+00) (0, 0, 0.00000000000000000000e+00) (0, 0, 0.00000000000000000000e+00) (0, 0, 0.00000000000000000000e+00) (0, 0, 0.00000000000000000000e+00) (0, 0, 0.00000000000000000000e+00) (0, 0, 0.00000000000000000000e+00) (0, 0, 0.00000000000000000000e+00) (0, 0, 0.00000000000000000000e+00) (0, 0, 0.00000000000000000000e+00) (0, 0, 0.00000000000000000000e+00) (0, 0, 0.00000000000000000000e+00) (0, 0, 0.00000000000000000000e+00) (0, 0, 0.00000000000000000000e+00) (0, 0, 0.00000000000000000000e+00) (0, 0, 0.00000000000000000000e+00) (0, 0, 0.00000000000000000000e+00) (0, 0, 0.00000000000000000000e+00) (0, 0, 0.00000000000000000000e+00) (0, 0, 0.00000000000000000000e+00) (0, 0, 0.00000000000000000000e+00) (0, 0, 0.00000000000000000000e+00) (0, 0, 0.00000000000000000000e+00) (0, 0, 0.00000000000000000000e+00) (0, 0, 0.00000000000000000000e+00) (0, 0, 0.00000000000000000000e+00) (0, 0, 0.00000000000000000000e+00) (0, 0, 0.00000000000000000000e+00) (0, 0, 0.00000000000000000000e+00) (0, 0, 0.00000000000000000000e+00) (0, 0, 0.00000000000000000000e+00) (0, 0, 0.00000000000000000000e+00) (0, 0, 0.00000000000000000000e+00) (0, 0, 0.00000000000000000000e+00) (0, 0, 0.00000000000000000000e+00) (0, 0, 0.00000000000000000000e+00) (0, 0, 0.00000000000000000000e+00) (0, 0, 0.00000000000000000000e+00) (0, 0, 0.00000000000000000000e+00) (0, 0, 0.00000000000000000000e+00) (0, 0, 0.00000000000000000000e+00) (0, 0, 0.00000000000000000000e+00) (0, 0, 0.00000000000000000000e+00) (0, 0, 0.00000000000000000000e+00) (0, 0, 0.00000000000000000000e+00) (0, 0, 0.00000000000000000000e+00) (0, 0, 0.00000000000000000000e+00) (0, 0, 0.00000000000000000000e+00) (0, 0, 0.00000000000000000000e+00) (0, 0, 0.00000000000000000000e+00) (0, 0, 0.00000000000000000000e+00) (0, 0, 0.00000000000000000000e+00) (0, 0, 0.00000000000000000000e+00) (0, 0, 0.00000000000000000000e+00) (0, 0, 0.00000000000000000000e+00) (0, 0, 0.00000000000000000000e+00) (0, 0, 0.00000000000000000000e+00) (0, 0, 0.00000000000000000000e+00) (0, 0, 0.00000000000000000000e+00) (0, 0, 0.00000000000000000000e+00) (0, 0, 0.00000000000000000000e+00) (0, 0, 0.00000000000000000000e+00) (0, 0, 0.00000000000000000000e+00) (0, 0, 0.00000000000000000000e+00) (0, 0, 0.00000000000000000000e+00) (0, 0, 0.00000000000000000000e+00) (0, 0, 0.00000000000000000000e+00) (0, 0, 0.00000000000000000000e+00) (0, 0, 0.00000000000000000000e+00) (0, 0, 0.00000000000000000000e+00) (0, 0, 0.00000000000000000000e+00) (0, 0, 0.00000000000000000000e+00) (0, 0, 0.00000000000000000000e+00) (0, 0, 0.00000000000000000000e+00) (0, 0, 0.00000000000000000000e+00) (0, 0, 0.00000000000000000000e+00) (0, 0, 0.00000000000000000000e+00) (0, 0, 0.00000000000000000000e+00) (0, 0, 0.00000000000000000000e+00) (0, 0, 0.00000000000000000000e+00) (0, 0, 0.00000000000000000000e+00) (0, 0, 0.00000000000000000000e+00) (0, 0, 0.00000000000000000000e+00) (0, 0, 0.00000000000000000000e+00) (0, 0, 0.00000000000000000000e+00) (0, 0, 0.00000000000000000000e+00) (0, 0, 0.00000000000000000000e+00) (0, 0, 0.00000000000000000000e+00) (0, 0, 0.00000000000000000000e+00) (0, 0, 0.00000000000000000000e+00) (0, 0, 0.00000000000000000000e+00) (0, 0, 0.00000000000000000000e+00) (0, 0, 0.00000000000000000000e+00) (0, 0, 0.00000000000000000000e+00) (0, 0, 0.00000000000000000000e+00) (0, 0, 0.00000000000000000000e+00) (0, 0, 0.00000000000000000000e+00) (0, 0, 0.00000000000000000000e+00) (0, 0, 0.00000000000000000000e+00) (0, 0, 0.00000000000000000000e+00) (0, 0, 0.00000000000000000000e+00) (0, 0, 0.00000000000000000000e+00) (0, 0, 0.00000000000000000000e+00) (0, 0, 0.00000000000000000000e+00) (0, 0, 0.00000000000000000000e+00) (0, 0, 0.00000000000000000000e+00) (0, 0, 0.00000000000000000000e+00) (0, 0, 0.00000000000000000000e+00) (0, 0, 0.00000000000000000000e+00) (0, 0, 0.00000000000000000000e+00) (0, 0, 0.00000000000000000000e+00) (0, 0, 0.00000000000000000000e+00) (0, 0, 0.00000000000000000000e+00) (0, 0, 0.00000000000000000000e+00) (0, 0, 0.00000000000000000000e+00) (0, 0, 0.00000000000000000000e+00) (0, 0, 0.00000000000000000000e+00) (0, 0, 0.00000000000000000000e+00) (0, 0, 0.00000000000000000000e+00) (0, 0, 0.00000000000000000000e+00) (0, 0, 0.00000000000000000000e+00) (0, 0, 0.00000000000000000000e+00) (0, 0, 0.00000000000000000000e+00) (0, 0, 0.00000000000000000000e+00) (0, 0, 0.00000000000000000000e+00) (0, 0, 0.00000000000000000000e+00) (0, 0, 0.00000000000000000000e+00) (0, 0, 0.00000000000000000000e+00) (0, 0, 0.00000000000000000000e+00) (0, 0, 0.00000000000000000000e+00) (0, 0, 0.00000000000000000000e+00) (0, 0, 0.00000000000000000000e+00) (0, 0, 0.00000000000000000000e+00) (0, 0, 0.00000000000000000000e+00) (0, 0, 0.00000000000000000000e+00) (0, 0, 0.00000000000000000000e+00) (0, 0, 0.00000000000000000000e+00) (0, 0, 0.00000000000000000000e+00) (0, 0, 0.00000000000000000000e+00) (0, 0, 0.00000000000000000000e+00) (0, 0, 0.00000000000000000000e+00) (0, 0, 0.00000000000000000000e+00) (0, 0, 0.00000000000000000000e+00) (0, 0, 0.00000000000000000000e+00) (0, 0, 0.00000000000000000000e+00) (0, 0, 0.00000000000000000000e+00) (0, 0, 0.00000000000000000000e+00) (0, 0, 0.00000000000000000000e+00) (0, 0, 0.00000000000000000000e+00) (0, 0, 0.00000000000000000000e+00) (0, 0, 0.00000000000000000000e+00) (0, 0, 0.00000000000000000000e+00) (0, 0, 0.00000000000000000000e+00) (0, 0, 0.00000000000000000000e+00) (0, 0, 0.00000000000000000000e+00) (0, 0, 0.00000000000000000000e+00) (0, 0, 0.00000000000000000000e+00) (0, 0, 0.00000000000000000000e+00) (0, 0, 0.00000000000000000000e+00) (0, 0, 0.00000000000000000000e+00) (0, 0, 0.00000000000000000000e+00) (0, 0, 0.00000000000000000000e+00) (0, 0, 0.00000000000000000000e+00) (0, 0, 0.00000000000000000000e+00) (0, 0, 0.00000000000000000000e+00) (0, 0, 0.00000000000000000000e+00) (0, 0, 0.00000000000000000000e+00) (0, 0, 0.00000000000000000000e+00) (0, 0, 0.00000000000000000000e+00) (0, 0, 0.00000000000000000000e+00) (0, 0, 0.00000000000000000000e+00) (0, 0, 0.00000000000000000000e+00) (0, 0, 0.00000000000000000000e+00) (0, 0, 0.00000000000000000000e+00) (0, 0, 0.00000000000000000000e+00) (0, 0, 0.00000000000000000000e+00) (0, 0, 0.00000000000000000000e+00) (0, 0, 0.00000000000000000000e+00) (0, 0, 0.00000000000000000000e+00) (0, 0, 0.00000000000000000000e+00) (0, 0, 0.00000000000000000000e+00) (0, 0, 0.00000000000000000000e+00) (0, 0, 0.00000000000000000000e+00) (0, 0, 0.00000000000000000000e+00) (0, 0, 0.00000000000000000000e+00) (0, 0, 0.00000000000000000000e+00) (0, 0, 0.00000000000000000000e+00) (0, 0, 0.00000000000000000000e+00) (0, 0, 0.00000000000000000000e+00) (0, 0, 0.00000000000000000000e+00) (0, 0, 0.00000000000000000000e+00) (0, 0, 0.00000000000000000000e+00) (0, 0, 0.00000000000000000000e+00) (0, 0, 0.00000000000000000000e+00) (0, 0, 0.00000000000000000000e+00) (0, 0, 0.00000000000000000000e+00) (0, 0, 0.00000000000000000000e+00) (0, 0, 0.00000000000000000000e+00) (0, 0, 0.00000000000000000000e+00) (0, 0, 0.00000000000000000000e+00) (0, 0, 0.00000000000000000000e+00) (0, 0, 0.00000000000000000000e+00) (0, 0, 0.00000000000000000000e+00) (0, 0, 0.00000000000000000000e+00) (0, 0, 0.00000000000000000000e+00) (0, 0, 0.00000000000000000000e+00) (0, 0, 0.00000000000000000000e+00) (0, 0, 0.00000000000000000000e+00) (0, 0, 0.00000000000000000000e+00) (0, 0, 0.00000000000000000000e+00) (0, 0, 0.00000000000000000000e+00) (0, 0, 0.00000000000000000000e+00) (0, 0, 0.00000000000000000000e+00) (0, 0, 0.00000000000000000000e+00) (0, 0, 0.00000000000000000000e+00) (0, 0, 0.00000000000000000000e+00) (0, 0, 0.00000000000000000000e+00) (0, 0, 0.00000000000000000000e+00) (0, 0, 0.00000000000000000000e+00) (0, 0, 0.00000000000000000000e+00) (0, 0, 0.00000000000000000000e+00) (0, 0, 0.00000000000000000000e+00) (0, 0, 0.00000000000000000000e+00) (0, 0, 0.00000000000000000000e+00) (0, 0, 0.00000000000000000000e+00) (0, 0, 0.00000000000000000000e+00) (0, 0, 0.00000000000000000000e+00) (0, 0, 0.00000000000000000000e+00) (0, 0, 0.00000000000000000000e+00) (0, 0, 0.00000000000000000000e+00) (0, 0, 0.00000000000000000000e+00) (0, 0, 0.00000000000000000000e+00) (0, 0, 0.00000000000000000000e+00) (0, 0, 0.00000000000000000000e+00) (0, 0, 0.00000000000000000000e+00) (0, 0, 0.00000000000000000000e+00) (0, 0, 0.00000000000000000000e+00) (0, 0, 0.00000000000000000000e+00) (0, 0, 0.00000000000000000000e+00) (0, 0, 0.00000000000000000000e+00) (0, 0, 0.00000000000000000000e+00) (0, 0, 0.00000000000000000000e+00) (0, 0, 0.00000000000000000000e+00) (0, 0, 0.00000000000000000000e+00) (0, 0, 0.00000000000000000000e+00) (0, 0, 0.00000000000000000000e+00) (0, 0, 0.00000000000000000000e+00) (0, 0, 0.00000000000000000000e+00) (0, 0, 0.00000000000000000000e+00) (0, 0, 0.00000000000000000000e+00) (0, 0, 0.00000000000000000000e+00) (0, 0, 0.00000000000000000000e+00) (0, 0, 0.00000000000000000000e+00) (0, 0, 0.00000000000000000000e+00) (0, 0, 0.00000000000000000000e+00) (0, 0, 0.00000000000000000000e+00) (0, 0, 0.00000000000000000000e+00) (0, 0, 0.00000000000000000000e+00) (0, 0, 0.00000000000000000000e+00) (0, 0, 0.00000000000000000000e+00) (0, 0, 0.00000000000000000000e+00) (0, 0, 0.00000000000000000000e+00) (0, 0, 0.00000000000000000000e+00) (0, 0, 0.00000000000000000000e+00) (0, 0, 0.00000000000000000000e+00) (0, 0, 0.00000000000000000000e+00) (0, 0, 0.00000000000000000000e+00) (0, 0, 0.00000000000000000000e+00) (0, 0, 0.00000000000000000000e+00) (0, 0, 0.00000000000000000000e+00) (0, 0, 0.00000000000000000000e+00) (0, 0, 0.00000000000000000000e+00) (0, 0, 0.00000000000000000000e+00) (0, 0, 0.00000000000000000000e+00) (0, 0, 0.00000000000000000000e+00) (0, 0, 0.00000000000000000000e+00) (0, 0, 0.00000000000000000000e+00) (0, 0, 0.00000000000000000000e+00) (0, 0, 0.00000000000000000000e+00) (0, 0, 0.00000000000000000000e+00) (0, 0, 0.00000000000000000000e+00) (0, 0, 0.00000000000000000000e+00) (0, 0, 0.00000000000000000000e+00) (0, 0, 0.00000000000000000000e+00) (0, 0, 0.00000000000000000000e+00) (0, 0, 0.00000000000000000000e+00) (0, 0, 0.00000000000000000000e+00) (0, 0, 0.00000000000000000000e+00) (0, 0, 0.00000000000000000000e+00) (0, 0, 0.00000000000000000000e+00) (0, 0, 0.00000000000000000000e+00) (0, 0, 0.00000000000000000000e+00) (0, 0, 0.00000000000000000000e+00) (0, 0, 0.00000000000000000000e+00) (0, 0, 0.00000000000000000000e+00) (0, 0, 0.00000000000000000000e+00) (0, 0, 0.00000000000000000000e+00) (0, 0, 0.00000000000000000000e+00) (0, 0, 0.00000000000000000000e+00) (0, 0, 0.00000000000000000000e+00) (0, 0, 0.00000000000000000000e+00) (0, 0, 0.00000000000000000000e+00) (0, 0, 0.00000000000000000000e+00) (0, 0, 0.00000000000000000000e+00) (0, 0, 0.00000000000000000000e+00) (0, 0, 0.00000000000000000000e+00) (0, 0, 0.00000000000000000000e+00) (0, 0, 0.00000000000000000000e+00) (0, 0, 0.00000000000000000000e+00) (0, 0, 0.00000000000000000000e+00) (0, 0, 0.00000000000000000000e+00) (0, 0, 0.00000000000000000000e+00) (0, 0, 0.00000000000000000000e+00) (0, 0, 0.00000000000000000000e+00) (0, 0, 0.00000000000000000000e+00) (0, 0, 0.00000000000000000000e+00) (0, 0, 0.00000000000000000000e+00) (0, 0, 0.00000000000000000000e+00) (0, 0, 0.00000000000000000000e+00) (0, 0, 0.00000000000000000000e+00) (0, 0, 0.00000000000000000000e+00) (0, 0, 0.00000000000000000000e+00) (0, 0, 0.00000000000000000000e+00) (0, 0, 0.00000000000000000000e+00) (0, 0, 0.00000000000000000000e+00) (0, 0, 0.00000000000000000000e+00) (0, 0, 0.00000000000000000000e+00) (0, 0, 0.00000000000000000000e+00) (0, 0, 0.00000000000000000000e+00) (0, 0, 0.00000000000000000000e+00) (0, 0, 0.00000000000000000000e+00) (0, 0, 0.00000000000000000000e+00) (0, 0, 0.00000000000000000000e+00) (0, 0, 0.00000000000000000000e+00) (0, 0, 0.00000000000000000000e+00) (0, 0, 0.00000000000000000000e+00) (0, 0, 0.00000000000000000000e+00) (0, 0, 0.00000000000000000000e+00) (0, 0, 0.00000000000000000000e+00) (0, 0, 0.00000000000000000000e+00) (0, 0, 0.00000000000000000000e+00) (0, 0, 0.00000000000000000000e+00) (0, 0, 0.00000000000000000000e+00) (0, 0, 0.00000000000000000000e+00) (0, 0, 0.00000000000000000000e+00) (0, 0, 0.00000000000000000000e+00) (0, 0, 0.00000000000000000000e+00) (0, 0, 0.00000000000000000000e+00) (0, 0, 0.00000000000000000000e+00) (0, 0, 0.00000000000000000000e+00) (0, 0, 0.00000000000000000000e+00) (0, 0, 0.00000000000000000000e+00) (0, 0, 0.00000000000000000000e+00) (0, 0, 0.00000000000000000000e+00) (0, 0, 0.00000000000000000000e+00) (0, 0, 0.00000000000000000000e+00) (0, 0, 0.00000000000000000000e+00) (0, 0, 0.00000000000000000000e+00) (0, 0, 0.00000000000000000000e+00) (0, 0, 0.00000000000000000000e+00) (0, 0, 0.00000000000000000000e+00) (0, 0, 0.00000000000000000000e+00) (0, 0, 0.00000000000000000000e+00) (0, 0, 0.00000000000000000000e+00) (0, 0, 0.00000000000000000000e+00) (0, 0, 0.00000000000000000000e+00) (0, 0, 0.00000000000000000000e+00) (0, 0, 0.00000000000000000000e+00) (0, 0, 0.00000000000000000000e+00) (0, 0, 0.00000000000000000000e+00) (0, 0, 0.00000000000000000000e+00) (0, 0, 0.00000000000000000000e+00) (0, 0, 0.00000000000000000000e+00) (0, 0, 0.00000000000000000000e+00) (0, 0, 0.00000000000000000000e+00) (0, 0, 0.00000000000000000000e+00) (0, 0, 0.00000000000000000000e+00) (0, 0, 0.00000000000000000000e+00) (0, 0, 0.00000000000000000000e+00) (0, 0, 0.00000000000000000000e+00) (0, 0, 0.00000000000000000000e+00) (0, 0, 0.00000000000000000000e+00) (0, 0, 0.00000000000000000000e+00) (0, 0, 0.00000000000000000000e+00) (0, 0, 0.00000000000000000000e+00) (0, 0, 0.00000000000000000000e+00) (0, 0, 0.00000000000000000000e+00) (0, 0, 0.00000000000000000000e+00) (0, 0, 0.00000000000000000000e+00) (0, 0, 0.00000000000000000000e+00) (0, 0, 0.00000000000000000000e+00) (0, 0, 0.00000000000000000000e+00) (0, 0, 0.00000000000000000000e+00) (0, 0, 0.00000000000000000000e+00) (0, 0, 0.00000000000000000000e+00) (0, 0, 0.00000000000000000000e+00) (0, 0, 0.00000000000000000000e+00) (0, 0, 0.00000000000000000000e+00) (0, 0, 0.00000000000000000000e+00) (0, 0, 0.00000000000000000000e+00) (0, 0, 0.00000000000000000000e+00) (0, 0, 0.00000000000000000000e+00) (0, 0, 0.00000000000000000000e+00) (0, 0, 0.00000000000000000000e+00) (0, 0, 0.00000000000000000000e+00) (0, 0, 0.00000000000000000000e+00) (0, 0, 0.00000000000000000000e+00) (0, 0, 0.00000000000000000000e+00) (0, 0, 0.00000000000000000000e+00) (0, 0, 0.00000000000000000000e+00) (0, 0, 0.00000000000000000000e+00) (0, 0, 0.00000000000000000000e+00) (0, 0, 0.00000000000000000000e+00) (0, 0, 0.00000000000000000000e+00) (0, 0, 0.00000000000000000000e+00) (0, 0, 0.00000000000000000000e+00) (0, 0, 0.00000000000000000000e+00) (0, 0, 0.00000000000000000000e+00) (0, 0, 0.00000000000000000000e+00) (0, 0, 0.00000000000000000000e+00) (0, 0, 0.00000000000000000000e+00) (0, 0, 0.00000000000000000000e+00) (0, 0, 0.00000000000000000000e+00) (0, 0, 0.00000000000000000000e+00) (0, 0, 0.00000000000000000000e+00) (0, 0, 0.00000000000000000000e+00) (0, 0, 0.00000000000000000000e+00) (0, 0, 0.00000000000000000000e+00) (0, 0, 0.00000000000000000000e+00) (0, 0, 0.00000000000000000000e+00) (0, 0, 0.00000000000000000000e+00) (0, 0, 0.00000000000000000000e+00) (0, 0, 0.00000000000000000000e+00) (0, 0, 0.00000000000000000000e+00) (0, 0, 0.00000000000000000000e+00) (0, 0, 0.00000000000000000000e+00) (0, 0, 0.00000000000000000000e+00) (0, 0, 0.00000000000000000000e+00) (0, 0, 0.00000000000000000000e+00) (0, 0, 0.00000000000000000000e+00) (0, 0, 0.00000000000000000000e+00) (0, 0, 0.00000000000000000000e+00) (0, 0, 0.00000000000000000000e+00) (0, 0, 0.00000000000000000000e+00) (0, 0, 0.00000000000000000000e+00) (0, 0, 0.00000000000000000000e+00) (0, 0, 0.00000000000000000000e+00) (0, 0, 0.00000000000000000000e+00) (0, 0, 0.00000000000000000000e+00) (0, 0, 0.00000000000000000000e+00) (0, 0, 0.00000000000000000000e+00) (0, 0, 0.00000000000000000000e+00) (0, 0, 0.00000000000000000000e+00) (0, 0, 0.00000000000000000000e+00) (0, 0, 0.00000000000000000000e+00) (0, 0, 0.00000000000000000000e+00) (0, 0, 0.00000000000000000000e+00) (0, 0, 0.00000000000000000000e+00) (0, 0, 0.00000000000000000000e+00) (0, 0, 0.00000000000000000000e+00) (0, 0, 0.00000000000000000000e+00) (0, 0, 0.00000000000000000000e+00) (0, 0, 0.00000000000000000000e+00) (0, 0, 0.00000000000000000000e+00) (0, 0, 0.00000000000000000000e+00) (0, 0, 0.00000000000000000000e+00) (0, 0, 0.00000000000000000000e+00) (0, 0, 0.00000000000000000000e+00) (0, 0, 0.00000000000000000000e+00) (0, 0, 0.00000000000000000000e+00) (0, 0, 0.00000000000000000000e+00) (0, 0, 0.00000000000000000000e+00) (0, 0, 0.00000000000000000000e+00) (0, 0, 0.00000000000000000000e+00) (0, 0, 0.00000000000000000000e+00) (0, 0, 0.00000000000000000000e+00) (0, 0, 0.00000000000000000000e+00) (0, 0, 0.00000000000000000000e+00) (0, 0, 0.00000000000000000000e+00) (0, 0, 0.00000000000000000000e+00) (0, 0, 0.00000000000000000000e+00) (0, 0, 0.00000000000000000000e+00) (0, 0, 0.00000000000000000000e+00) (0, 0, 0.00000000000000000000e+00) (0, 0, 0.00000000000000000000e+00) (0, 0, 0.00000000000000000000e+00) (0, 0, 0.00000000000000000000e+00) (0, 0, 0.00000000000000000000e+00) (0, 0, 0.00000000000000000000e+00) (0, 0, 0.00000000000000000000e+00) (0, 0, 0.00000000000000000000e+00) (0, 0, 0.00000000000000000000e+00) (0, 0, 0.00000000000000000000e+00) (0, 0, 0.00000000000000000000e+00) (0, 0, 0.00000000000000000000e+00) (0, 0, 0.00000000000000000000e+00) (0, 0, 0.00000000000000000000e+00) (0, 0, 0.00000000000000000000e+00) (0, 0, 0.00000000000000000000e+00) (0, 0, 0.00000000000000000000e+00) (0, 0, 0.00000000000000000000e+00) (0, 0, 0.00000000000000000000e+00) (0, 0, 0.00000000000000000000e+00) (0, 0, 0.00000000000000000000e+00) (0, 0, 0.00000000000000000000e+00) (0, 0, 0.00000000000000000000e+00) (0, 0, 0.00000000000000000000e+00) (0, 0, 0.00000000000000000000e+00) (0, 0, 0.00000000000000000000e+00) (0, 0, 0.00000000000000000000e+00) (0, 0, 0.00000000000000000000e+00) (0, 0, 0.00000000000000000000e+00) (0, 0, 0.00000000000000000000e+00) (0, 0, 0.00000000000000000000e+00) (0, 0, 0.00000000000000000000e+00) (0, 0, 0.00000000000000000000e+00) (0, 0, 0.00000000000000000000e+00) (0, 0, 0.00000000000000000000e+00) (0, 0, 0.00000000000000000000e+00) (0, 0, 0.00000000000000000000e+00) (0, 0, 0.00000000000000000000e+00) (785, 5, 5.00000000000000000000e-01) (785, 5, 5.00000000000000000000e-01) (785, 5, 5.00000000000000000000e-01) (785, 5, 5.00000000000000000000e-01) (785, 5, 5.00000000000000000000e-01) (785, 5, 5.00000000000000000000e-01) (785, 5, 5.00000000000000000000e-01) (785, 5, 5.00000000000000000000e-01) (785, 5, 5.00000000000000000000e-01) (785, 5, 5.00000000000000000000e-01) (785, 5, 5.00000000000000000000e-01) (785, 5, 5.00000000000000000000e-01) (785, 5, 5.00000000000000000000e-01) (785, 5, 5.00000000000000000000e-01) (785, 5, 5.00000000000000000000e-01) (785, 5, 5.00000000000000000000e-01) (785, 5, 5.00000000000000000000e-01) (785, 5, 5.00000000000000000000e-01) (785, 5, 5.00000000000000000000e-01) (0, 5, 5.00000000000000000000e-01) (20, 5, 5.00000000000000000000e-01) (20, 5, 5.00000000000000000000e-01) (20, 5, 5.00000000000000000000e-01) (20, 5, 5.00000000000000000000e-01) (20, 5, 5.00000000000000000000e-01) (20, 5, 5.00000000000000000000e-01) (20, 5, 5.00000000000000000000e-01) (20, 5, 5.00000000000000000000e-01) (20, 5, 5.00000000000000000000e-01) (20, 5, 5.00000000000000000000e-01) (20, 5, 5.00000000000000000000e-01) (20, 5, 5.00000000000000000000e-01) (20, 5, 5.00000000000000000000e-01) (20, 5, 5.00000000000000000000e-01) (20, 5, 5.00000000000000000000e-01) (0, 5, 5.00000000000000000000e-01) (16, 5, 5.00000000000000000000e-01) (16, 5, 5.00000000000000000000e-01) (16, 5, 5.00000000000000000000e-01) (16, 5, 5.00000000000000000000e-01) (16, 5, 5.00000000000000000000e-01) (16, 5, 5.00000000000000000000e-01) (16, 5, 5.00000000000000000000e-01) (16, 5, 5.00000000000000000000e-01) (16, 5, 5.00000000000000000000e-01) (16, 5, 5.00000000000000000000e-01) (0, 5, 5.00000000000000000000e-01) 
connections (connected_to_neuron, weight)=(0, 3.98509427905082702637e-02) (1, -3.57967987656593322754e-02) (2, 2.74762436747550964355e-02) (3, 6.10411390662193298340e-02) (4, 9.03147682547569274902e-02) (5, 2.76958867907524108887e-02) (6, -8.59916582703590393066e-02) (7, 1.41923651099205017090e-02) (8, -6.94369524717330932617e-03) (9, 6.32167235016822814941e-02) (10, 6.16580247879028320312e-03) (11, 1.99993029236793518066e-02) (12, 4.60610464215278625488e-02) (13, 8.35245326161384582520e-02) (14, 5.01431897282600402832e-02) (15, -8.46514329314231872559e-02) (16, 1.38230100274085998535e-02) (17, 1.39516368508338928223e-02) (18, 3.93866971135139465332e-02) (19, -6.53878450393676757812e-02) (20, -1.18131339550018310547e-02) (21, 7.94177129864692687988e-02) (22, 1.17971748113632202148e-02) (23, -7.12896063923835754395e-02) (24, 5.06103411316871643066e-02) (25, -3.38966026902198791504e-02) (26, 2.07406282424926757812e-03) (27, 2.23938226699829101562e-02) (28, 9.18274596333503723145e-02) (29, 2.11664065718650817871e-02) (30, 2.08508521318435668945e-02) (31, 3.16784009337425231934e-02) (32, 8.53696092963218688965e-02) (33, -5.16729131340980529785e-02) (34, -7.28045403957366943359e-03) (35, 7.56843909621238708496e-02) (36, 7.60229751467704772949e-02) (37, 6.72788918018341064453e-03) (38, -1.10064391046762466431e-02) (39, -3.63965183496475219727e-02) (40, -3.10423951596021652222e-02) (41, 9.07435342669486999512e-02) (42, 8.26358497142791748047e-02) (43, -9.50891301035881042480e-02) (44, 6.97189047932624816895e-02) (45, 3.61566171050071716309e-02) (46, -7.12191835045814514160e-02) (47, -6.83732982724905014038e-03) (48, -4.65767309069633483887e-02) (49, 7.02320337295532226562e-02) (50, 2.76308916509151458740e-02) (51, 4.13602665066719055176e-02) (52, 5.01586273312568664551e-02) (53, -6.02005682885646820068e-02) (54, 7.00706467032432556152e-02) (55, 7.68974423408508300781e-04) (56, 5.90282678604125976562e-03) (57, -2.78552919626235961914e-02) (58, -7.68372118473052978516e-02) (59, -2.26970016956329345703e-03) (60, 9.33111235499382019043e-02) (61, 4.40136417746543884277e-02) (62, -7.05912932753562927246e-02) (63, 7.86744430661201477051e-02) (64, 9.17238593101501464844e-02) (65, 2.05033458769321441650e-02) (66, 4.23204153776168823242e-02) (67, 5.19550554454326629639e-02) (68, -8.99893715977668762207e-02) (69, -9.25762876868247985840e-02) (70, -1.37057393789291381836e-01) (71, -4.91494163870811462402e-02) (72, -1.04584112763404846191e-01) (73, -1.35629490017890930176e-01) (74, -2.54874993115663528442e-02) (75, -1.03636011481285095215e-01) (76, 4.25293706357479095459e-02) (77, 3.67411412298679351807e-02) (78, 1.01493317633867263794e-02) (79, -8.09754356741905212402e-02) (80, 1.69169884175062179565e-02) (81, -5.87561354041099548340e-02) (82, 6.02769330143928527832e-02) (83, -3.29398512840270996094e-02) (84, -1.89567059278488159180e-02) (85, 3.03475931286811828613e-02) (86, 6.78291246294975280762e-02) (87, 8.69461372494697570801e-02) (88, -9.75076928734779357910e-02) (89, 9.09881815314292907715e-02) (90, -1.59019455313682556152e-02) (91, 9.24322381615638732910e-02) (92, 2.72835958749055862427e-02) (93, -5.20617421716451644897e-03) (94, 2.26066075265407562256e-02) (95, -3.32369543612003326416e-02) (96, -1.30754590034484863281e-01) (97, -9.04290303587913513184e-02) (98, -1.59536644816398620605e-01) (99, -1.75286829471588134766e-01) (100, -3.94532456994056701660e-02) (101, -6.84641748666763305664e-02) (102, -2.02968362718820571899e-02) (103, -1.42431139945983886719e-01) (104, 1.96108520030975341797e-02) (105, -4.53333333134651184082e-02) (106, -7.35364481806755065918e-02) (107, 2.51746233552694320679e-02) (108, -7.51519128680229187012e-02) (109, 4.64687570929527282715e-02) (110, 4.43344488739967346191e-02) (111, 4.17387709021568298340e-02) (112, 8.77126380801200866699e-02) (113, 4.61139529943466186523e-03) (114, -9.12010818719863891602e-02) (115, -3.12529839575290679932e-02) (116, -6.36173412203788757324e-02) (117, 6.87978342175483703613e-02) (118, -6.13258332014083862305e-02) (119, -6.95127248764038085938e-02) (120, 6.96840435266494750977e-02) (121, 8.73711612075567245483e-03) (122, -1.31426736712455749512e-01) (123, -7.36288428306579589844e-02) (124, -1.52693152427673339844e-01) (125, -2.10370108485221862793e-01) (126, -1.57576948404312133789e-01) (127, -8.60645547509193420410e-02) (128, -7.93646648526191711426e-02) (129, -6.49198964238166809082e-02) (130, -1.58450566232204437256e-02) (131, -2.11348906159400939941e-02) (132, -5.20558729767799377441e-02) (133, 2.41707731038331985474e-02) (134, 5.65167367458343505859e-02) (135, -6.62701502442359924316e-02) (136, 9.76991876959800720215e-02) (137, 5.13411648571491241455e-02) (138, 4.39269021153450012207e-02) (139, -7.68693238496780395508e-02) (140, 2.75091081857681274414e-03) (141, -1.17386505007743835449e-02) (142, 6.43227994441986083984e-02) (143, -1.04170041158795356750e-02) (144, 9.34833660721778869629e-02) (145, 4.55702841281890869141e-02) (146, 3.41040529310703277588e-02) (147, -7.73035809397697448730e-02) (148, 3.92001569271087646484e-02) (149, -1.08599521219730377197e-01) (150, -8.37600752711296081543e-02) (151, -9.30728390812873840332e-02) (152, -9.61902439594268798828e-02) (153, -1.24763898551464080811e-01) (154, -1.12343586981296539307e-01) (155, -1.64546877145767211914e-01) (156, -8.05063396692276000977e-02) (157, -8.96677970886230468750e-02) (158, -1.23389929533004760742e-01) (159, -1.00591190159320831299e-01) (160, 8.70432257652282714844e-02) (161, -1.62391718477010726929e-02) (162, 1.46994128823280334473e-01) (163, 1.16749713197350502014e-02) (164, 8.77384841442108154297e-02) (165, -3.82462516427040100098e-02) (166, -5.01628518104553222656e-02) (167, 7.39631950855255126953e-02) (168, -6.81186020374298095703e-02) (169, 9.74659994244575500488e-02) (170, 9.63575020432472229004e-02) (171, 3.81396822631359100342e-02) (172, -8.19697137922048568726e-03) (173, 4.56329397857189178467e-02) (174, -1.06522165238857269287e-01) (175, -3.26015949249267578125e-02) (176, 4.71303090453147888184e-02) (177, 5.22791780531406402588e-02) (178, -3.85237298905849456787e-02) (179, -8.16338807344436645508e-02) (180, -4.12088260054588317871e-02) (181, -1.08969639986753463745e-02) (182, -1.42370119690895080566e-01) (183, -6.09015859663486480713e-03) (184, -9.40825641155242919922e-02) (185, -1.93606778979301452637e-01) (186, -6.93701878190040588379e-02) (187, -1.94625835865736007690e-02) (188, -4.15824651718139648438e-02) (189, 3.05816251784563064575e-02) (190, 3.32937017083168029785e-02) (191, 2.00307816267013549805e-02) (192, 1.29298716783523559570e-02) (193, 5.41018173098564147949e-02) (194, -2.19187866896390914917e-02) (195, -9.70268063247203826904e-03) (196, -5.24514839053153991699e-02) (197, 3.97757142782211303711e-02) (198, -2.90612503886222839355e-02) (199, -1.25947855412960052490e-02) (200, 4.67966832220554351807e-02) (201, -5.70099763572216033936e-02) (202, -1.44579842686653137207e-01) (203, -1.36902004480361938477e-01) (204, -1.06124751269817352295e-01) (205, -7.36943483352661132812e-02) (206, -3.22314836084842681885e-02) (207, 2.86553539335727691650e-02) (208, -1.86275020241737365723e-01) (209, -1.73742353916168212891e-01) (210, -1.32275715470314025879e-01) (211, -2.03018397092819213867e-01) (212, -3.71724255383014678955e-02) (213, -1.49384051561355590820e-01) (214, -5.41886826977133750916e-03) (215, -1.34392514824867248535e-01) (216, -4.66989539563655853271e-02) (217, 8.21756869554519653320e-02) (218, -2.65195742249488830566e-02) (219, 7.63602182269096374512e-02) (220, -8.35482403635978698730e-02) (221, -4.31118533015251159668e-02) (222, -9.42865163087844848633e-02) (223, 2.25102137774229049683e-02) (224, -8.21027010679244995117e-02) (225, -7.07451999187469482422e-03) (226, -7.67407864332199096680e-02) (227, -3.37587706744670867920e-02) (228, -4.48266938328742980957e-02) (229, -5.77914081513881683350e-02) (230, -6.20945123955607414246e-03) (231, 4.24119420349597930908e-02) (232, -1.43251959234476089478e-02) (233, 5.06515707820653915405e-03) (234, 5.62396878376603126526e-03) (235, 5.48312626779079437256e-03) (236, -7.34030380845069885254e-02) (237, -1.78674787282943725586e-01) (238, -1.82977721095085144043e-01) (239, -3.11386555433273315430e-01) (240, -1.57202079892158508301e-01) (241, -1.87122240662574768066e-01) (242, -1.81879729032516479492e-01) (243, -1.28761410713195800781e-01) (244, -6.78154602646827697754e-02) (245, -3.48377637565135955811e-02) (246, 3.23751010000705718994e-02) (247, 1.02655421942472457886e-02) (248, -2.37814784049987792969e-02) (249, 4.57477197051048278809e-03) (250, -1.76077317446470260620e-02) (251, 4.69791963696479797363e-02) (252, -9.51514020562171936035e-02) (253, 7.02165067195892333984e-03) (254, -7.93058238923549652100e-03) (255, -9.08353701233863830566e-02) (256, -7.57270753383636474609e-02) (257, -2.83927582204341888428e-02) (258, -7.29508548974990844727e-02) (259, -8.65251421928405761719e-02) (260, -1.35959774255752563477e-01) (261, -1.35014519095420837402e-01) (262, -1.12951286137104034424e-01) (263, 2.32992190867662429810e-02) (264, -5.79918222501873970032e-03) (265, -3.26524488627910614014e-02) (266, -1.44284099340438842773e-01) (267, -1.25450089573860168457e-01) (268, -1.51374727487564086914e-01) (269, -1.34848877787590026855e-01) (270, -2.41004571318626403809e-01) (271, -4.85828928649425506592e-02) (272, -2.10943054407835006714e-02) (273, -5.90441338717937469482e-02) (274, -7.41970464587211608887e-02) (275, -1.83272451162338256836e-01) (276, -1.28563746809959411621e-01) (277, -1.43110483884811401367e-01) (278, 3.25899682939052581787e-02) (279, -6.21644519269466400146e-02) (280, 6.96104690432548522949e-02) (281, -4.29308041930198669434e-02) (282, -1.09345272183418273926e-01) (283, 2.64642629772424697876e-02) (284, 2.17769686132669448853e-02) (285, -7.39877372980117797852e-02) (286, -2.51891240477561950684e-02) (287, 2.03081616200506687164e-03) (288, -5.73414526879787445068e-02) (289, -6.68216198682785034180e-02) (290, -1.65308639407157897949e-01) (291, -8.60181003808975219727e-02) (292, -2.41486318409442901611e-02) (293, -1.43212586641311645508e-01) (294, -2.10562512278556823730e-01) (295, -1.42988398671150207520e-01) (296, -2.24618524312973022461e-01) (297, -2.93447282165288925171e-02) (298, -1.16318836808204650879e-01) (299, -1.45902812480926513672e-01) (300, -7.22949355840682983398e-02) (301, 1.19526451453566551208e-02) (302, -2.87225842475891113281e-02) (303, -1.11322902143001556396e-01) (304, 3.04147303104400634766e-02) (305, 5.26095181703567504883e-02) (306, -4.22974564135074615479e-02) (307, -5.68963848054409027100e-02) (308, 8.73785987496376037598e-02) (309, -7.69507214426994323730e-02) (310, -3.43098752200603485107e-02) (311, -3.82747995899990200996e-04) (312, -7.71320685744285583496e-02) (313, -7.57146328687667846680e-02) (314, -8.05333778262138366699e-02) (315, -5.56007511913776397705e-02) (316, 1.33794650435447692871e-01) (317, -1.02579342201352119446e-02) (318, -8.59972983598709106445e-02) (319, 6.12406525760889053345e-03) (320, -6.24052388593554496765e-03) (321, -4.03365157544612884521e-02) (322, -9.75681841373443603516e-02) (323, -6.14488683640956878662e-02) (324, -9.18050557374954223633e-02) (325, -7.23568499088287353516e-02) (326, -1.42151594161987304688e-01) (327, -8.29197019338607788086e-02) (328, -6.15550279617309570312e-02) (329, 4.98253516852855682373e-02) (330, 2.02429667115211486816e-02) (331, 1.83883197605609893799e-02) (332, -1.10877141356468200684e-01) (333, -7.75862187147140502930e-02) (334, -5.18445298075675964355e-02) (335, -8.15054178237915039062e-02) (336, -7.88039416074752807617e-02) (337, 2.02190820127725601196e-02) (338, -4.96552698314189910889e-02) (339, -1.29601597785949707031e-01) (340, 2.56166569888591766357e-02) (341, 1.18088722229003906250e-02) (342, 3.87743301689624786377e-02) (343, 6.63257297128438949585e-03) (344, -1.70848220586776733398e-02) (345, 1.89984962344169616699e-03) (346, 8.21830332279205322266e-02) (347, 1.82427749037742614746e-01) (348, 1.02442383766174316406e-01) (349, 1.02989532053470611572e-01) (350, 1.34630557149648666382e-02) (351, 1.41061665490269660950e-02) (352, 1.11242689192295074463e-01) (353, 1.77328418940305709839e-02) (354, 1.80481690913438796997e-02) (355, 2.75750271975994110107e-03) (356, -1.28586336970329284668e-01) (357, -1.14037640392780303955e-01) (358, 5.82448812201619148254e-03) (359, -1.07316702604293823242e-01) (360, 6.15108152851462364197e-03) (361, 8.41700937598943710327e-03) (362, -3.91429141163825988770e-02) (363, -9.35136303305625915527e-02) (364, 8.17675068974494934082e-02) (365, 2.07108613103628158569e-02) (366, -9.05758589506149291992e-02) (367, -1.09912492334842681885e-01) (368, -4.42942231893539428711e-02) (369, -2.35093813389539718628e-02) (370, -6.90694227814674377441e-02) (371, 1.31405636668205261230e-01) (372, -4.89338487386703491211e-02) (373, 1.07769198715686798096e-01) (374, 1.21684297919273376465e-01) (375, 2.13455364108085632324e-01) (376, 1.63813620805740356445e-01) (377, 9.40729826688766479492e-02) (378, 7.98019543290138244629e-02) (379, 9.04945209622383117676e-02) (380, 1.45667046308517456055e-01) (381, 2.13049352169036865234e-01) (382, 1.01484976708889007568e-01) (383, 3.40225324034690856934e-02) (384, 4.96134832501411437988e-02) (385, 1.55957005918025970459e-02) (386, -1.09173700213432312012e-01) (387, -6.99559301137924194336e-02) (388, -2.41457484662532806396e-02) (389, -9.69981476664543151855e-02) (390, 5.55482991039752960205e-02) (391, -2.16806232929229736328e-02) (392, 6.13637790083885192871e-02) (393, -7.26794749498367309570e-02) (394, -1.76868028938770294189e-02) (395, 4.40546311438083648682e-02) (396, 8.11270847916603088379e-02) (397, 3.25387679040431976318e-02) (398, 9.40705314278602600098e-02) (399, 1.12162269651889801025e-01) (400, 7.93700739741325378418e-02) (401, 4.70531769096851348877e-02) (402, 1.70681327581405639648e-01) (403, 3.51446010172367095947e-02) (404, 1.33473023772239685059e-01) (405, 1.71679705381393432617e-01) (406, 5.83900772035121917725e-02) (407, -7.16747390106320381165e-03) (408, 1.00348502397537231445e-01) (409, 5.07160834968090057373e-02) (410, 1.01675584912300109863e-01) (411, 8.87472853064537048340e-02) (412, 9.54954996705055236816e-02) (413, -5.82345202565193176270e-02) (414, 1.11936731263995170593e-02) (415, -9.22893509268760681152e-02) (416, 4.94481809437274932861e-03) (417, 4.46209870278835296631e-02) (418, 2.11604833602905273438e-02) (419, -1.82267725467681884766e-02) (420, 8.03986713290214538574e-02) (421, -1.81426517665386199951e-02) (422, 5.98983801901340484619e-02) (423, 3.88753451406955718994e-02) (424, 3.82534116506576538086e-02) (425, -7.79113844037055969238e-02) (426, -3.48358415067195892334e-02) (427, -5.52731528878211975098e-02) (428, 3.90277318656444549561e-02) (429, -6.14095441997051239014e-02) (430, -3.87376286089420318604e-02) (431, 1.11216880381107330322e-01) (432, 2.15429753065109252930e-01) (433, -1.03567242622375488281e-02) (434, 1.84274330735206604004e-01) (435, 2.30322182178497314453e-01) (436, 1.37095212936401367188e-01) (437, 7.91044309735298156738e-02) (438, 1.88939291983842849731e-02) (439, 2.38879825919866561890e-02) (440, -3.58641482889652252197e-02) (441, -9.03048068284988403320e-02) (442, -2.54854392260313034058e-02) (443, -1.15008018910884857178e-01) (444, -7.15143308043479919434e-02) (445, -8.64222347736358642578e-02) (446, -2.53165811300277709961e-02) (447, -5.32951727509498596191e-02) (448, 9.21844616532325744629e-02) (449, -9.16955843567848205566e-02) (450, 2.66802255064249038696e-02) (451, 5.39925545454025268555e-02) (452, -5.22960834205150604248e-02) (453, -9.10791680216789245605e-02) (454, -6.16884231567382812500e-02) (455, 8.57625305652618408203e-02) (456, 4.95459698140621185303e-02) (457, 1.19541719555854797363e-01) (458, 5.68967126309871673584e-02) (459, 1.37669667601585388184e-01) (460, 1.11802585422992706299e-01) (461, 1.03004537522792816162e-01) (462, 7.55382329225540161133e-02) (463, 1.29110455513000488281e-01) (464, 2.29006171226501464844e-01) (465, 1.13404639065265655518e-01) (466, 1.13762788474559783936e-01) (467, 3.82230281829833984375e-02) (468, -5.31329065561294555664e-02) (469, -1.21447540819644927979e-01) (470, -1.68734759092330932617e-01) (471, -1.53064087033271789551e-01) (472, -3.91847901046276092529e-02) (473, -1.14093506708741188049e-02) (474, -6.13747574388980865479e-02) (475, -9.61063355207443237305e-02) (476, 5.92162683606147766113e-02) (477, 3.20817157626152038574e-02) (478, -5.24541474878787994385e-02) (479, 2.88992188870906829834e-02) (480, -4.13785278797149658203e-02) (481, -1.33331920951604843140e-02) (482, -1.09527751803398132324e-01) (483, -8.93293395638465881348e-02) (484, 2.85119842737913131714e-02) (485, 3.14076766371726989746e-02) (486, 1.88854783773422241211e-02) (487, 2.31221057474613189697e-02) (488, 1.03235088288784027100e-01) (489, 1.94539725780487060547e-01) (490, 1.32729455828666687012e-01) (491, 8.34879726171493530273e-02) (492, 2.10892066359519958496e-01) (493, 7.21708312630653381348e-02) (494, -1.11481375992298126221e-01) (495, -1.04280397295951843262e-01) (496, -1.58454135060310363770e-01) (497, -3.00716966390609741211e-01) (498, -2.19047322869300842285e-01) (499, -9.98767539858818054199e-02) (500, -6.57997354865074157715e-02) (501, -6.15381002426147460938e-02) (502, -3.17641571164131164551e-02) (503, -8.63791033625602722168e-02) (504, 9.15495827794075012207e-02) (505, 2.89318040013313293457e-02) (506, -8.57557803392410278320e-02) (507, 2.38093845546245574951e-02) (508, -1.23998723924160003662e-01) (509, -1.29600793123245239258e-01) (510, -1.25506073236465454102e-01) (511, -2.49359250068664550781e-01) (512, -1.71824187040328979492e-01) (513, -1.71431347727775573730e-01) (514, -1.08615033328533172607e-01) (515, -3.28267179429531097412e-02) (516, 2.66874488443136215210e-02) (517, 1.87254808843135833740e-02) (518, 7.90652185678482055664e-02) (519, -2.01423168182373046875e-02) (520, -4.98549304902553558350e-02) (521, -2.74327903985977172852e-01) (522, -1.84123963117599487305e-01) (523, -1.32588058710098266602e-01) (524, -1.42739936709403991699e-01) (525, -2.62375712394714355469e-01) (526, -2.00338661670684814453e-01) (527, -8.25231373310089111328e-02) (528, -5.43556474149227142334e-02) (529, 9.88246779888868331909e-03) (530, 9.09874811768531799316e-02) (531, 8.90463069081306457520e-02) (532, 8.82696583867073059082e-02) (533, -2.50803977251052856445e-02) (534, -1.01784273982048034668e-01) (535, 5.69996275007724761963e-02) (536, -1.44208148121833801270e-01) (537, -1.86156630516052246094e-01) (538, -1.65635824203491210938e-01) (539, -3.22455227375030517578e-01) (540, -3.37401926517486572266e-01) (541, -3.33957046270370483398e-01) (542, -2.40017965435981750488e-01) (543, -1.72225847840309143066e-01) (544, -2.44954824447631835938e-01) (545, -1.06826916337013244629e-01) (546, -1.11643388867378234863e-01) (547, 4.33550216257572174072e-03) (548, -4.46610115468502044678e-02) (549, -1.27444326877593994141e-01) (550, -2.55686640739440917969e-01) (551, -1.52224928140640258789e-01) (552, -2.81237214803695678711e-02) (553, -3.63006815314292907715e-02) (554, -1.57636255025863647461e-01) (555, -3.07872276753187179565e-02) (556, -6.91294297575950622559e-02) (557, 1.09491031616926193237e-02) (558, -5.08283078670501708984e-02) (559, 3.81961762905120849609e-02) (560, -6.60309046506881713867e-02) (561, -5.83623908460140228271e-02) (562, 2.34316494315862655640e-02) (563, -9.27444323897361755371e-02) (564, -2.93199289590120315552e-02) (565, -7.72220566868782043457e-02) (566, -2.75805056095123291016e-01) (567, -2.11871594190597534180e-01) (568, -2.04643666744232177734e-01) (569, -1.92437499761581420898e-01) (570, -1.33913293480873107910e-01) (571, -2.40176320075988769531e-01) (572, -1.24212592840194702148e-01) (573, -2.03816965222358703613e-01) (574, -1.34966030716896057129e-01) (575, -1.33037075400352478027e-01) (576, -6.49429336190223693848e-02) (577, -1.76564693450927734375e-01) (578, -9.16019752621650695801e-02) (579, -1.82319477200508117676e-01) (580, -1.71502441167831420898e-01) (581, -3.27930636703968048096e-02) (582, -1.42218291759490966797e-01) (583, -8.67691412568092346191e-02) (584, 3.83640863001346588135e-02) (585, -2.97531355172395706177e-02) (586, 1.00109480321407318115e-01) (587, -7.98468589782714843750e-02) (588, 8.46114829182624816895e-02) (589, -5.09976707398891448975e-02) (590, 5.57630285620689392090e-02) (591, -8.99128541350364685059e-02) (592, -4.32761162519454956055e-02) (593, -1.03804782032966613770e-01) (594, -1.97271957993507385254e-01) (595, -2.54734426736831665039e-01) (596, -2.14511618018150329590e-01) (597, -1.76047518849372863770e-01) (598, -5.27833215892314910889e-02) (599, -7.37608820199966430664e-02) (600, -6.57338351011276245117e-02) (601, -9.88297984004020690918e-02) (602, -1.46877318620681762695e-01) (603, -8.83474424481391906738e-02) (604, -4.37388010323047637939e-02) (605, -1.54007762670516967773e-01) (606, -2.37012878060340881348e-02) (607, -1.38728886842727661133e-01) (608, -9.28322374820709228516e-02) (609, -6.43465444445610046387e-02) (610, -8.80435779690742492676e-02) (611, -1.17363899946212768555e-01) (612, -2.40310057997703552246e-02) (613, -5.27820847928524017334e-02) (614, -3.48758138716220855713e-02) (615, -4.56133373081684112549e-02) (616, 1.42844691872596740723e-02) (617, -3.51957529783248901367e-02) (618, -2.55474969744682312012e-02) (619, -6.94921147078275680542e-03) (620, -3.97202605381608009338e-03) (621, -1.09487280249595642090e-01) (622, -7.32379332184791564941e-02) (623, -1.58630535006523132324e-01) (624, -9.96698345988988876343e-03) (625, -4.10875789821147918701e-02) (626, -2.42065057158470153809e-01) (627, -1.37922450900077819824e-01) (628, -1.94410607218742370605e-01) (629, -4.80045005679130554199e-02) (630, -8.82603824138641357422e-02) (631, -6.32676109671592712402e-03) (632, -7.82983154058456420898e-02) (633, 1.26070212572813034058e-02) (634, -1.99660677462816238403e-02) (635, -1.45030498504638671875e-01) (636, -1.68093144893646240234e-01) (637, -6.31864741444587707520e-02) (638, 3.13653796911239624023e-02) (639, 5.10375984013080596924e-02) (640, 1.08567893505096435547e-01) (641, 6.24653287231922149658e-02) (642, 4.01129014790058135986e-02) (643, -1.82870477437973022461e-02) (644, 9.84464958310127258301e-02) (645, -9.48702096939086914062e-02) (646, 3.60940992832183837891e-02) (647, 5.76731981709599494934e-03) (648, -4.58383969962596893311e-02) (649, -9.18917059898376464844e-02) (650, -9.41663756966590881348e-02) (651, 1.06314770877361297607e-01) (652, -9.70716774463653564453e-03) (653, 1.32818780839443206787e-02) (654, -3.09727229177951812744e-02) (655, -2.52725314348936080933e-02) (656, -8.42471271753311157227e-02) (657, -2.52409675158560276031e-03) (658, -1.33072137832641601562e-01) (659, -5.03013879060745239258e-02) (660, 1.23590957373380661011e-02) (661, 1.22162617743015289307e-01) (662, 5.17624709755182266235e-03) (663, 1.38224035501480102539e-01) (664, 3.74691970646381378174e-02) (665, 5.31480461359024047852e-02) (666, -6.53832554817199707031e-02) (667, 7.43148550391197204590e-02) (668, -2.50658616423606872559e-02) (669, 3.87601889669895172119e-02) (670, -1.86204928904771804810e-02) (671, -3.85923795402050018311e-02) (672, -6.66669756174087524414e-03) (673, -7.83042237162590026855e-02) (674, 4.31205704808235168457e-02) (675, -1.34874479845166206360e-02) (676, -8.75791385769844055176e-02) (677, -1.73648148775100708008e-02) (678, -4.79080155491828918457e-02) (679, 5.64560852944850921631e-03) (680, -5.26201538741588592529e-02) (681, -1.36611983180046081543e-01) (682, -9.44314301013946533203e-02) (683, -1.61746684461832046509e-02) (684, -6.61790557205677032471e-03) (685, -7.17505961656570434570e-02) (686, -6.88725411891937255859e-02) (687, -1.54154375195503234863e-01) (688, -8.46863165497779846191e-02) (689, 2.59824376553297042847e-02) (690, 4.79776365682482719421e-03) (691, -7.74213075637817382812e-02) (692, 6.15162476897239685059e-02) (693, 6.85460716485977172852e-02) (694, 1.18154309689998626709e-01) (695, 3.57235744595527648926e-02) (696, 7.51555487513542175293e-02) (697, -9.34369340538978576660e-02) (698, -3.95737849175930023193e-02) (699, -6.49508163332939147949e-02) (700, 4.50388863682746887207e-02) (701, 4.19043079018592834473e-02) (702, -3.54319810867309570312e-03) (703, -6.18484467267990112305e-02) (704, 6.24007098376750946045e-02) (705, -4.79341596364974975586e-02) (706, 3.18488292396068572998e-02) (707, 6.00645020604133605957e-02) (708, 4.03662817552685737610e-03) (709, -1.31258312612771987915e-02) (710, -7.38272890448570251465e-02) (711, -1.39947101473808288574e-01) (712, -5.15205450356006622314e-02) (713, -3.13159599900245666504e-02) (714, -4.21899894718080759048e-04) (715, 1.07453092932701110840e-02) (716, -1.22060112655162811279e-01) (717, -1.88152939081192016602e-01) (718, -5.90924806892871856689e-02) (719, -4.25950400531291961670e-02) (720, -8.72744247317314147949e-02) (721, -7.33264759182929992676e-02) (722, 1.06754526495933532715e-02) (723, 1.03639870882034301758e-01) (724, -5.85417561233043670654e-02) (725, 1.12972259521484375000e-02) (726, -3.68528813123703002930e-03) (727, -9.42727699875831604004e-02) (728, 1.78602933883666992188e-02) (729, 5.67409321665763854980e-02) (730, -5.92235811054706573486e-02) (731, -3.56207489967346191406e-02) (732, 9.89675056189298629761e-03) (733, 4.45196628570556640625e-02) (734, -8.63015558570623397827e-03) (735, -6.80084750056266784668e-02) (736, 7.07330107688903808594e-02) (737, -6.09586127102375030518e-02) (738, -6.68980553746223449707e-02) (739, -2.78473813086748123169e-02) (740, -1.63561142981052398682e-02) (741, -5.08668906986713409424e-02) (742, -7.25760832428932189941e-02) (743, -3.53900194168090820312e-02) (744, -3.06151788681745529175e-02) (745, -1.17596760392189025879e-01) (746, -1.17480337619781494141e-01) (747, 2.88139618933200836182e-02) (748, -3.40938642621040344238e-02) (749, 1.48899639025330543518e-02) (750, -6.30696639418601989746e-02) (751, -1.94480083882808685303e-02) (752, 9.15045961737632751465e-02) (753, 6.12952783703804016113e-02) (754, -3.61667275428771972656e-02) (755, -7.21217691898345947266e-02) (756, -2.74075120687484741211e-02) (757, 6.01479783654212951660e-02) (758, -6.63945376873016357422e-02) (759, 9.04527977108955383301e-02) (760, 1.68889015913009643555e-02) (761, -2.79262140393257141113e-02) (762, -5.24482764303684234619e-02) (763, -9.57367941737174987793e-02) (764, -9.27714332938194274902e-02) (765, 5.47400228679180145264e-02) (766, -3.09062227606773376465e-02) (767, 7.49301165342330932617e-02) (768, 6.92589879035949707031e-02) (769, 1.83572936803102493286e-02) (770, -2.59107947349548339844e-02) (771, 5.53454458713531494141e-02) (772, -3.48381511867046356201e-02) (773, 8.22400376200675964355e-02) (774, -2.85248067229986190796e-02) (775, 7.35339298844337463379e-02) (776, -7.24444836378097534180e-02) (777, -2.93546263128519058228e-02) (778, 1.45151177421212196350e-02) (779, 9.23706591129302978516e-03) (780, -7.64430463314056396484e-02) (781, 7.05686584115028381348e-02) (782, 9.26538631319999694824e-02) (783, -8.49384516477584838867e-02) (784, -8.33779275417327880859e-02) (0, -4.35128770768642425537e-02) (1, -5.70602230727672576904e-02) (2, -9.55435857176780700684e-02) (3, -8.33648890256881713867e-02) (4, -2.34547629952430725098e-02) (5, 9.49091985821723937988e-02) (6, 3.35240289568901062012e-02) (7, 5.09271249175071716309e-02) (8, -5.17388395965099334717e-02) (9, 4.90581616759300231934e-02) (10, 6.25422224402427673340e-02) (11, -9.71155241131782531738e-02) (12, -7.31623694300651550293e-02) (13, 5.09679242968559265137e-02) (14, 8.89311358332633972168e-02) (15, 5.72880581021308898926e-02) (16, -6.49982169270515441895e-02) (17, 4.10638526082038879395e-02) (18, -7.24052935838699340820e-02) (19, -7.66990184783935546875e-02) (20, -8.99169668555259704590e-02) (21, -9.45569202303886413574e-02) (22, -4.31742183864116668701e-02) (23, -7.96984136104583740234e-03) (24, 2.72060558199882507324e-02) (25, 6.60628601908683776855e-02) (26, 1.55871063470840454102e-02) (27, -2.22529470920562744141e-03) (28, 5.87167069315910339355e-02) (29, 3.06486561894416809082e-02) (30, -7.03613683581352233887e-02) (31, -8.47961679100990295410e-02) (32, 7.35884383320808410645e-02) (33, -6.59049600362777709961e-02) (34, -6.81610554456710815430e-02) (35, -4.98663261532783508301e-02) (36, -7.09957554936408996582e-02) (37, 6.53629675507545471191e-02) (38, -9.89513620734214782715e-02) (39, -2.28098556399345397949e-02) (40, 1.37576851993799209595e-02) (41, 6.11031800508499145508e-02) (42, -2.27205343544483184814e-02) (43, 3.86152677237987518311e-02) (44, 2.55321543663740158081e-02) (45, -3.18667329847812652588e-02) (46, -2.91582266800105571747e-03) (47, 4.87826056778430938721e-02) (48, -9.17900502681732177734e-02) (49, 2.53616832196712493896e-02) (50, 7.26759284734725952148e-02) (51, -7.97720924019813537598e-02) (52, 3.15846130251884460449e-02) (53, -7.03004971146583557129e-02) (54, 1.22580677270889282227e-02) (55, -4.12093400955200195312e-02) (56, 9.57623496651649475098e-02) (57, -7.21548274159431457520e-02) (58, 5.65653666853904724121e-02) (59, 5.44790700078010559082e-02) (60, 5.84938302636146545410e-02) (61, 8.62039998173713684082e-02) (62, 6.96829035878181457520e-02) (63, 3.27445007860660552979e-02) (64, -7.85220488905906677246e-02) (65, -1.05804562568664550781e-01) (66, 8.18328112363815307617e-02) (67, -5.14186322689056396484e-02) (68, 7.55997300148010253906e-02) (69, 8.70440527796745300293e-02) (70, 1.82867608964443206787e-02) (71, -4.33605350553989410400e-02) (72, -1.02187390439212322235e-03) (73, -1.59669786691665649414e-01) (74, -1.55086681246757507324e-01) (75, -9.66368094086647033691e-02) (76, -4.60659675300121307373e-02) (77, 1.19991376996040344238e-02) (78, -9.30505022406578063965e-02) (79, -1.34784830734133720398e-02) (80, -5.25002479553222656250e-02) (81, 8.38971808552742004395e-02) (82, 6.17238134145736694336e-03) (83, 7.88376405835151672363e-02) (84, -8.64033252000808715820e-02) (85, -8.15695524215698242188e-02) (86, -6.23717047274112701416e-02) (87, -9.06409770250320434570e-02) (88, -5.37243820726871490479e-02) (89, 9.44920703768730163574e-02) (90, 6.19500279426574707031e-02) (91, -9.07391756772994995117e-02) (92, 8.89955461025238037109e-02) (93, 5.40085881948471069336e-02) (94, 6.91377967596054077148e-02) (95, -4.79394085705280303955e-02) (96, 8.18391144275665283203e-02) (97, 7.43792057037353515625e-02) (98, -3.48667204380035400391e-02) (99, -3.13264355063438415527e-02) (100, -8.92862901091575622559e-02) (101, -5.64028397202491760254e-02) (102, -9.23841893672943115234e-02) (103, -2.21008047461509704590e-01) (104, -1.55635653063654899597e-02) (105, -1.40331193804740905762e-01) (106, -1.17181278765201568604e-02) (107, -4.27787676453590393066e-02) (108, 3.25947180390357971191e-02) (109, 2.16983407735824584961e-02) (110, 4.50313612818717956543e-02) (111, 7.41627737879753112793e-02) (112, 5.59550523757934570312e-03) (113, -4.87962663173675537109e-02) (114, 5.30003979802131652832e-02) (115, 1.91700942814350128174e-02) (116, -3.17271091043949127197e-02) (117, 8.51674303412437438965e-02) (118, 2.76179034262895584106e-02) (119, 2.66968589276075363159e-02) (120, 1.15767739713191986084e-01) (121, 4.99445199966430664062e-02) (122, 7.96769261360168457031e-02) (123, 1.64828836917877197266e-01) (124, 6.76515921950340270996e-02) (125, 1.15303106606006622314e-01) (126, 2.05230236053466796875e-01) (127, 1.32635191082954406738e-01) (128, 8.32659527659416198730e-02) (129, -6.82350322604179382324e-02) (130, -4.38221991062164306641e-02) (131, -1.24876089394092559814e-01) (132, 1.00991688668727874756e-02) (133, -7.62901157140731811523e-02) (134, -2.88135302253067493439e-03) (135, 7.23425075411796569824e-02) (136, -4.05063144862651824951e-02) (137, -6.03888966143131256104e-02) (138, -6.51404112577438354492e-02) (139, 7.88222327828407287598e-02) (140, 6.05404153466224670410e-02) (141, 7.98909440636634826660e-02) (142, 5.26214428246021270752e-02) (143, -3.45185063779354095459e-02) (144, -7.51562342047691345215e-02) (145, -6.13920902833342552185e-03) (146, 7.90539905428886413574e-02) (147, 5.37138374056667089462e-04) (148, 3.02314627915620803833e-02) (149, 6.46244511008262634277e-02) (150, -2.82111186534166336060e-02) (151, 9.67137664556503295898e-02) (152, 1.77235845476388931274e-02) (153, 1.20407767593860626221e-01) (154, 2.12088525295257568359e-02) (155, -4.65289652347564697266e-02) (156, 5.35417459905147552490e-02) (157, -1.00930437445640563965e-01) (158, 7.88039714097976684570e-02) (159, 1.85485314577817916870e-02) (160, -8.00451412796974182129e-02) (161, -2.86800730973482131958e-02) (162, -4.90207895636558532715e-02) (163, -9.08624231815338134766e-02) (164, -2.67205620184540748596e-03) (165, 7.38775879144668579102e-02) (166, 9.42409113049507141113e-02) (167, 5.40465377271175384521e-02) (168, -8.26002508401870727539e-02) (169, -6.83923214673995971680e-02) (170, 3.23078744113445281982e-02) (171, 7.53864794969558715820e-02) (172, -9.17528420686721801758e-02) (173, -2.46208515018224716187e-02) (174, -7.09043219685554504395e-02) (175, -3.45241874456405639648e-02) (176, 1.13809458911418914795e-01) (177, -2.92263757437467575073e-02) (178, 1.46241918206214904785e-01) (179, 9.27276238799095153809e-02) (180, 1.33619025349617004395e-01) (181, 1.42341792583465576172e-01) (182, 1.84550628066062927246e-01) (183, 1.85854718089103698730e-01) (184, 1.60516992211341857910e-01) (185, 9.62077081203460693359e-02) (186, 1.98269814252853393555e-01) (187, 8.04557353258132934570e-02) (188, -3.06313689798116683960e-02) (189, 8.93023312091827392578e-02) (190, -4.49836701154708862305e-02) (191, -7.28922486305236816406e-02) (192, -8.49737450480461120605e-02) (193, -1.27780884504318237305e-02) (194, -2.89235264062881469727e-02) (195, 2.57951915264129638672e-02) (196, -7.47599871829152107239e-03) (197, -2.50114630907773971558e-02) (198, -1.26283485442399978638e-02) (199, 1.12358238548040390015e-02) (200, 1.18927778676152229309e-02) (201, -7.75714442133903503418e-02) (202, 5.81481261178851127625e-03) (203, 1.16770923137664794922e-01) (204, 1.02419547736644744873e-01) (205, 9.28383916616439819336e-02) (206, 1.79896101355552673340e-01) (207, 1.34850338101387023926e-01) (208, 2.25222840905189514160e-01) (209, 2.15894505381584167480e-01) (210, 3.14094722270965576172e-01) (211, 3.48829269409179687500e-01) (212, 2.78003960847854614258e-01) (213, 2.65248924493789672852e-01) (214, 1.30846083164215087891e-01) (215, 2.52918094396591186523e-01) (216, 1.80105090141296386719e-01) (217, -2.62964889407157897949e-02) (218, -5.17894662916660308838e-02) (219, -9.32565480470657348633e-02) (220, -8.74170213937759399414e-02) (221, 1.85985136777162551880e-02) (222, -3.98941338062286376953e-02) (223, -6.35605975985527038574e-02) (224, -6.87416717410087585449e-02) (225, 3.76530699431896209717e-02) (226, 7.49655142426490783691e-02) (227, 2.94509977102279663086e-02) (228, -7.27935954928398132324e-02) (229, -1.47990626282989978790e-03) (230, 4.10354603081941604614e-03) (231, 1.42221421003341674805e-01) (232, 9.42989662289619445801e-02) (233, 1.17979414761066436768e-01) (234, 1.02733582258224487305e-01) (235, 2.23139122128486633301e-01) (236, 1.47247105836868286133e-01) (237, 2.85015136003494262695e-01) (238, 2.19893455505371093750e-01) (239, 2.10577189922332763672e-01) (240, 2.36577332019805908203e-01) (241, 2.05660983920097351074e-01) (242, 2.63314157724380493164e-01) (243, 2.28777050971984863281e-01) (244, 7.23439007997512817383e-02) (245, 1.27198085188865661621e-01) (246, 6.37279152870178222656e-02) (247, 1.28872260451316833496e-01) (248, -7.30533376336097717285e-02) (249, 1.00305110216140747070e-01) (250, -9.39217880368232727051e-02) (251, -7.13327154517173767090e-02) (252, 7.06999562680721282959e-04) (253, -3.71599234640598297119e-02) (254, -3.09548191726207733154e-02) (255, 4.83730174601078033447e-02) (256, 1.15356214344501495361e-01) (257, -1.26061197370290756226e-02) (258, 3.74400168657302856445e-02) (259, 2.51305233687162399292e-02) (260, 6.90667629241943359375e-02) (261, 1.16399228572845458984e-01) (262, 1.41907393932342529297e-01) (263, 1.65445819497108459473e-01) (264, -1.41389584168791770935e-02) (265, 1.74490660429000854492e-01) (266, 2.67599403858184814453e-01) (267, 2.05884844064712524414e-01) (268, 2.07735463976860046387e-01) (269, 1.70818313956260681152e-01) (270, 1.99583932757377624512e-01) (271, 8.09778720140457153320e-02) (272, 1.04398898780345916748e-01) (273, 1.57230764627456665039e-01) (274, 3.68795217946171760559e-03) (275, 9.39942225813865661621e-02) (276, 8.94622430205345153809e-02) (277, 6.11807405948638916016e-02) (278, 5.36614991724491119385e-02) (279, 8.13496634364128112793e-02) (280, 5.37965968251228332520e-02) (281, 5.61712458729743957520e-02) (282, -8.79049226641654968262e-02) (283, -3.35966609418392181396e-02) (284, -6.45874440670013427734e-02) (285, 2.40427702665328979492e-02) (286, 1.69599726796150207520e-01) (287, -2.99574825912714004517e-02) (288, 9.68125276267528533936e-03) (289, -1.59698687493801116943e-02) (290, -3.62258851528167724609e-02) (291, 8.05358663201332092285e-02) (292, -1.39626674354076385498e-02) (293, 1.12396255135536193848e-01) (294, 2.39622190594673156738e-01) (295, 2.21066296100616455078e-01) (296, 1.58833712339401245117e-01) (297, 1.73029094934463500977e-01) (298, 9.09707844257354736328e-02) (299, 1.21551878750324249268e-01) (300, 1.43564239144325256348e-01) (301, 6.76523819565773010254e-02) (302, 1.41566812992095947266e-01) (303, 7.24512860178947448730e-02) (304, -2.07128860056400299072e-02) (305, -1.14339880645275115967e-01) (306, -2.97185275703668594360e-02) (307, -4.21670153737068176270e-02) (308, 7.14736357331275939941e-02) (309, -7.68216103315353393555e-02) (310, -5.75336068868637084961e-02) (311, 2.13966947048902511597e-02) (312, 8.18512365221977233887e-02) (313, -1.30754429847002029419e-02) (314, 1.18431180715560913086e-01) (315, 9.14634913206100463867e-02) (316, -4.00463379919528961182e-02) (317, 2.46754917316138744354e-03) (318, 9.65570390690118074417e-04) (319, -1.78983896970748901367e-01) (320, -1.39345660805702209473e-01) (321, -6.05037324130535125732e-02) (322, -2.44169402867555618286e-02) (323, 1.89953133463859558105e-01) (324, 9.06910523772239685059e-02) (325, 1.27520084381103515625e-01) (326, 5.72862662374973297119e-02) (327, 1.47266760468482971191e-02) (328, 1.13700389862060546875e-01) (329, 2.96487044543027877808e-02) (330, 9.44708883762359619141e-02) (331, 5.49952015280723571777e-02) (332, 7.03248679637908935547e-02) (333, 3.24644558131694793701e-02) (334, -4.74003255367279052734e-02) (335, -3.83828990161418914795e-02) (336, 2.71174982190132141113e-02) (337, 2.43033859878778457642e-02) (338, 2.09769811481237411499e-02) (339, -9.35248006135225296021e-03) (340, 4.99532483518123626709e-02) (341, 7.26534277200698852539e-02) (342, -8.42351019382476806641e-02) (343, -5.45302554965019226074e-02) (344, -1.55144214630126953125e-01) (345, -2.08937466144561767578e-01) (346, -1.36582896113395690918e-01) (347, -1.46212235093116760254e-01) (348, -7.30095803737640380859e-02) (349, -5.71939833462238311768e-02) (350, 2.59476881474256515503e-02) (351, 1.16502925753593444824e-01) (352, -3.30569557845592498779e-02) (353, -8.94981622695922851562e-03) (354, -1.56939979642629623413e-02) (355, -6.15005288273096084595e-03) (356, 1.31388250738382339478e-02) (357, -8.79522338509559631348e-02) (358, 3.37829180061817169189e-02) (359, -7.12558552622795104980e-02) (360, -4.14933972060680389404e-02) (361, 1.03538222610950469971e-02) (362, 7.85079672932624816895e-02) (363, -3.30558829009532928467e-02) (364, -7.31509104371070861816e-02) (365, -7.42843523621559143066e-02) (366, 3.43004502356052398682e-02) (367, 6.77455067634582519531e-02) (368, 5.45117780566215515137e-02) (369, -7.99606069922447204590e-02) (370, -9.27080884575843811035e-02) (371, -9.75122228264808654785e-02) (372, -1.87610104680061340332e-01) (373, -1.54686242341995239258e-01) (374, -2.52945125102996826172e-01) (375, -2.90699750185012817383e-01) (376, -2.12111264467239379883e-01) (377, -1.71447880566120147705e-02) (378, -3.62163153477013111115e-03) (379, -2.97555271536111831665e-02) (380, -9.11688655614852905273e-02) (381, -1.25907137989997863770e-01) (382, -1.03955730795860290527e-01) (383, -3.24204713106155395508e-02) (384, -5.89496754109859466553e-02) (385, -8.33687745034694671631e-03) (386, 3.56745831668376922607e-02) (387, -8.15304219722747802734e-02) (388, -1.74821205437183380127e-02) (389, -1.95560660213232040405e-02) (390, 1.18180131539702415466e-02) (391, -6.11603036522865295410e-02) (392, 9.95363071560859680176e-02) (393, -1.83648988604545593262e-02) (394, 6.10154541209340095520e-03) (395, -6.39109686017036437988e-02) (396, 2.45273131877183914185e-02) (397, -1.13890156149864196777e-01) (398, -3.70958074927330017090e-02) (399, -1.86800643801689147949e-01) (400, -1.55958205461502075195e-01) (401, -2.09331631660461425781e-01) (402, -9.64048802852630615234e-02) (403, -2.04835608601570129395e-01) (404, -1.29893377423286437988e-01) (405, 6.46995231509208679199e-02) (406, 4.95553622022271156311e-03) (407, 1.05690822005271911621e-01) (408, 1.22009841725230216980e-02) (409, -5.83800561726093292236e-02) (410, -1.85938701033592224121e-02) (411, -3.96961197257041931152e-02) (412, -1.41720831394195556641e-01) (413, -8.73326733708381652832e-02) (414, -1.33933946490287780762e-01) (415, -1.19061887264251708984e-01) (416, -1.27845585346221923828e-01) (417, 4.47722412645816802979e-02) (418, -1.67226232588291168213e-02) (419, 6.19885250926017761230e-02) (420, -2.96393334865570068359e-02) (421, 8.84821489453315734863e-02) (422, -1.00015513598918914795e-01) (423, -1.52223464101552963257e-02) (424, 1.61472315085120499134e-04) (425, 9.68094728887081146240e-03) (426, -1.18517734110355377197e-01) (427, -7.26955011487007141113e-02) (428, -1.28132134675979614258e-01) (429, -1.41436412930488586426e-01) (430, -1.19367934763431549072e-01) (431, -1.66111975908279418945e-01) (432, -4.03325147926807403564e-02) (433, -5.63339330255985260010e-02) (434, 1.58106591552495956421e-02) (435, -1.98288366198539733887e-01) (436, 3.76861095428466796875e-02) (437, -6.47032335400581359863e-02) (438, -7.03602209687232971191e-02) (439, -1.02400500327348709106e-02) (440, -3.46295982599258422852e-02) (441, -5.41802942752838134766e-02) (442, 5.85154294967651367188e-02) (443, -4.05427701771259307861e-02) (444, 1.93185359239578247070e-02) (445, 9.69200953841209411621e-02) (446, 3.64547520875930786133e-02) (447, 2.91679520159959793091e-02) (448, 5.62373474240303039551e-02) (449, 9.25206467509269714355e-02) (450, -9.56932920962572097778e-03) (451, -6.10715858638286590576e-02) (452, 1.24535456299781799316e-01) (453, 1.84608884155750274658e-02) (454, -1.64686646312475204468e-02) (455, -1.41619235277175903320e-01) (456, -7.27200135588645935059e-02) (457, -3.02633251994848251343e-02) (458, -1.92043766379356384277e-01) (459, -8.73874574899673461914e-02) (460, -1.23006120324134826660e-01) (461, -5.15271872282028198242e-02) (462, 2.15220707468688488007e-03) (463, 1.71089041978120803833e-02) (464, -8.25212523341178894043e-02) (465, -6.27867057919502258301e-02) (466, 9.26424115896224975586e-02) (467, -4.75124642252922058105e-03) (468, 1.52725316584110260010e-02) (469, -8.18592756986618041992e-02) (470, -9.45690460503101348877e-03) (471, 2.49501895159482955933e-02) (472, -3.20907011628150939941e-02) (473, 4.53981533646583557129e-02) (474, -2.72037573158740997314e-02) (475, 6.84992000460624694824e-02) (476, -1.07138976454734802246e-02) (477, 6.74316659569740295410e-02) (478, -2.15329043567180633545e-03) (479, -5.01156486570835113525e-02) (480, 1.13538697361946105957e-01) (481, 1.54498264193534851074e-01) (482, 2.73332046344876289368e-03) (483, -6.25095590949058532715e-02) (484, -2.14823544025421142578e-01) (485, -1.13247223198413848877e-01) (486, -7.89017602801322937012e-02) (487, -1.95234119892120361328e-01) (488, -2.76366155594587326050e-02) (489, -1.16142697632312774658e-01) (490, -7.46729671955108642578e-02) (491, -5.26850149035453796387e-02) (492, -5.14357201755046844482e-02) (493, 5.64670003950595855713e-02) (494, -1.75942778587341308594e-02) (495, 1.06829471886157989502e-01) (496, -3.78279946744441986084e-02) (497, -7.99102783203125000000e-02) (498, -6.10062703490257263184e-02) (499, 7.55544826388359069824e-02) (500, -4.71844933927059173584e-02) (501, 8.79221409559249877930e-02) (502, 6.38645365834236145020e-02) (503, -2.99464333802461624146e-02) (504, -4.13571968674659729004e-02) (505, -9.80669185519218444824e-02) (506, -6.07665777206420898438e-02) (507, 5.00605367124080657959e-02) (508, 1.15619681775569915771e-01) (509, 8.56558233499526977539e-02) (510, 1.81367233395576477051e-01) (511, 1.98509730398654937744e-02) (512, -1.09650239348411560059e-01) (513, -1.95888102054595947266e-01) (514, -1.65935620665550231934e-01) (515, -1.79074928164482116699e-01) (516, -9.74247306585311889648e-02) (517, -7.60827437043190002441e-02) (518, -6.08213320374488830566e-02) (519, 5.38917444646358489990e-02) (520, -4.62344288825988769531e-02) (521, 1.57714858651161193848e-02) (522, -2.57180947810411453247e-02) (523, 1.03183880448341369629e-01) (524, 2.38021835684776306152e-02) (525, 8.95388610661029815674e-03) (526, 1.25680446624755859375e-01) (527, 1.02363765239715576172e-01) (528, -5.39868092164397239685e-03) (529, 1.01653374731540679932e-01) (530, 7.40925371646881103516e-02) (531, -4.20484393835067749023e-02) (532, 3.57423201203346252441e-02) (533, 1.99875086545944213867e-02) (534, 2.47071329504251480103e-02) (535, 9.47573333978652954102e-02) (536, 5.68393655121326446533e-02) (537, 1.30576372146606445312e-01) (538, 1.45851120352745056152e-01) (539, 1.18381179869174957275e-01) (540, 5.82802705466747283936e-02) (541, 1.96509156376123428345e-02) (542, -1.58173888921737670898e-01) (543, -1.26087769865989685059e-01) (544, -1.59301981329917907715e-01) (545, -1.00576005876064300537e-01) (546, -1.43132820725440979004e-01) (547, -1.54456675052642822266e-01) (548, -3.75737622380256652832e-02) (549, 5.52230095490813255310e-03) (550, -4.13930751383304595947e-02) (551, 3.93949598073959350586e-02) (552, -5.33295646309852600098e-02) (553, 4.12190072238445281982e-02) (554, 1.82682787999510765076e-03) (555, 4.65176738798618316650e-02) (556, 2.27640513330698013306e-02) (557, 8.98382365703582763672e-02) (558, -4.31621476309373974800e-04) (559, 3.70315983891487121582e-02) (560, 6.35383799672126770020e-02) (561, -2.82151177525520324707e-02) (562, 9.39841493964195251465e-02) (563, -2.15989770367741584778e-03) (564, 1.19267143309116363525e-01) (565, 1.07584990561008453369e-01) (566, 1.37889340519905090332e-01) (567, 1.53865218162536621094e-01) (568, 8.12143310904502868652e-02) (569, 4.78333719074726104736e-02) (570, 1.64737310260534286499e-02) (571, 1.28029555082321166992e-01) (572, -2.96969879418611526489e-02) (573, -1.39268085360527038574e-01) (574, 2.77504958212375640869e-02) (575, -2.10895370692014694214e-02) (576, -2.36655864864587783813e-02) (577, -9.42721366882324218750e-02) (578, -3.85806709527969360352e-02) (579, 7.85708576440811157227e-02) (580, 5.75944744050502777100e-02) (581, -1.03141851723194122314e-02) (582, 7.02805146574974060059e-02) (583, 8.88893529772758483887e-02) (584, 4.24039214849472045898e-02) (585, 4.34387810528278350830e-02) (586, -3.39150279760360717773e-02) (587, 9.08901914954185485840e-02) (588, 1.89583748579025268555e-02) (589, 6.17642030119895935059e-02) (590, 2.81760394573211669922e-02) (591, -1.83302015066146850586e-02) (592, -4.26256135106086730957e-02) (593, 9.88349243998527526855e-02) (594, 2.34392255544662475586e-01) (595, 1.04313731193542480469e-01) (596, 1.00861519575119018555e-01) (597, 1.37668162584304809570e-01) (598, 1.54248386621475219727e-01) (599, 7.37647637724876403809e-02) (600, -1.76965668797492980957e-02) (601, -7.66284018754959106445e-03) (602, -1.88072174787521362305e-02) (603, -3.17064137198030948639e-03) (604, 2.69452687352895736694e-02) (605, -4.52390126883983612061e-02) (606, -5.40939569473266601562e-02) (607, 9.04506444931030273438e-03) (608, 3.43407094478607177734e-02) (609, 3.72351631522178649902e-02) (610, 1.20184704661369323730e-01) (611, -6.99123460799455642700e-03) (612, 3.39138247072696685791e-02) (613, -3.00126709043979644775e-02) (614, 8.17971006035804748535e-02) (615, -9.81603711843490600586e-02) (616, -9.47280451655387878418e-02) (617, -5.62295205891132354736e-02) (618, 9.27962884306907653809e-02) (619, 2.32796724885702133179e-02) (620, -8.95320102572441101074e-02) (621, 6.36993572115898132324e-02) (622, 1.58907268196344375610e-02) (623, 6.19566515088081359863e-02) (624, 8.35371837019920349121e-02) (625, 2.45333775877952575684e-01) (626, 7.35407024621963500977e-02) (627, 1.08164161443710327148e-01) (628, 9.11124646663665771484e-02) (629, 6.93406350910663604736e-03) (630, 2.31443960219621658325e-02) (631, 1.03081643581390380859e-01) (632, 6.66489750146865844727e-02) (633, 2.23187319934368133545e-02) (634, -5.22672422230243682861e-02) (635, 1.21830021962523460388e-02) (636, -7.44804292917251586914e-02) (637, 3.27559486031532287598e-02) (638, -7.42528364062309265137e-02) (639, 2.65061613172292709351e-02) (640, 9.14165526628494262695e-02) (641, 6.17825798690319061279e-02) (642, 4.65857721865177154541e-02) (643, -1.57265216112136840820e-02) (644, -7.24501311779022216797e-02) (645, 2.72494032979011535645e-02) (646, -1.38535145670175552368e-02) (647, -6.89766630530357360840e-02) (648, 6.93114548921585083008e-02) (649, -1.34500339627265930176e-02) (650, 9.38935205340385437012e-02) (651, 1.42900347709655761719e-01) (652, 1.72346204519271850586e-01) (653, 9.97810065746307373047e-02) (654, -6.38016220182180404663e-03) (655, 9.00012776255607604980e-02) (656, 2.14415475726127624512e-01) (657, 1.48515656590461730957e-01) (658, 1.83227494359016418457e-01) (659, 2.80125271528959274292e-02) (660, 7.95029774308204650879e-02) (661, 6.86879223212599754333e-03) (662, 6.07582516968250274658e-02) (663, -7.96334147453308105469e-02) (664, -7.16616511344909667969e-02) (665, -6.66682273149490356445e-02) (666, 6.18741922080516815186e-02) (667, -5.01207336783409118652e-02) (668, 6.52214139699935913086e-02) (669, 5.10195977985858917236e-02) (670, 5.87984547019004821777e-02) (671, 4.46091368794441223145e-02) (672, 1.04004144668579101562e-02) (673, 5.03113120794296264648e-03) (674, -7.11173936724662780762e-02) (675, 3.57047319412231445312e-02) (676, -7.07266330718994140625e-02) (677, 1.76152046769857406616e-02) (678, 9.62619557976722717285e-02) (679, -4.79005090892314910889e-02) (680, 1.31549105048179626465e-01) (681, 2.52207536250352859497e-02) (682, 1.16494171321392059326e-01) (683, 9.85644608736038208008e-02) (684, 1.85278356075286865234e-02) (685, 1.35943531990051269531e-01) (686, -2.28961464017629623413e-02) (687, 1.18206441402435302734e-02) (688, 3.67145165801048278809e-02) (689, 8.51683542132377624512e-02) (690, 1.09434118494391441345e-02) (691, 1.00388251245021820068e-01) (692, 2.64519453048706054688e-02) (693, -2.39738319069147109985e-02) (694, 1.19626000523567199707e-01) (695, 6.83556869626045227051e-02) (696, -5.12910701218061149120e-05) (697, 3.77380326390266418457e-02) (698, -9.37068238854408264160e-02) (699, -3.31947803497314453125e-02) (700, -1.13575905561447143555e-02) (701, 6.50648847222328186035e-02) (702, -8.85856524109840393066e-02) (703, 9.89511534571647644043e-02) (704, -2.97135077416896820068e-02) (705, -4.82718013226985931396e-02) (706, 6.50585144758224487305e-02) (707, 4.00876067578792572021e-02) (708, 9.72877740859985351562e-02) (709, 6.89285546541213989258e-02) (710, 1.40979200601577758789e-01) (711, 1.86162635684013366699e-01) (712, 5.88338114321231842041e-02) (713, 9.78218913078308105469e-02) (714, 1.48379072546958923340e-01) (715, 1.14486165344715118408e-01) (716, 8.69581848382949829102e-02) (717, 1.98983058333396911621e-01) (718, 2.00542077422142028809e-01) (719, 1.06790691614151000977e-01) (720, 7.65294358134269714355e-02) (721, -3.54039557278156280518e-02) (722, 2.64089480042457580566e-02) (723, -4.32238429784774780273e-02) (724, -1.72318685799837112427e-02) (725, 5.43844699859619140625e-03) (726, -8.48469957709312438965e-02) (727, 8.47867950797080993652e-02) (728, -5.68235293030738830566e-02) (729, -7.85538181662559509277e-02) (730, -4.84079904854297637939e-02) (731, 3.25544029474258422852e-02) (732, 9.18574556708335876465e-02) (733, -3.30130532383918762207e-02) (734, 4.26217131316661834717e-02) (735, -2.82504353672266006470e-02) (736, 2.63652279973030090332e-02) (737, 1.46818114444613456726e-03) (738, 8.49053040146827697754e-02) (739, -1.43031571060419082642e-02) (740, 1.04857929050922393799e-01) (741, 1.59039031714200973511e-02) (742, 2.95181199908256530762e-02) (743, 1.27495033666491508484e-02) (744, 1.03281818330287933350e-01) (745, 9.04344096779823303223e-02) (746, 6.15673027932643890381e-02) (747, -6.22415468096733093262e-02) (748, 3.96249294281005859375e-02) (749, 2.76778955012559890747e-02) (750, 9.74708423018455505371e-02) (751, -1.86248123645782470703e-02) (752, 4.06823828816413879395e-02) (753, 3.34222614765167236328e-03) (754, 3.76545414328575134277e-02) (755, -7.63961896300315856934e-02) (756, -9.12193357944488525391e-02) (757, 5.28075471520423889160e-02) (758, -9.16094034910202026367e-02) (759, -4.80428636074066162109e-02) (760, 7.42537453770637512207e-02) (761, -4.07682731747627258301e-02) (762, 8.18184018135070800781e-02) (763, 5.83678111433982849121e-02) (764, 2.23030801862478256226e-02) (765, 1.45986638963222503662e-02) (766, -8.64556133747100830078e-02) (767, -7.54836425185203552246e-02) (768, 8.08661133050918579102e-02) (769, 7.94642344117164611816e-02) (770, -2.30579730123281478882e-03) (771, 7.91845023632049560547e-02) (772, -5.65795190632343292236e-02) (773, -8.63774865865707397461e-03) (774, 7.49777033925056457520e-02) (775, 9.54418629407882690430e-02) (776, -5.51759228110313415527e-02) (777, 1.01244393736124038696e-02) (778, -7.64387771487236022949e-02) (779, 7.42200985550880432129e-02) (780, -8.27924236655235290527e-02) (781, -8.97937193512916564941e-02) (782, -4.58548851311206817627e-02) (783, 5.78899458050727844238e-02) (784, 2.56279081106185913086e-01) (0, 9.17996689677238464355e-02) (1, 8.14937576651573181152e-02) (2, 2.23291739821434020996e-02) (3, 4.46072146296501159668e-02) (4, 8.98843631148338317871e-02) (5, 7.42863044142723083496e-02) (6, 1.88609510660171508789e-02) (7, -5.01330308616161346436e-02) (8, 5.80623224377632141113e-02) (9, -2.03742533922195434570e-02) (10, 7.28559419512748718262e-02) (11, -2.72999256849288940430e-02) (12, -3.00236046314239501953e-03) (13, 9.91482213139533996582e-02) (14, -4.48073707520961761475e-02) (15, -2.66468226909637451172e-02) (16, -1.59635245800018310547e-02) (17, -8.66947546601295471191e-02) (18, 1.43693238496780395508e-02) (19, 7.66520574688911437988e-02) (20, 8.26273933053016662598e-02) (21, 5.57798147201538085938e-03) (22, -8.01767706871032714844e-02) (23, -9.64793562889099121094e-03) (24, 2.80044004321098327637e-02) (25, 9.40433219075202941895e-02) (26, 7.55963474512100219727e-03) (27, 3.82106825709342956543e-02) (28, -5.18115535378456115723e-02) (29, -3.45504134893417358398e-02) (30, -4.82408180832862854004e-02) (31, -6.00118897855281829834e-02) (32, -5.30566498637199401855e-02) (33, 7.40883573889732360840e-02) (34, 8.45953300595283508301e-02) (35, -6.31722882390022277832e-02) (36, 4.83746603131294250488e-02) (37, 3.45627218484878540039e-03) (38, -1.33021129295229911804e-02) (39, 6.45684683695435523987e-03) (40, 8.30316692590713500977e-02) (41, -4.18307594954967498779e-02) (42, 7.55803436040878295898e-02) (43, -2.18760669231414794922e-02) (44, -3.85606400668621063232e-02) (45, -6.62804096937179565430e-02) (46, 5.31843341886997222900e-02) (47, 4.20690812170505523682e-02) (48, -5.41492477059364318848e-02) (49, -3.27436514198780059814e-02) (50, 1.92876029759645462036e-02) (51, -6.97376653552055358887e-02) (52, 7.33801349997520446777e-02) (53, 3.92106100916862487793e-02) (54, 2.06144005060195922852e-02) (55, 1.38451904058456420898e-03) (56, 3.32539305090904235840e-02) (57, -7.18259662389755249023e-02) (58, -6.04047998785972595215e-02) (59, 8.14423784613609313965e-02) (60, -6.37637078762054443359e-03) (61, -8.64561647176742553711e-03) (62, -7.85695016384124755859e-02) (63, 4.09533418715000152588e-02) (64, -3.36712598800659179688e-02) (65, -9.89081189036369323730e-02) (66, 7.78787657618522644043e-02) (67, -8.38580653071403503418e-02) (68, 1.67540460824966430664e-02) (69, -2.70739123225212097168e-02) (70, 2.23495047539472579956e-02) (71, -1.26079218462109565735e-02) (72, 4.15770756080746650696e-03) (73, -4.43914569914340972900e-02) (74, 1.65401082485914230347e-02) (75, 4.28598970174789428711e-02) (76, 1.29740834236145019531e-02) (77, 1.56643558293581008911e-02) (78, 2.14709229767322540283e-02) (79, 8.20875242352485656738e-02) (80, 9.42333266139030456543e-02) (81, -5.55384941399097442627e-02) (82, -8.83815735578536987305e-02) (83, 6.72589018940925598145e-02) (84, 8.36721137166023254395e-02) (85, 3.22328284382820129395e-02) (86, -3.13565731048583984375e-02) (87, 1.69260501861572265625e-02) (88, 6.04068711400032043457e-02) (89, 8.40866845101118087769e-03) (90, -2.28432985022664070129e-03) (91, -4.32917252182960510254e-02) (92, 1.05030529201030731201e-01) (93, 2.40028239786624908447e-02) (94, 1.06460161507129669189e-01) (95, -2.37981751561164855957e-02) (96, 1.41087574884295463562e-02) (97, 6.84376657009124755859e-02) (98, -2.45493408292531967163e-02) (99, -8.08931812644004821777e-02) (100, -1.12438268959522247314e-01) (101, 1.75125747919082641602e-02) (102, -8.25334265828132629395e-02) (103, -3.00009101629257202148e-02) (104, -6.41934797167778015137e-02) (105, -4.26304675638675689697e-02) (106, 1.78899485617876052856e-02) (107, -7.69374743103981018066e-02) (108, -7.57933929562568664551e-02) (109, -3.28655168414115905762e-02) (110, -8.64237397909164428711e-02) (111, -7.95299410820007324219e-02) (112, 1.15959867835044860840e-02) (113, -7.48053044080734252930e-02) (114, 8.77289548516273498535e-02) (115, -4.91733383387327194214e-03) (116, 5.49034103751182556152e-02) (117, -4.35127653181552886963e-02) (118, -8.31182524561882019043e-02) (119, 1.98586080223321914673e-02) (120, 5.97595386207103729248e-02) (121, 1.01500488817691802979e-02) (122, 6.33702352643013000488e-02) (123, 5.48968017101287841797e-02) (124, -6.95664510130882263184e-02) (125, 9.89020392298698425293e-02) (126, -4.43855114281177520752e-02) (127, 7.87131190299987792969e-02) (128, 4.00942638516426086426e-02) (129, -1.11023383215069770813e-02) (130, 4.49444949626922607422e-02) (131, 1.20274517685174942017e-02) (132, -5.40399700403213500977e-02) (133, -1.69648211449384689331e-02) (134, -1.43990954384207725525e-02) (135, -1.04024231433868408203e-01) (136, -7.96898752450942993164e-02) (137, -2.58593354374170303345e-02) (138, -6.20803497731685638428e-02) (139, -5.35300187766551971436e-02) (140, 4.34523597359657287598e-02) (141, -4.85040843486785888672e-02) (142, -3.29824201762676239014e-02) (143, -4.51263748109340667725e-02) (144, -2.59470324963331222534e-02) (145, -4.30361591279506683350e-02) (146, 5.32574467360973358154e-02) (147, -7.88682550191879272461e-02) (148, -7.09694530814886093140e-03) (149, 1.94027479737997055054e-02) (150, 2.22279853187501430511e-03) (151, -6.34684488177299499512e-02) (152, -2.95473150908946990967e-02) (153, 5.01245781779289245605e-02) (154, 9.16972756385803222656e-03) (155, 7.76109620928764343262e-02) (156, 3.02748251706361770630e-02) (157, 3.05481292307376861572e-02) (158, 3.64855490624904632568e-02) (159, -2.76371110230684280396e-02) (160, 1.06741294264793395996e-01) (161, -1.54812373220920562744e-02) (162, -1.03440709412097930908e-01) (163, -2.74956524372100830078e-02) (164, 5.05689084529876708984e-02) (165, 2.01460197567939758301e-02) (166, -1.05017172172665596008e-02) (167, 9.02780294418334960938e-02) (168, -8.61544162034988403320e-02) (169, 2.80087366700172424316e-02) (170, -6.31474331021308898926e-02) (171, 5.76032362878322601318e-02) (172, 7.59289190173149108887e-02) (173, 5.84293156862258911133e-03) (174, -1.04755565524101257324e-01) (175, -5.47680482268333435059e-02) (176, -5.53771294653415679932e-03) (177, -4.57129813730716705322e-03) (178, -4.80553135275840759277e-02) (179, -5.50173334777355194092e-02) (180, 1.69074758887290954590e-02) (181, -4.29420657455921173096e-02) (182, 4.54254783689975738525e-02) (183, 8.40012356638908386230e-02) (184, 1.03100575506687164307e-01) (185, 1.44451215863227844238e-01) (186, 6.46329447627067565918e-02) (187, 4.16898280382156372070e-02) (188, 2.75478251278400421143e-02) (189, 1.42209157347679138184e-01) (190, 4.93487948551774024963e-03) (191, -8.36365148425102233887e-02) (192, -1.30837634205818176270e-01) (193, -5.01767322421073913574e-02) (194, 1.11962771043181419373e-02) (195, 8.35049599409103393555e-02) (196, -7.40742608904838562012e-02) (197, -9.42513793706893920898e-02) (198, 7.37809389829635620117e-02) (199, -5.61124645173549652100e-02) (200, 3.58129553496837615967e-02) (201, -8.58496278524398803711e-02) (202, 7.94602334499359130859e-02) (203, -3.41889797709882259369e-03) (204, -3.57800759375095367432e-02) (205, -1.32494539022445678711e-01) (206, 5.79450614750385284424e-02) (207, -2.67562475055456161499e-02) (208, 7.40383341908454895020e-02) (209, -3.02075836807489395142e-02) (210, 5.89120574295520782471e-03) (211, -1.00907161831855773926e-02) (212, 4.15945574641227722168e-02) (213, 4.12987992167472839355e-02) (214, 4.51923236250877380371e-02) (215, -5.20067662000656127930e-03) (216, 7.73105025291442871094e-03) (217, 1.37823835015296936035e-01) (218, 4.51164059340953826904e-02) (219, 4.95851151645183563232e-02) (220, 3.71267311275005340576e-02) (221, -1.19563236832618713379e-01) (222, 5.69467246532440185547e-02) (223, 7.13705644011497497559e-02) (224, -1.92670652177184820175e-03) (225, -2.68716923892498016357e-02) (226, 5.33358193933963775635e-02) (227, 2.62781307101249694824e-02) (228, -1.47517649456858634949e-02) (229, 2.30786614120006561279e-02) (230, 4.00797054171562194824e-02) (231, -1.24941818416118621826e-01) (232, -3.19371707737445831299e-02) (233, -2.87169124931097030640e-03) (234, 4.73328940570354461670e-02) (235, -5.43257668614387512207e-02) (236, 4.01295423507690429688e-02) (237, -3.55516262352466583252e-02) (238, 9.76577494293451309204e-03) (239, 4.05411571264266967773e-02) (240, 8.79596248269081115723e-02) (241, 3.76686789095401763916e-02) (242, 2.62954849749803543091e-02) (243, -5.33842481672763824463e-02) (244, 2.12395340204238891602e-02) (245, 4.50183600187301635742e-02) (246, 6.83824270963668823242e-02) (247, -4.87704128026962280273e-02) (248, 1.09505932778120040894e-02) (249, -9.34824794530868530273e-02) (250, 3.89455519616603851318e-02) (251, -1.19611639529466629028e-02) (252, -4.08674404025077819824e-02) (253, 7.31444591656327247620e-03) (254, -4.03495319187641143799e-02) (255, 5.36878183484077453613e-02) (256, 6.80304914712905883789e-02) (257, -1.03386819362640380859e-01) (258, -5.40985800325870513916e-02) (259, -9.48090404272079467773e-02) (260, -4.43762168288230895996e-02) (261, -1.05161808431148529053e-01) (262, -4.83902022242546081543e-02) (263, -5.74637241661548614502e-02) (264, -1.14116676151752471924e-01) (265, 8.56416448950767517090e-02) (266, 5.87297454476356506348e-02) (267, 8.14687386155128479004e-02) (268, 1.72891356050968170166e-02) (269, -3.04416194558143615723e-03) (270, 8.00977498292922973633e-02) (271, -1.95549800992012023926e-02) (272, -4.74827550351619720459e-02) (273, 4.81887161731719970703e-02) (274, 4.50050085783004760742e-02) (275, 6.84155430644750595093e-03) (276, -1.81395728141069412231e-02) (277, -1.20860442519187927246e-01) (278, -1.80158745497465133667e-02) (279, -7.92171061038970947266e-02) (280, -2.20116376876831054688e-02) (281, -5.54373860359191894531e-02) (282, 1.19793340563774108887e-02) (283, 2.56792772561311721802e-02) (284, 2.32048351317644119263e-02) (285, 4.21986356377601623535e-02) (286, -7.27006867527961730957e-02) (287, -4.96037006378173828125e-02) (288, -4.21806424856185913086e-03) (289, 1.38621823862195014954e-02) (290, 2.00307536870241165161e-02) (291, 1.58664584159851074219e-02) (292, -8.17646756768226623535e-02) (293, -7.20645859837532043457e-02) (294, -1.20867274701595306396e-01) (295, -1.50197207927703857422e-01) (296, -7.96819180250167846680e-02) (297, 5.02490177750587463379e-02) (298, 1.20578691363334655762e-01) (299, 3.91079150140285491943e-02) (300, 5.49870915710926055908e-02) (301, 4.52496185898780822754e-02) (302, 1.72651633620262145996e-01) (303, 8.66389647126197814941e-02) (304, 1.55163346789777278900e-03) (305, -3.24691496789455413818e-02) (306, 7.90663436055183410645e-02) (307, 6.46083876490592956543e-02) (308, 2.58129760622978210449e-02) (309, -2.42692083120346069336e-02) (310, 8.50653722882270812988e-02) (311, -1.17009907960891723633e-01) (312, -8.64711590111255645752e-03) (313, -5.98907321691513061523e-02) (314, -4.01414260268211364746e-02) (315, -1.07015222311019897461e-01) (316, -1.10579274594783782959e-01) (317, -1.59977570176124572754e-01) (318, 4.14764881134033203125e-02) (319, -3.85309457778930664062e-02) (320, -1.15094274282455444336e-01) (321, 4.80965301394462585449e-02) (322, -4.14887480437755584717e-02) (323, -2.21440568566322326660e-01) (324, -1.87190845608711242676e-01) (325, -1.49279192090034484863e-01) (326, -6.95137381553649902344e-02) (327, 1.09349330887198448181e-02) (328, 5.76525740325450897217e-02) (329, -2.47044372372329235077e-04) (330, 5.80225177109241485596e-02) (331, 1.29570007324218750000e-01) (332, 1.07497930526733398438e-01) (333, -5.37284687161445617676e-02) (334, -4.21559475362300872803e-02) (335, -5.54958879947662353516e-02) (336, 4.23426553606986999512e-02) (337, -6.46132379770278930664e-02) (338, -9.31583791971206665039e-02) (339, -5.00237941741943359375e-02) (340, -2.51127090305089950562e-02) (341, 4.02125976979732513428e-02) (342, -7.81946778297424316406e-02) (343, -1.25380203127861022949e-01) (344, -6.70216307044029235840e-02) (345, -1.44798904657363891602e-01) (346, -3.27697880566120147705e-02) (347, 1.53864994645118713379e-02) (348, -8.51476863026618957520e-02) (349, -7.57216066122055053711e-02) (350, -2.22389996051788330078e-01) (351, -2.46378764510154724121e-01) (352, -2.18182042241096496582e-01) (353, -2.18884021043777465820e-01) (354, -7.74309784173965454102e-02) (355, 3.92253808677196502686e-02) (356, -6.09660483896732330322e-02) (357, 5.53886145353317260742e-02) (358, 7.51412380486726760864e-03) (359, 1.80696621537208557129e-01) (360, 1.14033661782741546631e-01) (361, 2.78619956225156784058e-03) (362, 4.04875203967094421387e-02) (363, 6.72951340675354003906e-02) (364, 3.64331677556037902832e-02) (365, 8.75867679715156555176e-02) (366, -8.69752019643783569336e-02) (367, -2.94326934963464736938e-02) (368, -1.20973914861679077148e-01) (369, -1.16742663085460662842e-01) (370, 3.05796843022108078003e-02) (371, -1.14242900162935256958e-02) (372, -1.31293520331382751465e-01) (373, -1.25733330845832824707e-01) (374, 6.74254819750785827637e-02) (375, -3.35038416087627410889e-02) (376, -1.19722209870815277100e-01) (377, -1.27983748912811279297e-01) (378, -2.23748952150344848633e-01) (379, -2.58074402809143066406e-01) (380, -1.45349159836769104004e-01) (381, -1.27685651183128356934e-01) (382, -1.83107759803533554077e-02) (383, -5.91725073754787445068e-02) (384, 5.08963391184806823730e-02) (385, -8.50486829876899719238e-02) (386, 1.29223316907882690430e-01) (387, -2.50786636024713516235e-02) (388, 8.65922570228576660156e-02) (389, -7.09100738167762756348e-02) (390, -9.79674309492111206055e-02) (391, 6.37815520167350769043e-02) (392, 2.76073738932609558105e-02) (393, 3.39153632521629333496e-02) (394, 3.05465795099735260010e-02) (395, -4.27893698215484619141e-02) (396, -4.46906965225934982300e-03) (397, 5.62347844243049621582e-02) (398, 5.55378273129463195801e-02) (399, 4.38240654766559600830e-02) (400, 4.48541641235351562500e-02) (401, -1.34357181377708911896e-03) (402, 2.67201382666826248169e-02) (403, 6.93201869726181030273e-02) (404, -3.63211184740066528320e-02) (405, -1.71289175748825073242e-01) (406, -2.20173552632331848145e-01) (407, -1.96086645126342773438e-01) (408, -2.33419567346572875977e-01) (409, -7.33556598424911499023e-02) (410, -1.48294433951377868652e-01) (411, -3.95777933299541473389e-02) (412, -7.87062104791402816772e-03) (413, 2.80138663947582244873e-02) (414, 3.86453531682491302490e-02) (415, 1.25968949869275093079e-02) (416, 1.03620260953903198242e-01) (417, 2.97915134578943252563e-02) (418, -1.09950117766857147217e-02) (419, 5.07897958159446716309e-02) (420, 8.13110694289207458496e-02) (421, -1.17276953533291816711e-02) (422, 1.41502153128385543823e-02) (423, 6.24465290457010269165e-03) (424, -8.76536145806312561035e-02) (425, -2.84268520772457122803e-02) (426, 8.76925513148307800293e-02) (427, 1.09703652560710906982e-01) (428, 1.37765735387802124023e-01) (429, 5.78384287655353546143e-02) (430, -2.79724989086389541626e-02) (431, 2.81504355370998382568e-02) (432, -1.60381183028221130371e-01) (433, -7.72858634591102600098e-02) (434, -1.79573923349380493164e-01) (435, -1.81547045707702636719e-01) (436, -2.79790103435516357422e-01) (437, -2.38516315817832946777e-01) (438, -1.07458986341953277588e-01) (439, 5.43757788836956024170e-02) (440, -2.75944210588932037354e-02) (441, -4.56618070602416992188e-02) (442, -9.40473899245262145996e-02) (443, 4.92467693984508514404e-02) (444, -6.00613616406917572021e-02) (445, 8.68943780660629272461e-02) (446, -7.85755962133407592773e-02) (447, -8.43942984938621520996e-02) (448, 3.27218398451805114746e-02) (449, 2.11397558450698852539e-03) (450, 6.20019249618053436279e-02) (451, 1.45456520840525627136e-03) (452, 4.88083250820636749268e-02) (453, -6.73120329156517982483e-03) (454, -1.12594375386834144592e-02) 