FANN_FLO_2.1
num_layers=4
learning_rate=0.010000
connection_rate=1.000000
network_type=0
learning_momentum=0.400000
training_algorithm=0
train_error_function=1
train_stop_function=0
cascade_output_change_fraction=0.010000
quickprop_decay=-0.000100
quickprop_mu=1.750000
rprop_increase_factor=1.200000
rprop_decrease_factor=0.500000
rprop_delta_min=0.000000
rprop_delta_max=50.000000
rprop_delta_zero=0.100000
cascade_output_stagnation_epochs=12
cascade_candidate_change_fraction=0.010000
cascade_candidate_stagnation_epochs=12
cascade_max_out_epochs=150
cascade_min_out_epochs=50
cascade_max_cand_epochs=150
cascade_min_cand_epochs=50
cascade_num_candidate_groups=2
bit_fail_limit=3.49999994039535522461e-01
cascade_candidate_limit=1.00000000000000000000e+03
cascade_weight_multiplier=4.00000005960464477539e-01
cascade_activation_functions_count=10
cascade_activation_functions=3 5 7 8 10 11 14 15 16 17 
cascade_activation_steepnesses_count=4
cascade_activation_steepnesses=2.50000000000000000000e-01 5.00000000000000000000e-01 7.50000000000000000000e-01 1.00000000000000000000e+00 
layer_sizes=785 20 16 11 
scale_included=0
neurons (num_inputs, activation_function, activation_steepness)=(0, 0, 0.00000000000000000000e+00) (0, 0, 0.00000000000000000000e+00) (0, 0, 0.00000000000000000000e+00) (0, 0, 0.00000000000000000000e+00) (0, 0, 0.00000000000000000000e+00) (0, 0, 0.00000000000000000000e+00) (0, 0, 0.00000000000000000000e+00) (0, 0, 0.00000000000000000000e+00) (0, 0, 0.00000000000000000000e+00) (0, 0, 0.00000000000000000000e+00) (0, 0, 0.00000000000000000000e+00) (0, 0, 0.00000000000000000000e+00) (0, 0, 0.00000000000000000000e+00) (0, 0, 0.00000000000000000000e+00) (0, 0, 0.00000000000000000000e+00) (0, 0, 0.00000000000000000000e+00) (0, 0, 0.00000000000000000000e+00) (0, 0, 0.00000000000000000000e+00) (0, 0, 0.00000000000000000000e+00) (0, 0, 0.00000000000000000000e+00) (0, 0, 0.00000000000000000000e+00) (0, 0, 0.00000000000000000000e+00) (0, 0, 0.00000000000000000000e+00) (0, 0, 0.00000000000000000000e+00) (0, 0, 0.00000000000000000000e+00) (0, 0, 0.00000000000000000000e+00) (0, 0, 0.00000000000000000000e+00) (0, 0, 0.00000000000000000000e+00) (0, 0, 0.00000000000000000000e+00) (0, 0, 0.00000000000000000000e+00) (0, 0, 0.00000000000000000000e+00) (0, 0, 0.00000000000000000000e+00) (0, 0, 0.00000000000000000000e+00) (0, 0, 0.00000000000000000000e+00) (0, 0, 0.00000000000000000000e+00) (0, 0, 0.00000000000000000000e+00) (0, 0, 0.00000000000000000000e+00) (0, 0, 0.00000000000000000000e+00) (0, 0, 0.00000000000000000000e+00) (0, 0, 0.00000000000000000000e+00) (0, 0, 0.00000000000000000000e+00) (0, 0, 0.00000000000000000000e+00) (0, 0, 0.00000000000000000000e+00) (0, 0, 0.00000000000000000000e+00) (0, 0, 0.00000000000000000000e+00) (0, 0, 0.00000000000000000000e+00) (0, 0, 0.00000000000000000000e+00) (0, 0, 0.00000000000000000000e+00) (0, 0, 0.00000000000000000000e+00) (0, 0, 0.00000000000000000000e+00) (0, 0, 0.00000000000000000000e+00) (0, 0, 0.00000000000000000000e+00) (0, 0, 0.00000000000000000000e+00) (0, 0, 0.00000000000000000000e+00) (0, 0, 0.00000000000000000000e+00) (0, 0, 0.00000000000000000000e+00) (0, 0, 0.00000000000000000000e+00) (0, 0, 0.00000000000000000000e+00) (0, 0, 0.00000000000000000000e+00) (0, 0, 0.00000000000000000000e+00) (0, 0, 0.00000000000000000000e+00) (0, 0, 0.00000000000000000000e+00) (0, 0, 0.00000000000000000000e+00) (0, 0, 0.00000000000000000000e+00) (0, 0, 0.00000000000000000000e+00) (0, 0, 0.00000000000000000000e+00) (0, 0, 0.00000000000000000000e+00) (0, 0, 0.00000000000000000000e+00) (0, 0, 0.00000000000000000000e+00) (0, 0, 0.00000000000000000000e+00) (0, 0, 0.00000000000000000000e+00) (0, 0, 0.00000000000000000000e+00) (0, 0, 0.00000000000000000000e+00) (0, 0, 0.00000000000000000000e+00) (0, 0, 0.00000000000000000000e+00) (0, 0, 0.00000000000000000000e+00) (0, 0, 0.00000000000000000000e+00) (0, 0, 0.00000000000000000000e+00) (0, 0, 0.00000000000000000000e+00) (0, 0, 0.00000000000000000000e+00) (0, 0, 0.00000000000000000000e+00) (0, 0, 0.00000000000000000000e+00) (0, 0, 0.00000000000000000000e+00) (0, 0, 0.00000000000000000000e+00) (0, 0, 0.00000000000000000000e+00) (0, 0, 0.00000000000000000000e+00) (0, 0, 0.00000000000000000000e+00) (0, 0, 0.00000000000000000000e+00) (0, 0, 0.00000000000000000000e+00) (0, 0, 0.00000000000000000000e+00) (0, 0, 0.00000000000000000000e+00) (0, 0, 0.00000000000000000000e+00) (0, 0, 0.00000000000000000000e+00) (0, 0, 0.00000000000000000000e+00) (0, 0, 0.00000000000000000000e+00) (0, 0, 0.00000000000000000000e+00) (0, 0, 0.00000000000000000000e+00) (0, 0, 0.00000000000000000000e+00) (0, 0, 0.00000000000000000000e+00) (0, 0, 0.00000000000000000000e+00) (0, 0, 0.00000000000000000000e+00) (0, 0, 0.00000000000000000000e+00) (0, 0, 0.00000000000000000000e+00) (0, 0, 0.00000000000000000000e+00) (0, 0, 0.00000000000000000000e+00) (0, 0, 0.00000000000000000000e+00) (0, 0, 0.00000000000000000000e+00) (0, 0, 0.00000000000000000000e+00) (0, 0, 0.00000000000000000000e+00) (0, 0, 0.00000000000000000000e+00) (0, 0, 0.00000000000000000000e+00) (0, 0, 0.00000000000000000000e+00) (0, 0, 0.00000000000000000000e+00) (0, 0, 0.00000000000000000000e+00) (0, 0, 0.00000000000000000000e+00) (0, 0, 0.00000000000000000000e+00) (0, 0, 0.00000000000000000000e+00) (0, 0, 0.00000000000000000000e+00) (0, 0, 0.00000000000000000000e+00) (0, 0, 0.00000000000000000000e+00) (0, 0, 0.00000000000000000000e+00) (0, 0, 0.00000000000000000000e+00) (0, 0, 0.00000000000000000000e+00) (0, 0, 0.00000000000000000000e+00) (0, 0, 0.00000000000000000000e+00) (0, 0, 0.00000000000000000000e+00) (0, 0, 0.00000000000000000000e+00) (0, 0, 0.00000000000000000000e+00) (0, 0, 0.00000000000000000000e+00) (0, 0, 0.00000000000000000000e+00) (0, 0, 0.00000000000000000000e+00) (0, 0, 0.00000000000000000000e+00) (0, 0, 0.00000000000000000000e+00) (0, 0, 0.00000000000000000000e+00) (0, 0, 0.00000000000000000000e+00) (0, 0, 0.00000000000000000000e+00) (0, 0, 0.00000000000000000000e+00) (0, 0, 0.00000000000000000000e+00) (0, 0, 0.00000000000000000000e+00) (0, 0, 0.00000000000000000000e+00) (0, 0, 0.00000000000000000000e+00) (0, 0, 0.00000000000000000000e+00) (0, 0, 0.00000000000000000000e+00) (0, 0, 0.00000000000000000000e+00) (0, 0, 0.00000000000000000000e+00) (0, 0, 0.00000000000000000000e+00) (0, 0, 0.00000000000000000000e+00) (0, 0, 0.00000000000000000000e+00) (0, 0, 0.00000000000000000000e+00) (0, 0, 0.00000000000000000000e+00) (0, 0, 0.00000000000000000000e+00) (0, 0, 0.00000000000000000000e+00) (0, 0, 0.00000000000000000000e+00) (0, 0, 0.00000000000000000000e+00) (0, 0, 0.00000000000000000000e+00) (0, 0, 0.00000000000000000000e+00) (0, 0, 0.00000000000000000000e+00) (0, 0, 0.00000000000000000000e+00) (0, 0, 0.00000000000000000000e+00) (0, 0, 0.00000000000000000000e+00) (0, 0, 0.00000000000000000000e+00) (0, 0, 0.00000000000000000000e+00) (0, 0, 0.00000000000000000000e+00) (0, 0, 0.00000000000000000000e+00) (0, 0, 0.00000000000000000000e+00) (0, 0, 0.00000000000000000000e+00) (0, 0, 0.00000000000000000000e+00) (0, 0, 0.00000000000000000000e+00) (0, 0, 0.00000000000000000000e+00) (0, 0, 0.00000000000000000000e+00) (0, 0, 0.00000000000000000000e+00) (0, 0, 0.00000000000000000000e+00) (0, 0, 0.00000000000000000000e+00) (0, 0, 0.00000000000000000000e+00) (0, 0, 0.00000000000000000000e+00) (0, 0, 0.00000000000000000000e+00) (0, 0, 0.00000000000000000000e+00) (0, 0, 0.00000000000000000000e+00) (0, 0, 0.00000000000000000000e+00) (0, 0, 0.00000000000000000000e+00) (0, 0, 0.00000000000000000000e+00) (0, 0, 0.00000000000000000000e+00) (0, 0, 0.00000000000000000000e+00) (0, 0, 0.00000000000000000000e+00) (0, 0, 0.00000000000000000000e+00) (0, 0, 0.00000000000000000000e+00) (0, 0, 0.00000000000000000000e+00) (0, 0, 0.00000000000000000000e+00) (0, 0, 0.00000000000000000000e+00) (0, 0, 0.00000000000000000000e+00) (0, 0, 0.00000000000000000000e+00) (0, 0, 0.00000000000000000000e+00) (0, 0, 0.00000000000000000000e+00) (0, 0, 0.00000000000000000000e+00) (0, 0, 0.00000000000000000000e+00) (0, 0, 0.00000000000000000000e+00) (0, 0, 0.00000000000000000000e+00) (0, 0, 0.00000000000000000000e+00) (0, 0, 0.00000000000000000000e+00) (0, 0, 0.00000000000000000000e+00) (0, 0, 0.00000000000000000000e+00) (0, 0, 0.00000000000000000000e+00) (0, 0, 0.00000000000000000000e+00) (0, 0, 0.00000000000000000000e+00) (0, 0, 0.00000000000000000000e+00) (0, 0, 0.00000000000000000000e+00) (0, 0, 0.00000000000000000000e+00) (0, 0, 0.00000000000000000000e+00) (0, 0, 0.00000000000000000000e+00) (0, 0, 0.00000000000000000000e+00) (0, 0, 0.00000000000000000000e+00) (0, 0, 0.00000000000000000000e+00) (0, 0, 0.00000000000000000000e+00) (0, 0, 0.00000000000000000000e+00) (0, 0, 0.00000000000000000000e+00) (0, 0, 0.00000000000000000000e+00) (0, 0, 0.00000000000000000000e+00) (0, 0, 0.00000000000000000000e+00) (0, 0, 0.00000000000000000000e+00) (0, 0, 0.00000000000000000000e+00) (0, 0, 0.00000000000000000000e+00) (0, 0, 0.00000000000000000000e+00) (0, 0, 0.00000000000000000000e+00) (0, 0, 0.00000000000000000000e+00) (0, 0, 0.00000000000000000000e+00) (0, 0, 0.00000000000000000000e+00) (0, 0, 0.00000000000000000000e+00) (0, 0, 0.00000000000000000000e+00) (0, 0, 0.00000000000000000000e+00) (0, 0, 0.00000000000000000000e+00) (0, 0, 0.00000000000000000000e+00) (0, 0, 0.00000000000000000000e+00) (0, 0, 0.00000000000000000000e+00) (0, 0, 0.00000000000000000000e+00) (0, 0, 0.00000000000000000000e+00) (0, 0, 0.00000000000000000000e+00) (0, 0, 0.00000000000000000000e+00) (0, 0, 0.00000000000000000000e+00) (0, 0, 0.00000000000000000000e+00) (0, 0, 0.00000000000000000000e+00) (0, 0, 0.00000000000000000000e+00) (0, 0, 0.00000000000000000000e+00) (0, 0, 0.00000000000000000000e+00) (0, 0, 0.00000000000000000000e+00) (0, 0, 0.00000000000000000000e+00) (0, 0, 0.00000000000000000000e+00) (0, 0, 0.00000000000000000000e+00) (0, 0, 0.00000000000000000000e+00) (0, 0, 0.00000000000000000000e+00) (0, 0, 0.00000000000000000000e+00) (0, 0, 0.00000000000000000000e+00) (0, 0, 0.00000000000000000000e+00) (0, 0, 0.00000000000000000000e+00) (0, 0, 0.00000000000000000000e+00) (0, 0, 0.00000000000000000000e+00) (0, 0, 0.00000000000000000000e+00) (0, 0, 0.00000000000000000000e+00) (0, 0, 0.00000000000000000000e+00) (0, 0, 0.00000000000000000000e+00) (0, 0, 0.00000000000000000000e+00) (0, 0, 0.00000000000000000000e+00) (0, 0, 0.00000000000000000000e+00) (0, 0, 0.00000000000000000000e+00) (0, 0, 0.00000000000000000000e+00) (0, 0, 0.00000000000000000000e+00) (0, 0, 0.00000000000000000000e+00) (0, 0, 0.00000000000000000000e+00) (0, 0, 0.00000000000000000000e+00) (0, 0, 0.00000000000000000000e+00) (0, 0, 0.00000000000000000000e+00) (0, 0, 0.00000000000000000000e+00) (0, 0, 0.00000000000000000000e+00) (0, 0, 0.00000000000000000000e+00) (0, 0, 0.00000000000000000000e+00) (0, 0, 0.00000000000000000000e+00) (0, 0, 0.00000000000000000000e+00) (0, 0, 0.00000000000000000000e+00) (0, 0, 0.00000000000000000000e+00) (0, 0, 0.00000000000000000000e+00) (0, 0, 0.00000000000000000000e+00) (0, 0, 0.00000000000000000000e+00) (0, 0, 0.00000000000000000000e+00) (0, 0, 0.00000000000000000000e+00) (0, 0, 0.00000000000000000000e+00) (0, 0, 0.00000000000000000000e+00) (0, 0, 0.00000000000000000000e+00) (0, 0, 0.00000000000000000000e+00) (0, 0, 0.00000000000000000000e+00) (0, 0, 0.00000000000000000000e+00) (0, 0, 0.00000000000000000000e+00) (0, 0, 0.00000000000000000000e+00) (0, 0, 0.00000000000000000000e+00) (0, 0, 0.00000000000000000000e+00) (0, 0, 0.00000000000000000000e+00) (0, 0, 0.00000000000000000000e+00) (0, 0, 0.00000000000000000000e+00) (0, 0, 0.00000000000000000000e+00) (0, 0, 0.00000000000000000000e+00) (0, 0, 0.00000000000000000000e+00) (0, 0, 0.00000000000000000000e+00) (0, 0, 0.00000000000000000000e+00) (0, 0, 0.00000000000000000000e+00) (0, 0, 0.00000000000000000000e+00) (0, 0, 0.00000000000000000000e+00) (0, 0, 0.00000000000000000000e+00) (0, 0, 0.00000000000000000000e+00) (0, 0, 0.00000000000000000000e+00) (0, 0, 0.00000000000000000000e+00) (0, 0, 0.00000000000000000000e+00) (0, 0, 0.00000000000000000000e+00) (0, 0, 0.00000000000000000000e+00) (0, 0, 0.00000000000000000000e+00) (0, 0, 0.00000000000000000000e+00) (0, 0, 0.00000000000000000000e+00) (0, 0, 0.00000000000000000000e+00) (0, 0, 0.00000000000000000000e+00) (0, 0, 0.00000000000000000000e+00) (0, 0, 0.00000000000000000000e+00) (0, 0, 0.00000000000000000000e+00) (0, 0, 0.00000000000000000000e+00) (0, 0, 0.00000000000000000000e+00) (0, 0, 0.00000000000000000000e+00) (0, 0, 0.00000000000000000000e+00) (0, 0, 0.00000000000000000000e+00) (0, 0, 0.00000000000000000000e+00) (0, 0, 0.00000000000000000000e+00) (0, 0, 0.00000000000000000000e+00) (0, 0, 0.00000000000000000000e+00) (0, 0, 0.00000000000000000000e+00) (0, 0, 0.00000000000000000000e+00) (0, 0, 0.00000000000000000000e+00) (0, 0, 0.00000000000000000000e+00) (0, 0, 0.00000000000000000000e+00) (0, 0, 0.00000000000000000000e+00) (0, 0, 0.00000000000000000000e+00) (0, 0, 0.00000000000000000000e+00) (0, 0, 0.00000000000000000000e+00) (0, 0, 0.00000000000000000000e+00) (0, 0, 0.00000000000000000000e+00) (0, 0, 0.00000000000000000000e+00) (0, 0, 0.00000000000000000000e+00) (0, 0, 0.00000000000000000000e+00) (0, 0, 0.00000000000000000000e+00) (0, 0, 0.00000000000000000000e+00) (0, 0, 0.00000000000000000000e+00) (0, 0, 0.00000000000000000000e+00) (0, 0, 0.00000000000000000000e+00) (0, 0, 0.00000000000000000000e+00) (0, 0, 0.00000000000000000000e+00) (0, 0, 0.00000000000000000000e+00) (0, 0, 0.00000000000000000000e+00) (0, 0, 0.00000000000000000000e+00) (0, 0, 0.00000000000000000000e+00) (0, 0, 0.00000000000000000000e+00) (0, 0, 0.00000000000000000000e+00) (0, 0, 0.00000000000000000000e+00) (0, 0, 0.00000000000000000000e+00) (0, 0, 0.00000000000000000000e+00) (0, 0, 0.00000000000000000000e+00) (0, 0, 0.00000000000000000000e+00) (0, 0, 0.00000000000000000000e+00) (0, 0, 0.00000000000000000000e+00) (0, 0, 0.00000000000000000000e+00) (0, 0, 0.00000000000000000000e+00) (0, 0, 0.00000000000000000000e+00) (0, 0, 0.00000000000000000000e+00) (0, 0, 0.00000000000000000000e+00) (0, 0, 0.00000000000000000000e+00) (0, 0, 0.00000000000000000000e+00) (0, 0, 0.00000000000000000000e+00) (0, 0, 0.00000000000000000000e+00) (0, 0, 0.00000000000000000000e+00) (0, 0, 0.00000000000000000000e+00) (0, 0, 0.00000000000000000000e+00) (0, 0, 0.00000000000000000000e+00) (0, 0, 0.00000000000000000000e+00) (0, 0, 0.00000000000000000000e+00) (0, 0, 0.00000000000000000000e+00) (0, 0, 0.00000000000000000000e+00) (0, 0, 0.00000000000000000000e+00) (0, 0, 0.00000000000000000000e+00) (0, 0, 0.00000000000000000000e+00) (0, 0, 0.00000000000000000000e+00) (0, 0, 0.00000000000000000000e+00) (0, 0, 0.00000000000000000000e+00) (0, 0, 0.00000000000000000000e+00) (0, 0, 0.00000000000000000000e+00) (0, 0, 0.00000000000000000000e+00) (0, 0, 0.00000000000000000000e+00) (0, 0, 0.00000000000000000000e+00) (0, 0, 0.00000000000000000000e+00) (0, 0, 0.00000000000000000000e+00) (0, 0, 0.00000000000000000000e+00) (0, 0, 0.00000000000000000000e+00) (0, 0, 0.00000000000000000000e+00) (0, 0, 0.00000000000000000000e+00) (0, 0, 0.00000000000000000000e+00) (0, 0, 0.00000000000000000000e+00) (0, 0, 0.00000000000000000000e+00) (0, 0, 0.00000000000000000000e+00) (0, 0, 0.00000000000000000000e+00) (0, 0, 0.00000000000000000000e+00) (0, 0, 0.00000000000000000000e+00) (0, 0, 0.00000000000000000000e+00) (0, 0, 0.00000000000000000000e+00) (0, 0, 0.00000000000000000000e+00) (0, 0, 0.00000000000000000000e+00) (0, 0, 0.00000000000000000000e+00) (0, 0, 0.00000000000000000000e+00) (0, 0, 0.00000000000000000000e+00) (0, 0, 0.00000000000000000000e+00) (0, 0, 0.00000000000000000000e+00) (0, 0, 0.00000000000000000000e+00) (0, 0, 0.00000000000000000000e+00) (0, 0, 0.00000000000000000000e+00) (0, 0, 0.00000000000000000000e+00) (0, 0, 0.00000000000000000000e+00) (0, 0, 0.00000000000000000000e+00) (0, 0, 0.00000000000000000000e+00) (0, 0, 0.00000000000000000000e+00) (0, 0, 0.00000000000000000000e+00) (0, 0, 0.00000000000000000000e+00) (0, 0, 0.00000000000000000000e+00) (0, 0, 0.00000000000000000000e+00) (0, 0, 0.00000000000000000000e+00) (0, 0, 0.00000000000000000000e+00) (0, 0, 0.00000000000000000000e+00) (0, 0, 0.00000000000000000000e+00) (0, 0, 0.00000000000000000000e+00) (0, 0, 0.00000000000000000000e+00) (0, 0, 0.00000000000000000000e+00) (0, 0, 0.00000000000000000000e+00) (0, 0, 0.00000000000000000000e+00) (0, 0, 0.00000000000000000000e+00) (0, 0, 0.00000000000000000000e+00) (0, 0, 0.00000000000000000000e+00) (0, 0, 0.00000000000000000000e+00) (0, 0, 0.00000000000000000000e+00) (0, 0, 0.00000000000000000000e+00) (0, 0, 0.00000000000000000000e+00) (0, 0, 0.00000000000000000000e+00) (0, 0, 0.00000000000000000000e+00) (0, 0, 0.00000000000000000000e+00) (0, 0, 0.00000000000000000000e+00) (0, 0, 0.00000000000000000000e+00) (0, 0, 0.00000000000000000000e+00) (0, 0, 0.00000000000000000000e+00) (0, 0, 0.00000000000000000000e+00) (0, 0, 0.00000000000000000000e+00) (0, 0, 0.00000000000000000000e+00) (0, 0, 0.00000000000000000000e+00) (0, 0, 0.00000000000000000000e+00) (0, 0, 0.00000000000000000000e+00) (0, 0, 0.00000000000000000000e+00) (0, 0, 0.00000000000000000000e+00) (0, 0, 0.00000000000000000000e+00) (0, 0, 0.00000000000000000000e+00) (0, 0, 0.00000000000000000000e+00) (0, 0, 0.00000000000000000000e+00) (0, 0, 0.00000000000000000000e+00) (0, 0, 0.00000000000000000000e+00) (0, 0, 0.00000000000000000000e+00) (0, 0, 0.00000000000000000000e+00) (0, 0, 0.00000000000000000000e+00) (0, 0, 0.00000000000000000000e+00) (0, 0, 0.00000000000000000000e+00) (0, 0, 0.00000000000000000000e+00) (0, 0, 0.00000000000000000000e+00) (0, 0, 0.00000000000000000000e+00) (0, 0, 0.00000000000000000000e+00) (0, 0, 0.00000000000000000000e+00) (0, 0, 0.00000000000000000000e+00) (0, 0, 0.00000000000000000000e+00) (0, 0, 0.00000000000000000000e+00) (0, 0, 0.00000000000000000000e+00) (0, 0, 0.00000000000000000000e+00) (0, 0, 0.00000000000000000000e+00) (0, 0, 0.00000000000000000000e+00) (0, 0, 0.00000000000000000000e+00) (0, 0, 0.00000000000000000000e+00) (0, 0, 0.00000000000000000000e+00) (0, 0, 0.00000000000000000000e+00) (0, 0, 0.00000000000000000000e+00) (0, 0, 0.00000000000000000000e+00) (0, 0, 0.00000000000000000000e+00) (0, 0, 0.00000000000000000000e+00) (0, 0, 0.00000000000000000000e+00) (0, 0, 0.00000000000000000000e+00) (0, 0, 0.00000000000000000000e+00) (0, 0, 0.00000000000000000000e+00) (0, 0, 0.00000000000000000000e+00) (0, 0, 0.00000000000000000000e+00) (0, 0, 0.00000000000000000000e+00) (0, 0, 0.00000000000000000000e+00) (0, 0, 0.00000000000000000000e+00) (0, 0, 0.00000000000000000000e+00) (0, 0, 0.00000000000000000000e+00) (0, 0, 0.00000000000000000000e+00) (0, 0, 0.00000000000000000000e+00) (0, 0, 0.00000000000000000000e+00) (0, 0, 0.00000000000000000000e+00) (0, 0, 0.00000000000000000000e+00) (0, 0, 0.00000000000000000000e+00) (0, 0, 0.00000000000000000000e+00) (0, 0, 0.00000000000000000000e+00) (0, 0, 0.00000000000000000000e+00) (0, 0, 0.00000000000000000000e+00) (0, 0, 0.00000000000000000000e+00) (0, 0, 0.00000000000000000000e+00) (0, 0, 0.00000000000000000000e+00) (0, 0, 0.00000000000000000000e+00) (0, 0, 0.00000000000000000000e+00) (0, 0, 0.00000000000000000000e+00) (0, 0, 0.00000000000000000000e+00) (0, 0, 0.00000000000000000000e+00) (0, 0, 0.00000000000000000000e+00) (0, 0, 0.00000000000000000000e+00) (0, 0, 0.00000000000000000000e+00) (0, 0, 0.00000000000000000000e+00) (0, 0, 0.00000000000000000000e+00) (0, 0, 0.00000000000000000000e+00) (0, 0, 0.00000000000000000000e+00) (0, 0, 0.00000000000000000000e+00) (0, 0, 0.00000000000000000000e+00) (0, 0, 0.00000000000000000000e+00) (0, 0, 0.00000000000000000000e+00) (0, 0, 0.00000000000000000000e+00) (0, 0, 0.00000000000000000000e+00) (0, 0, 0.00000000000000000000e+00) (0, 0, 0.00000000000000000000e+00) (0, 0, 0.00000000000000000000e+00) (0, 0, 0.00000000000000000000e+00) (0, 0, 0.00000000000000000000e+00) (0, 0, 0.00000000000000000000e+00) (0, 0, 0.00000000000000000000e+00) (0, 0, 0.00000000000000000000e+00) (0, 0, 0.00000000000000000000e+00) (0, 0, 0.00000000000000000000e+00) (0, 0, 0.00000000000000000000e+00) (0, 0, 0.00000000000000000000e+00) (0, 0, 0.00000000000000000000e+00) (0, 0, 0.00000000000000000000e+00) (0, 0, 0.00000000000000000000e+00) (0, 0, 0.00000000000000000000e+00) (0, 0, 0.00000000000000000000e+00) (0, 0, 0.00000000000000000000e+00) (0, 0, 0.00000000000000000000e+00) (0, 0, 0.00000000000000000000e+00) (0, 0, 0.00000000000000000000e+00) (0, 0, 0.00000000000000000000e+00) (0, 0, 0.00000000000000000000e+00) (0, 0, 0.00000000000000000000e+00) (0, 0, 0.00000000000000000000e+00) (0, 0, 0.00000000000000000000e+00) (0, 0, 0.00000000000000000000e+00) (0, 0, 0.00000000000000000000e+00) (0, 0, 0.00000000000000000000e+00) (0, 0, 0.00000000000000000000e+00) (0, 0, 0.00000000000000000000e+00) (0, 0, 0.00000000000000000000e+00) (0, 0, 0.00000000000000000000e+00) (0, 0, 0.00000000000000000000e+00) (0, 0, 0.00000000000000000000e+00) (0, 0, 0.00000000000000000000e+00) (0, 0, 0.00000000000000000000e+00) (0, 0, 0.00000000000000000000e+00) (0, 0, 0.00000000000000000000e+00) (0, 0, 0.00000000000000000000e+00) (0, 0, 0.00000000000000000000e+00) (0, 0, 0.00000000000000000000e+00) (0, 0, 0.00000000000000000000e+00) (0, 0, 0.00000000000000000000e+00) (0, 0, 0.00000000000000000000e+00) (0, 0, 0.00000000000000000000e+00) (0, 0, 0.00000000000000000000e+00) (0, 0, 0.00000000000000000000e+00) (0, 0, 0.00000000000000000000e+00) (0, 0, 0.00000000000000000000e+00) (0, 0, 0.00000000000000000000e+00) (0, 0, 0.00000000000000000000e+00) (0, 0, 0.00000000000000000000e+00) (0, 0, 0.00000000000000000000e+00) (0, 0, 0.00000000000000000000e+00) (0, 0, 0.00000000000000000000e+00) (0, 0, 0.00000000000000000000e+00) (0, 0, 0.00000000000000000000e+00) (0, 0, 0.00000000000000000000e+00) (0, 0, 0.00000000000000000000e+00) (0, 0, 0.00000000000000000000e+00) (0, 0, 0.00000000000000000000e+00) (0, 0, 0.00000000000000000000e+00) (0, 0, 0.00000000000000000000e+00) (0, 0, 0.00000000000000000000e+00) (0, 0, 0.00000000000000000000e+00) (0, 0, 0.00000000000000000000e+00) (0, 0, 0.00000000000000000000e+00) (0, 0, 0.00000000000000000000e+00) (0, 0, 0.00000000000000000000e+00) (0, 0, 0.00000000000000000000e+00) (0, 0, 0.00000000000000000000e+00) (0, 0, 0.00000000000000000000e+00) (0, 0, 0.00000000000000000000e+00) (0, 0, 0.00000000000000000000e+00) (0, 0, 0.00000000000000000000e+00) (0, 0, 0.00000000000000000000e+00) (0, 0, 0.00000000000000000000e+00) (0, 0, 0.00000000000000000000e+00) (0, 0, 0.00000000000000000000e+00) (0, 0, 0.00000000000000000000e+00) (0, 0, 0.00000000000000000000e+00) (0, 0, 0.00000000000000000000e+00) (0, 0, 0.00000000000000000000e+00) (0, 0, 0.00000000000000000000e+00) (0, 0, 0.00000000000000000000e+00) (0, 0, 0.00000000000000000000e+00) (0, 0, 0.00000000000000000000e+00) (0, 0, 0.00000000000000000000e+00) (0, 0, 0.00000000000000000000e+00) (0, 0, 0.00000000000000000000e+00) (0, 0, 0.00000000000000000000e+00) (0, 0, 0.00000000000000000000e+00) (0, 0, 0.00000000000000000000e+00) (0, 0, 0.00000000000000000000e+00) (0, 0, 0.00000000000000000000e+00) (0, 0, 0.00000000000000000000e+00) (0, 0, 0.00000000000000000000e+00) (0, 0, 0.00000000000000000000e+00) (0, 0, 0.00000000000000000000e+00) (0, 0, 0.00000000000000000000e+00) (0, 0, 0.00000000000000000000e+00) (0, 0, 0.00000000000000000000e+00) (0, 0, 0.00000000000000000000e+00) (0, 0, 0.00000000000000000000e+00) (0, 0, 0.00000000000000000000e+00) (0, 0, 0.00000000000000000000e+00) (0, 0, 0.00000000000000000000e+00) (0, 0, 0.00000000000000000000e+00) (0, 0, 0.00000000000000000000e+00) (0, 0, 0.00000000000000000000e+00) (0, 0, 0.00000000000000000000e+00) (0, 0, 0.00000000000000000000e+00) (0, 0, 0.00000000000000000000e+00) (0, 0, 0.00000000000000000000e+00) (0, 0, 0.00000000000000000000e+00) (0, 0, 0.00000000000000000000e+00) (0, 0, 0.00000000000000000000e+00) (0, 0, 0.00000000000000000000e+00) (0, 0, 0.00000000000000000000e+00) (0, 0, 0.00000000000000000000e+00) (0, 0, 0.00000000000000000000e+00) (0, 0, 0.00000000000000000000e+00) (0, 0, 0.00000000000000000000e+00) (0, 0, 0.00000000000000000000e+00) (0, 0, 0.00000000000000000000e+00) (0, 0, 0.00000000000000000000e+00) (0, 0, 0.00000000000000000000e+00) (0, 0, 0.00000000000000000000e+00) (0, 0, 0.00000000000000000000e+00) (0, 0, 0.00000000000000000000e+00) (0, 0, 0.00000000000000000000e+00) (0, 0, 0.00000000000000000000e+00) (0, 0, 0.00000000000000000000e+00) (0, 0, 0.00000000000000000000e+00) (0, 0, 0.00000000000000000000e+00) (0, 0, 0.00000000000000000000e+00) (0, 0, 0.00000000000000000000e+00) (0, 0, 0.00000000000000000000e+00) (0, 0, 0.00000000000000000000e+00) (0, 0, 0.00000000000000000000e+00) (0, 0, 0.00000000000000000000e+00) (0, 0, 0.00000000000000000000e+00) (0, 0, 0.00000000000000000000e+00) (0, 0, 0.00000000000000000000e+00) (0, 0, 0.00000000000000000000e+00) (0, 0, 0.00000000000000000000e+00) (0, 0, 0.00000000000000000000e+00) (0, 0, 0.00000000000000000000e+00) (0, 0, 0.00000000000000000000e+00) (0, 0, 0.00000000000000000000e+00) (0, 0, 0.00000000000000000000e+00) (0, 0, 0.00000000000000000000e+00) (0, 0, 0.00000000000000000000e+00) (0, 0, 0.00000000000000000000e+00) (0, 0, 0.00000000000000000000e+00) (0, 0, 0.00000000000000000000e+00) (0, 0, 0.00000000000000000000e+00) (0, 0, 0.00000000000000000000e+00) (0, 0, 0.00000000000000000000e+00) (0, 0, 0.00000000000000000000e+00) (0, 0, 0.00000000000000000000e+00) (0, 0, 0.00000000000000000000e+00) (0, 0, 0.00000000000000000000e+00) (0, 0, 0.00000000000000000000e+00) (0, 0, 0.00000000000000000000e+00) (0, 0, 0.00000000000000000000e+00) (0, 0, 0.00000000000000000000e+00) (0, 0, 0.00000000000000000000e+00) (0, 0, 0.00000000000000000000e+00) (0, 0, 0.00000000000000000000e+00) (0, 0, 0.00000000000000000000e+00) (0, 0, 0.00000000000000000000e+00) (0, 0, 0.00000000000000000000e+00) (0, 0, 0.00000000000000000000e+00) (0, 0, 0.00000000000000000000e+00) (0, 0, 0.00000000000000000000e+00) (0, 0, 0.00000000000000000000e+00) (0, 0, 0.00000000000000000000e+00) (0, 0, 0.00000000000000000000e+00) (0, 0, 0.00000000000000000000e+00) (0, 0, 0.00000000000000000000e+00) (0, 0, 0.00000000000000000000e+00) (0, 0, 0.00000000000000000000e+00) (0, 0, 0.00000000000000000000e+00) (0, 0, 0.00000000000000000000e+00) (0, 0, 0.00000000000000000000e+00) (0, 0, 0.00000000000000000000e+00) (0, 0, 0.00000000000000000000e+00) (0, 0, 0.00000000000000000000e+00) (0, 0, 0.00000000000000000000e+00) (0, 0, 0.00000000000000000000e+00) (0, 0, 0.00000000000000000000e+00) (0, 0, 0.00000000000000000000e+00) (0, 0, 0.00000000000000000000e+00) (0, 0, 0.00000000000000000000e+00) (0, 0, 0.00000000000000000000e+00) (0, 0, 0.00000000000000000000e+00) (0, 0, 0.00000000000000000000e+00) (0, 0, 0.00000000000000000000e+00) (0, 0, 0.00000000000000000000e+00) (0, 0, 0.00000000000000000000e+00) (0, 0, 0.00000000000000000000e+00) (0, 0, 0.00000000000000000000e+00) (0, 0, 0.00000000000000000000e+00) (0, 0, 0.00000000000000000000e+00) (0, 0, 0.00000000000000000000e+00) (0, 0, 0.00000000000000000000e+00) (0, 0, 0.00000000000000000000e+00) (0, 0, 0.00000000000000000000e+00) (0, 0, 0.00000000000000000000e+00) (0, 0, 0.00000000000000000000e+00) (0, 0, 0.00000000000000000000e+00) (0, 0, 0.00000000000000000000e+00) (0, 0, 0.00000000000000000000e+00) (0, 0, 0.00000000000000000000e+00) (0, 0, 0.00000000000000000000e+00) (0, 0, 0.00000000000000000000e+00) (0, 0, 0.00000000000000000000e+00) (0, 0, 0.00000000000000000000e+00) (0, 0, 0.00000000000000000000e+00) (0, 0, 0.00000000000000000000e+00) (0, 0, 0.00000000000000000000e+00) (0, 0, 0.00000000000000000000e+00) (0, 0, 0.00000000000000000000e+00) (0, 0, 0.00000000000000000000e+00) (0, 0, 0.00000000000000000000e+00) (0, 0, 0.00000000000000000000e+00) (0, 0, 0.00000000000000000000e+00) (0, 0, 0.00000000000000000000e+00) (0, 0, 0.00000000000000000000e+00) (0, 0, 0.00000000000000000000e+00) (0, 0, 0.00000000000000000000e+00) (0, 0, 0.00000000000000000000e+00) (0, 0, 0.00000000000000000000e+00) (0, 0, 0.00000000000000000000e+00) (0, 0, 0.00000000000000000000e+00) (0, 0, 0.00000000000000000000e+00) (0, 0, 0.00000000000000000000e+00) (0, 0, 0.00000000000000000000e+00) (0, 0, 0.00000000000000000000e+00) (0, 0, 0.00000000000000000000e+00) (0, 0, 0.00000000000000000000e+00) (0, 0, 0.00000000000000000000e+00) (0, 0, 0.00000000000000000000e+00) (0, 0, 0.00000000000000000000e+00) (0, 0, 0.00000000000000000000e+00) (0, 0, 0.00000000000000000000e+00) (0, 0, 0.00000000000000000000e+00) (0, 0, 0.00000000000000000000e+00) (0, 0, 0.00000000000000000000e+00) (0, 0, 0.00000000000000000000e+00) (0, 0, 0.00000000000000000000e+00) (0, 0, 0.00000000000000000000e+00) (0, 0, 0.00000000000000000000e+00) (0, 0, 0.00000000000000000000e+00) (0, 0, 0.00000000000000000000e+00) (785, 5, 5.00000000000000000000e-01) (785, 5, 5.00000000000000000000e-01) (785, 5, 5.00000000000000000000e-01) (785, 5, 5.00000000000000000000e-01) (785, 5, 5.00000000000000000000e-01) (785, 5, 5.00000000000000000000e-01) (785, 5, 5.00000000000000000000e-01) (785, 5, 5.00000000000000000000e-01) (785, 5, 5.00000000000000000000e-01) (785, 5, 5.00000000000000000000e-01) (785, 5, 5.00000000000000000000e-01) (785, 5, 5.00000000000000000000e-01) (785, 5, 5.00000000000000000000e-01) (785, 5, 5.00000000000000000000e-01) (785, 5, 5.00000000000000000000e-01) (785, 5, 5.00000000000000000000e-01) (785, 5, 5.00000000000000000000e-01) (785, 5, 5.00000000000000000000e-01) (785, 5, 5.00000000000000000000e-01) (0, 5, 5.00000000000000000000e-01) (20, 5, 5.00000000000000000000e-01) (20, 5, 5.00000000000000000000e-01) (20, 5, 5.00000000000000000000e-01) (20, 5, 5.00000000000000000000e-01) (20, 5, 5.00000000000000000000e-01) (20, 5, 5.00000000000000000000e-01) (20, 5, 5.00000000000000000000e-01) (20, 5, 5.00000000000000000000e-01) (20, 5, 5.00000000000000000000e-01) (20, 5, 5.00000000000000000000e-01) (20, 5, 5.00000000000000000000e-01) (20, 5, 5.00000000000000000000e-01) (20, 5, 5.00000000000000000000e-01) (20, 5, 5.00000000000000000000e-01) (20, 5, 5.00000000000000000000e-01) (0, 5, 5.00000000000000000000e-01) (16, 5, 5.00000000000000000000e-01) (16, 5, 5.00000000000000000000e-01) (16, 5, 5.00000000000000000000e-01) (16, 5, 5.00000000000000000000e-01) (16, 5, 5.00000000000000000000e-01) (16, 5, 5.00000000000000000000e-01) (16, 5, 5.00000000000000000000e-01) (16, 5, 5.00000000000000000000e-01) (16, 5, 5.00000000000000000000e-01) (16, 5, 5.00000000000000000000e-01) (0, 5, 5.00000000000000000000e-01) 
connections (connected_to_neuron, weight)=(0, -9.56852734088897705078e-03) (1, 3.40376570820808410645e-02) (2, -6.98534846305847167969e-02) (3, -8.94751250743865966797e-02) (4, -7.34270066022872924805e-02) (5, -5.76797835528850555420e-02) (6, -9.80196818709373474121e-02) (7, -6.83499723672866821289e-02) (8, -7.25315734744071960449e-02) (9, -1.16109177470207214355e-02) (10, -8.03601965308189392090e-02) (11, -9.65280905365943908691e-02) (12, -2.53837630152702331543e-02) (13, 9.12482962012290954590e-02) (14, 6.44732639193534851074e-02) (15, -2.00676321983337402344e-02) (16, -7.44753554463386535645e-02) (17, -9.72993448376655578613e-02) (18, 3.19826677441596984863e-02) (19, -1.76744908094406127930e-02) (20, 9.03244838118553161621e-02) (21, 1.98910385370254516602e-03) (22, -4.11825478076934814453e-02) (23, 6.33083283901214599609e-03) (24, 1.08866468071937561035e-02) (25, 9.73929390311241149902e-02) (26, 7.91801735758781433105e-02) (27, -5.22727482020854949951e-02) (28, 3.08954045176506042480e-02) (29, 4.09572795033454895020e-02) (30, 3.96074429154396057129e-02) (31, -7.86731243133544921875e-02) (32, -2.50050649046897888184e-02) (33, 6.97539672255516052246e-02) (34, -6.81482553482055664062e-02) (35, 1.56792253255844116211e-03) (36, -8.79258215427398681641e-02) (37, -6.61679357290267944336e-02) (38, 3.27632315456867218018e-02) (39, -6.32767975330352783203e-02) (40, 2.16596554964780807495e-02) (41, 5.31172305345535278320e-02) (42, -6.01422190666198730469e-02) (43, 8.94157588481903076172e-02) (44, 6.24652542173862457275e-02) (45, -9.37025025486946105957e-02) (46, -2.47613228857517242432e-02) (47, 6.69043585658073425293e-02) (48, -9.44664776325225830078e-02) (49, -9.37911272048950195312e-02) (50, -4.92505617439746856689e-02) (51, -9.94870811700820922852e-02) (52, 1.07415094971656799316e-02) (53, 1.07736736536026000977e-02) (54, 6.84376806020736694336e-03) (55, -7.83718377351760864258e-02) (56, 8.16661119461059570312e-03) (57, -1.39760673046112060547e-02) (58, -3.06445881724357604980e-02) (59, -6.09379820525646209717e-02) (60, -7.30187818408012390137e-02) (61, -9.10371467471122741699e-02) (62, -3.96111086010932922363e-02) (63, 2.07225745543837547302e-03) (64, 7.98415839672088623047e-02) (65, -1.43335284665226936340e-02) (66, -9.20855849981307983398e-02) (67, 9.22262743115425109863e-02) (68, 5.23030534386634826660e-02) (69, 4.44227010011672973633e-02) (70, -9.22739505767822265625e-02) (71, -1.02607004344463348389e-01) (72, -4.03410717844963073730e-02) (73, -3.98669689893722534180e-02) (74, -9.45089459419250488281e-02) (75, -9.97849330306053161621e-02) (76, -3.09888310730457305908e-02) (77, 1.23190032318234443665e-02) (78, -1.00631594657897949219e-01) (79, -4.29997732862830162048e-03) (80, 3.23999486863613128662e-02) (81, -4.46872077882289886475e-02) (82, -8.46272706985473632812e-03) (83, -5.86050674319267272949e-02) (84, 6.60864636301994323730e-02) (85, 9.83810350298881530762e-02) (86, -3.69769036769866943359e-02) (87, -2.57469266653060913086e-02) (88, -1.55950337648391723633e-02) (89, 3.14599573612213134766e-02) (90, 1.06183877214789390564e-02) (91, 1.05692958459258079529e-02) (92, 5.10011911392211914062e-02) (93, 1.19598455727100372314e-01) (94, 7.57334660738706588745e-03) (95, 1.23349964618682861328e-01) (96, 3.63040454685688018799e-02) (97, -3.67029709741473197937e-03) (98, 8.20652097463607788086e-02) (99, 1.57432973384857177734e-01) (100, 6.98357671499252319336e-02) (101, 6.19305670261383056641e-02) (102, -3.55280078947544097900e-02) (103, -2.77976356446743011475e-02) (104, -3.60073000192642211914e-02) (105, -5.51980454474687576294e-03) (106, -2.72651687264442443848e-02) (107, -6.91731926053762435913e-04) (108, -8.71494188904762268066e-02) (109, -1.96293294429779052734e-02) (110, 8.63911733031272888184e-02) (111, 3.79968956112861633301e-02) (112, 3.56834605336189270020e-02) (113, -2.20715478062629699707e-02) (114, 7.93918445706367492676e-02) (115, 1.94335530977696180344e-03) (116, -2.52540390938520431519e-02) (117, -4.83804307878017425537e-02) (118, 9.23320949077606201172e-02) (119, 7.42196142673492431641e-02) (120, 9.26056429743766784668e-02) (121, 6.05628043413162231445e-02) (122, 2.27207187563180923462e-02) (123, 4.17697504162788391113e-02) (124, 4.39947731792926788330e-02) (125, 9.94860082864761352539e-02) (126, 8.46802815794944763184e-02) (127, 1.04873917996883392334e-01) (128, 2.00962033122777938843e-02) (129, 5.79823106527328491211e-02) (130, 5.27324602007865905762e-02) (131, -5.79479895532131195068e-03) (132, 2.93341348879039287567e-03) (133, 2.71575003862380981445e-02) (134, -8.01473036408424377441e-02) (135, -2.23740432411432266235e-02) (136, -5.07385767996311187744e-02) (137, 8.11761170625686645508e-02) (138, 9.81227234005928039551e-02) (139, -4.58987466990947723389e-02) (140, -4.32891845703125000000e-02) (141, 8.45139101147651672363e-02) (142, 9.29109603166580200195e-02) (143, 1.00177600979804992676e-01) (144, -1.89771261066198348999e-02) (145, 1.29145503044128417969e-01) (146, 4.16203029453754425049e-02) (147, 8.80657136440277099609e-02) (148, 4.01220694184303283691e-02) (149, 7.24351108074188232422e-02) (150, 2.94911377131938934326e-02) (151, 7.63796269893646240234e-02) (152, 3.22957858443260192871e-02) (153, 6.99846148490905761719e-02) (154, -2.13615167886018753052e-02) (155, -5.62006868422031402588e-02) (156, 2.00476823374629020691e-03) (157, 8.76493975520133972168e-02) (158, 1.17314971983432769775e-01) (159, -4.96881967410445213318e-03) (160, -6.57801181077957153320e-02) (161, -1.13882668316364288330e-01) (162, -1.68769851326942443848e-01) (163, 2.11604349315166473389e-02) (164, -5.95976337790489196777e-02) (165, 2.62857377529144287109e-02) (166, -2.51103192567825317383e-02) (167, -1.93159431219100952148e-02) (168, -8.89672338962554931641e-03) (169, -2.28280499577522277832e-02) (170, 3.57259735465049743652e-02) (171, 5.16694411635398864746e-02) (172, -1.27944443374872207642e-02) (173, 7.11539983749389648438e-02) (174, 4.52042743563652038574e-02) (175, 1.12706169486045837402e-01) (176, 7.86825492978096008301e-02) (177, -3.87027300894260406494e-02) (178, -6.66086822748184204102e-02) (179, -1.23269613832235336304e-02) (180, 2.19732541590929031372e-02) (181, 7.52765685319900512695e-02) (182, 2.62304078787565231323e-02) (183, -4.37446013092994689941e-02) (184, 4.16764952242374420166e-02) (185, -1.47648677229881286621e-01) (186, 2.18199361115694046021e-02) (187, 1.42348662018775939941e-01) (188, 6.56420290470123291016e-02) (189, -9.85679104924201965332e-02) (190, -4.50095459818840026855e-02) (191, -1.64969325065612792969e-01) (192, 3.72960162349045276642e-03) (193, 9.47887524962425231934e-02) (194, -8.99897664785385131836e-02) (195, 3.57399173080921173096e-02) (196, -1.94588787853717803955e-02) (197, -6.85219606384634971619e-03) (198, -6.90681114792823791504e-02) (199, 8.30378606915473937988e-02) (200, 7.42293223738670349121e-02) (201, 6.04185350239276885986e-02) (202, 1.17087485268712043762e-02) (203, -5.03618642687797546387e-02) (204, 1.70361474156379699707e-02) (205, -7.19597786664962768555e-02) (206, 1.62344221025705337524e-02) (207, 6.54667392373085021973e-02) (208, 5.91913498938083648682e-02) (209, 3.75146232545375823975e-02) (210, 1.51376664638519287109e-01) (211, 1.57701432704925537109e-01) (212, 9.99369919300079345703e-02) (213, 8.30969288945198059082e-02) (214, -7.47536169365048408508e-03) (215, 5.38080744445323944092e-02) (216, -6.91458880901336669922e-02) (217, 2.56131403148174285889e-03) (218, -3.14605347812175750732e-02) (219, -7.53300860524177551270e-02) (220, 4.00831438601016998291e-02) (221, -1.30255557596683502197e-02) (222, 9.48242172598838806152e-02) (223, -6.92798523232340812683e-03) (224, -8.06212350726127624512e-02) (225, 9.68151390552520751953e-02) (226, -5.51123134791851043701e-02) (227, -4.19751368463039398193e-03) (228, -9.17341373860836029053e-03) (229, -1.58854741603136062622e-02) (230, -7.70681798458099365234e-02) (231, -2.10531502962112426758e-02) (232, -8.80533605813980102539e-02) (233, 2.81865894794464111328e-02) (234, -7.44120925664901733398e-02) (235, -2.94596776366233825684e-02) (236, -4.97868061065673828125e-02) (237, 5.86805725470185279846e-03) (238, 4.51324991881847381592e-02) (239, 4.98245470225811004639e-02) (240, -1.02877281606197357178e-01) (241, 6.99967667460441589355e-02) (242, 4.59343418478965759277e-02) (243, 3.76836163923144340515e-03) (244, 1.10100209712982177734e-01) (245, -1.09639532864093780518e-01) (246, 1.46002387627959251404e-02) (247, 2.67499610781669616699e-02) (248, 1.00531959906220436096e-02) (249, -2.77573149651288986206e-02) (250, 5.85259608924388885498e-02) (251, 4.69137132167816162109e-02) (252, 2.87263101199641823769e-04) (253, 3.66131551563739776611e-02) (254, -6.53011873364448547363e-02) (255, -5.47245901543647050858e-04) (256, -7.64138950034976005554e-03) (257, -6.85731843113899230957e-02) (258, -1.05526916682720184326e-01) (259, -9.65308994054794311523e-02) (260, -9.41670686006546020508e-03) (261, -1.14984802901744842529e-01) (262, -2.05380290746688842773e-01) (263, -7.04589262604713439941e-02) (264, -2.37670332193374633789e-01) (265, -5.05880117416381835938e-02) (266, -7.23292455077171325684e-02) (267, -3.67343500256538391113e-02) (268, -7.04173147678375244141e-02) (269, -2.16769985854625701904e-02) (270, 3.14548537135124206543e-02) (271, -5.81339634954929351807e-02) (272, 8.47567841410636901855e-02) (273, -1.00989453494548797607e-01) (274, -6.37787133455276489258e-02) (275, 4.72195586189627647400e-03) (276, -7.05177783966064453125e-02) (277, -6.08384758234024047852e-02) (278, 9.82191637158393859863e-02) (279, 8.38207006454467773438e-02) (280, -3.12588214874267578125e-02) (281, 4.05125319957733154297e-02) (282, 1.71211771667003631592e-02) (283, 4.08245101571083068848e-02) (284, -6.67540505528450012207e-02) (285, -1.74677949398756027222e-02) (286, -1.07944287359714508057e-01) (287, -2.02977091073989868164e-01) (288, -2.15773895382881164551e-01) (289, -1.79377883672714233398e-01) (290, -3.21324259042739868164e-01) (291, -3.45978051424026489258e-01) (292, -2.26051583886146545410e-01) (293, -2.99894601106643676758e-01) (294, -3.03550940006971359253e-02) (295, 2.45042536407709121704e-02) (296, -1.01251713931560516357e-01) (297, -6.13317117094993591309e-02) (298, -5.76395131647586822510e-02) (299, -1.23394325375556945801e-01) (300, -3.57905700802803039551e-02) (301, -6.26632273197174072266e-02) (302, -7.99218639731407165527e-02) (303, -8.34749788045883178711e-02) (304, 6.05104081332683563232e-02) (305, 1.08153045177459716797e-01) (306, -3.53969670832157135010e-02) (307, 4.02990207076072692871e-02) (308, -9.36704054474830627441e-02) (309, -5.36386631429195404053e-02) (310, 1.24793602153658866882e-02) (311, -4.53620851039886474609e-02) (312, 4.96445298194885253906e-02) (313, -1.48929819464683532715e-01) (314, -2.04217344522476196289e-01) (315, -2.58267939090728759766e-01) (316, -3.61565411090850830078e-01) (317, -2.61426776647567749023e-01) (318, -2.53292679786682128906e-01) (319, -2.36507445573806762695e-01) (320, -2.69058078527450561523e-01) (321, -2.18939006328582763672e-01) (322, 2.03926935791969299316e-02) (323, 7.41184204816818237305e-02) (324, -3.33372838795185089111e-02) (325, 4.40641911700367927551e-03) (326, -1.92402154207229614258e-02) (327, -5.26478067040443420410e-02) (328, -3.22194360196590423584e-02) (329, -7.63068571686744689941e-02) (330, -9.87117588520050048828e-02) (331, -1.32201269268989562988e-01) (332, -3.36154289543628692627e-02) (333, -3.54184396564960479736e-02) (334, -2.23419088870286941528e-02) (335, 4.23718467354774475098e-02) (336, -7.95491188764572143555e-02) (337, 2.75322441011667251587e-02) (338, -2.79543343931436538696e-02) (339, -8.32814350724220275879e-02) (340, 3.45896556973457336426e-02) (341, -2.65090882778167724609e-01) (342, -2.31888964772224426270e-01) (343, -1.51433333754539489746e-01) (344, -2.34871506690979003906e-01) (345, -1.05260089039802551270e-01) (346, -1.05635695159435272217e-01) (347, -5.65477572381496429443e-02) (348, -4.24494333565235137939e-02) (349, 3.26329655945301055908e-02) (350, 2.41533055901527404785e-01) (351, 1.30704253911972045898e-01) (352, -6.98155090212821960449e-02) (353, -9.85050946474075317383e-02) (354, 5.86418174207210540771e-02) (355, -1.39915794134140014648e-01) (356, -5.25358244776725769043e-02) (357, -2.96631380915641784668e-02) (358, -9.10651460289955139160e-02) (359, 3.89673151075839996338e-02) (360, -6.43598884344100952148e-02) (361, -2.90342327207326889038e-02) (362, 9.91065874695777893066e-02) (363, -5.13794794678688049316e-02) (364, -4.12357822060585021973e-02) (365, -4.41341362893581390381e-02) (366, 8.05609077215194702148e-02) (367, 4.20866208150982856750e-03) (368, -1.36230170726776123047e-01) (369, -2.21612095832824707031e-01) (370, -2.14360669255256652832e-01) (371, -7.03457370400428771973e-02) (372, -9.13322344422340393066e-02) (373, -8.09703320264816284180e-02) (374, 1.49248942732810974121e-01) (375, 7.73032009601593017578e-02) (376, 3.60062532126903533936e-02) (377, 2.34425306320190429688e-01) (378, 5.09823597967624664307e-02) (379, -2.74378973990678787231e-02) (380, -4.78514702990651130676e-03) (381, -6.05927519500255584717e-02) (382, 3.53865772485733032227e-02) (383, -1.70993413776159286499e-02) (384, 1.00637331604957580566e-01) (385, -1.97330699302256107330e-03) (386, -4.03898730874061584473e-02) (387, 6.50940909981727600098e-02) (388, 1.12888664007186889648e-01) (389, -6.62642046809196472168e-02) (390, 7.88466110825538635254e-02) (391, -8.47621560096740722656e-02) (392, -6.70710355043411254883e-02) (393, 6.10614828765392303467e-02) (394, -4.72001656889915466309e-02) (395, 1.02445986121892929077e-02) (396, -8.83957222104072570801e-02) (397, -1.72270178794860839844e-01) (398, -4.47993800044059753418e-02) (399, -1.03946417570114135742e-01) (400, 2.88463048636913299561e-02) (401, 1.43827572464942932129e-01) (402, 5.07423765957355499268e-02) (403, -1.05005651712417602539e-01) (404, 1.65364556014537811279e-02) (405, 1.84882462024688720703e-01) (406, 1.46825060248374938965e-01) (407, -7.80369341373443603516e-03) (408, -1.14437662065029144287e-01) (409, -1.11843599006533622742e-02) (410, -9.96108800172805786133e-02) (411, -1.63452893495559692383e-01) (412, -6.40894323587417602539e-02) (413, -1.54382809996604919434e-01) (414, -9.12461802363395690918e-02) (415, -1.61517485976219177246e-01) (416, 2.82142795622348785400e-02) (417, -4.23776023089885711670e-02) (418, -9.01937410235404968262e-02) (419, 3.20047214627265930176e-02) (420, -3.58071252703666687012e-02) (421, 7.54703283309936523438e-02) (422, 3.89061681926250457764e-02) (423, 2.24240235984325408936e-02) (424, 5.88000752031803131104e-02) (425, -1.03500746190547943115e-01) (426, 7.50897601246833801270e-02) (427, 1.46603032946586608887e-01) (428, 5.68407475948333740234e-02) (429, 1.44099891185760498047e-01) (430, -1.10710583627223968506e-01) (431, 5.84073774516582489014e-02) (432, -1.61978185176849365234e-01) (433, 3.43997254967689514160e-02) (434, 1.20359519496560096741e-02) (435, -6.99889706447720527649e-03) (436, -2.04193182289600372314e-02) (437, -5.67188672721385955811e-02) (438, 2.78224982321262359619e-02) (439, 3.45829762518405914307e-02) (440, 5.28414808213710784912e-02) (441, -7.43652582168579101562e-02) (442, 3.39218117296695709229e-02) (443, 5.16033098101615905762e-02) (444, 3.04742436856031417847e-02) (445, 1.07501178979873657227e-01) (446, 1.55609086155891418457e-01) (447, 9.09329950809478759766e-02) (448, 6.81849047541618347168e-02) (449, 7.61548355221748352051e-02) (450, 1.61519311368465423584e-02) (451, -1.38224493712186813354e-02) (452, 1.04123391211032867432e-01) (453, 1.48400086909532546997e-02) (454, 6.87493160367012023926e-02) (455, 5.87225854396820068359e-02) (456, 1.16450088098645210266e-02) (457, -6.20966367423534393311e-02) (458, -1.51200473308563232422e-01) (459, -2.06685900688171386719e-01) (460, -6.72520175576210021973e-02) (461, 8.43770503997802734375e-02) (462, 1.56044915318489074707e-01) (463, 8.23770835995674133301e-02) (464, -5.96973635256290435791e-02) (465, 9.37241688370704650879e-02) (466, -2.72145867347717285156e-02) (467, 9.13604199886322021484e-02) (468, 6.81211054325103759766e-02) (469, 1.73985570669174194336e-01) (470, -3.26571450568735599518e-03) (471, 1.33355274796485900879e-01) (472, 9.76223275065422058105e-02) (473, 8.48251506686210632324e-02) (474, 1.06830671429634094238e-01) (475, -1.84702407568693161011e-02) (476, 3.71761992573738098145e-02) (477, 1.85358077287673950195e-02) (478, -3.46316285431385040283e-02) (479, 6.32828623056411743164e-02) (480, 6.14998862147331237793e-02) (481, 1.47346481680870056152e-01) (482, 1.28545001149177551270e-01) (483, -6.26224204897880554199e-02) (484, -1.64350315928459167480e-01) (485, -1.71980887651443481445e-01) (486, -1.99535503983497619629e-01) (487, -1.93197533488273620605e-01) (488, -2.56609022617340087891e-02) (489, -2.99067571759223937988e-02) (490, 2.40375902503728866577e-02) (491, 1.01153319701552391052e-02) (492, -3.14752683043479919434e-02) (493, -5.72504056617617607117e-03) (494, 2.06237927079200744629e-01) (495, 2.51824837177991867065e-02) (496, 1.14157624542713165283e-01) (497, 7.43340477347373962402e-02) (498, 1.13151602447032928467e-01) (499, 1.29422530531883239746e-01) (500, 5.47250472009181976318e-02) (501, 1.59108191728591918945e-01) (502, 7.23539153113961219788e-03) (503, -5.51261045038700103760e-02) (504, 6.98467269539833068848e-02) (505, -9.72977653145790100098e-02) (506, 1.64403151720762252808e-02) (507, 6.45671114325523376465e-02) (508, 1.15943983197212219238e-01) (509, 8.15911442041397094727e-02) (510, -1.35879637673497200012e-02) (511, -2.92882602661848068237e-02) (512, 3.24647724628448486328e-02) (513, -7.07192346453666687012e-02) (514, -1.87277674674987792969e-01) (515, -1.70955315232276916504e-01) (516, -3.66627797484397888184e-02) (517, 5.08291274309158325195e-03) (518, 9.89939644932746887207e-02) (519, -3.71612347662448883057e-02) (520, -3.01014799624681472778e-02) (521, 1.78057819604873657227e-01) (522, 1.26685380935668945312e-01) (523, 9.68681871891021728516e-02) (524, 6.67334869503974914551e-02) (525, 3.13096046447753906250e-02) (526, 1.58027246594429016113e-01) (527, 1.20674096047878265381e-01) (528, 7.51552507281303405762e-02) (529, -1.95538979023694992065e-02) (530, 1.03959798812866210938e-01) (531, -2.97623258084058761597e-02) (532, 5.76849654316902160645e-02) (533, -4.26248386502265930176e-02) (534, 7.56155420094728469849e-03) (535, 6.57249912619590759277e-02) (536, 9.37948152422904968262e-02) (537, 4.32364596053957939148e-03) (538, -5.63453212380409240723e-02) (539, 1.18933171033859252930e-01) (540, -3.82921211421489715576e-02) (541, -4.89902496337890625000e-02) (542, 5.10338433086872100830e-02) (543, -7.90725573897361755371e-02) (544, 1.04822441935539245605e-01) (545, 1.08419696334749460220e-03) (546, 1.28895342350006103516e-02) (547, 1.10421562567353248596e-02) (548, -9.84844099730253219604e-03) (549, 4.58156540989875793457e-02) (550, 3.47870029509067535400e-02) (551, 1.92181617021560668945e-02) (552, 1.23850248754024505615e-01) (553, 3.07422280311584472656e-02) (554, 1.49602696299552917480e-01) (555, 2.84853465855121612549e-02) (556, 1.07558459043502807617e-01) (557, 3.36492843925952911377e-02) (558, -9.59388837218284606934e-02) (559, 8.60493630170822143555e-02) (560, 2.65993922948837280273e-03) (561, -9.97862964868545532227e-02) (562, -3.78140807151794433594e-02) (563, -3.20666912011802196503e-03) (564, 7.47437551617622375488e-02) (565, 1.14267528057098388672e-01) (566, 4.83967475593090057373e-02) (567, -6.42236396670341491699e-02) (568, 6.64998665452003479004e-02) (569, -7.36793354153633117676e-02) (570, -2.80533079057931900024e-02) (571, -1.04320749640464782715e-01) (572, -1.60328015685081481934e-01) (573, -1.80363953113555908203e-02) (574, -1.31524190306663513184e-01) (575, -9.73360892385244369507e-03) (576, 9.16304215788841247559e-02) (577, -3.15013118088245391846e-02) (578, 1.97242703288793563843e-02) (579, -1.51303196325898170471e-02) (580, 1.21463008224964141846e-01) (581, 6.61146938800811767578e-02) (582, 2.79053021222352981567e-02) (583, 3.55316698551177978516e-02) (584, 1.57329142093658447266e-01) (585, -2.75501608848571777344e-03) (586, 6.12191073596477508545e-02) (587, 1.06393843889236450195e-02) (588, 7.27478340268135070801e-02) (589, 5.52467033267021179199e-02) (590, 1.01419794373214244843e-03) (591, 9.58849303424358367920e-03) (592, 1.69829964637756347656e-01) (593, 1.18271484971046447754e-01) (594, 4.43354099988937377930e-02) (595, -1.17811173200607299805e-01) (596, -1.23271429911255836487e-02) (597, 7.44056925177574157715e-02) (598, 5.97399435937404632568e-02) (599, 1.57313258387148380280e-03) (600, -6.70436620712280273438e-02) (601, -1.73318728804588317871e-01) (602, -6.69207200407981872559e-02) (603, -1.03226408362388610840e-01) (604, -3.79770509898662567139e-02) (605, -4.98899407684803009033e-02) (606, -1.04654364287853240967e-01) (607, -2.11960431188344955444e-02) (608, 1.64743110537528991699e-01) (609, 2.05523878335952758789e-01) (610, 8.58100205659866333008e-02) (611, 7.51557797193527221680e-02) (612, 3.03048058412969112396e-03) (613, 1.11491598188877105713e-01) (614, 8.21467414498329162598e-02) (615, -5.70578165352344512939e-02) (616, -2.17955112457275390625e-02) (617, 3.20363715291023254395e-02) (618, 5.23866415023803710938e-02) (619, -3.04755531251430511475e-02) (620, 8.93827006220817565918e-02) (621, -3.93280107527971267700e-03) (622, 3.60467992722988128662e-02) (623, 1.90655384212732315063e-02) (624, 1.05365728959441184998e-02) (625, 1.19662970304489135742e-01) (626, 2.45930533856153488159e-02) (627, -5.29767870903015136719e-02) (628, -1.06972746551036834717e-01) (629, -4.37844806583598256111e-04) (630, -2.49419324100017547607e-02) (631, 1.74632743000984191895e-02) (632, -1.31691396236419677734e-01) (633, -3.25778834521770477295e-02) (634, -5.16882240772247314453e-02) (635, -1.60631731152534484863e-01) (636, -4.86382953822612762451e-02) (637, 2.57829274050891399384e-03) (638, -6.47571235895156860352e-02) (639, -2.82836835831403732300e-02) (640, 1.04741357266902923584e-01) (641, 2.95216422528028488159e-02) (642, 6.77103027701377868652e-02) (643, -4.72820475697517395020e-02) (644, 2.24188342690467834473e-02) (645, 4.58875969052314758301e-02) (646, -4.44716960191726684570e-03) (647, -8.18617045879364013672e-02) (648, 6.01183138787746429443e-02) (649, -1.32867600768804550171e-03) (650, 3.19619588553905487061e-02) (651, 1.52540341019630432129e-01) (652, -1.20476558804512023926e-02) (653, 9.44275185465812683105e-02) (654, -4.95772659778594970703e-02) (655, -3.25447730720043182373e-02) (656, -7.16939270496368408203e-02) (657, -7.96395074576139450073e-03) (658, 3.91759388148784637451e-02) (659, -3.92390452325344085693e-02) (660, -8.42975452542304992676e-02) (661, -1.97720617055892944336e-01) (662, -9.85305756330490112305e-02) (663, -1.09394885599613189697e-01) (664, -1.30482822656631469727e-01) (665, -1.49127915501594543457e-02) (666, -7.37392157316207885742e-02) (667, -3.62325832247734069824e-03) (668, 2.87882890552282333374e-02) (669, -6.66595920920372009277e-02) (670, 4.82361428439617156982e-02) (671, 2.57306620478630065918e-02) (672, 5.76034858822822570801e-02) (673, 1.22288018465042114258e-02) (674, 7.84486159682273864746e-02) (675, -3.99943487718701362610e-03) (676, 2.55201365798711776733e-02) (677, 3.02283875644207000732e-02) (678, 1.22920293360948562622e-02) (679, 5.85267283022403717041e-02) (680, 5.34110069274902343750e-02) (681, 7.91922435164451599121e-02) (682, 1.33828163146972656250e-01) (683, 6.93145096302032470703e-02) (684, 1.47978514432907104492e-01) (685, 8.04699435830116271973e-02) (686, -2.61063240468502044678e-02) (687, -1.52093600481748580933e-02) (688, -7.81633779406547546387e-02) (689, -5.25986999273300170898e-02) (690, 1.55226187780499458313e-02) (691, -6.73727169632911682129e-02) (692, -3.81645150482654571533e-02) (693, 4.15577925741672515869e-02) (694, 1.79778924211859703064e-03) (695, -6.23950511217117309570e-02) (696, -6.50751516222953796387e-02) (697, -1.76464021205902099609e-03) (698, 3.82504239678382873535e-02) (699, 7.23350122570991516113e-02) (700, 3.08588370680809020996e-02) (701, -1.65816396474838256836e-02) (702, -1.93433463573455810547e-03) (703, -9.18009318411350250244e-03) (704, 1.13657146692276000977e-01) (705, -2.73119807243347167969e-02) (706, 5.29384873807430267334e-02) (707, -8.55787694454193115234e-02) (708, -2.58236395893618464470e-04) (709, -5.28751723468303680420e-02) (710, 1.03270955383777618408e-01) (711, -2.83323973417282104492e-02) (712, 5.14339469373226165771e-02) (713, -9.28878709673881530762e-02) (714, -1.02343939244747161865e-01) (715, -7.83885940909385681152e-02) (716, -1.10145263373851776123e-01) (717, -2.09524594247341156006e-02) (718, -2.13394761085510253906e-02) (719, 5.97662962973117828369e-02) (720, 6.83123692870140075684e-02) (721, -8.77105742692947387695e-02) (722, 9.16783884167671203613e-02) (723, -7.22577795386314392090e-02) (724, 5.02468533813953399658e-02) (725, -1.39670893549919128418e-02) (726, -1.43121853470802307129e-02) (727, 8.97136554121971130371e-02) (728, 8.42682793736457824707e-02) (729, -7.60617554187774658203e-02) (730, 6.20486661791801452637e-02) (731, 1.49057637900114059448e-02) (732, 4.09335875883698463440e-03) (733, -4.56240661442279815674e-02) (734, -1.03321544826030731201e-01) (735, -7.65430368483066558838e-03) (736, 2.10448466241359710693e-02) (737, 6.19916617870330810547e-02) (738, 5.99149204790592193604e-02) (739, -2.68251337110996246338e-02) (740, -1.04266017675399780273e-01) (741, 1.79244093596935272217e-02) (742, 2.62132082134485244751e-02) (743, -1.13918907940387725830e-01) (744, -6.65341839194297790527e-02) (745, -1.46837541833519935608e-02) (746, 8.26282799243927001953e-03) (747, -5.55770136415958404541e-02) (748, -4.73534967750310897827e-03) (749, 3.77971120178699493408e-02) (750, -9.13625136017799377441e-02) (751, -1.03358440101146697998e-02) (752, 5.34885600209236145020e-02) (753, -9.25543978810310363770e-02) (754, 2.34106406569480895996e-02) (755, 4.78748232126235961914e-03) (756, -6.52148574590682983398e-03) (757, -9.09015387296676635742e-02) (758, -5.49886375665664672852e-03) (759, -2.22532227635383605957e-02) (760, -6.69633001089096069336e-02) (761, -4.30846810340881347656e-02) (762, 9.37703549861907958984e-02) (763, 4.21240590512752532959e-02) (764, 1.74666419625282287598e-02) (765, 9.66810509562492370605e-02) (766, -5.48909790813922882080e-02) (767, -4.47218194603919982910e-02) (768, 7.01059028506278991699e-02) (769, -1.02922186255455017090e-01) (770, 3.30221131443977355957e-02) (771, 8.61021578311920166016e-02) (772, 4.84927706420421600342e-02) (773, 3.73118743300437927246e-03) (774, 8.98309275507926940918e-02) (775, 8.32936391234397888184e-02) (776, 6.19561262428760528564e-02) (777, -1.01783201098442077637e-02) (778, -7.55008533596992492676e-02) (779, -4.76274006068706512451e-02) (780, -7.78589919209480285645e-02) (781, -6.67072683572769165039e-02) (782, 4.17431071400642395020e-02) (783, 7.56295844912528991699e-02) (784, -2.71013736724853515625e-01) (0, -3.48462462425231933594e-02) (1, -1.95829421281814575195e-02) (2, 3.42168435454368591309e-02) (3, -2.57477909326553344727e-02) (4, 7.49182030558586120605e-02) (5, -8.80363807082176208496e-02) (6, 7.28891789913177490234e-03) (7, -6.85320049524307250977e-02) (8, -9.51624885201454162598e-02) (9, -5.23177683353424072266e-02) (10, 4.81321290135383605957e-02) (11, -9.86991524696350097656e-02) (12, -8.92068445682525634766e-03) (13, -9.85751077532768249512e-02) (14, 6.98382928967475891113e-02) (15, -8.75626504421234130859e-03) (16, 4.19693067669868469238e-02) (17, 5.95801547169685363770e-02) (18, -6.20205663144588470459e-02) (19, -5.62611259520053863525e-02) (20, 5.18779978156089782715e-02) (21, -7.76622146368026733398e-02) (22, -9.48140025138854980469e-02) (23, -6.17595836520195007324e-02) (24, -5.54319098591804504395e-02) (25, -4.24414053559303283691e-02) (26, -3.96185778081417083740e-02) (27, -2.21391767263412475586e-02) (28, 9.93017032742500305176e-02) (29, -6.39889985322952270508e-02) (30, 1.85991525650024414062e-02) (31, -3.55445370078086853027e-02) (32, 1.64280682802200317383e-02) (33, -4.71840091049671173096e-02) (34, 3.87076810002326965332e-02) (35, -8.65374505519866943359e-03) (36, -3.52203845977783203125e-02) (37, -5.40034025907516479492e-02) (38, 2.33922433108091354370e-02) (39, -2.67993193119764328003e-02) (40, -6.59117195755243301392e-03) (41, -2.79036853462457656860e-02) (42, -2.96471379697322845459e-02) (43, 8.13143327832221984863e-02) (44, -2.48729381710290908813e-02) (45, -5.33523634076118469238e-02) (46, -1.98701787739992141724e-02) (47, -8.22199732065200805664e-02) (48, -9.50542166829109191895e-02) (49, 1.59398764371871948242e-02) (50, -4.09966297447681427002e-02) (51, 5.22144213318824768066e-02) (52, 3.63190844655036926270e-02) (53, -3.67345213890075683594e-02) (54, 9.04548242688179016113e-02) (55, 8.08871760964393615723e-02) (56, 2.08240747451782226562e-02) (57, -4.91637401282787322998e-02) (58, -4.12519983947277069092e-02) (59, 2.01257839798927307129e-02) (60, -1.31527334451675415039e-02) (61, 7.73471519351005554199e-02) (62, 8.45812484622001647949e-02) (63, -9.68220606446266174316e-02) (64, -6.85559585690498352051e-02) (65, 3.13926748931407928467e-02) (66, 7.04097049310803413391e-03) (67, 1.06327505782246589661e-02) (68, 8.12819451093673706055e-02) (69, -5.77776841819286346436e-02) (70, 1.00332498550415039062e-01) (71, -1.06704458594322204590e-02) (72, -3.79246729426085948944e-03) (73, -7.66830146312713623047e-02) (74, -5.10886497795581817627e-02) (75, 6.25471100211143493652e-02) (76, -1.47935654968023300171e-02) (77, 3.64952832460403442383e-02) (78, 8.02674740552902221680e-02) (79, -2.34176591038703918457e-02) (80, -6.22965991497039794922e-02) (81, -6.68263882398605346680e-02) (82, -7.12150409817695617676e-02) (83, 7.40247443318367004395e-02) (84, -3.56090813875198364258e-03) (85, -8.07602033019065856934e-02) (86, 5.49119189381599426270e-02) (87, -8.27368348836898803711e-02) (88, -2.99239456653594970703e-02) (89, -8.66870582103729248047e-02) (90, 3.56430374085903167725e-02) (91, 4.89722415804862976074e-02) (92, 8.10559988021850585938e-02) (93, 9.51536372303962707520e-03) (94, 5.63924573361873626709e-02) (95, -7.80665874481201171875e-02) (96, -4.95190136134624481201e-02) (97, -5.70115707814693450928e-02) (98, 1.69612723402678966522e-03) (99, -1.33010730147361755371e-01) (100, -5.71920908987522125244e-02) (101, -8.85020825080573558807e-04) (102, 2.25095078349113464355e-02) (103, 1.15037493407726287842e-01) (104, 6.19910731911659240723e-02) (105, 4.89956066012382507324e-02) (106, 2.74507813155651092529e-02) (107, 9.38558131456375122070e-02) (108, -5.38826063275337219238e-02) (109, -3.51401418447494506836e-03) (110, -3.10446172952651977539e-02) (111, -1.33384913206100463867e-02) (112, 2.96595916152000427246e-02) (113, -2.25965678691864013672e-03) (114, -3.93137522041797637939e-02) (115, -7.39476010203361511230e-02) (116, 1.30731621757149696350e-02) (117, -9.04208794236183166504e-02) (118, -6.87092989683151245117e-02) (119, 5.92106804251670837402e-02) (120, -1.10001936554908752441e-01) (121, 3.39952595531940460205e-02) (122, 1.67187117040157318115e-02) (123, -1.18178017437458038330e-01) (124, -8.15032869577407836914e-02) (125, -1.58709496259689331055e-01) (126, -2.13001951575279235840e-01) (127, -1.90523549914360046387e-01) (128, -1.82022556662559509277e-01) (129, -7.06190839409828186035e-02) (130, 7.98895582556724548340e-03) (131, -9.26289856433868408203e-02) (132, -3.87314241379499435425e-03) (133, -3.72527688741683959961e-02) (134, 9.01067703962326049805e-02) (135, 6.12471029162406921387e-02) (136, 4.38138209283351898193e-02) (137, 1.26165822148323059082e-02) (138, 4.67567965388298034668e-02) (139, -8.57788696885108947754e-02) (140, -9.02294144034385681152e-02) (141, -8.42878222465515136719e-02) (142, -1.05463212821632623672e-03) (143, 3.73462475836277008057e-02) (144, -5.24322316050529479980e-03) (145, 4.08791191875934600830e-02) (146, 1.48643311113119125366e-02) (147, -1.47637352347373962402e-01) (148, -2.91708745062351226807e-02) (149, -1.96699202060699462891e-01) (150, -2.25973978638648986816e-01) (151, -2.06276163458824157715e-01) (152, -1.46747371181845664978e-02) (153, -1.29436865448951721191e-01) (154, -4.43274080753326416016e-01) (155, -4.08074885606765747070e-01) (156, -4.76627767086029052734e-01) (157, -3.42545211315155029297e-01) (158, -2.52506613731384277344e-01) (159, -1.50438532233238220215e-01) (160, -1.10896646976470947266e-01) (161, -1.75491318106651306152e-01) (162, -5.72244934737682342529e-02) (163, -6.98697119951248168945e-02) (164, -9.14750993251800537109e-02) (165, -6.07622973620891571045e-02) (166, -8.24039727449417114258e-02) (167, -9.18468609452247619629e-02) (168, 6.10767230391502380371e-02) (169, 6.50240853428840637207e-02) (170, -7.76223167777061462402e-02) (171, 6.42460659146308898926e-02) (172, 6.36196061968803405762e-02) (173, -6.87854131683707237244e-03) (174, -5.96524775028228759766e-02) (175, -3.99957895278930664062e-02) (176, -1.59180134534835815430e-01) (177, -1.66849479079246520996e-01) (178, -8.45009386539459228516e-02) (179, -1.55651733279228210449e-01) (180, -1.10938876867294311523e-01) (181, 3.39363850653171539307e-02) (182, 1.12424448132514953613e-01) (183, 6.32762387394905090332e-02) (184, 5.86019381880760192871e-02) (185, 6.30802810192108154297e-02) (186, 9.26965996623039245605e-02) (187, -3.61616425216197967529e-02) (188, -7.21560493111610412598e-02) (189, -2.52197742462158203125e-01) (190, -1.16643048822879791260e-01) (191, -1.06332808732986450195e-01) (192, -1.77836731076240539551e-01) (193, -1.32004350423812866211e-01) (194, -5.64927458763122558594e-02) (195, -6.02722540497779846191e-02) (196, -2.30065803043544292450e-03) (197, -3.43641750514507293701e-02) (198, -3.92647348344326019287e-02) (199, -4.88885529339313507080e-02) (200, -6.98131024837493896484e-02) (201, -7.08602368831634521484e-02) (202, -6.03664629161357879639e-02) (203, 2.82789207994937896729e-02) (204, -1.05486065149307250977e-01) (205, -5.98567537963390350342e-02) (206, 1.14373177289962768555e-01) (207, 1.13727167248725891113e-01) (208, 1.16592533886432647705e-01) (209, 2.51900523900985717773e-01) (210, 3.24625849723815917969e-01) (211, 2.99707233905792236328e-01) (212, 4.00819748640060424805e-01) (213, 1.16291120648384094238e-01) (214, -2.47376281768083572388e-02) (215, -9.76838171482086181641e-02) (216, -3.93579946830868721008e-03) (217, -4.66967523097991943359e-02) (218, -3.20168197154998779297e-01) (219, -2.70410954952239990234e-01) (220, -9.32541117072105407715e-02) (221, -1.95263177156448364258e-01) (222, -8.88599306344985961914e-02) (223, 5.12947551906108856201e-02) (224, -5.23152574896812438965e-03) (225, 2.41242293268442153931e-02) (226, -8.20053294301033020020e-02) (227, 1.02979287505149841309e-01) (228, 2.81960684806108474731e-02) (229, -5.21986000239849090576e-02) (230, 6.13164454698562622070e-02) (231, 1.02454990148544311523e-01) (232, 9.31234508752822875977e-02) (233, 1.07389651238918304443e-01) (234, 7.37755224108695983887e-02) (235, 8.38060081005096435547e-02) (236, 2.50594079494476318359e-01) (237, 2.94832944869995117188e-01) (238, 5.20431213080883026123e-02) (239, 1.42612773925065994263e-02) (240, 1.51530653238296508789e-01) (241, 5.08830472826957702637e-02) (242, -3.24353724718093872070e-02) (243, 8.50482955574989318848e-02) (244, 2.35246457159519195557e-02) (245, -5.58059737086296081543e-02) (246, -2.50640094280242919922e-01) (247, -2.20559924840927124023e-01) (248, -3.17245185375213623047e-01) (249, -1.34473592042922973633e-01) (250, -1.24633900821208953857e-01) (251, 9.09978672862052917480e-02) (252, 4.69566471874713897705e-02) (253, 2.75235413573682308197e-03) (254, 9.12069678306579589844e-02) (255, -6.69582223054021596909e-04) (256, -6.95588812232017517090e-02) (257, 1.38879537582397460938e-01) (258, 5.90980127453804016113e-02) (259, 6.83322846889495849609e-02) (260, -6.51291431859135627747e-03) (261, 1.94303140044212341309e-01) (262, 8.74411389231681823730e-02) (263, 1.80211931467056274414e-01) (264, 2.98204272985458374023e-01) (265, 4.98842485249042510986e-02) (266, 2.12122634053230285645e-01) (267, 3.77633720636367797852e-01) (268, -6.68185937684029340744e-04) (269, 3.65884043276309967041e-02) (270, -4.29860502481460571289e-03) (271, -1.47824019193649291992e-01) (272, 4.36464399099349975586e-02) (273, -5.49928694963455200195e-02) (274, -2.37550124526023864746e-01) (275, -3.08896601200103759766e-01) (276, -2.07803234457969665527e-01) (277, -1.24698139727115631104e-01) (278, 7.28515982627868652344e-02) (279, 1.32647166028618812561e-02) (280, 6.05001524090766906738e-02) (281, -6.75647482275962829590e-02) (282, 5.96967227756977081299e-02) (283, 9.20398980379104614258e-02) (284, 7.71056339144706726074e-02) (285, 6.46285489201545715332e-02) (286, 1.93714901804924011230e-01) (287, 1.37035518884658813477e-01) (288, 1.01735122501850128174e-01) (289, 1.47761180996894836426e-01) (290, 7.64604434370994567871e-02) (291, 1.92808687686920166016e-01) (292, 1.21193140745162963867e-01) (293, 2.96524614095687866211e-01) (294, 1.12541235983371734619e-01) (295, -6.27580136060714721680e-02) (296, -2.82336901873350143433e-02) (297, -1.76039838697761297226e-03) (298, 1.39820575714111328125e-01) (299, 1.93436130881309509277e-01) (300, 1.15604303777217864990e-01) (301, -9.62201133370399475098e-03) (302, -3.33126343321055173874e-04) (303, -1.25523358583450317383e-01) (304, -7.66674662008881568909e-03) (305, 2.36336383968591690063e-02) (306, 1.73411127179861068726e-02) (307, -5.43163605034351348877e-02) (308, -8.75332280993461608887e-02) (309, 1.49305723607540130615e-02) (310, 7.33618810772895812988e-02) (311, 1.09034344553947448730e-01) (312, 2.17620506882667541504e-02) (313, 7.34040737152099609375e-02) (314, 9.54408794641494750977e-02) (315, 3.48629020154476165771e-02) (316, 8.52624475955963134766e-02) (317, 1.02781414985656738281e-01) (318, 1.97467312216758728027e-01) (319, 1.68898552656173706055e-01) (320, 1.15390652790665626526e-02) (321, 7.80337080359458923340e-02) (322, -1.19372569024562835693e-01) (323, -6.28730133175849914551e-02) (324, 1.15122660994529724121e-01) (325, 3.51961761713027954102e-01) (326, 1.14073991775512695312e-01) (327, 8.36391448974609375000e-02) (328, 3.41225624084472656250e-01) (329, 2.27823287248611450195e-01) (330, -5.04363477230072021484e-02) (331, -3.55834066867828369141e-02) (332, -7.01925437897443771362e-03) (333, -7.62744471430778503418e-02) (334, 8.86478275060653686523e-03) (335, 2.29923874139785766602e-02) (336, 9.32393148541450500488e-02) (337, -7.20311626791954040527e-02) (338, 7.61813223361968994141e-02) (339, -9.01660025119781494141e-02) (340, 2.33257468789815902710e-02) (341, 9.32229831814765930176e-02) (342, 2.01818317174911499023e-01) (343, -1.18284551426768302917e-02) (344, 8.64129215478897094727e-02) (345, -7.31720104813575744629e-02) (346, 1.15728164091706275940e-02) (347, -5.22007830440998077393e-02) (348, -2.01494291424751281738e-01) (349, -3.21166276931762695312e-01) (350, -2.88641571998596191406e-01) (351, 2.59659402072429656982e-02) (352, 7.44599550962448120117e-02) (353, 1.48928001523017883301e-01) (354, 6.64853975176811218262e-02) (355, 1.76934748888015747070e-01) (356, 3.04918050765991210938e-01) (357, 2.84948516637086868286e-02) (358, -1.96996219456195831299e-02) (359, 2.87127811461687088013e-02) (360, 7.21501260995864868164e-02) (361, -1.25487923622131347656e-01) (362, -1.14346660673618316650e-01) (363, 2.75313928723335266113e-02) (364, -5.68655729293823242188e-02) (365, 1.48321278393268585205e-02) (366, -2.04042997211217880249e-02) (367, -6.40059858560562133789e-02) (368, -1.05575639754533767700e-02) (369, -5.08727058768272399902e-02) (370, -2.02936194837093353271e-02) (371, 4.40263468772172927856e-03) (372, 9.00866985321044921875e-02) (373, -1.79480835795402526855e-02) (374, -3.80675829946994781494e-02) (375, -1.88604012131690979004e-01) (376, -3.84801387786865234375e-01) (377, -1.91784918308258056641e-01) (378, -1.13291919231414794922e-01) (379, 1.86204478144645690918e-01) (380, 1.16936124861240386963e-01) (381, 2.28685997426509857178e-02) (382, 1.10932290554046630859e-01) (383, 2.74319082498550415039e-01) (384, 3.06679122149944305420e-02) (385, -3.30215096473693847656e-02) (386, -2.44919024407863616943e-02) (387, -1.85487702488899230957e-01) (388, -1.13806694746017456055e-01) (389, -9.74537804722785949707e-02) (390, -1.05947613716125488281e-01) (391, 5.75035810470581054688e-05) (392, -4.19158898293972015381e-02) (393, -9.50281172990798950195e-02) (394, -6.50039911270141601562e-02) (395, -1.49765145033597946167e-02) (396, -9.39399097114801406860e-03) (397, -1.00792765617370605469e-01) (398, -4.01830784976482391357e-02) (399, -5.73107227683067321777e-02) (400, -8.69332253932952880859e-02) (401, -1.59508332610130310059e-01) (402, -1.55800104141235351562e-01) (403, -3.36716383695602416992e-01) (404, -3.03255081176757812500e-01) (405, -2.06417664885520935059e-02) (406, -9.79066044092178344727e-02) (407, 1.28356784582138061523e-01) (408, 1.98565319180488586426e-01) (409, 9.53845083713531494141e-02) (410, 6.22864924371242523193e-02) (411, 1.16692543029785156250e-01) (412, 7.02880918979644775391e-02) (413, 2.83250436186790466309e-02) (414, -1.51451546698808670044e-02) (415, -2.35667645931243896484e-01) (416, -1.04278936982154846191e-01) (417, 4.96167875826358795166e-03) (418, -1.64819955825805664062e-02) (419, -3.65372225642204284668e-02) (420, 5.22283092141151428223e-02) (421, -1.35916927829384803772e-02) (422, 6.45170733332633972168e-02) (423, -1.08767330646514892578e-01) (424, -2.23892810754477977753e-03) (425, 1.22225871309638023376e-02) (426, -7.31360688805580139160e-02) (427, -1.87704309821128845215e-01) (428, -2.39303618669509887695e-01) (429, -4.40458327531814575195e-01) (430, -1.69795244932174682617e-01) (431, -1.64115250110626220703e-01) (432, -1.87012672424316406250e-01) (433, -2.84486085176467895508e-01) (434, -2.27357119321823120117e-01) (435, -1.20936825871467590332e-01) (436, 2.80665904283523559570e-01) (437, 2.21841484308242797852e-01) (438, 1.61722987890243530273e-01) (439, 1.94126076530665159225e-03) (440, -3.08161694556474685669e-02) (441, 7.47462082654237747192e-03) (442, -6.64437338709831237793e-02) (443, -1.52302592992782592773e-01) (444, -1.84231743216514587402e-01) (445, 9.41553488373756408691e-02) (446, 6.55090734362602233887e-02) (447, -7.90855735540390014648e-02) (448, -2.43652611970901489258e-03) (449, -3.99018004536628723145e-02) (450, -1.69052518904209136963e-02) (451, -4.98327575623989105225e-02) (452, 9.12831127643585205078e-02) (453, -9.27515998482704162598e-02) (454, -6.99475929141044616699e-02) (455, -1.46144732832908630371e-01) (456, -1.71506777405738830566e-01) (457, 4.78318631649017333984e-02) (458, -9.43637266755104064941e-02) (459, -8.13080370426177978516e-03) (460, -1.17300897836685180664e-01) (461, -1.58087551593780517578e-01) (462, -2.90021210908889770508e-01) (463, -1.45726859569549560547e-01) (464, 2.49218001961708068848e-01) (465, 1.77726045250892639160e-01) (466, 1.02073952555656433105e-01) (467, -1.51798486709594726562e-01) (468, -1.85686990618705749512e-01) (469, -1.06602758169174194336e-01) (470, -7.64058381319046020508e-02) (471, -1.36771917343139648438e-01) (472, -1.40770971775054931641e-01) (473, 3.67327630519866943359e-02) (474, -7.15457946062088012695e-02) (475, -8.48898589611053466797e-02) (476, 6.69217333197593688965e-02) (477, -7.69580453634262084961e-02) (478, -6.74897581338882446289e-02) (479, -2.84586101770401000977e-02) (480, -2.43613831698894500732e-02) (481, 2.00472422875463962555e-03) (482, -9.71850380301475524902e-02) (483, -1.84112310409545898438e-01) (484, -3.54694924317300319672e-03) (485, 3.25634516775608062744e-02) (486, -1.71925034373998641968e-02) (487, -4.73435558378696441650e-02) (488, -4.91107627749443054199e-02) (489, 7.82374665141105651855e-02) (490, 4.51225787401199340820e-02) (491, 1.13075792789459228516e-01) (492, -2.18307301402091979980e-02) (493, 2.84759849309921264648e-02) (494, 9.96498987078666687012e-02) (495, -2.31582447886466979980e-02) (496, -1.29115983843803405762e-01) (497, -2.88413673639297485352e-01) (498, -1.66773468255996704102e-01) (499, -1.84243321418762207031e-01) (500, -1.94771468639373779297e-01) (501, -3.91295030713081359863e-02) (502, -1.13268099725246429443e-01) (503, -7.53460153937339782715e-02) (504, -1.04497820138931274414e-02) (505, -4.58619855344295501709e-02) (506, -5.05500175058841705322e-02) (507, -4.60045114159584045410e-02) (508, -8.83721783757209777832e-02) (509, -1.74491956830024719238e-01) (510, -1.89319342374801635742e-01) (511, -3.57220731675624847412e-02) (512, -1.83431908488273620605e-01) (513, -2.85544216632843017578e-01) (514, -6.50577172636985778809e-02) (515, 4.84032928943634033203e-02) (516, -1.60442456603050231934e-01) (517, -1.75575166940689086914e-01) (518, 6.09236918389797210693e-02) (519, -1.18816666305065155029e-01) (520, -6.27594813704490661621e-02) (521, 1.61892194300889968872e-02) (522, -3.17428633570671081543e-02) (523, -9.61253121495246887207e-02) (524, -1.52136668562889099121e-01) (525, -2.03981742262840270996e-01) (526, -1.48442864418029785156e-01) (527, -1.74436300992965698242e-01) (528, -1.57536730170249938965e-01) (529, 1.95380225777626037598e-02) (530, 3.65751199424266815186e-02) (531, 1.52523098513484001160e-02) (532, -3.11077833175659179688e-02) (533, 4.89243790507316589355e-02) (534, 4.82016876339912414551e-02) (535, 6.90482035279273986816e-02) (536, -2.00750097632408142090e-01) (537, -1.56471431255340576172e-01) (538, -3.39539974927902221680e-01) (539, -2.04702630639076232910e-01) (540, -2.54689097404479980469e-01) (541, -2.79176175594329833984e-01) (542, -3.24265033006668090820e-01) (543, -1.17916271090507507324e-01) (544, -8.77882470376789569855e-04) (545, -1.76539659500122070312e-01) (546, -1.16266340017318725586e-01) (547, -1.92519798874855041504e-01) (548, -2.59481936693191528320e-01) (549, -2.16040119528770446777e-01) (550, -2.34343171119689941406e-01) (551, -1.95188194513320922852e-01) (552, -1.57810091972351074219e-01) (553, -2.57574051618576049805e-01) (554, -1.77138432860374450684e-01) (555, -8.97054523229598999023e-02) (556, 7.08549320697784423828e-02) (557, -1.04692451655864715576e-01) (558, 1.56881613656878471375e-03) (559, -6.92036598920822143555e-02) (560, 5.29660806059837341309e-02) (561, -5.56681677699089050293e-02) (562, 3.99988554418087005615e-02) (563, -8.27456265687942504883e-02) (564, -4.23467205837368965149e-03) (565, -2.60902941226959228516e-01) (566, -1.88410758972167968750e-01) (567, -2.28860750794410705566e-01) (568, -3.79094690084457397461e-01) (569, -2.47513309121131896973e-01) (570, -2.49341323971748352051e-01) (571, -1.93218857049942016602e-01) (572, -1.49934425950050354004e-01) (573, -7.72877261042594909668e-02) (574, -1.67614787817001342773e-01) (575, -2.08243936300277709961e-01) (576, -1.32110148668289184570e-01) (577, -2.61759668588638305664e-01) (578, -2.13462024927139282227e-01) (579, -9.36598777770996093750e-02) (580, -1.75718292593955993652e-01) (581, -2.23503336310386657715e-01) (582, -8.55858698487281799316e-02) (583, -1.06100343167781829834e-01) (584, -8.10792611446231603622e-04) (585, 3.53080667555332183838e-02) (586, -2.41969581693410873413e-02) (587, -2.44804173707962036133e-02) (588, 5.07692769169807434082e-02) (589, 8.00419077277183532715e-02) (590, 4.28322190418839454651e-03) (591, -1.14551903679966926575e-02) (592, -1.49864912033081054688e-01) (593, -2.44013741612434387207e-01) (594, -2.41788581013679504395e-01) (595, -3.99005949497222900391e-01) (596, -2.33309313654899597168e-01) (597, -1.22977182269096374512e-01) (598, -1.82905539870262145996e-01) (599, -2.81648069620132446289e-01) (600, -1.00118406116962432861e-01) (601, -1.10396645963191986084e-01) (602, -4.62615899741649627686e-02) (603, -1.35333701968193054199e-01) (604, -2.99673318862915039062e-01) (605, -2.96063184738159179688e-01) (606, -1.66713044047355651855e-01) (607, -8.11872910708189010620e-03) (608, -1.20946861803531646729e-01) (609, -2.49753311276435852051e-01) (610, -7.71622639149427413940e-03) (611, 1.03734150528907775879e-01) (612, -2.96368878334760665894e-02) (613, -4.21687699854373931885e-02) (614, -8.95097330212593078613e-02) (615, 1.45934224128723144531e-02) (616, -7.35883191227912902832e-02) (617, -1.01953819394111633301e-02) (618, 8.99633690714836120605e-02) (619, 6.58891052007675170898e-02) (620, -1.10931262373924255371e-01) (621, -1.16891615092754364014e-01) (622, -2.02944830060005187988e-01) (623, -1.71547323465347290039e-01) (624, 7.89166837930679321289e-02) (625, -1.20186045765876770020e-01) (626, -4.05408106744289398193e-02) (627, -1.73388987779617309570e-01) (628, -1.52740985155105590820e-01) (629, -1.74763530492782592773e-01) (630, -7.58464783430099487305e-02) (631, -1.30185484886169433594e-01) (632, -1.81856647133827209473e-01) (633, -1.90139874815940856934e-01) (634, -3.33596467971801757812e-01) (635, -1.65171742439270019531e-01) (636, 4.08695824444293975830e-02) (637, -3.72314974665641784668e-02) (638, -4.67332191765308380127e-02) (639, -9.61296707391738891602e-02) (640, 1.09266281127929687500e-01) (641, 5.17095476388931274414e-02) (642, -9.52546745538711547852e-02) (643, -6.60314708948135375977e-02) (644, -4.92448806762695312500e-02) (645, -7.93434977531433105469e-02) (646, 4.85269315540790557861e-02) (647, -3.20470929145812988281e-02) (648, -6.69709444046020507812e-02) (649, -3.21941450238227844238e-02) (650, -9.56664383411407470703e-02) (651, 1.29061132669448852539e-01) (652, 4.38292101025581359863e-02) (653, -1.01137004792690277100e-01) (654, -1.82274490594863891602e-01) (655, -6.18950873613357543945e-02) (656, -3.93495321273803710938e-01) (657, -2.04098537564277648926e-01) (658, -2.20054775476455688477e-01) (659, -3.19367527961730957031e-01) (660, -1.58379808068275451660e-01) (661, -2.79129236936569213867e-01) (662, -1.76166281104087829590e-01) (663, -5.14016486704349517822e-02) (664, 9.14723202586174011230e-02) (665, -5.65689131617546081543e-02) (666, 1.87544021755456924438e-02) (667, -5.50251416862010955811e-02) (668, 1.78976112511008977890e-03) (669, 2.80145108699798583984e-02) (670, -1.83869723696261644363e-03) (671, -9.09880548715591430664e-03) (672, 9.00171697139739990234e-04) (673, 2.05110684037208557129e-02) (674, 2.48697251081466674805e-02) (675, 1.23837348073720932007e-02) (676, -5.65379783511161804199e-02) (677, -5.42735271155834197998e-02) (678, -1.98394302278757095337e-02) (679, 1.05006568133831024170e-01) (680, 4.08681035041809082031e-02) (681, -8.79061520099639892578e-02) (682, -1.46627370268106460571e-02) (683, -9.36780348420143127441e-02) (684, -1.97932675480842590332e-01) (685, -2.02513828873634338379e-01) (686, -2.19262182712554931641e-01) (687, 1.50943016633391380310e-02) (688, 8.25207233428955078125e-02) (689, 7.25419446825981140137e-02) (690, -5.29051050543785095215e-02) (691, -5.44325187802314758301e-02) (692, 8.64259749650955200195e-02) (693, 3.92914153635501861572e-02) (694, 7.75840803980827331543e-02) (695, -7.26107647642493247986e-03) (696, 9.31811183691024780273e-02) (697, -1.40691474080085754395e-02) (698, 8.44137743115425109863e-02) (699, -1.10185220837593078613e-02) (700, -8.24483036994934082031e-02) (701, -4.00240719318389892578e-03) (702, 7.98826888203620910645e-02) (703, 1.17251817137002944946e-02) (704, -1.17771051824092864990e-01) (705, 4.76755760610103607178e-02) (706, 1.08109824359416961670e-01) (707, 2.08629533648490905762e-01) (708, 1.64281100034713745117e-01) (709, 1.12228624522686004639e-01) (710, 1.70565396547317504883e-01) (711, 3.31767708063125610352e-01) (712, 3.19311052560806274414e-01) (713, 1.92872315645217895508e-01) (714, 1.62098869681358337402e-01) (715, 3.54713238775730133057e-02) (716, 2.64217555522918701172e-01) (717, 1.76203370094299316406e-01) (718, 2.69800901412963867188e-01) (719, -2.07919045351445674896e-04) (720, 1.81371241807937622070e-01) (721, 1.37853711843490600586e-01) (722, -2.32790876179933547974e-02) (723, 5.74249066412448883057e-02) (724, -3.04291285574436187744e-02) (725, 7.90715888142585754395e-02) (726, -5.29623404145240783691e-02) (727, -4.73134592175483703613e-02) (728, -3.49975526332855224609e-02) (729, -6.85485601425170898438e-02) (730, 4.16680201888084411621e-02) (731, -1.44036533311009407043e-02) (732, 5.16219288110733032227e-02) (733, 6.28458410501480102539e-02) (734, -2.66826152801513671875e-02) (735, 1.17348082363605499268e-01) (736, 2.19639632850885391235e-02) (737, 1.11956313252449035645e-01) (738, 9.66206714510917663574e-02) (739, 2.52870935946702957153e-02) (740, 2.12382748723030090332e-01) (741, 2.14031174778938293457e-01) (742, 4.16015744209289550781e-01) (743, 2.05417424440383911133e-01) (744, 1.49145781993865966797e-01) (745, 3.56365069746971130371e-02) (746, 1.20412327349185943604e-01) (747, 1.77521584555506706238e-03) (748, 2.94915251433849334717e-02) (749, 4.84344288706779479980e-02) (750, 8.08791220188140869141e-02) (751, 3.42291966080665588379e-03) (752, -1.14572271704673767090e-02) (753, 8.60006734728813171387e-02) (754, -4.54999208450317382812e-02) (755, 4.57485839724540710449e-02) (756, 6.50722607970237731934e-02) (757, 1.53774023056030273438e-03) (758, 9.84351113438606262207e-02) (759, -6.99252933263778686523e-02) (760, 3.29891815781593322754e-02) (761, 3.71629558503627777100e-02) (762, 4.53926483169198036194e-03) (763, -5.61595223844051361084e-02) (764, -4.44553233683109283447e-02) (765, 1.80902685970067977905e-02) (766, -9.47213768959045410156e-02) (767, -6.06931885704398155212e-03) (768, 1.07457481324672698975e-01) (769, 4.02333885431289672852e-02) (770, 3.66819240152835845947e-02) (771, 7.14069157838821411133e-02) (772, -7.87528455257415771484e-02) (773, -7.55883147940039634705e-03) (774, 3.30121107399463653564e-02) (775, 8.62235128879547119141e-02) (776, 2.45041158050298690796e-02) (777, -4.33161668479442596436e-02) (778, -3.32035124301910400391e-02) (779, -7.34598040580749511719e-02) (780, 7.30221197009086608887e-02) (781, -9.05319601297378540039e-02) (782, 3.20118591189384460449e-02) (783, -3.84351126849651336670e-02) (784, -2.82930582761764526367e-01) (0, 8.65119323134422302246e-02) (1, -9.26865413784980773926e-02) (2, 6.05409815907478332520e-02) (3, -1.19503289461135864258e-02) (4, -9.42514240741729736328e-02) (5, 9.06156972050666809082e-02) (6, -7.89611414074897766113e-02) (7, 4.58517149090766906738e-02) (8, 3.24455648660659790039e-03) (9, -1.85229182243347167969e-02) (10, -9.24944356083869934082e-02) (11, -8.31205695867538452148e-02) (12, -1.41269862651824951172e-02) (13, -4.53747808933258056641e-03) (14, -9.83725041151046752930e-02) (15, 9.19028893113136291504e-02) (16, 8.79066810011863708496e-02) (17, 5.64180091023445129395e-02) (18, -9.11283716559410095215e-02) (19, -2.48712301254272460938e-02) (20, -3.66499274969100952148e-02) (21, 7.80205056071281433105e-02) (22, 9.51656177639961242676e-02) (23, 2.29566842317581176758e-02) (24, -5.29449768364429473877e-02) (25, -7.82941877841949462891e-02) (26, -4.02121245861053466797e-03) (27, -4.34769280254840850830e-02) (28, 5.37176802754402160645e-02) (29, 5.75436726212501525879e-02) (30, -4.80082109570503234863e-02) (31, 4.02295961976051330566e-02) (32, 6.48571327328681945801e-02) (33, -8.74672234058380126953e-02) (34, -7.17207267880439758301e-02) (35, 7.06057026982307434082e-02) (36, -9.68515351414680480957e-02) (37, -5.06818704307079315186e-02) (38, 1.65466945618391036987e-02) (39, 6.94667454808950424194e-03) (40, 3.11199314892292022705e-02) (41, 2.37179473042488098145e-02) (42, 2.62349545955657958984e-02) (43, -7.47045427560806274414e-02) (44, -7.66800045967102050781e-02) (45, 2.46427468955516815186e-02) (46, -9.11196470260620117188e-02) (47, -9.23689231276512145996e-02) (48, -1.82627327740192413330e-02) (49, -8.28890055418014526367e-02) (50, -1.78323425352573394775e-02) (51, 4.46680411696434020996e-02) (52, 9.54632386565208435059e-02) (53, -2.23734006285667419434e-02) (54, -3.23752760887145996094e-02) (55, -5.74817322194576263428e-02) (56, -6.67586922645568847656e-04) (57, 6.36035129427909851074e-02) (58, -9.58666205406188964844e-04) (59, -4.69499193131923675537e-02) (60, 2.11471915245056152344e-02) (61, 5.10331317782402038574e-02) (62, 9.32796820998191833496e-02) (63, -1.39092057943344116211e-02) (64, 6.38927668333053588867e-02) (65, -7.82210677862167358398e-02) (66, -4.27650995552539825439e-02) (67, 7.04878568649291992188e-02) (68, -1.57156120985746383667e-02) (69, 9.98304188251495361328e-02) (70, 3.24846580624580383301e-02) (71, -4.04642410576343536377e-02) (72, 5.31241521239280700684e-02) (73, 1.36787980794906616211e-01) (74, -7.07188919186592102051e-02) (75, 2.04888209700584411621e-02) (76, 2.26653926074504852295e-02) (77, -6.98772445321083068848e-02) (78, 2.61225383728742599487e-02) (79, -9.69431027770042419434e-02) (80, -5.54574243724346160889e-02) (81, -9.37508270144462585449e-02) (82, 4.72658053040504455566e-02) (83, -6.01823888719081878662e-02) (84, -1.61242336034774780273e-02) (85, -8.51094797253608703613e-02) (86, -1.76641196012496948242e-02) (87, 8.32081809639930725098e-02) (88, 7.84940347075462341309e-02) (89, 8.11049714684486389160e-02) (90, -6.50206282734870910645e-02) (91, 3.68709093891084194183e-03) (92, 4.53379563987255096436e-02) (93, -4.40278351306915283203e-02) (94, 1.53521567583084106445e-01) (95, 7.10555464029312133789e-02) (96, 7.15761969331651926041e-04) (97, 3.88437174260616302490e-02) (98, 2.18477025628089904785e-02) (99, 9.50804948806762695312e-02) (100, 2.50612595118582248688e-03) (101, 1.27364888787269592285e-01) (102, 9.95678156614303588867e-02) (103, 3.93335074186325073242e-02) (104, 2.93808467686176300049e-02) (105, 1.13004641607403755188e-02) (106, -1.14521205425262451172e-01) (107, -8.42731520533561706543e-02) (108, 4.28334660828113555908e-02) (109, 5.25976940989494323730e-02) (110, -4.39445860683917999268e-02) (111, -8.67472067475318908691e-02) (112, 5.88468536734580993652e-02) (113, -9.66787859797477722168e-02) (114, -4.69295941293239593506e-02) (115, -5.80716133117675781250e-02) (116, -8.33854377269744873047e-02) (117, 4.49301302433013916016e-02) (118, -4.11884933710098266602e-02) (119, 1.43101871013641357422e-01) (120, 6.34135454893112182617e-02) (121, -1.20340706780552864075e-03) (122, 2.76707336306571960449e-02) (123, -5.36379888653755187988e-02) (124, 7.78223108500242233276e-03) (125, -9.14456602185964584351e-03) (126, -2.95345745980739593506e-02) (127, -2.18311492353677749634e-02) (128, -7.85295218229293823242e-02) (129, -1.73758819699287414551e-01) (130, -1.05990797281265258789e-01) (131, -5.00109829008579254150e-02) (132, -1.22455827891826629639e-01) (133, -5.66413439810276031494e-02) (134, -2.04660654067993164062e-01) (135, -6.80080503225326538086e-02) (136, 5.70610584691166877747e-03) (137, -2.84401848912239074707e-02) (138, 2.92942598462104797363e-02) (139, -6.70596957206726074219e-04) (140, -6.66681528091430664062e-02) (141, 8.53496864438056945801e-02) (142, 1.30609851330518722534e-02) (143, 9.68977361917495727539e-02) (144, 1.28493785858154296875e-01) (145, 1.36926785111427307129e-01) (146, 6.54221400618553161621e-02) (147, 4.17557321488857269287e-02) (148, 1.17827914655208587646e-01) (149, 4.59918305277824401855e-02) (150, -3.72429378330707550049e-02) (151, -5.25410063564777374268e-02) (152, 4.96329329907894134521e-02) (153, 1.70404594391584396362e-02) (154, -1.86440385878086090088e-02) (155, -7.68537446856498718262e-02) (156, 1.12793082371354103088e-02) (157, -2.60969579219818115234e-01) (158, -1.80096924304962158203e-02) (159, -5.00478558242321014404e-02) (160, -1.86307519674301147461e-01) (161, -1.78050950169563293457e-01) (162, -2.31235593557357788086e-01) (163, 3.19187529385089874268e-02) (164, -1.10772743821144104004e-01) (165, -1.25883091241121292114e-02) (166, -5.71185760200023651123e-02) (167, 4.13266420364379882812e-02) (168, 7.84060582518577575684e-02) (169, 6.88567236065864562988e-02) (170, -5.93899264931678771973e-02) (171, -6.94188773632049560547e-02) (172, 1.16954304277896881104e-01) (173, 1.41823574900627136230e-01) (174, 8.18020775914192199707e-02) (175, 2.31657400727272033691e-01) (176, 1.55282333493232727051e-01) (177, -6.21632952243089675903e-03) (178, 1.01343952119350433350e-01) (179, -1.16401404142379760742e-01) (180, -1.92689612507820129395e-01) (181, -6.64899200201034545898e-02) (182, -1.88986688852310180664e-01) (183, -1.06751471757888793945e-01) (184, -5.47919757664203643799e-02) (185, -9.87990945577621459961e-02) (186, -2.29805186390876770020e-01) (187, -1.78210511803627014160e-01) (188, -3.60086634755134582520e-02) (189, 9.79965701699256896973e-02) (190, 2.26742140948772430420e-02) (191, -1.28569342195987701416e-02) (192, -1.26073971390724182129e-01) (193, 6.16483390331268310547e-02) (194, 2.25078593939542770386e-03) (195, -6.38001561164855957031e-02) (196, -1.48080289363861083984e-02) (197, 4.18503694236278533936e-02) (198, 6.92388489842414855957e-02) (199, 1.60319767892360687256e-02) (200, 1.06458626687526702881e-01) (201, -9.54504404217004776001e-03) (202, 7.95288532972335815430e-02) (203, 8.41542780399322509766e-02) (204, 1.18818715214729309082e-01) (205, -5.01135028898715972900e-02) (206, -2.44683161377906799316e-01) (207, -1.10655553638935089111e-01) (208, -1.11724093556404113770e-01) (209, -1.57824859023094177246e-01) (210, -1.51270046830177307129e-01) (211, -1.82007387280464172363e-01) (212, -1.84969812631607055664e-01) (213, -1.17978401482105255127e-01) (214, -4.68586273491382598877e-02) (215, 6.66940957307815551758e-02) (216, -9.43478718400001525879e-02) (217, -1.82339064776897430420e-02) (218, 1.53053984045982360840e-01) (219, 3.28684784471988677979e-02) (220, -8.07694867253303527832e-02) (221, 1.05094062164425849915e-02) (222, 1.53187820687890052795e-02) (223, -5.66629460081458091736e-03) (224, 2.79406644403934478760e-02) (225, 1.01531565189361572266e-01) (226, 1.86116527765989303589e-02) (227, -2.35473178327083587646e-02) (228, 1.46751552820205688477e-01) (229, 5.55469729006290435791e-02) (230, 2.74298880249261856079e-02) (231, 4.70192432403564453125e-02) (232, 2.46380129829049110413e-03) (233, -5.95207139849662780762e-02) (234, 2.19716913998126983643e-02) (235, -8.91230553388595581055e-02) (236, -1.13976217806339263916e-01) (237, 1.89544465392827987671e-02) (238, 8.99838060140609741211e-02) (239, 8.34175050258636474609e-02) (240, 6.15089796483516693115e-02) (241, 8.95658731460571289062e-02) (242, 3.09812992811203002930e-01) (243, 2.06047475337982177734e-01) (244, 1.70440956950187683105e-01) (245, 2.05133538693189620972e-02) (246, 2.17987403273582458496e-01) (247, 1.96980927139520645142e-02) (248, -2.43894904851913452148e-02) (249, 1.11319720745086669922e-02) (250, 9.02937501668930053711e-02) (251, 5.41476346552371978760e-02) (252, -1.65404975414276123047e-02) (253, -9.94165893644094467163e-03) (254, -5.65762743353843688965e-02) (255, -5.31179346144199371338e-02) (256, 1.84682738035917282104e-02) (257, 9.47858989238739013672e-02) (258, -5.26629798114299774170e-02) (259, 5.17928600311279296875e-03) (260, 6.51643723249435424805e-02) (261, 1.06267156079411506653e-02) (262, -1.77730321884155273438e-02) (263, -7.38070383667945861816e-02) (264, -1.17546226829290390015e-02) (265, 1.49709329009056091309e-01) (266, 1.80607944726943969727e-01) (267, 2.69738882780075073242e-01) (268, 4.85636949539184570312e-01) (269, 5.08572101593017578125e-01) (270, 3.25015395879745483398e-01) (271, 4.54478442668914794922e-01) (272, 3.33965331315994262695e-01) (273, 2.47907593846321105957e-01) (274, 2.82793879508972167969e-01) (275, 2.56121456623077392578e-01) (276, 1.28342568874359130859e-01) (277, -4.07926132902503013611e-03) (278, -1.00824490189552307129e-01) (279, -3.47436293959617614746e-02) (280, -4.79230470955371856689e-02) (281, 9.74075570702552795410e-02) (282, -7.26132839918136596680e-02) (283, 6.29853606224060058594e-02) (284, 1.11912377178668975830e-02) (285, 1.81393476668745279312e-03) (286, 6.14096708595752716064e-02) (287, 8.44137370586395263672e-02) (288, -2.94112078845500946045e-02) (289, 4.19843159615993499756e-02) (290, -3.22256274521350860596e-02) (291, -1.01427569985389709473e-01) (292, -2.12817341089248657227e-02) (293, -4.65476177632808685303e-02) (294, 1.42670065164566040039e-01) (295, 2.72442281246185302734e-01) (296, 4.22258466482162475586e-01) (297, 4.06505703926086425781e-01) (298, 3.76657783985137939453e-01) (299, 2.75636553764343261719e-01) (300, 2.55834132432937622070e-01) (301, 2.52380877733230590820e-01) (302, 2.66011327505111694336e-01) (303, 2.42587208747863769531e-01) (304, 1.47852584719657897949e-01) (305, -9.97941195964813232422e-03) (306, 3.50095257163047790527e-02) (307, 6.35877922177314758301e-02) (308, -9.15806367993354797363e-02) (309, 4.94767576456069946289e-02) (310, -5.67297451198101043701e-02) (311, 1.71714532189071178436e-03) (312, 9.22201871871948242188e-02) (313, -4.96377050876617431641e-02) (314, 6.19312003254890441895e-02) (315, -6.82630166411399841309e-02) (316, -5.95629476010799407959e-02) (317, 2.28460319340229034424e-03) (318, 2.61863949708640575409e-03) (319, 5.96276372671127319336e-02) (320, 6.36491477489471435547e-02) (321, 1.37643516063690185547e-01) (322, 7.38257691264152526855e-02) (323, 1.18318438529968261719e-01) (324, 8.62791612744331359863e-02) (325, 7.55638405680656433105e-02) (326, 1.08036555349826812744e-01) (327, 1.51070401072502136230e-01) (328, 5.98011612892150878906e-02) (329, 7.09216743707656860352e-02) (330, 1.71148866415023803711e-01) (331, 4.66963909566402435303e-02) (332, 5.35172643139958381653e-03) (333, -8.78522396087646484375e-02) (334, 7.50316008925437927246e-02) (335, -7.46114328503608703613e-02) (336, 7.82088190317153930664e-03) (337, 2.04336028546094894409e-02) (338, 9.69838798046112060547e-02) (339, 4.13955040276050567627e-02) (340, -1.74669809639453887939e-02) (341, -1.01218879222869873047e-01) (342, 5.91739788651466369629e-02) (343, -5.99200837314128875732e-02) (344, -5.68196401000022888184e-02) (345, 1.17595322430133819580e-01) (346, -8.31071510910987854004e-02) (347, 4.40513305366039276123e-02) (348, 1.17317177355289459229e-01) (349, 3.71982506476342678070e-03) (350, 8.29056873917579650879e-02) (351, -1.38067826628684997559e-01) (352, -1.23561285436153411865e-01) (353, -1.75694469362497329712e-02) (354, 8.56015011668205261230e-02) (355, -5.16473166644573211670e-02) (356, 1.35971950367093086243e-02) (357, 3.21125164628028869629e-02) (358, 2.06879213452339172363e-01) (359, 1.90941929817199707031e-01) (360, 6.15201629698276519775e-02) (361, -5.22966720163822174072e-02) (362, 9.31896939873695373535e-02) (363, 5.58518059551715850830e-02) (364, -5.95348142087459564209e-02) (365, 6.22139200568199157715e-02) (366, 8.23982432484626770020e-02) (367, 5.17063736915588378906e-02) (368, -1.24529330059885978699e-02) (369, 9.36263203620910644531e-02) (370, 6.40322789549827575684e-02) (371, 1.32201015949249267578e-01) (372, 9.80409234762191772461e-02) (373, 1.71670150011777877808e-02) (374, 6.09392821788787841797e-02) (375, -8.68164822459220886230e-02) (376, -4.24607694149017333984e-02) (377, 1.23771190643310546875e-01) (378, -1.70447174459695816040e-02) (379, 6.17709942162036895752e-03) (380, 8.58882069587707519531e-03) (381, -5.66539391875267028809e-02) (382, -1.08519205823540687561e-02) (383, -5.06595056504011154175e-03) (384, -9.98448301106691360474e-03) (385, 6.06291368603706359863e-02) (386, 6.96118921041488647461e-02) (387, 2.07305654883384704590e-01) (388, 1.46477207541465759277e-01) (389, -8.14869999885559082031e-02) (390, 6.30901008844375610352e-02) (391, 8.98912549018859863281e-04) (392, -6.17625825107097625732e-02) (393, 4.49252948164939880371e-02) (394, -4.46674749255180358887e-02) (395, -2.12206263095140457153e-02) (396, 1.03628123179078102112e-02) (397, 3.26707493513822555542e-03) (398, 5.51922135055065155029e-02) (399, 2.16830864548683166504e-01) (400, 3.37323695421218872070e-02) (401, 1.45284965634346008301e-01) (402, 6.43081814050674438477e-02) (403, 2.22813189029693603516e-01) (404, 3.47245372831821441650e-02) (405, 5.29608726501464843750e-02) (406, 1.91355913877487182617e-01) (407, 1.72399908304214477539e-01) (408, -1.29047051072120666504e-01) (409, -2.25640740245580673218e-02) (410, -1.86339486390352249146e-02) (411, -1.25848412513732910156e-01) (412, -6.34853094816207885742e-02) (413, -1.98002140969038009644e-02) (414, -4.27516875788569450378e-03) (415, 7.83739909529685974121e-02) (416, 7.75370970368385314941e-02) (417, -3.11873257160186767578e-02) (418, -3.07056196033954620361e-02) (419, 4.44011315703392028809e-02) (420, -2.59668678045272827148e-02) (421, -7.31794834136962890625e-02) (422, -5.60041926801204681396e-02) (423, 1.94045845419168472290e-02) (424, 6.49111643433570861816e-02) (425, 3.99262979626655578613e-02) (426, 1.53378009796142578125e-01) (427, 1.27824455499649047852e-01) (428, 2.26445347070693969727e-01) (429, 1.22695237398147583008e-01) (430, -1.98592916131019592285e-02) (431, 1.30193680524826049805e-01) (432, 5.29230013489723205566e-02) (433, 4.48324671015143394470e-03) (434, 1.06700189411640167236e-01) (435, 1.28802284598350524902e-03) (436, -5.53704723715782165527e-02) (437, 5.81070184707641601562e-02) (438, 1.11156076192855834961e-01) (439, -9.42447185516357421875e-02) (440, -5.02417050302028656006e-02) (441, -7.52652017399668693542e-03) (442, 1.37139841914176940918e-01) (443, 7.80861824750900268555e-02) (444, 1.00429682061076164246e-02) (445, -7.65697732567787170410e-02) (446, -8.72484967112541198730e-02) (447, -6.51385039091110229492e-02) (448, -2.35165432095527648926e-02) (449, -3.01034003496170043945e-02) (450, 8.20480436086654663086e-02) (451, 4.83143031597137451172e-02) (452, -1.12973507493734359741e-02) (453, -1.73918716609477996826e-02) (454, 